1222 128
618 -0.0012713494 -0.00202874 -0.0028811768 -0.002953993 -0.0024491407 -0.0036402838 0.0013948757 0.0030212149 0.0036802075 -0.0030056823 -0.0025147654 0.0021408105 0.0028231903 0.00052847166 -0.0004678968 0.002438674 0.0013751024 0.0029250844 -0.0034076837 0.0017114597 -0.0007548669 -0.0001816355 0.0029842935 0.0033057537 0.0013354156 -0.0033257587 -0.00015222529 0.0011909496 0.0010700258 0.0018965742 -0.0015079048 -0.0021027022 -0.0012799685 -0.0031253283 -0.002717986 0.0010649412 0.003027605 0.0015712935 -0.000107348926 0.0033875566 0.0013126901 -0.0011162129 0.0035638195 -0.0013281531 -0.003133709 -9.6426294e-05 0.0005540807 0.003014632 0.0011945775 -0.0034829176 -0.002907001 -0.0027582243 0.0018825786 0.0001987355 0.0034798253 0.00043692673 -0.0011279953 -0.0015252613 -0.003522343 -0.0019330074 -0.0038829404 0.0014372709 0.0038330518 -0.0019731757 -0.0038024404 -0.00037197908 -0.0029220493 0.003427733 -0.0013289904 0.0031531854 0.003173979 0.0030735438 -0.0002040676 0.00044250747 0.00045282263 0.0030088986 0.0028717418 0.00023322525 0.00051286985 -0.00036507318 -0.0024665145 -0.003070414 0.002532142 0.0017874434 -0.0023565267 -0.00024842116 -0.0004082795 0.000978341 0.00022789674 -0.0013444403 0.0026047288 -0.00074464595 -0.0036930388 -0.00011812486 0.0027922075 -0.0026594426 -0.003228652 -0.0022213222 0.0024855265 0.002759096 0.0029549133 0.001918658 -3.1713746e-05 0.0016250781 -0.0025360074 -0.0016104217 0.0016820295 0.003424104 0.00018655542 -0.0019550365 0.00019813488 0.0024941172 0.0017907866 0.00030444743 0.0022090687 -0.0015794801 0.00049769325 0.003669852 0.0028219507 -0.002276003 0.0027494477 -0.0018926469 -0.0016826021 -0.0004844855 0.00037570778 -0.0026558156 -0.0021373956 -0.0035567675
100 -0.002797535 0.0014828691 -0.0010236682 -0.0035170293 -0.0037702948 -0.0033960303 -0.003123782 0.0037245331 0.001834292 -0.0016227908 -0.0025909233 0.0030671733 -0.0011918613 -0.0010977824 -0.0009344393 0.00028228934 -0.0006459088 0.0010188771 -0.0038333116 -0.0017175872 0.003779489 0.0032002984 -0.0029339741 2.8636212e-05 -0.0036707174 -0.0018849288 0.00032380468 0.0035505819 -0.0008763534 0.0020471453 0.0019049761 -0.0013825982 0.0027249088 0.0010546487 -0.00066780153 2.566854e-05 -0.0014343025 0.0035514159 0.0032788818 -0.0030091868 0.0004906066 -0.00021680356 0.0036181386 1.3067219e-05 0.0030032943 -0.003017018 -0.0021593536 -0.00041064897 0.0031418055 0.0014531717 -0.0027359847 -0.0037479568 0.002633186 0.0014542151 0.0028679573 -0.00055000815 0.00087463955 0.0035850788 -0.002806805 -0.0029755386 0.0023779273 -0.003653887 -0.0031262622 0.0025287548 0.0013319029 -0.0018305568 -0.00032277036 0.0034865197 -0.0027057494 0.0011155577 0.00038809044 0.0012954624 -0.0036867547 0.0025775158 0.0023828156 0.0023926394 0.0015105953 0.0019701873 -0.0025193302 -0.001659808 -2.5864998e-05 0.00047258503 -0.0038495318 -0.0037545292 0.00043914426 0.0006546483 0.00018318584 0.000111895104 -0.00035030252 0.002898747 -0.00030856664 0.002558358 -0.00254547 -0.0024786002 -0.0017362244 0.0029485996 -0.0011955135 0.0020504827 -0.0021801656 0.0027885332 0.0033009984 -0.0039034511 0.00026408516 -0.0011555688 0.000583613 -0.0008938249 0.0011760001 -0.003196567 -0.0028340789 0.0035438892 0.00015145702 -0.001525873 -0.0035634204 0.0027493732 0.003235634 0.00023643911 0.002615799 0.00081994507 -0.0024523807 -0.0031902606 0.0010096664 -0.0034694693 -0.0034470789 -0.0031154961 -0.0025083157 -0.00055979396 0.0005774168 -0.00018055456
126 0.0038564345 0.003605808 -0.0022431964 -0.0020635684 0.0010945402 0.00016341475 0.0028404654 -0.002786822 0.0030678585 -0.00030118297 0.00040109007 0.00058450614 -0.0018477256 -0.0009800547 -0.0004251534 0.0037460814 -0.0035725073 0.0025312197 0.00046106332 0.0016016008 0.00070305 -0.0004624238 0.0007104869 0.0032578118 0.00054683775 0.0012220402 -0.0031558108 0.002914674 0.0035843123 -0.002459896 -0.0021533365 0.001749578 -0.0017096004 0.0010260582 -0.0031839227 0.0036343667 -0.0026995845 -0.0017899949 0.0038438693 -0.00070411374 -0.0035670057 -0.002994746 0.0010701441 -0.000826734 -0.0012699834 0.0037976794 -0.0014901394 0.0021551573 -0.0011705535 -0.0027174887 -0.0023474593 -0.0013741433 0.0032175742 -0.0034734127 0.0006433508 -0.003775271 0.0012347802 0.0020134577 0.0008568686 0.00016033636 -0.0006511982 -0.0012666857 0.0012848802 -0.0036116722 -0.0036491884 -0.003483281 0.0023220778 0.0018759455 0.002224797 -0.0020809504 -0.0017350183 0.000904953 -0.0027329347 -0.0016156354 -0.0006373692 0.0038674942 0.002078695 0.0034977603 -0.002308085 0.000346617 0.0028488392 0.0031512675 -0.00016001762 -0.00091733894 -0.003589142 -0.00038255934 -0.0015969347 -0.0016240213 -0.00047980266 -0.0029496446 0.00039143304 0.0030708455 0.0031851046 -0.0025616519 0.0032542269 0.0026048182 0.00030425226 -0.0013925825 -0.0007167847 0.00069800037 0.0013078242 0.0033633988 0.0017064458 0.0020086968 0.0026699263 -5.0536866e-05 0.0019783957 -0.00082403433 0.0028189947 0.001240749 -0.0038093852 0.0012503444 -0.0009829011 0.0019897888 -0.003068125 -0.0028407003 -0.003278163 0.0014970443 0.0009882045 0.0020216166 -0.0015632509 -0.0014932295 -0.0005244364 -0.0016898086 0.0018672671 -0.0019472268 -0.001353909 0.0021417842
837 0.003121898 0.0025708694 -0.003184206 -0.0014488278 0.0015660746 -0.001597256 0.0015378097 0.0035441136 -0.0014992872 0.002066294 0.0017005136 -0.002308384 -0.00078240386 0.0010374133 0.002021824 0.0025115183 -0.00039040647 0.0004995661 0.0010263768 0.002646595 0.0023905449 0.0026727647 0.0026419677 -0.0015680235 0.0010482747 -0.0023207476 -0.002807296 0.00019387605 0.0032253491 0.0032773823 -0.0008576601 0.003114115 -0.003492338 -0.0017940956 0.0015869231 0.00026838842 -0.00015663609 0.001495772 -0.003046162 -0.0004647007 -0.00017647326 -0.0025779388 0.0026684166 0.0033873075 -0.0014113559 0.0012745323 0.0037620626 0.0033487855 -7.5702815e-06 -0.0032861272 0.0012052716 0.0030940182 0.000923083 -0.00073329866 0.002142025 -0.0002984303 -0.002559197 -0.003542869 -0.00236155 -0.001132822 -0.0016874314 -0.0013682796 -0.00276441 -0.0011910258 -0.0005854056 -0.002463652 -0.0032249913 -0.0038974073 -0.002301652 0.00062519254 -0.0031502494 -0.00043906065 0.0008184343 -0.00026873167 -0.001986749 -0.003274648 -0.0013833926 -0.0020937854 -0.0021843158 0.0008628232 0.0011509646 -0.0033060487 0.0020595964 0.0003577128 0.00039962126 -0.002732859 0.0013434376 0.0024647436 0.0020832478 -0.00025136792 0.0002818974 0.00042419517 0.002031794 -0.0035227027 0.00057525985 0.002516177 0.0026614452 -0.0036687958 0.0018738337 -0.0012196893 0.0026751955 -0.0013203283 0.0004377175 -0.0023850135 0.003360112 0.0033855594 0.002844046 0.0007934247 -0.0024516033 0.00027024734 1.0318877e-05 0.000949205 -0.0029361316 -0.0028344416 -0.002076752 0.002270248 0.0036361997 0.0021080466 -0.0024675122 0.0016139135 -0.00091432384 0.00037564573 -0.0034730171 -0.0025766545 1.3064236e-05 0.00039905493 0.00375806 0.0028687082
1177 -0.00031736787 -0.0016970619 0.0019638836 0.0021777297 2.030414e-05 -0.0019973998 0.00092236296 -0.0014197726 0.0018419743 -0.0034669319 -0.0018086517 0.0037819208 0.001848023 0.00058233424 -0.0030597667 0.0025078638 -0.00020027229 0.0033175815 0.00025738683 0.0037147307 0.0014663724 -0.00033748412 0.00058836327 0.00097361614 0.0011720606 -0.002072775 -0.0023552207 0.0020494226 0.001520697 -0.001935382 0.0033116054 -0.0028581158 0.003020779 0.00044082914 -0.0020857828 -0.0023379 -0.0032552504 -0.000712023 0.00039830978 0.0037196467 -0.0037201438 -0.0020181213 -0.0036765325 0.0013522224 0.000740092 0.0014913873 0.002988558 0.0031120735 0.0012487301 -9.561165e-05 -0.00085033756 -0.0016101941 -0.0025686878 -0.0033293252 0.00047066706 -0.0026726886 0.0020908487 0.0005749967 0.0034661286 -0.0021341874 -0.003501117 -0.0036492313 -0.0025673874 -0.0037674985 -0.002611094 -0.001449679 0.0017741083 0.0013320403 -0.0024139495 -0.0029259778 -0.0018762279 -0.0025113833 -0.00046317893 -0.001416375 0.002036106 -0.0015358605 0.0033458003 -0.0022990524 -0.002723867 -0.002395706 0.0017115198 0.003798666 0.00035219817 -0.0020872743 0.0014565872 0.0018544547 0.0024229612 -0.00044731388 0.001496075 0.0035758258 0.0012779908 -0.0020743667 0.00046663047 -0.0038192172 0.0018095528 7.708439e-05 -0.0015099859 0.003826604 0.0016537731 0.0035316953 -0.003371853 0.0032448203 0.0016966454 0.0036572793 0.003295865 -0.0036173745 -0.00225452 -0.0015429634 0.0004067338 -0.0035192962 0.00010251027 -0.0030356392 -0.0011139613 -0.0016521366 0.0037476076 0.0028670789 -9.437408e-05 0.00055215764 0.001251181 -0.0018849315 0.0020420924 -0.00014374466 -0.0015356843 -0.0021925769 0.0024188824 0.00010351863 0.0010165806 -0.0025489905
565 0.0036360745 0.0028035175 0.0028573638 -0.0023719126 0.00064983044 0.0017046045 -0.0035073997 0.0012992838 0.0022045155 0.0019242452 -0.00051134324 0.0038439727 -5.4602406e-05 0.0032341294 0.0026101216 -0.0016398012 0.001425417 -0.0023850673 -0.002930473 0.0016682079 -0.0004279359 0.00061157724 0.0007529324 0.00064590975 -0.002914354 0.003787914 0.0030814614 -0.003612028 0.0036147563 -0.00083868625 0.0007856745 0.002869491 0.00094140414 -0.0021068424 -0.0036781146 0.0009926673 0.001121896 0.0022084976 -0.003307604 -0.0019126346 8.2815495e-05 0.0017399604 -0.0012599065 -0.0026419486 -0.0036916933 -0.0009724088 -0.0014584104 0.002492369 -0.0013921487 0.0023955472 -0.0010490842 -0.0015132502 0.00054965663 -0.001401184 0.0031067468 -0.0016459227 -0.0036179891 -0.002028344 0.002664349 -0.0017462656 0.0030257844 0.0016416942 0.00052529067 0.0023700923 -0.0024312348 0.0023604508 0.0033218844 0.0011881066 0.0024683306 0.0023326618 -0.0022655455 -0.0022596586 0.0017313731 -0.0032311021 0.0030252 0.0009320494 -0.0006069461 0.0009030313 -0.0031840065 0.0029706706 0.0018780368 -0.003633436 -0.0018641561 0.0037619069 0.00018621139 -0.001005632 -0.00018785882 0.00156989 0.0031871018 0.0014957277 -0.0031716658 0.00087209675 -0.00054252683 0.0029901485 0.0005008021 0.0037289313 -0.0011485006 0.0009340031 -0.003491983 -0.00083856174 -0.00079429476 -0.0033912538 -0.0014547941 0.00059007044 -0.0006511691 -0.0035893496 0.0027556764 0.003051826 0.002272538 -0.0012098294 -0.0005114694 0.0030970508 -0.0037592046 -0.0014141416 0.0022495314 0.0026358129 0.0022514726 -0.0038955251 -0.0006712142 -0.00236149 -0.002236574 0.0010311728 0.0035045838 -0.0023732334 -0.0034861616 -0.000111976355 0.0038150942 0.0036566341
496 -0.00090305373 -0.0030396075 -0.0012468692 -0.0017475826 0.0035189658 0.0005960032 -0.0035291554 0.0020328201 -0.0029142569 0.0007693976 0.00019458939 0.0006088069 6.436378e-05 -3.5907888e-05 0.0026291031 -0.0019894368 -0.00073707267 0.0037652103 0.0015747177 -0.0013177337 0.0017433541 -0.0008578976 0.0038167725 -0.0011730957 -0.0034379472 -0.0032044707 -0.00016395953 0.0010094378 0.003877974 0.00047199638 0.0025671013 0.0025597543 0.0010428558 -0.003466855 0.0005846786 -0.0012794642 0.0024583924 -0.0023616606 -0.0029219307 -0.0036441279 0.0026856654 -0.001758858 -0.00044531454 -0.00088039855 -0.002212319 -0.0034849665 -0.002789863 -0.00039003862 -0.00021477656 -2.814099e-06 0.002720529 -0.0010312977 0.0012205712 0.0011676393 0.0034809876 -0.0005392365 0.0011624604 0.002514224 0.0023829392 0.0012779752 -0.003646315 0.0009856101 0.0032625026 -0.003562004 -0.0010316429 -0.0030121757 -0.00088003086 -0.0016855648 -0.002946741 0.0029946137 -0.0023874813 -0.0005395621 0.00087156077 -0.0032740054 -0.0014681709 0.0026377705 -0.0038053778 0.0005362507 -0.001853245 -0.0032529237 0.0022820516 0.003812514 -0.0028028628 0.001962209 -0.002360874 -0.0021220255 0.0012566008 -0.0038571625 -0.0034241197 0.0029965164 -0.0008495625 0.0008903516 0.0020370383 0.003862031 -0.0028714621 0.0024159278 -2.0172383e-05 -0.0027420353 0.003151961 0.0017116781 -0.0036136522 0.0034890575 0.002326479 0.001513866 -0.00068137684 -0.0019023886 -0.0033410313 0.0019219876 -0.0018984015 0.0028808743 -0.0009193519 0.0018833511 -0.0009859826 0.0035593272 -0.0015669642 -0.0015032026 -0.0008205517 0.0002824667 0.002512075 -0.0015169244 0.0034764796 -0.0034914964 0.0014518567 -0.0016879016 0.0029620482 -0.0010028299 -0.0011162672 0.00036148474
767 -0.0020477362 0.00012006325 -0.0021839289 0.0023761408 -0.00079577713 0.0026339593 -0.00095065904 -0.0029045318 -0.0029641904 -0.0038539232 0.0034541457 0.0025910866 -9.536374e-05 -0.0015368043 -0.0018126229 0.0018051945 -0.0036888476 -0.0029504788 -0.0035727664 -0.00077211513 -0.003135945 0.0022319886 0.00041238553 0.002845492 0.0016488095 -5.2434072e-05 -0.0034785944 0.0028268034 -0.0036053755 0.0022807384 0.0014425805 -0.0016836053 0.0036284549 0.0018850302 0.0037073921 0.0015615661 -0.0008892645 -0.000905198 -0.00047716085 -0.0012113964 0.00025206932 0.00014038243 0.0026354904 0.0027277838 -0.0014147465 -0.0020051755 -0.0015204179 0.0038459091 -0.0007868813 -0.0032343387 -0.00013471812 0.002588542 -0.0038873826 0.0012341222 0.0026425428 0.0036880379 0.0023361936 -0.0026988224 0.001540806 -0.00088146137 0.0031716463 -0.003555976 -0.00013382264 -0.003775244 0.0023090693 0.0028791965 0.0030512486 0.0008846199 -0.0013708901 -0.0032943399 0.0005085594 0.00050319004 0.0036330214 -0.00028985267 -0.003332522 -0.003763814 -0.00059714454 0.002936203 0.0016871947 0.002761066 -0.0035524792 -0.0038537446 0.0034472155 0.0016297386 -0.0014889643 0.0023422996 -0.0033305518 -0.00071873114 -3.727213e-05 -0.0021687516 0.0038011358 -0.003212418 0.0018394613 -0.0010221917 0.0014644199 -0.0038468593 -0.0010721202 -0.0037366832 -0.00035348372 -0.00050261273 0.003462724 -0.0019233758 -0.0015968459 -0.0030380844 0.0010610631 -0.002364102 0.0024655468 0.0023750912 -0.0020324334 0.0021243365 0.0021497644 0.00029000314 -0.0010847466 -0.0030047162 -0.0036535123 0.00096347596 5.3590742e-05 -0.0012240732 0.00040443687 -0.0023903244 0.0035077739 0.0029868975 0.0030989046 0.0025873682 0.002453315 -0.0038779534 0.0016884961 -0.002161768
945 -0.0027345356 0.0025461148 -0.003317224 0.0016665417 0.0017670376 0.0033394715 0.0005808463 -0.0007229403 8.3472194e-05 0.0020998504 -2.0233172e-05 -0.0011911816 -0.0030615518 -0.0021059099 -0.0014580035 0.003556296 7.0541496e-06 -0.0023198738 -0.0022554374 0.0028072896 0.003030113 0.0014550069 0.0011513458 0.0024114416 -0.00074200326 0.0027767813 0.003650186 -0.0031951817 0.0015355148 0.0035463714 -0.00027915777 -0.0032897713 0.0014170111 0.0029805626 -4.248666e-05 -0.0005540547 -0.002666602 -0.00088954176 -0.0038566238 -0.0013386863 -0.0012322846 -0.0029109663 0.0017121022 0.0014667248 0.0011855101 0.0008651587 -0.0023096502 0.00079607544 -0.001880106 -0.0027362432 0.0018073585 0.0009666142 0.0021521589 -0.003519887 0.0027164505 0.00066697935 0.002670072 0.0018318961 0.0016598367 0.0003123733 -0.0012686645 -0.0021082405 -0.0015008021 -0.003603234 0.0019672378 0.0030040673 0.0021341 -0.00065054384 0.001295288 -0.0013106541 0.0009845052 -0.0008971384 0.003577997 -0.002442829 0.0020604078 -0.00034375105 -0.0025261003 -0.0023466644 0.0016374381 0.0026524833 -0.0018678699 -0.0027051293 -0.0023253085 0.003199829 -0.0013153902 0.0027431024 0.0030924182 -0.0007264289 -0.00065762893 0.0009741075 0.0037962573 -0.0032904735 -0.0022339518 -0.00032891383 -0.0005674303 0.00048467194 -0.003583764 0.00226012 -0.0003723855 0.0010760045 -0.002298403 -0.00359203 0.00095195265 0.0018639563 -0.00069752004 0.002955393 -0.0031484899 -0.002247251 0.00201732 -0.000111535046 0.003890057 0.0038654176 0.0037867855 -0.0030835653 0.0025601767 0.00018062652 0.0027055326 -0.0016171739 0.001694179 0.00362648 0.0007512794 -0.0033004466 -0.0009828415 0.0018771151 0.0014917228 -0.0038335116 0.0010501832 0.0018004065
138 0.00033673682 -0.0015907867 0.0018852013 0.0034273001 -0.0018693684 0.0010816924 -0.00041890258 -0.0002441887 -0.0014081122 -0.0038022713 0.00046622846 0.0030105626 -0.0009597115 -0.0029556765 -0.0025016754 -0.0017599897 0.002960211 0.00013595734 0.002800483 0.0019493949 -0.0008785017 -7.3090625e-05 -0.0019775813 0.00022609586 0.002810148 -0.0002904179 0.002846715 -0.0025424734 -0.00013605962 -0.0016681938 -0.0006373786 0.00080869906 0.0020177811 0.0017932362 0.00014647102 -0.002264104 0.0019690471 -4.6094054e-05 0.001996136 -0.0023506829 0.0016617036 0.0027435566 -0.0018544004 -0.0015665799 0.003038465 0.0023809006 -0.0017585125 -0.0030530798 -0.0015927843 0.0011516145 0.0037640904 -0.0032702305 -0.0022407777 -0.0038156258 5.9693033e-05 -0.00019974896 0.00075463526 -0.00062599796 -0.0012932286 -0.00085350405 0.0035595037 -0.00010661151 0.0033860672 0.0035189977 0.0012846078 0.003824999 0.0016062553 -0.0023976157 -0.003671987 0.00055190077 0.0037755214 0.0019315364 -0.0031418207 -0.0032098906 -0.0015805607 0.0036205251 0.0001207433 0.0038648169 0.0035412922 -0.0032282122 0.0010091328 -0.0016134791 0.0022863648 0.0011265631 -0.0023672548 -0.0014883695 0.0016530849 -0.0007528656 0.0037542973 0.0017335645 -0.002962665 0.0022926903 -0.0005987842 -0.0022900498 -0.0012313899 0.0017463213 -0.0015620213 -0.0039029373 0.0034175902 0.0012462636 -0.003771618 -0.002363362 -0.0038902245 -0.0032261796 0.00092870113 4.4248907e-05 0.00012290305 -0.0015868122 -0.0030052685 -0.0035171418 0.0016654313 0.0028442803 0.0009941583 0.0015286594 -0.0023822242 -0.002467813 -0.00010845503 0.0029278586 -0.0024965547 -0.0028326502 -0.00036326706 0.00025125776 -0.0034898266 -0.0022154122 0.002662296 -0.00079808314 0.0025183402 -0.0017470605
1005 0.00367 0.00023268779 0.002902035 0.0037176935 0.0025180231 0.00056178315 0.001241979 -0.00011360338 0.0033785335 -0.0033470036 0.003040459 -0.00125076 0.0036353127 -0.0027225518 -0.000116130104 0.0015251393 0.0010889164 0.0018197066 0.00048741954 -0.0028699946 -0.0032677066 0.003801682 -0.001093121 -0.002405622 -0.0036414333 0.0002610181 0.0012947778 2.170572e-05 0.0021043813 -0.00037667702 -0.0012147868 0.0008746789 0.0037605036 -0.0026268675 0.0009354061 0.0009089869 0.00080017274 -0.0019045558 -0.0033491869 -0.001456018 0.0017982415 -0.0036526516 -0.0039058358 6.574158e-05 0.0019811112 0.0031504843 -0.0025741127 -0.002672432 -0.0024192138 0.0019892647 0.0027212906 -0.0021846178 -0.0019443916 0.0032844732 -0.002861212 -0.0032395865 -0.0030034832 -0.0007342482 0.0016132762 -0.0013685735 -0.0020535663 7.89505e-05 0.00091243046 -0.0004524045 0.0023274769 -0.0016205019 0.0030228533 0.0013472092 -0.0007938545 0.0020121157 -0.0038283607 -0.00038696008 -0.0027360092 0.0012621902 0.0017714804 0.0036194543 -0.0011738212 -0.00079321273 -0.0009208477 -0.0014680369 -0.0016359626 0.001989232 -0.0022247816 0.00081187254 -0.0022791773 -0.0024244757 0.0030263963 -0.0021444557 -0.0009490144 -0.0030860195 -0.0032245151 0.002302579 -5.170162e-05 -0.002763655 0.0013310667 -0.0011927625 -0.001774062 -0.0022669227 -0.0011775917 0.0013104932 -0.000115635456 -0.003665024 0.0008271943 -0.0026071211 0.0033955884 -0.0026092299 1.7647068e-05 -0.0020828266 0.00052302884 0.0010391338 0.0025103395 0.0031981117 0.00046853657 0.0032721292 0.0023852529 0.0036138438 -0.0011807117 0.0007502476 -0.0010053815 -0.00065445673 0.0018387717 -0.0009036174 0.0011597279 -0.0013620632 -0.0002738014 0.0011113535 -0.0012254464 -0.0012543675
719 -0.0011267308 0.0008220005 0.0010145126 -0.0032024863 -0.0036892993 0.0005651596 0.0019354488 -0.0035807015 -0.0019895253 -0.0034872082 -0.0014034425 0.0008380345 0.0019701933 -0.00025263295 -0.0030932527 -0.0028587803 3.655347e-05 -0.00360606 0.001719366 0.0005529558 0.0014638444 -0.0022859734 0.0026086452 0.0025972459 0.0021532588 0.0013997796 0.0036251193 -0.0006546553 -0.003502253 0.0014203184 -0.0018346505 -0.0008453108 0.0014121683 0.0004174536 -0.0020159606 -7.356311e-05 0.00033249683 -0.0031874753 0.00093886966 0.00047337235 0.0037570342 0.002626526 0.0019041457 -0.00248239 -0.0010381576 0.002409939 0.0016088311 -0.00077869283 -0.0037212756 0.00031250453 -0.0008767091 -0.0015657226 -0.0006359682 -0.003016603 -0.0017433218 -0.0017677417 0.002898121 -0.00020470258 0.0032613797 -0.0038036515 0.003456885 -0.0005118034 -0.0030852992 -0.0036509512 0.0010231542 0.0008873501 0.0011586341 0.0013568172 0.00066211866 0.0014022343 0.0011116018 0.0019527264 -0.0033127035 -0.0035762612 -0.00045040488 0.0021703944 0.0034555267 -0.0025085653 0.0031050432 0.0012309966 -0.0007760463 -0.0008600159 0.0026835443 -0.0034114441 -0.0010182565 0.0028396682 0.0024370186 0.0037502935 -0.000472955 0.0032103406 0.0006503218 0.0004673235 -0.000728705 -0.0027076602 0.0025513906 -0.0036141686 0.0012344836 -0.00087203464 0.0016548978 -0.0027414584 0.0025734035 0.0022544442 0.0035602928 -0.003397551 0.00072364596 0.0021412654 -0.00115844 0.0025086042 0.0022434397 0.0007249919 -0.0038283896 -0.00022685755 7.353076e-05 0.0010448119 0.001578016 -0.0021843864 0.0033163077 0.0024896744 0.0006069974 -0.00065782614 -3.937397e-05 0.00079663855 -0.0014071853 -0.00074140617 -0.0031829316 -0.0021683904 0.0030352592 -0.0034263448
47 -0.0013118449 -0.002290655 0.0022155568 0.0013043567 -0.0026731223 -0.0030433054 -0.0010004998 0.0015878559 8.345411e-05 0.0010090591 0.00056927465 0.0029321061 0.0038079617 -0.0017979515 0.0030068895 -0.001716364 0.0028213884 0.0018023549 -0.0031624916 -0.00044374738 -0.0029835356 0.0012978843 0.0013418446 0.00019066468 -0.0034720546 0.0035481947 0.0014860994 0.0036737057 0.0031668125 0.0014371278 0.0035134668 -0.00017061373 -0.00026735725 0.0031185884 0.0022754115 -9.820444e-06 0.0031995967 -0.0034417505 -0.002352553 8.749343e-06 -0.0021880579 -0.0012513986 -0.0036250714 0.0016072221 0.0015594384 0.0016053114 0.002418529 -0.0015886032 -0.0018247871 0.0018771274 -0.0017871347 -0.0010471542 -0.002994392 -0.0020361478 0.0025608705 -0.0019185678 0.0016962873 -0.0024451967 -0.0015061811 0.0032542162 -0.0029648384 0.0019009907 -0.0007123712 0.0021935268 -0.0005449163 0.0032486243 2.5867948e-05 -0.002573994 0.003774875 -0.0011790281 0.002796427 0.00083495013 0.0016800188 -0.0023754833 0.0028122952 -0.0022190085 -0.0028691804 -0.002860273 0.0008771973 0.001402004 -0.0025203254 0.0036886751 -0.0019161646 0.00020971951 0.0004073733 0.0030372746 -0.0033951749 -0.0017990312 0.0035895386 -0.0029937823 0.002728372 0.0013750949 0.0037731123 -0.0002959028 0.0014486533 0.0037564964 0.0023401119 -0.0015052657 -0.0037829792 0.001997973 -0.0002892734 0.0012327093 -0.0015188524 -0.0019690632 0.0015833897 -0.0025323457 0.0030961742 -0.0013652375 -0.0026586968 -0.0023336937 -5.4749467e-05 0.0004900025 0.0038337067 -0.0015289425 -0.003387744 -0.003671809 0.003861552 0.0026285283 -0.0006172275 0.00040466193 0.00093635963 0.0012447312 -0.00090886245 -0.0006395645 -0.0010081399 -0.0025039692 -0.0035755602 0.0024293934
575 -0.0038342497 -0.0025037315 0.00023715718 0.0012092007 0.0026842754 -0.001791717 0.0005966508 0.002373499 -0.0023152183 0.0024681997 0.00046756698 8.349048e-05 -0.00053078734 0.0014160576 -0.0008575186 -0.0009334834 -0.0011155832 -0.0009609398 -0.0010801136 -0.0036337737 -0.00050151016 0.0027324422 0.003487173 -0.0009708535 0.0037634643 0.0028641736 -0.0012051925 0.0017735751 -0.0025154038 -0.001471032 -0.0033543692 0.0019763573 -0.00052955985 -0.00044822227 0.0018385225 0.0006081415 -0.00043805272 0.0009662582 0.00024479412 -0.0035642094 -0.002115258 0.0036011233 0.0012091573 0.0016406382 0.0024492156 0.0016381112 -0.00035648188 0.0022740243 0.0016121694 -0.0038855465 -0.001086404 0.0028502077 0.00044801596 -0.001680595 0.0022802083 0.0005742833 -0.0014175961 0.0006437185 0.0021414228 -0.00067206676 -0.0028340067 -0.0007054775 0.0028848993 -0.0019160848 -0.0012708204 0.00066975644 -0.0012042723 0.00025702873 0.0009368522 -0.0003045243 -0.002340144 -0.0018537339 0.002871783 -0.00047070452 -0.00044003065 0.0032384568 0.0021643022 0.0032957958 -0.0022905227 -0.000507538 0.00015402272 -0.0013306191 7.482611e-05 -0.0024710174 -0.0019810197 -0.0008695015 -0.0031870396 0.003782828 0.0006695146 0.001448161 -0.0035806405 0.002636959 0.0030909267 -0.003833679 0.0025315147 0.0018449936 -0.0016521382 0.0031320946 -0.0035361415 0.00038465494 0.0018397775 0.0008953921 -0.0025535703 -0.0032566285 0.00047108158 -0.0028843675 0.003737907 0.00047850516 -0.0007072283 0.00084486866 -0.0007709783 0.002850798 -0.0034439294 0.0012002928 -0.0035832536 -0.0001204201 0.0030615202 0.0026560575 -0.0003569666 -0.00068450987 -0.0034413747 -0.0010234499 -0.002538538 0.0009899996 -0.0034882457 0.0035786 0.0035870643 -0.00042102358
671 -0.00035767845 -0.0017721563 0.0023801764 -0.003534256 -0.0017105258 0.0025010172 -0.0005743601 -0.0035938048 -0.001637393 0.0026084518 0.0033800392 -0.00020358444 0.0023998052 -0.0024464359 0.0025702778 -0.0023388404 -0.0004667219 0.0005628755 0.0025944188 -4.144385e-05 -0.0015736663 0.0014211849 0.0006320529 -0.0012333932 0.0036995572 0.001700819 -0.000510544 0.0030067298 0.0036921112 -0.0023511273 -0.00051652145 -0.0029567939 -0.0038241749 0.00045677883 -0.001086835 0.0023758416 5.548149e-05 -0.00083403324 -0.0011569648 -0.0014301721 0.0011670764 0.0006770379 0.003789569 0.0025970032 0.0034689745 0.002914458 0.0015291693 -0.0035734465 0.0026740304 -0.003282646 0.0026475645 0.0021554665 -0.00061044545 -0.003234571 0.0013485868 -0.0027005689 -0.001450932 0.001690936 0.0026787124 0.0032624083 0.0006781974 0.0028879375 2.3663677e-05 -0.0020235719 -0.0023766386 0.0005433074 0.00047304385 0.0005946537 -0.00067756773 -0.0018283984 0.0032025876 -0.0013022436 -0.0035253412 -0.003798297 -0.0035559745 -0.0005575628 -4.787822e-05 -0.00039250293 -0.0015382556 -0.0022718944 0.0019220543 -0.0034378178 0.0021129388 0.0022393193 0.00056692166 -0.002329952 -0.0037087065 0.00053518725 -0.0013997313 0.0014833305 -0.0018426218 -0.0033197778 0.0019617684 0.0028490424 0.0013161844 -0.0015287803 0.003205411 0.0018488208 -0.0010717855 -0.00021768804 -0.0026390078 0.0011871132 -0.0032577899 -0.00013819309 -0.00017133247 0.0034863933 0.0016056508 -0.0031516287 -0.0021320018 0.002513736 0.00259651 -0.0021466992 0.0013582128 0.00021909483 0.0013512949 0.00019888484 0.0013442265 0.0027039114 0.0020196673 0.0028102885 0.002255079 0.0022172094 -0.002644326 -0.0028940723 -0.0030896433 0.0029058917 0.001610344 0.000232406
403 -0.0003181988 0.00037526718 -0.0017896657 0.0019292971 -0.0038247805 0.0029143346 -0.0010853694 0.00083726394 -0.0016045799 0.0008911148 -0.00025115834 0.00073369406 -4.7095702e-05 0.0030351917 -0.00029779354 0.00094609405 -0.00016132841 0.0022233534 -0.0019313447 -0.00012406576 -0.002751832 -0.002213155 0.0010771761 -0.0036737989 -0.0025803486 0.00074801355 -0.0030451515 -0.00037782273 -0.0037984757 0.00040251884 -0.0014173571 -0.0011241203 -2.5987706e-06 0.0037312128 -0.0024490322 0.0026731363 0.002339237 -0.0025004437 0.00024768163 0.0017528441 0.00019504846 -5.7669517e-05 0.001760185 0.0027444654 -0.00030044978 -0.0015478481 0.0026268081 -0.0007267861 -0.0036641678 -0.0022178777 -0.0038838764 -0.0030396709 0.00350951 -0.002671412 0.0027633493 0.0018753645 -0.0028409434 0.0030781582 -0.00032222513 -0.0036322162 -0.0035832112 -0.0012366294 -0.0002745306 -0.0013750793 0.0028982752 -0.001347691 -0.0015593681 -0.0018021191 -2.006279e-05 -0.00039037198 -2.5755802e-05 -0.00096058514 0.0018226923 -0.0015264638 -0.0035224322 -0.0033387654 -0.003463468 0.0027122223 0.00029793457 0.0012686684 -0.0030556675 0.00033387583 0.0007558874 -0.00020673114 0.000389084 -0.00096062483 -0.0025741456 -0.003858218 0.0014988374 0.0005762956 0.0025727884 0.003294557 -0.0021245312 0.0013621768 0.0034051777 0.0024910881 -0.00092489296 0.0034708623 -0.0036884248 -0.0016853975 0.0036812287 -0.0018855216 -9.2216e-05 0.003494648 -0.0037885518 0.00019677194 -0.002520448 0.00018543766 -0.0028801716 -0.00082968554 -0.00033443546 0.0025275352 0.0028636942 -0.0007158169 0.00091021956 -0.0015730542 0.0022485848 -0.0024364414 -0.0015928939 0.0009977962 0.00012765825 -0.0038641437 -0.0032548402 -0.0022078883 0.0007934292 -0.0005653253 0.0032487265 0.00018791479
921 -0.0013159944 -0.003881579 0.0037993507 0.00016804395 -0.0022241962 0.0012356845 0.0016621617 0.0016821369 -0.0010982692 0.000977735 0.0027716574 -0.0006747105 -0.0013795358 0.0035128347 0.0034451769 -0.0022117333 0.0023094362 0.0032445278 0.0027552093 -0.00090705685 0.00050254207 0.0017278707 0.0013665279 -0.0036620048 0.003890068 0.001258046 0.0005591152 -0.0022155615 -0.00079090113 0.0009819808 -0.0038706115 0.0023636525 0.0003644847 0.00051359815 -0.0017245744 -0.002385297 0.0020473064 -0.002667297 -0.0006795215 0.0031099522 -0.0028554674 -0.0030477159 -0.003244543 0.002033433 -0.0013075327 -0.0013285025 -0.0009344158 0.0012299258 -0.0022197822 0.003902879 0.00025489466 -0.0017097465 -0.00017346397 -0.00095390505 -0.00066964066 0.0037567443 -0.00089189 0.0017001298 0.002129996 0.00028642506 0.0013473646 -0.0014078805 -0.0001212606 -0.0038526254 0.0031819327 -0.0031626527 0.0010465338 -0.0029828795 0.0014817229 0.0025977716 -0.0033124485 0.0030139731 0.0034666338 -0.0025767828 0.0025884635 0.0015391286 -0.0034864924 -0.0019843508 0.0020190205 -0.0037932587 -0.00038417397 -0.0026402588 0.0024096954 0.00017791789 0.00059583876 0.0024688505 0.003858317 0.00021447665 0.0025161451 0.001683305 0.0005359542 -0.00015914653 0.0004961312 -0.0005753743 -0.0028559384 -0.0023348904 0.0012076088 -0.00035665967 0.0028589845 -0.0034968082 -0.0038367526 -0.0007672703 -0.0017610017 0.0032499093 -0.0010368201 -0.0013635777 -0.0036339152 0.0022214416 0.0012538261 -0.0011866365 0.0006464603 0.003780119 -0.0012337671 0.0002451554 -0.0029270397 0.0037707242 -0.0023157012 0.0014424863 -0.00143739 -0.0013191804 -0.00079106586 -0.0035403892 -0.0032158582 0.0014617778 -0.0014895978 0.0036841491 0.00066557474 -0.0014745294
829 -0.00067939673 -0.001673983 0.0027596995 -0.003103224 -0.0017107582 -0.0017404543 0.0023185671 8.420795e-05 0.0021376312 -0.0024589512 0.0026571408 0.0030396099 -0.0008844155 0.00032923432 0.0036252618 0.0004301867 -0.002739578 -0.0018976749 -0.0021583142 -0.0018036658 0.001749276 -0.0008405093 0.0011305468 -0.0029028608 -0.000764776 0.00029550827 0.0034424993 0.0037355581 0.0013600268 -0.0019646436 -0.0029883338 0.0008261104 -0.0006891624 -0.0020875738 0.00045192696 -0.0015956811 0.0020610197 0.0021537056 -0.001294665 -0.0005723568 0.0005233513 -0.0017364908 -0.0009278955 0.0035595153 -0.00018352424 -0.0025855897 5.870394e-05 -0.0024548972 0.0014454732 -0.0027741713 -0.002693138 -0.002993272 -0.0019303146 -0.0027305016 0.0025111078 0.00013376433 -0.0002492446 0.0015293444 -0.0026923276 0.0030647912 0.002766216 -0.0023767818 0.00051587215 -0.003257171 -0.001267373 0.0019018359 0.00024360472 0.002686976 0.0019134292 -0.0004878518 0.001983416 0.0026346757 -0.0007485363 -0.003883614 -0.0027471085 0.0021059562 -0.0028351224 -0.0021852304 -0.00036889978 -0.00067073543 -0.003572117 0.0015236449 -0.0022600966 -0.0016244507 -0.002066143 -0.0038465352 -0.0032898954 -0.00173949 0.0017317128 -0.0026412692 0.0013074705 0.0014510958 -0.0014175555 -0.0012498274 0.0016557324 -0.002083641 -0.0037749002 -0.0034838535 -0.0010904308 -0.0031179325 -0.0032862385 0.0027888159 0.0018496738 -0.0007229207 0.00071689265 -0.0012341279 -0.003313609 -0.0007077679 0.0007570977 -0.00070918904 0.003135963 -0.003145315 -0.0019045755 0.00010147789 -0.0023600778 0.0022409225 0.0023889758 -0.000613088 -0.0029297692 0.0019056079 -0.0008291903 -0.00012920026 -0.0008360824 -0.0005160537 -0.000816911 -0.0019404966 -0.001749496 -0.0032291608
252 0.0028266534 0.0009684566 -0.0020007642 -0.0012463231 -0.0027298497 0.0031370912 0.0015330588 0.00013018657 -0.0028523311 0.0033640424 -0.0038374 -0.0026010633 -0.00074393465 0.0016999614 0.0038656015 -0.0016074111 -0.0011365325 -3.6007626e-05 0.0025348635 0.0034339742 -0.0025738596 0.0008580438 -0.0038348238 -0.0020030653 0.0020092293 -0.002503581 -0.0025065893 0.003099997 -0.00024712857 -2.675367e-05 0.0006081498 -0.00067362096 0.00059238327 0.0025978482 0.0021914244 -0.0010047284 0.00039718073 0.0006196965 -0.0037562414 0.0010822489 0.00041047225 0.0012295533 -0.0010266561 0.0026953137 -0.003380743 -0.00079627946 0.0017255873 -0.00010470892 -0.00054624234 -0.002809039 -0.0035531423 0.0023614783 -0.00283582 0.003080604 0.002995954 0.0021764473 -0.0037293145 0.0029704727 0.00082073885 -0.0012370235 -0.0037817506 0.0031794838 -0.0033136187 5.43117e-05 -0.0032325925 0.0017090597 0.0023579008 -0.0003769015 0.002053926 -0.0035658262 0.0014212836 -5.2862648e-05 -0.002930863 0.0008402567 0.0016641029 0.0009717053 -0.00031023443 -0.002848932 -9.273368e-05 -0.0005835675 0.0022099381 -0.0021382766 -0.00020421161 -0.001622271 0.0005912783 0.0030006983 -0.0035222506 -0.0024688935 -0.0005437399 -0.0017181466 0.0030778325 0.0027450332 0.0022870852 -0.00089781947 -0.0021216422 0.0025448971 0.0010603272 -0.0038238282 0.0005391073 0.0012095487 0.0023561134 -0.0014855604 0.0024137048 0.003443501 0.001831763 -0.0017687054 0.0028555463 0.0008186587 -8.8593115e-05 0.0029442527 -0.0013831201 -0.0037004575 -0.000744714 0.0013142166 0.0019209323 -0.0025720587 0.0030393188 -0.0031091576 0.00037003704 0.003251409 -0.0014314051 -0.0023084315 -0.0016735299 -0.0030124865 -0.002645119 0.0014628615 0.0032424214 0.0016865245
1199 -0.0026109896 -0.002238643 -0.0031649345 -0.0016162185 -0.003248466 -0.0005806353 0.003686363 0.0010082119 0.0018342317 0.0011471511 0.002711006 -0.0031086002 -0.00092481764 -0.003355973 -0.0028839773 0.0016807836 0.0013836664 0.0031853558 -0.0027345757 0.0022875431 -0.00040420966 -0.0035149297 0.00096094236 0.0026471717 -0.0037063751 -0.0023649954 -0.0036618873 0.0034375417 0.0037794264 0.0018463943 0.0008856491 -0.0037650561 -0.0033446464 -0.0030334417 -0.003292671 -0.0023067787 -0.0033165656 -0.002700617 0.0022739272 0.0036502855 0.003219505 0.0015178547 0.0020273451 0.0019034981 -0.0016532863 0.00249231 -0.00026222944 0.0005085425 -0.00019664301 -0.0018666515 0.0021979471 0.0033205245 -0.00069477106 0.002228146 0.0018026468 0.0002527535 0.00093452516 -0.0009961552 -0.0021153158 -0.0001785913 0.003383249 -0.0005694423 0.00043026102 -0.0020941463 -0.0023888508 -0.0026194951 0.0019187438 -0.0012262336 0.0017594573 0.0038304091 -0.0024969268 -0.0032162613 -0.0036121644 -0.0012996375 0.0031261246 -0.0008165877 -0.0037441747 -0.0028579861 -0.0022777545 -0.0032573503 0.00024304006 -3.869685e-05 -0.0018265496 0.0033466422 -0.0028365878 0.0009424864 0.0016451515 0.0016178478 0.0011909171 0.0017037896 -0.00012338985 0.00019738676 9.725156e-05 0.0019262414 -0.0030465715 0.003350064 -0.0037208146 -3.891979e-05 0.0032027762 -0.0012089957 -0.0021378628 -0.002781027 -0.00012939754 0.002777306 -0.0025972512 0.003124238 0.00092530146 0.0007233653 -0.00350649 -0.0032461088 0.0016179145 0.00011398097 -0.0025522585 0.00050910504 -0.0029598135 0.00042174358 0.0014010089 -0.002179342 0.0011323375 0.00260855 0.0024522226 -0.0030237162 0.0031589412 -0.0027206074 0.0031754128 -0.0007118633 0.0028625377 -0.0019882107
380 0.0017390116 0.0026274784 0.0029508148 0.001964028 -0.0035743748 0.0010776144 -0.0010324892 0.0024489474 -0.0018543537 -0.0019289299 0.0017021572 0.0015773227 -0.0020229653 -0.0028468322 0.0009461008 -0.0017500712 -0.0009092713 0.00282885 0.0018946722 0.0011959499 0.0016738278 -0.0022122369 0.00024818658 0.0023139843 0.0018206026 0.00091121584 0.0019677295 -0.0011061592 -0.0006523244 0.001417598 0.00081826386 -0.0024099639 0.0030086278 0.0038914897 0.0008653134 -0.0036271168 0.0024516769 0.0034720148 0.0017361876 -0.0011504414 0.00091938564 0.0025088037 0.00038740115 -0.0007889394 0.002225871 0.002256589 -0.00015810803 0.0027591574 0.0016390936 -0.0018438327 0.0027029938 0.00051076873 0.0031954134 -0.0004363664 0.003005048 0.0018470425 -0.0033419342 0.002553833 -0.00063882495 -0.0011379984 -0.00014392583 0.0030266494 0.0016131119 0.0031605044 -0.002488348 -6.0922408e-05 0.0018459446 0.0016095426 -0.0015392883 0.00057822175 0.0017462992 0.003429748 -0.00292708 0.001784643 -0.0007553062 0.0014599249 0.00055148825 -0.0011218137 -0.0001252939 0.0023746262 -0.0018068498 0.0029189046 6.5073466e-05 -0.000673758 -0.0033420688 -0.0010642704 -0.0029058834 -0.00096963916 -0.0001976701 0.0039060034 -0.0015809557 -0.00066117774 -0.0033809985 0.0020233549 0.0031611142 0.0024851316 0.0034698106 0.0015966923 -0.003189886 -0.0026332764 0.00046814306 -0.0010617675 -0.0025796583 -0.0015288839 0.0029061956 -7.096685e-05 -0.0030400106 -0.0035756766 -0.0009316323 -0.0010598153 0.0032444193 -0.0013116137 0.0026297406 -0.0030233753 0.0019277427 0.0037454083 -0.002599143 -0.0007369378 0.0004496814 -0.0020738952 0.0027628925 0.00022499352 -0.00027882867 -0.00038957022 -0.0008925127 -0.0019365858 -0.0033869368 0.0037807946
889 -0.0027988 0.0037860076 -0.0021407867 0.003052913 0.0027714286 -0.0033647534 0.001045405 -0.001364994 0.0034058439 0.00028327073 -0.0015034535 0.0022924307 -0.003656658 0.00094303244 0.0029664743 0.001831197 -9.2575516e-05 -0.0035958642 0.00022670037 -0.00094693975 0.0022082243 -0.0020829248 0.0004739035 0.00039250616 -0.00032085058 -0.0008313033 -0.0013960407 0.0011694382 1.10450865e-05 -0.00052550755 -0.00039840824 0.0024850194 0.00023684134 -0.0001792772 -0.0026342142 0.000566073 -0.003145523 0.0031263276 1.087393e-05 -0.0009638618 -0.0022133256 -0.0024830857 0.0013152717 -0.0013036492 0.001371631 -0.003168899 0.0014753849 -0.003708957 -0.0033059055 -0.00032479232 0.0035383678 -0.0035055827 -0.0026628242 0.0014887741 0.0028318518 0.0032934581 0.0011772192 -0.0008738746 -0.0017400692 0.0014970737 -0.0003527063 -0.0036750874 0.00018523997 0.0037744928 -0.003545979 0.0028724696 -0.0013350132 0.001714254 -0.003503718 -0.003817445 0.0024419497 -4.6989102e-05 0.0026490104 -0.00051842484 -0.0023525618 0.00086884445 -0.0038101159 0.0027330564 -0.002135055 3.9318413e-05 -0.0029217168 -0.0008277483 0.0032797868 0.0037530486 0.0029497978 0.0016144933 -0.0028808112 -0.0014649682 0.0037602203 -0.00026054325 0.0004797238 0.0022068522 1.6283402e-05 -0.0016851779 -0.002380869 -0.00068627746 0.0024742067 0.0004647471 -0.0004852651 0.00163869 0.0028216983 0.00072295876 0.0007405788 0.0002469052 -0.0026130292 -0.0027184866 -0.0016659654 0.0036511992 -0.0032579382 -0.0019746798 7.7627396e-05 -0.0017313709 -0.0021543081 -0.00117746 -0.0008326906 -0.0003582394 -0.0030539974 -0.0033062059 0.0020241016 -0.0021193516 0.00057801994 0.0012375228 -0.0029725262 0.0015728115 0.0038254769 -0.0018179232 -0.003855846 0.0018513224
638 0.00040416926 -9.380141e-06 0.0026793461 -0.0024392668 0.0013486436 -0.00061703793 0.001599466 0.0019886484 -0.00026718093 0.0037783515 0.0011571995 -0.0019478232 -0.0018415538 -0.0025349527 0.0033785328 -0.00011304025 -0.0037949001 0.0037788388 0.00161346 0.0032716384 -0.0037682871 0.0016092458 -0.0036574737 -0.003316825 0.0013818515 0.0009094596 0.0026621798 -0.0025178555 0.00010594081 0.0034511632 0.0027248757 0.00022992223 -0.0036060372 -0.0023472838 0.0026253066 -0.0016232264 -0.0017115275 -0.002092643 -0.0015716787 0.00093625754 0.0007813497 0.00065040897 0.0024508527 -0.0034730271 -0.003837962 -0.002500295 -0.00061081094 -0.0019505298 -0.001384275 -0.0034023165 3.546479e-05 0.0014494504 -0.0016963674 0.0038507534 -0.0026922168 -0.0019727193 -0.0019250516 0.00035429565 0.00088574184 0.0007483588 -0.00058429217 0.0008841073 -0.0023882247 0.0006787346 0.0031105005 0.0015090959 0.0003225953 0.00019954254 0.0033640184 -0.0024708186 -0.0027885737 0.0022507135 -0.002279591 -0.002661912 -0.0025463775 0.0021773987 0.0021216408 0.00278483 0.002774119 0.00024306847 -0.003201307 0.0018655418 -0.002860934 -5.8537054e-05 0.0033357337 -0.0012557161 0.00074169505 0.0005688311 -0.0014358285 -0.0011944311 0.0036170522 -0.0028139132 0.0012761013 -0.0019559327 0.0010764723 0.0038741971 0.0025426692 0.0024714244 -0.0034334706 -0.0037577087 -0.0023805667 -0.0025061676 -0.0010068896 0.0023423487 -0.00017272477 -0.003741751 -0.0036917608 0.0038069321 -0.0013541208 0.0021711108 0.0018382279 0.0038255113 -0.00010322559 -0.002134156 -0.0034150647 0.0022031344 -0.00069073634 0.0037250908 -0.0038894627 0.0017003099 0.002249935 0.0017136737 0.00071336166 0.0025312987 0.0010572397 -0.0033227447 0.0037808607 0.00013580685
1142 -0.003803541 0.002204253 -0.0036288798 0.0022927795 -0.0010509884 0.0019867322 -0.0007944105 -0.0024006641 -0.0006112518 -0.001991014 0.0023705338 0.001947991 -0.0019215372 -0.0011637416 -0.0025475386 0.0010221422 0.0031000725 0.00012989808 -8.6763706e-05 0.0005839528 0.0015947702 -0.0032260306 -0.0038592354 0.0030829108 0.0009131865 -0.0027332152 -0.0016261286 -0.0017747734 0.0026491133 0.0035073564 -0.0030725913 -0.0019945572 0.0016983624 -0.0019754276 -0.00096965244 0.0010233615 -0.0011471658 0.000796167 -0.0022458583 -0.0013149191 -0.0003733997 -0.0026397211 -0.0015164277 0.0027178423 -0.0012144124 -0.002341551 -0.0020089136 -0.003326127 0.0038290601 0.00046015243 0.0024428708 0.0015629546 0.00021529077 -0.002773916 0.0017675222 0.0025710159 0.0023096078 -0.0036155551 0.0013992309 0.0020258124 0.0020921542 -0.00070937397 -0.0029438098 0.0026991607 -0.002801632 0.0016872898 0.0030613968 0.0029280628 0.00020103467 0.0017211868 -0.00043916804 0.0015357694 0.00045599657 -0.0016081847 -0.003551718 -0.00019291615 0.0035581086 -0.0014375579 0.0021271943 -0.0005586746 0.0017060661 0.0012551136 -0.0026340615 -0.0026758984 0.0027301712 -0.00023015108 6.296802e-05 0.0012952427 -0.002002612 0.0026501166 -0.0006814395 0.0007218107 0.0026656287 -0.003236934 -0.0011790342 0.0022309336 -0.0027057133 0.00030879388 -0.00365053 -0.002931544 0.0008284746 -0.002062181 0.00060954236 -0.0016258257 -0.0011868916 -0.0031687166 0.0003820397 0.000470123 9.90381e-05 0.00309736 -1.2910706e-05 -0.0029315767 0.0011612787 -0.0013268088 0.0012653137 -0.00134512 -0.00018679512 -0.0037672427 -0.00071623025 -0.00083280733 0.003502862 0.0026488255 0.0010009235 0.0030504495 0.0035277668 0.0014824884 0.0009824448 0.0033902174
781 0.00286625 -0.0033426583 0.00028724488 0.0003240797 0.002024882 0.0016658927 -0.0006691293 -0.0032619569 -0.003789115 0.0025425246 -5.1092535e-05 0.0037193827 -0.0013863763 -0.00027057354 -0.0029535058 -0.003772693 -0.0013240367 -0.00037256617 -0.0015507041 -0.0010552573 0.002867854 -0.0013389613 -8.7555185e-05 0.0021560378 0.0032351844 0.003248003 -0.0031987443 -0.0037188376 0.0011522361 0.0037194795 -0.00033223402 -0.0019352622 -0.0030973998 -0.0016402216 -0.0020332541 -0.0018243288 0.0006332977 0.0008041362 0.0037735787 0.0020518228 0.002781345 -0.003628682 -0.00066862616 0.0025137654 0.0031195881 0.0004292458 -0.0020542631 0.0006411703 0.0038242526 0.0017583435 0.0011639345 0.0013284689 -0.0005650373 -0.0023860703 -0.0017144608 -0.0021016998 0.0016162248 -0.0021155418 0.0009016369 -0.003109507 -0.0013918508 -0.00032914354 -0.0027140724 0.0013889994 0.00011374389 0.003722256 0.00038304226 -0.0029764234 0.0032488017 0.0001655104 -0.0013676757 -0.0012160086 0.0018615627 0.002866671 0.0023299307 0.0034019994 0.0030255246 0.0029678324 -0.0027146002 0.0013598502 -0.0030134781 0.0032740254 0.00079663284 0.0035796228 0.0010949348 0.0019170083 -0.0012889694 0.002106251 0.0031064618 0.003120302 0.0033346422 0.0015620611 3.3920296e-05 -0.0020411664 0.002567568 -0.0008347501 -0.00026070693 0.002260751 -0.00046402818 -0.00011028223 -0.0034320336 0.0033570242 -0.0015725758 -0.00073630625 0.0019272964 -0.0006809955 0.0016910553 -0.0021752878 0.0011226356 -0.0032155598 -0.00024568662 0.0024734417 -0.0036748433 0.0010006025 0.0011817608 0.0013219557 -1.793127e-05 -0.0023819602 0.0012059864 0.0034897786 0.0035570085 -2.5444042e-05 0.0035072605 -0.00020637311 0.0011392153 -0.00083428295 -0.00076753454 -0.0012407795
583 -2.9405135e-05 -0.0006607921 0.0015548641 -0.00033083654 -0.0035813192 0.001789085 0.0029843152 -0.0015949265 0.00056943035 -0.0035820294 -0.00020126037 -0.0031012052 7.052815e-05 -0.0016971615 0.0011880415 -0.0038835944 -0.003346295 0.0030869704 0.003044087 0.00014287881 -0.0026312289 -0.0013082295 -0.002082008 -0.00367691 0.0018242126 0.0004927389 0.0030737773 0.0035420293 -0.0014657604 -0.0030216074 -0.0019366177 0.00083699374 -0.002279923 0.0023151853 0.002125046 -0.0016153434 0.00092258176 0.0002924128 -0.00083705096 0.0032803006 0.0021403967 -0.003453773 0.0007064044 0.00067327364 -0.003069103 0.0010028211 -0.00096202944 -0.0018816893 -0.0018314266 0.00328401 -0.0028246166 -0.0026969605 0.00028824055 0.0005072879 -0.0015753647 0.0009539267 0.0009795609 0.0022974887 0.0029537582 -0.003452938 -0.0038159732 -0.00104401 -0.001219178 -0.003624859 -0.0021752212 -0.0031321556 -0.0005201513 -0.0025072587 0.001271262 0.0034896226 0.003395715 -0.0022283634 -0.0025036396 0.0015198226 -0.0027543202 -0.0022186143 -0.0025460166 0.003226675 -0.0033038189 -0.0037493503 -0.0038837113 0.0028732533 0.000702306 9.678116e-05 0.0030499815 -0.00075066846 0.0012551753 -0.0008732183 0.0009794004 -0.002732984 0.00058227376 -0.0038085016 0.0023850806 0.00025612995 -0.0022396578 0.0025906903 0.0024859696 -0.0030854987 0.0006334484 -0.0034823706 0.0022574572 -0.00018185563 0.0026440588 0.003600407 -0.002132264 -0.0011350866 0.003084965 -0.0016064444 -0.00047212682 -0.0010571013 -0.0021099625 0.0015512138 -0.0013015695 0.0010430106 -0.0006330665 0.002867684 0.003883065 -0.0007376011 -0.0019877062 -5.439966e-05 0.003047156 0.0015423573 -0.002376031 -0.0017674948 -0.0022714653 0.0017278707 -0.0012564395 0.0007439632
1212 0.0023336436 -0.00085557264 0.00096691994 0.0015629189 0.0033867536 -0.002392877 0.0014784334 -0.0033095216 -0.0017930238 0.0033522816 -0.00074046873 -0.0026369703 -0.0026075242 -0.0038184256 0.002748637 -0.0033548006 -0.00050107343 -0.003351709 -0.0019545304 -0.0025547903 0.0023986993 -0.0016077483 0.0012501525 -0.003498346 -0.0009329563 0.0014364036 0.0035048006 0.0022260095 -0.003770936 -0.00018391316 0.002152029 0.0023166055 0.00067278865 -0.00056289975 0.00079686026 0.0035073312 -0.0009869755 -0.00213794 -0.00084611773 -0.0006384933 0.001895034 -0.0020238499 0.0021598341 0.0035246338 -0.0028961373 -0.000931334 -0.0023114332 0.0028514522 0.0006983496 -0.003634943 0.0029111463 -0.0018546449 0.0019774104 -0.0029966533 -0.0029850842 0.0035861414 -0.0010532723 -0.0002920086 0.002167949 -0.0032440017 0.0025265915 -0.0008998831 0.0016742965 -0.0018766279 0.0030929693 -0.0004623698 -0.0014157123 -0.0031308644 0.001240837 0.0019655966 0.0029409106 0.00092460116 0.0020533714 -0.0026894382 -0.0026402257 0.00018994123 0.00094378 -0.0030521313 0.0019627383 0.0020955387 -0.002501649 -0.002041378 -0.002210203 -0.0008850455 -0.0028151358 -0.003612273 0.0027063058 -0.0032991471 0.0011942765 0.0013103257 -0.0028032367 0.002192841 -0.00091744773 -0.003064114 0.0029473272 0.0017528561 0.0020522526 0.0009933739 -0.0012662365 0.0013217648 -0.00029891063 0.0008989278 -0.002732531 -0.0007987777 -0.00015758943 -0.0013632542 -0.0015254093 -0.001761426 0.0034098101 0.0003994637 -0.00055457104 0.0006759318 -0.0031033847 -0.00030341136 0.0009606107 0.002424793 0.00034253197 0.0014379936 0.003360658 -0.0005884965 -0.0029040312 0.0023748355 0.0009901338 -0.002695145 5.2027077e-05 0.0022251396 -0.0023864785 0.0034577446
1029 -0.0036907564 -0.003110669 0.0013759607 0.0017346088 -0.0007238447 0.0001727935 -0.0027813853 -0.002814255 0.001174135 -0.0006600431 -0.0016839657 0.0025720166 0.0010968297 -4.674954e-05 -0.0012615134 -0.0018895416 0.0012469885 0.0011607904 -0.0014993368 -0.0032489484 0.001128544 -0.0022472527 0.0037428155 0.0035786738 0.0037787089 0.0016010425 0.00031828062 -0.0010909333 -0.000113940405 0.003520831 0.00038832705 -0.00017201733 -0.0025039017 -0.0009614322 0.0029911292 -0.00016177463 0.0038806486 -0.0009381976 0.0009038858 0.00258329 -0.0015495729 -0.0034808198 0.0034342126 -0.003495347 0.001886182 -0.0022131382 0.00342493 0.0022335683 0.001630926 0.0021335979 -0.001161432 -0.001827742 -0.0007845459 -0.0034897593 0.0023609244 -0.0016505502 0.0012250384 -0.0028459488 0.00323204 -0.0021126084 0.0037706872 0.002118767 0.00097323343 -0.0008103922 -0.003129302 0.0037644645 -0.0009149188 0.0029890407 0.0032924863 -0.00023932141 0.0028442545 0.00038577837 -0.0009978395 0.0014138 0.0028300497 -0.0022864793 -0.00093137246 -0.0018773213 0.003170468 0.0018926689 -0.0022504996 -3.3115623e-05 0.002268377 0.000952569 -0.0006784778 9.978561e-05 0.00017142674 0.0020229053 -0.0035449516 0.0025082505 0.0030678418 -0.0016904213 0.0024189982 0.003097015 0.0034333072 0.003569154 0.002995784 -0.0014683983 -0.0015609937 -0.001442883 -0.0024753504 0.0033189303 -0.0026562097 -0.0005484805 -0.0018027838 0.0037198332 -0.00029426112 -0.0009024075 -0.0021769223 0.0029247373 -0.0037087146 -0.0036318058 0.0019223265 -0.0010217433 0.0026184032 -0.00077434303 -0.002108255 -3.6629466e-05 -0.0025142855 -0.003537195 0.0032407944 -0.00022168526 0.0014062821 0.0014864986 0.0018678263 -0.00026915365 0.002011041 0.0017308951
1167 -0.0014144942 0.0017698968 -0.0008688643 0.0008944217 0.0030609488 0.00053163467 -0.0005046829 0.0005415026 0.0018522441 -0.0005485048 -0.0013710507 -0.0006816282 0.0015918124 0.002814896 -0.00015268454 0.002142875 0.0029568032 -0.0027767068 -0.0019066636 -0.002261109 0.00014506892 0.00074448914 0.0014360443 0.00046333284 0.0037811215 0.00309413 0.00022717971 -0.0026580924 0.0037587439 0.0025525594 0.0018231939 -0.0014769946 0.0014469819 -0.0005818637 -0.0019757284 0.002802948 0.003384931 0.00048765194 -0.002063951 -0.0017774845 0.00031392492 -0.0035870122 0.0011348146 -0.0034185406 -4.003942e-05 -0.00070102524 0.0014775103 0.0038096125 0.00065651094 -0.0020753883 0.0038492873 -0.0032085574 0.0033014545 0.002753853 0.002609431 -0.0021321555 0.0004905487 0.0010611532 0.0019944743 -0.0032116554 -0.00041831617 0.00016738843 -0.0022523769 -0.00062048435 0.00282139 0.00035382574 -0.0006169352 0.002883736 -0.0036716056 -0.0015821122 -7.269356e-05 -0.0015055304 -0.001772255 -0.002204102 -0.0036928875 -0.000256978 -0.0017683365 0.0011307234 -0.0004854299 -0.003783654 -0.00035947005 0.0038855693 -0.0030111324 0.0012622437 -0.0038062076 0.0001663398 0.0028925939 0.0008742753 -0.0022364645 0.002195926 0.0017423886 -0.0030529045 -0.0032827067 -0.0037673763 -0.0017451709 -0.0012909988 0.00017256889 -0.002425987 -0.00067753065 0.0010506067 0.0029691183 -0.0038933505 -0.0036191903 0.0011171919 0.0036126175 0.0023901677 0.0012376601 0.00014573014 -0.0035252923 -0.0009970692 -0.0013103943 -0.00029497952 0.0032154676 0.0037955157 0.0023281942 0.0010361847 -0.00023114588 -0.0017390213 -0.0009707916 -0.0024029077 -0.0009577044 0.00054644514 -0.003488643 -0.00383002 0.0020707797 -0.0007807166 0.0004199148 0.001963895
742 0.0015666343 -0.0014054116 0.0013131449 -0.0017820256 0.00092614145 -0.0012405019 -0.00253687 0.0039041443 -0.0031012658 -0.00029219076 -0.0030762022 -0.0021599054 0.0037584954 -0.003051278 0.0031760002 -1.664124e-05 0.003207173 0.00026477504 -0.0028136815 -0.0018716101 0.0012789044 0.0019270158 0.002251488 0.002871492 0.0019687773 -0.00092019094 -0.00091342104 0.002720792 0.00039644606 -0.0022543874 0.0012808132 0.0026808893 -0.0019161868 -0.0028171674 0.002860418 -0.0025645667 -0.002510123 -0.003517757 0.0035080437 -0.0005562112 0.0020592117 0.0024755744 -0.002221924 0.0020094072 -0.003056878 -0.0031320902 -0.0033975309 -0.00023033771 0.0019699882 -0.0031501388 -0.00096336793 0.0025576653 0.0013518757 0.00017568366 -0.0013467642 -0.00061934534 0.002073668 -0.0030944326 0.003718673 0.00054585247 0.0009916556 -0.0031360337 0.001886738 -0.0001672994 0.002857629 0.00040259073 -0.0025094042 0.0028533172 0.0020619277 0.003276077 -0.0011393933 0.00383949 -0.001692507 0.0023579241 -0.0033345614 0.0032759733 -0.0030127964 0.002840499 0.0015103776 0.0031643054 -0.00016865593 0.00039196076 0.0032847584 -0.002228998 0.00047718055 0.0033833794 -0.0018863735 -0.0027489106 0.0026823683 0.0032442722 0.0023426192 0.0036252178 -0.0016804066 0.0007165718 0.0014348355 -0.002962634 0.002524284 0.0026459172 -0.00052775437 0.0016089241 -0.0033582659 0.0022974943 0.0003161236 0.0030582694 -0.0024066367 0.003351777 0.0019973568 0.0009141445 -2.2359229e-05 -0.0002265823 0.0020121345 -0.001250083 0.0014118695 0.0035576315 -0.00017936021 0.00027804577 -0.0029048026 -0.00090497895 0.00024274077 -0.0038862005 -0.00019582918 -0.0033724334 0.0035990772 -0.00077952154 -0.0013378349 -0.0011307651 -0.002173846 -0.00027355313
497 0.002488619 -0.0035526785 0.003399201 0.0035566431 -0.0008923847 0.0006934474 -0.0021775134 -0.0011573491 -0.0014283914 -0.0038020029 0.0019111137 -9.156224e-05 -0.0008228513 -0.0031847227 0.0029326642 -0.0038706635 0.003306718 0.00037796816 -0.0008169456 0.003237835 -0.0014364555 0.00027961133 0.0002855156 0.0019653174 -0.0033293387 -0.0004722006 0.0031630762 -4.61127e-06 -0.0029485885 -0.0015906872 0.0022370536 -0.0023606897 -0.0034184493 0.00041722925 0.0037865425 -0.002473923 -0.003005351 0.003499114 -0.0010623954 -0.0012037636 0.003389913 -0.0005438199 0.0022570926 0.0018652328 -0.0011816164 0.001880363 0.0025254874 0.0010395437 -0.003808088 0.0037565331 0.0025607573 -0.0022048317 0.0009614701 -0.0025068256 0.0038730311 0.0020652083 0.003558185 0.00044809506 -0.00215643 -0.0014922601 0.0027628732 -0.0026589467 -0.0022669835 0.0036090934 0.0038344348 -0.0001912722 0.0015831888 0.00021527497 0.0034618163 -0.00044224615 0.003747125 -0.001772449 -0.0037741524 -0.00069039484 -0.0019753964 0.00025246796 0.0028656907 -0.0005439473 0.0009843787 0.0016561672 -0.002622683 0.0009783788 -0.00045652664 0.0016750155 -0.00012817302 0.0037145007 -0.00390247 -0.002907525 0.0029862719 -0.00066564593 -0.0035799658 0.0037489212 0.0026797077 0.0034850554 -0.0006697018 -0.003858504 0.003519222 -0.002981896 0.001999668 0.003238727 -0.0005191393 -0.001804613 0.00014907376 0.0031212883 0.0026939497 0.0026258202 0.0028130233 -0.0035199735 0.00094010896 0.0008561532 -0.00381837 0.0014142268 0.0030688613 0.0036624405 -0.0024890122 -0.003010614 0.0014984946 0.0038752733 0.0029661797 -0.00071162207 -0.0006673358 -0.00063208194 0.003051455 0.0023786388 0.002082487 6.938847e-05 -0.0009852692 0.0013327679
790 -0.0024907014 0.0006201883 -0.0035469115 -0.0005951008 0.0039039063 -0.0025541522 -0.0021366212 0.0036079718 -0.00028934874 0.0011722039 -0.0028943494 0.0022857678 0.0037515138 -0.002816181 9.745273e-05 0.0019767317 3.584947e-05 -0.0010518401 0.00043181595 0.0013991233 -0.0035388616 -0.0006437993 0.0030331735 -0.0004508346 0.0021229512 0.0028991306 -0.002891543 -0.0023602846 0.002726046 -0.0016607754 -0.0037286675 -0.002237976 -0.0021711905 -0.002605109 0.0018216796 -0.0032727788 0.0009573485 -0.0028639415 0.0029415414 -0.0011281063 0.00037653476 -0.0019479671 0.00041595488 0.0027160547 -0.0011955125 0.0025055225 0.001485916 0.002266485 0.00276762 -0.0016588027 0.00026657683 0.0035078067 -0.0033265955 0.00042632062 -0.003709342 0.0022912466 -0.00064388197 -0.00092075876 -0.0029869124 -0.0020130635 -0.00011986763 -0.00326146 0.0035545905 0.0029684254 -0.003863326 -0.0017714865 -0.0005994571 -0.001655084 -0.0035978272 0.00039563887 0.0027953633 0.0033389674 0.00083198777 -0.00021057847 -0.0036802688 -0.0009842115 -0.0008716825 0.0012990101 -0.002645962 -0.00039010838 0.0023802964 -8.570143e-05 0.0025884784 0.00097378116 0.00025513044 -0.0015558958 -0.0035490033 -0.0017689118 -0.003019037 0.0036009275 0.0018553428 -0.0005362796 0.0025299087 0.0021344954 0.0033438734 0.0033563264 0.000964742 -0.0032314847 -0.00027072272 0.00042531276 -0.0011086911 -0.00046560427 -0.0006585081 -0.0021751702 0.003491101 -0.0015479185 -0.0023492684 -0.0008420972 -0.003036548 -0.00014748008 0.0012304902 0.0014458754 -0.0013075022 -0.0030795787 -0.0009360236 -0.001640777 -0.0017266171 0.0024130258 -0.002771317 -4.035635e-05 -0.0021472464 0.0017534747 -0.00012432771 -0.0032499945 -0.0020616187 -0.0009383201 0.0005513077 0.0031127718
375 0.00115697 0.0007964107 -0.0026592019 -0.00034627563 0.0006960959 -0.001100104 -0.0009995347 0.0023855406 -0.0024834576 -0.00090968976 -0.00095842226 -0.00032135917 -0.0007156684 -0.0015783024 -0.0023319072 0.000593419 -0.003396595 0.0035189835 0.00014456632 -0.0008777204 -0.0025633764 -0.0030695528 -0.002894193 -0.00047207656 -0.0033685497 -0.0010043798 0.0031901503 0.0005206038 0.0013033621 0.0014858944 -0.0025260404 -0.00097482157 0.0032642423 -0.00174615 0.0037250498 0.003234537 -0.0031875689 0.0010691987 -0.00032906543 0.00074963446 0.0019955456 0.0025181256 -0.0027153944 0.0022473729 -0.00075240084 -0.0035052507 -0.002020132 -0.00018740668 0.0030414725 -0.0003049738 -0.0035166303 0.0009692966 0.0022165922 -0.0022252433 -0.000532337 0.0028926097 0.0014224664 0.0038128681 -0.0019027158 -0.003002965 0.0015102098 0.0012820786 -0.0026928105 0.0033572784 -0.0013180107 -0.0005927183 -0.0010143525 0.003749463 -0.00022669106 0.0024364388 0.001980236 0.00016823963 -0.001695526 -0.00016446975 -0.0026499333 -0.0025447179 0.00028894137 0.0017872134 0.0017930936 0.0027996323 -0.00023874505 -0.0012473146 0.0018714147 -0.0006175781 -0.00318747 -0.001520637 -0.00013545589 -0.0035067925 -0.0032947867 0.00063333404 -0.0035237444 0.0034997787 0.0034378131 0.0013935632 0.0013818643 -0.0011293063 -0.0012931363 0.0015977207 -0.0021879785 -0.0031908727 0.0024046185 0.0030505403 0.0021902255 0.001971207 -0.0006739612 -0.0035563924 0.0035794459 0.000632524 -0.0013973886 0.0019018487 0.0012926757 -0.00092752295 0.00010337576 0.0011081541 -0.00050694746 -0.0016892536 -0.00012789982 0.0012780615 -0.0036643483 0.00034047736 -0.0029592828 0.0014716828 0.00226814 -0.0019135659 0.0018974547 -0.003534814 0.0010445862 0.00014026393
1179 0.0018425729 -0.0012030451 0.00045937794 0.0035633952 0.0018722026 1.740447e-05 0.00038924912 -0.0015311274 0.0034682162 0.0003253748 -0.0034586003 3.124261e-05 0.00034027646 -0.002578179 -0.0007088454 0.00091644324 0.00077496987 0.0015547883 -0.0025568225 0.0036619455 0.0013934635 -0.000524445 0.0015610656 -0.0007426779 0.003136107 0.0017000696 0.0015950949 0.0021480743 -0.002072996 0.0020710572 -0.0027632592 -0.00017651453 -0.0016541064 -0.0013650242 0.0024087452 -0.0019805976 -0.00024732252 -0.0016029746 -0.0035350602 0.0031095815 -0.0014130004 0.0037012643 0.0010672406 0.001915801 0.0030406718 0.0014327619 -0.000992996 0.0006451744 -0.0006287025 0.0005648392 -0.00015010008 0.0014189476 -0.0024553095 0.0016312383 -0.0019006754 -0.0020606336 -0.0024993352 0.0032823456 -0.003278934 0.0006013837 -0.0024753013 0.0018191851 -0.002511354 -0.0031936835 -0.0038538284 0.00047108237 -0.0026913548 -0.0031753972 -0.0029107379 -0.0017386166 0.0033672047 0.0020936928 0.0005374918 0.0012333548 -0.0019096227 0.0022175862 0.00088575424 0.0036561678 0.003237299 -0.0019538421 -0.000217509 4.636403e-05 0.0030244878 -5.012747e-05 -0.0015743106 -0.0021750983 -0.0018170408 -0.0034926892 0.0025477998 0.0008975705 0.00018571917 -0.002057473 -0.0026840104 -0.0003946976 -0.003378003 0.002183322 0.0011198757 -0.0005424975 0.0019683854 -0.0019998483 -0.0004363532 0.0018817547 0.0017021545 -0.0030668424 -0.0033882766 0.0037919432 -0.00026821182 -0.003053985 0.0008980931 0.0023616662 0.000806675 0.0011416777 -0.0005720426 0.00019865141 -0.0026576193 -0.0036967255 0.0014573329 -0.0018424832 -0.00070252817 -0.000725741 -0.0033863334 -0.0025612283 -0.0032860746 -0.0029882665 0.0038584277 -0.00083765486 0.0015058835 0.0002534207
122 0.00064981345 -0.00076295703 0.0018813364 0.0016176254 0.0008381145 -0.001648126 -0.00083721057 0.0009907312 0.0021969758 0.00276708 -0.0016521929 -0.00014771649 -0.0009200506 -2.8479646e-05 0.0009643551 0.0013894371 0.0033202695 0.0019307834 -0.0013109228 0.0013012415 0.0037892335 0.001685097 -0.0017343069 0.0015006976 0.000541105 -0.0031920907 0.0016656312 -0.00062909693 -0.0028741236 -0.0037317742 -0.0006808447 -0.0001349396 -0.002432323 0.0022141936 -0.00038144708 0.0018597925 -0.0015546535 0.0014255582 0.00027440593 -0.0006069147 0.00046547165 0.001445051 -0.00035758378 0.001190117 -0.0013737172 0.0026656159 -0.000655136 -0.0016168798 -0.0012201932 -0.0026955304 -0.0018861454 -0.0035623077 -0.0028408377 -0.0035935084 0.0028099993 0.0025892553 0.0023577265 0.0038631337 -0.0008485376 -0.0033956212 -0.00085218396 0.0038724507 -0.0021738461 0.0032365813 0.0012649724 0.0028456063 0.003687759 -0.0017974259 -0.0034035905 0.0034702541 0.0035700991 0.00027041748 -0.0025505957 0.0015320011 -0.0006147525 0.002334607 -0.002272191 -0.0028681087 0.0034116784 -0.0005071647 -0.00058433076 0.0030311302 -0.0037160222 -0.0019745503 0.00389473 0.0033549732 -0.0030060473 0.0007024864 0.00051623315 0.00037507468 0.0035171672 0.0021899943 0.0005281393 -0.0013081235 -0.0028936325 -0.0019201096 -0.002180839 -0.00016934093 -0.0003284345 0.0010071356 -0.0032010884 0.0023454966 0.0021215621 0.0035343575 -0.0030104353 0.00055754575 0.0028668565 0.0021635962 -8.5628184e-05 0.0012793691 0.0038293046 -0.0017403202 0.003702584 -0.0013316812 -0.0005379351 -0.0024586483 -0.0020450158 -0.0006454369 0.0015595382 -0.0036893606 0.00081027247 -0.0026661118 0.00015296988 -0.00020588923 -0.0026129356 0.0022854574 0.00089579495 -0.0030240864
1198 0.0030445997 -0.0014850175 -0.0038166426 0.0023131617 0.0032138769 -0.0005861163 0.002660098 0.0015939671 -0.0025593685 0.001379677 -0.001603289 0.003816575 0.000983693 0.00385348 -0.0029700398 0.0019540777 -0.0020065834 -0.0023486123 0.00011777371 0.003389809 -0.0016604096 -0.0035093443 0.003253385 0.0029663744 0.0037969872 0.0027282203 0.002085578 0.0038059375 0.0018281606 -0.0038801457 -0.0022333574 -0.0034540375 0.0017848572 0.0015936475 0.003826966 -0.00019059032 0.0012890745 0.0029566465 -0.0017595974 -0.0018080532 0.0002360393 0.0030675346 0.0015654085 -0.0025431279 0.0008993205 -0.00024153275 0.00052694144 0.00027466347 -0.00069530157 0.0009331643 -0.0038279712 0.0032008986 -0.0032679602 -0.00046755356 -0.0033374594 0.0023507806 0.0008309966 0.0031794119 -0.002236287 0.0035812007 0.0018036979 -0.0016326078 0.0023471992 0.003116974 0.0029587355 -0.0016857177 -0.0037627402 0.002474301 0.0012873369 0.0034489997 0.0026210344 0.0036428808 0.0009170166 -0.0026199094 0.0015190812 -0.0015075201 -0.0004181313 0.0023697787 0.0019740872 -0.0025285599 0.0037817445 8.012404e-06 0.001986557 0.0006323494 0.0017479856 8.542515e-05 -0.001982974 -0.0008200227 -0.001741658 0.0021685786 0.0038110479 0.0035206075 -0.00026735303 -0.0038225767 -0.0005898793 0.0005500955 0.0038526808 5.452752e-05 -0.00027062104 -0.003609764 -0.0030994692 0.0015265363 -0.0028255833 0.0012931917 -0.00010618659 -0.0032898902 -0.0022851015 -0.0019349349 0.0025436122 -0.0011405792 -0.001605672 -0.0022864551 -0.00088567706 -0.0016038291 0.0023103752 -0.0019010133 0.0033254153 0.00055236014 0.00223953 0.0016586193 -0.00061875535 0.0002870738 0.0016071529 0.0030111908 -0.001210611 -0.0016954733 0.0028391245 0.000480945
741 -0.0008768245 -0.0030411868 -0.0004034272 0.0016400632 0.003010401 0.0024128123 -0.0014824155 -1.9032723e-05 -0.0016514445 -0.0025174448 -0.002763724 -0.0030953307 0.0039012544 -0.0015676485 -0.0024598443 0.0013510807 0.003551612 -0.0036829538 0.0028719793 0.0019346476 -0.001881845 -0.00043494118 0.00037256605 -0.002430584 0.0035260255 -0.0037271075 0.00050684495 -0.00047286518 -0.0010488358 0.00024317835 -0.0014893363 0.0008481791 -0.0026650112 0.0027691368 -0.0022681102 -0.0020956183 -0.0015261279 0.0039045454 -0.0005684294 -0.0020704893 0.0016269854 0.0026675684 0.0009395201 0.0012986631 0.0036168043 0.00063895737 -0.003625396 0.0008271843 0.0037326578 0.002996607 -0.00011400652 -0.0018227268 -0.0004390712 -0.0016051816 -0.00013189482 -0.0016851757 0.002867241 0.0005112279 -0.001690446 0.0021384386 0.00028458386 0.0023826153 0.0027662588 -0.0010495632 0.0019951581 0.0016621191 -0.0019633803 -0.0006737851 -0.0013447282 -0.0035781718 0.0027094933 -0.002887609 -0.0013511027 -0.0018069573 0.00080831366 -0.0025552795 0.00045521132 -0.003062666 -0.0037870454 -0.0038256221 0.0023321237 -0.002746723 0.0013538759 0.0017337699 -0.0015693656 -0.0010806628 0.002536003 0.0010741574 2.1986945e-05 -0.00010423578 0.002879024 0.0005182607 0.0024046013 0.0032127928 -0.001662132 -0.0015751199 0.0007074098 0.0011994847 0.0024256008 -0.00035908824 0.003695911 -0.0029364056 0.002221051 0.0025320186 -0.0037148362 0.0005511915 -0.003294882 0.0020296236 0.0025863722 -0.0016641456 -0.0019517421 0.0005248062 0.0022801077 0.0026080946 -0.0005682227 0.0036413318 -0.001867069 -0.0032485782 -0.0019238018 -0.0012334294 0.0028924914 -4.091333e-05 0.0014921784 0.0006795665 0.0030161839 -0.0022398687 -0.0019135688 0.0035887987
371 0.0013696441 -0.0020155557 0.0027096288 -0.001757256 0.0034016087 -0.0015805888 0.0015579568 0.0014368411 -7.3403484e-05 -0.0015930223 -0.0025129234 0.00018857738 -0.00045686806 -0.0038724558 0.0020432968 -0.0009925134 -0.0015358375 0.0037499857 0.0029437197 -0.0014779477 -0.0014964853 -0.0012652614 -7.903189e-05 0.000905444 0.0034798756 -0.0035229682 0.0031990465 0.0017843931 0.00096291775 0.0020176994 0.0004271951 0.0016537475 -0.001816275 0.0021455355 0.0038512256 -3.0389047e-05 0.003643177 -0.00062205305 -0.0025965525 -0.0017394484 -0.003492524 -0.0035483104 -0.0027654432 -0.0004524701 -0.0018826291 0.00075316813 -0.0019159233 -0.0021450436 0.0037646121 -0.0037672857 -0.0013841153 5.992116e-05 -0.00055703067 -0.0016877126 -0.0011058584 -0.0006138228 -0.0023651547 -0.0033917716 -0.0011407795 -0.0038828824 -0.00035867898 0.0015490848 0.00020563381 0.0023969554 -0.0008085649 0.0029622826 0.00010478667 -0.0032169514 -0.0024168885 -0.0028506669 0.0019777596 0.0019475726 -0.003342126 -0.0003176066 0.000622355 -0.002154511 -0.0004538191 -0.0028590302 -0.0022492837 0.0021461106 0.0018653196 0.002403516 -0.0026448183 0.001306462 -0.003800714 0.0024953985 -0.00286546 0.0035282238 -0.0005038978 -0.00051265716 0.00034815073 -0.0020458004 -0.0012652231 0.0006278552 0.0023092974 -0.0019043994 0.0012615079 0.00058112387 -0.0022649623 0.0032627631 0.0015237792 -0.0006723274 0.0011915187 -0.00086203666 0.0030125075 -0.00042605004 -0.0029737388 -0.0027771462 -0.0021947497 -0.002463102 0.00308314 0.0018533162 0.0011455098 0.0017530039 -0.003255911 0.00019303114 0.0024388435 0.001461513 -0.0035668663 4.5417702e-05 0.0037300664 0.0010093562 0.0006559682 0.0006413664 -0.0019206353 -0.0015366845 0.0011612682 -0.0013527377
421 0.0038952234 -0.0038126195 0.00086733035 -0.003463358 -5.3616455e-05 -4.1361778e-05 -0.0036538544 0.0028649028 0.002988821 0.0016031751 -0.0032479584 0.0030540812 0.0032583026 -0.0004551727 0.00029609035 -0.0018894997 -0.00022834586 0.0026160937 0.0010535778 -0.001978671 -0.002530619 -0.0013853107 0.0035799977 0.0030287749 -0.002483458 0.0038310608 0.0011753616 0.0028861964 -0.0031328797 0.0027539358 0.0019912543 -0.0036482874 0.0004448287 0.001902461 0.0016647333 -0.0008297049 -0.0028223388 0.000614779 -0.002665695 0.0032839784 0.0036932437 -0.0037259143 -0.0025708114 0.0031816966 -0.002107406 -0.00096067094 0.0010123211 0.0013659043 7.690531e-05 -0.0024531917 -0.00025917712 -0.00019652554 -0.0011161126 0.001587673 0.0024082055 0.0003745071 0.0029179666 -0.0022806418 -0.003513624 -0.0033936563 0.0018942686 0.0026186733 0.0016534635 -0.0013440362 -0.003554225 -0.0037136616 5.6636138e-05 -0.0007933245 0.0010119356 -0.00040045514 -0.002898843 -0.0017161245 0.0020845006 0.0028386123 -0.0011361139 0.0029771612 -0.0034191145 -0.0033128192 0.0015809565 -0.0002185065 0.0005622029 0.0016714537 -0.0005344087 -0.0031117287 -0.0009386035 -0.0001520725 0.0002547769 -0.0029869904 0.0028601096 -0.00032329842 0.00020374321 -0.0037272177 -0.0026178332 0.0031773506 0.00066297554 0.0022576957 0.0017455218 0.001452704 0.00075441506 -0.0036354226 0.00089412916 -0.0018994883 -0.0010179586 0.0006507529 -0.001023003 0.00042440262 0.0019669225 0.0036935739 -0.0019487825 -0.0013363088 -0.0027723364 0.0011829794 0.0032170373 0.0013263591 -0.002610071 -0.00067071605 0.00059835037 0.0016576954 -0.0017227335 -0.0008240069 -0.003786358 -0.0020811632 -0.0021817454 -0.0016829751 0.0032243284 0.0021567205 0.0037553622 0.0013709733
974 -0.0011228726 -0.0035077706 0.0007231452 -0.0014201346 -0.0024278837 0.0029787482 0.0005282298 0.0034345333 0.002831966 -0.00060313253 0.0030864514 0.0013782394 -0.0019941789 -0.0017916029 -0.0020641447 0.0028956914 -0.0015811634 -0.0031216203 0.0019884114 -0.00385427 0.001404557 0.003107683 0.00068314973 0.0013187522 0.0013831073 -0.00034255604 0.00058911304 0.00060317595 -0.0005187611 -0.0028090612 0.0033861215 0.0021735367 0.002344515 0.00080678554 4.6943616e-05 -0.0015187251 0.0011369591 -0.0029844996 -0.0025722054 0.0021439628 0.0030332175 0.0005310989 0.001884377 0.0026843492 -0.0002866566 -0.0031868403 -0.0033008424 0.0028618793 3.6974e-05 -0.000858498 -0.0014081385 -0.0026382762 0.00335542 0.0012317112 0.0014067603 -0.0029269625 6.030446e-07 0.001204188 -0.0030281022 -0.0012159094 -0.0015823619 -0.002528479 1.0093259e-05 -0.0034166786 -0.0013769639 -0.0034100758 -0.0038753543 0.003751685 0.0028150964 -0.0011232141 0.00056867383 -0.003004191 0.0015580426 -0.0006297689 -0.0036274462 -0.0036758825 0.0031851155 -0.0006690235 -0.0010840477 0.0022472446 -0.0010474232 0.0029622803 -0.0005741103 -7.697361e-05 -0.0018035587 0.0024531616 0.0025301855 -0.00035405712 0.00021882782 -0.0015941244 -0.0030757333 8.235689e-05 -0.0010067187 0.0014940501 -0.0008463268 0.0016605173 0.0011910414 0.0036570511 0.0006205286 -0.0033351213 0.0026714988 0.001517636 0.0023822759 0.0029272418 0.0029472671 -0.001283796 -0.0024461036 0.00018174807 0.000516453 -0.0035325722 0.0038971077 -0.0018859486 -0.0026585488 -0.0011635539 -0.0027159825 -0.003363723 -0.0013393664 -0.0029661048 0.0012217506 0.0018241958 0.002851612 -0.002856132 0.001662729 0.0038183758 0.0006932565 4.5223704e-05 0.0019187904 0.002637387
300 0.00038654808 0.0034492593 0.0007348457 0.0017371725 0.003098795 0.0028647722 0.0025100524 -0.001442781 -0.0033827112 0.0009886307 -0.0020049687 -0.0006632391 0.0025727998 0.0015926143 0.00026248096 0.0009944427 0.0017113272 0.0025306419 -0.0038491972 -0.002800443 0.00256311 0.0023720844 -0.0027143145 -0.0030195978 -0.001025253 0.0012753182 0.0034034979 0.0037623818 0.0029676422 -0.0027886396 0.0003471729 -0.0025291573 -0.0023490773 0.00091420615 0.0021496944 0.002347536 -0.003390325 -0.0033731898 0.0026988757 -0.0017384819 0.0013446619 0.0027909812 -0.0021091583 -0.00059538044 -0.0012326756 -0.0016608556 -0.0034105992 -0.0009021595 -0.0030219965 -0.0033110324 0.0019590312 -0.0038026934 0.002825112 -0.0018932242 -0.0029089362 0.0026882412 -0.002850518 0.0024084193 0.0026676557 0.0034861232 0.0036780413 -0.00077158044 -0.003477313 0.0035457218 0.0036231838 0.0004186963 -0.0004162414 0.00069514883 0.0021724575 0.003621255 -0.0037633064 5.3085507e-05 0.0027539302 -0.0037932864 -0.0033143836 -0.0015917677 0.0026905546 0.0006885873 -0.0014648358 -0.0016061281 -0.0035962327 0.0009816976 0.0016983042 0.002120089 -0.0037806365 0.0003176884 -0.0036084903 0.003207872 -0.00093760586 0.0024472175 0.002760466 0.00047335165 -0.0022962664 -0.0011804134 -0.00068546756 0.0028917186 -0.0030137051 0.00030105535 0.0024871978 -0.0033788665 -0.0024648565 -0.0010370607 0.0004382117 0.0019844885 -0.0012638633 -0.002578111 -0.0024371366 0.0007923893 0.0024790834 -0.0021456021 -0.0007631451 -0.0033352382 -0.00030017065 -0.0031172843 0.0021215572 0.002693181 -0.003707253 -0.0035809197 0.0014886041 -0.0010515106 0.0027447667 0.002444685 0.0014522828 -0.001479594 -0.0015921795 -0.0037324657 -0.0017936033 -0.00017900633
672 -0.000903212 -0.00069317763 0.0028979562 -0.0004097929 -0.0027563728 0.002663261 -0.00381552 -0.0018140196 0.0016993177 0.0028892886 0.0023050916 -0.0015947515 -0.00040626133 -0.00059921836 0.0029904859 0.0009997131 -0.0024812894 -0.0035412842 -0.002658675 -0.0036318793 0.0036322307 -0.00077739276 -0.0034804838 0.0030489257 0.0008991872 0.00021488983 -0.0033345574 0.0020424689 0.000542715 -0.0031618616 -0.0027601873 -0.0008839625 -0.0014906239 -0.00034877012 -0.0036484525 0.0018343098 0.0027545895 0.0034413298 -0.00016779474 0.0006529631 0.0022222255 -0.0009998382 -0.002187482 1.0206646e-05 0.00055317 -0.002144192 0.0027117336 0.0015381321 0.0028702246 -0.0022431505 0.0015580738 -0.0034890862 -0.0028367552 0.0019632794 -0.0007134448 -0.002909616 -0.0010931181 0.0038090725 0.0026039127 0.0037027416 -0.0022237448 -0.0025204222 -0.0015602323 0.0011069106 -0.0015342865 0.003348846 -0.0015159154 -0.0017065401 0.0018054246 0.0011531499 -0.003781538 -0.0003709142 -0.0031687822 -0.0031898846 -0.0006566025 -0.001139482 0.0018650695 -0.00080650835 0.0014305969 0.00121467 0.002395722 -0.0038176565 0.0010468444 0.0024869868 0.00069963746 0.0019211723 -0.0031097538 0.0029039572 -0.0015541248 -0.0017745864 -0.0007345111 0.0012792654 -0.0032115341 0.0028642043 -0.002296018 0.0021741223 0.001670734 -0.003568385 -0.0021688128 -0.0020266485 -0.0031972355 0.00022416371 0.0015796847 -0.0005053477 0.0026898189 0.0017684037 0.001806621 -0.0035492806 -0.00070527266 0.0036764236 0.0032852364 -0.0027494335 0.0026590768 -0.00095486856 0.0029826772 0.001296577 -0.0033537445 0.00035740618 0.00049824885 0.0033288405 -0.003518087 -0.0016769556 0.0012550282 -0.000106517124 0.0011518107 -0.0005679976 -0.00062920427 0.0010111455
427 -0.0022273825 -0.00381876 0.000973057 0.0009391882 -0.0006471301 -0.0020612604 -0.0030793168 -0.0017208636 0.0015333552 0.0027783061 0.0007887616 -0.0029047332 -0.00036694182 -0.0015143586 -0.00034060705 -0.0023838778 0.0016422686 -0.0018551452 -0.0038181203 -0.0020316737 -0.0026399114 0.0013976708 0.0036722 0.00024912122 1.0858437e-05 0.002073582 0.002975319 -0.00059192086 -0.001564687 -0.003613693 0.00152798 -0.0031630676 -0.0022947222 -0.0026657456 0.0027048832 0.002359838 -0.0016786981 0.00024839 0.0010470041 9.1751375e-05 -0.0012171373 0.0012162463 -0.0018691825 0.0010071894 -0.0032195991 -0.0024312548 -0.0013463538 -0.0005570722 -0.0033506998 -0.0009234188 0.0036923108 0.0036900835 0.001504692 -0.0028821796 -9.198368e-05 0.0004519862 -0.0032040998 0.00011447073 -0.002957414 0.0022247953 0.00379019 0.00040366824 0.00029304155 0.00081807 -0.0030799853 -0.0012360639 -0.00073052547 0.0021646754 -0.0032481577 -0.0019119137 -7.312628e-05 0.0016508705 0.0022627283 0.00014385117 -0.003491781 -0.0038371428 -0.0027886506 -0.0026422893 -0.000343917 -0.0016172428 0.0004758586 0.0033126483 0.0016836326 0.003012447 0.00023722713 -0.0009607707 -0.0024969475 0.0029751637 -0.0020538992 -0.00017554537 0.0037892633 -0.0013253179 -0.0026383454 -0.0016890028 0.0010628975 -0.00081798644 -0.003449735 0.00041836474 -0.0022156849 -0.003427419 0.0018451206 -0.0009007584 -0.0009771022 0.00019068034 0.0024021973 -0.0015713728 0.0033838057 -0.0004282057 -0.00090351986 0.0031299265 0.0026180742 -0.00036902653 -0.0011546701 -0.0014399135 0.0013891682 0.0025934952 -0.00079599884 0.003634122 -0.0009524101 -0.0010484492 -0.00025883576 -0.003143563 0.0005107352 -0.0017953722 -0.0025943075 -0.0013148903 0.0036019343 -0.0035671096
1211 -0.0031288955 0.0031799155 0.0003704331 0.0025407441 -0.0014124631 0.0034013854 -0.0012225392 -1.286752e-05 0.0007174672 -0.0002903901 -0.0034491254 -0.0030296356 -0.0028841684 -0.0015737993 -0.0032195705 0.00043585894 0.002363642 0.00022800143 -0.0005427511 0.00061436236 -0.0016368785 -0.0018444885 -0.0037583858 -0.0037707202 -0.00241012 -0.0005115401 -0.0018675211 0.0008618335 0.0024023873 -0.0036007692 0.003306294 0.0011780559 -0.0006351548 0.00017793142 -0.00021896789 0.0028901808 0.0029146692 0.0026919236 -0.0033046093 -0.0033537643 -0.0012190667 0.0014097529 0.0017986624 -0.001388837 -0.0011930552 0.0023539516 0.0018205225 -0.002819018 0.0015022928 0.0029868297 -0.0017630873 0.00092582154 -0.00064509735 0.0036063348 -0.0030995344 -0.0011488763 -0.00037882713 0.0016991824 3.3180077e-05 0.0007943438 -0.0008604258 -0.0026128455 0.001042915 -0.0034793913 0.0026658725 -0.0022979344 -0.0029435547 0.0031101722 -0.00019234052 0.0006587566 0.0028007706 -0.0020273319 0.0022609115 0.0025545047 0.0027800815 0.0019055395 0.0018413194 0.0002648609 0.003635035 -0.00042506156 -0.00046604773 0.0010890954 0.00012384073 -0.001669588 -0.001946976 0.00086641236 0.00045618287 -3.018008e-05 -0.0011257301 0.0013057298 -0.001204157 0.0034148644 0.0033115519 -0.0014026787 0.0028000765 0.0007699128 2.0781612e-05 0.0023608983 0.00093919015 -0.0032421357 -0.0017854247 -0.0022733153 -0.003701117 -0.0020334523 0.0025318358 -0.0009366018 -0.0015476745 -0.0030550065 -0.0020604988 0.0013139343 0.00027581328 -0.0014856318 0.0036481563 0.0011900471 0.0021914572 -0.0037036813 -0.0017253567 0.0029245482 -0.0009985055 0.0035243905 -0.0026611509 -0.0013610898 -0.0029409102 0.0024005247 0.0036950551 0.002378521 0.003361201 0.0022651341
404 -0.0035609496 -0.0026499922 -0.003193818 0.0001858851 0.0021956488 0.0010040761 0.0022890468 -0.0015832814 -0.0004561979 -0.0033267625 -0.0004518994 -0.0024205158 -0.0012901882 -0.0037395528 0.0022292642 0.0026145906 0.0014618547 -0.002041984 0.0033582365 0.0014160832 -0.00036685442 -0.0038125243 -0.0014757453 -0.0027727175 0.00012369221 0.0007457962 0.0036892365 0.0036099688 -0.0033308638 0.0017835611 0.00116834 0.002238686 0.0010029259 -0.0010707484 0.0006817946 0.00026657354 0.00045892753 0.0032770482 0.0031160475 -0.00020766832 0.0031527083 0.00024839633 0.002201751 -0.0016874264 0.00031817533 0.0033515503 -0.0013270585 0.0012378402 0.0018440416 0.001870493 0.0028394526 0.0021090815 0.001158115 0.00085680245 0.0012886934 0.001475349 -0.0010201026 -0.00057545205 -0.0020189537 0.0015261585 0.0016624012 0.0023592256 -0.0023399743 -0.0037828228 0.0015198349 0.0025924973 0.0005071201 0.0018890661 -0.0035094083 -0.0009991181 -0.0010841308 0.0017417745 0.0029602132 0.0020434048 -0.0037196865 -0.00282808 0.002206118 0.00010114013 0.0022595965 -0.00066169957 -0.000289674 -0.000949696 -0.001011995 -0.001191163 0.0011631273 -0.0013213796 -0.000917473 -0.0025579869 0.0017678428 -0.0005689277 0.0007998521 -0.0026648561 0.0016799147 0.0020497364 0.003819957 -0.0031365296 -0.0008105405 -0.0032415946 0.0002300948 -0.00045390424 -0.003055774 -0.0011306049 -0.0038111324 -0.0003533652 0.0036070128 -0.0029066596 -0.0014448251 -0.0029918628 0.001964796 -0.00029660162 0.0024921086 -0.0022465093 -0.0034171164 -0.0024583896 0.0020949715 0.0012830873 0.00037910265 -0.00020356925 6.0376766e-05 0.0005942341 0.0018155179 -0.0006236391 0.0026174916 0.00054567977 0.0019103859 0.0022064748 -0.00044586227 0.0012882655
244 0.0016164803 -0.002466795 -0.0038776924 -0.00025921653 -0.00021638341 0.0028908337 0.0017490035 0.0028252138 0.001251012 -0.0038280184 -0.0015632078 -0.000833975 0.0036635066 0.0006453766 0.0014455195 0.0012455562 0.0033832754 0.0020829833 0.0023763336 0.0035939652 0.0029996387 0.0013808459 0.0028276409 -0.000687092 0.0029920465 0.0021600178 -0.0012967667 -0.0019910443 0.0035367685 -0.0036644505 0.0027943049 0.0025668794 0.0023046301 -9.783642e-05 -0.0027443634 -0.0034444437 -0.0025184802 0.0017175358 -0.0022813072 0.0029624347 0.0016873042 -0.0029526255 0.0015222081 -0.0036245105 0.0018262219 0.003765628 -0.0027375952 0.0032418366 0.0033426064 0.0011514383 0.0029577038 0.00089215836 -0.0014236846 0.0030432653 -0.0013553321 -0.003087199 -0.0009961283 -0.0036902395 -0.00020712792 -0.0019139223 0.0005860072 -0.00042567187 0.0020944765 0.0024130123 -0.0024671846 0.002800409 -0.002924173 0.0020754123 0.0020613438 0.0032768417 -0.003193416 -0.0015806794 -0.0015239498 0.0013090294 -0.0011112582 0.0024529437 0.0023355861 -0.0011742393 -0.002883467 0.0014668361 -0.0035888434 -0.0009907301 0.0024892178 0.0032767684 0.00063166145 0.0019931034 0.0025307771 -0.0025909783 -0.00038505287 0.00086822244 -0.00222573 -0.00031064052 0.0028585196 0.0013576195 0.0037884673 0.0012627305 -0.0012105299 -0.0016683184 -0.0031470943 -0.0033981602 0.0013494389 -0.0011212453 0.0023747007 -0.0029352913 -0.00048982067 -0.0004408516 -7.155254e-05 -0.00064481044 0.0025277159 -0.00028166565 -0.0022033402 -0.0008733742 -0.00249942 0.0037231876 -0.002284815 -0.003734707 0.0028486045 -0.0006642347 0.002466814 -0.0006905248 0.0037224712 -0.00067312823 -0.0032136005 -0.0029733656 0.003837174 -0.00046472132 0.0036826085 -0.0027924483
357 -0.0012937804 -0.0017354654 0.0016510272 -0.0006117628 0.0019467155 -3.7258755e-07 0.0023124402 0.0017917734 0.0027300352 -0.0015709833 -0.0030587832 -0.0016313622 6.478234e-05 -0.0034613314 -0.0010003762 0.0017482847 0.003287791 -0.0026543932 0.0023877004 -1.9469764e-05 0.0012194549 0.0022747936 -0.0011249551 0.002060649 0.0012311947 0.00018795741 0.00062282966 0.0015542824 -0.0033622 0.0022868619 -0.00061515404 0.0019615565 0.002947092 -0.0032223735 -0.0012757753 0.0016556052 -0.0034400471 0.0004754099 0.002251342 0.001386642 0.0022708743 -0.0034138053 -0.0012586286 0.0004364158 -0.0018489999 -0.0028343324 0.0012966461 -0.0009180515 0.0027266014 0.0017591665 -0.0015398739 -0.0030405226 0.003303677 0.0037840258 -0.00016503387 0.00019147461 0.0036942184 0.0027102733 0.002935962 -0.0037062003 -0.0032011794 0.003489662 -0.00035218787 0.0012776245 0.0033088732 0.00039673943 0.0014977672 -0.0016502452 -0.0021369038 -0.003722522 0.0033950096 0.0029940074 0.0007223711 0.0008519027 -0.00045322345 0.0037366215 0.0030769897 0.002363931 0.0034645083 0.00010166829 -0.0015330015 -0.00058183394 -0.0033931353 0.0029978894 0.0021225226 0.0018456648 -0.0031512636 0.003035553 -0.0010616081 8.699929e-05 0.0015162035 0.0021271377 0.0038357894 0.0019970392 -0.003855704 -0.0021739502 0.0029863843 -0.00216133 0.0019191224 0.00095358206 -0.003827498 0.00085851015 -0.00085425074 -0.0023622706 0.0026496318 0.0004763478 0.0037580084 0.0015717099 -5.132059e-05 0.0021242762 0.0035965862 -0.0015509884 0.003172789 -0.0032162531 -0.0038887993 -0.0027616469 0.0024181223 -0.0008296806 -0.00089523935 0.0010421363 -0.00013768915 0.00084759796 0.0022594535 -0.003577476 -0.0037692212 -0.0019855548 0.002003607 -0.0021025469
231 0.003129102 0.0030992364 0.0016184112 -0.00056275085 0.0026451931 -0.00037000468 -0.0013625622 0.00011778812 0.000114904484 0.0029121714 0.002817758 -0.0022846141 0.0004836122 0.0012503914 -0.0034884396 -0.00015302257 -0.00058426 -0.0021096661 -0.0004351081 0.0006632267 0.00073665235 -0.0035754596 -0.0013825968 -0.0021256967 -0.0014762378 -0.0026144003 0.0038296476 0.0032587748 -0.0028336318 -0.0020221574 -0.0029499286 0.0010306308 -0.0034414977 -0.0033477983 0.0008834314 0.002606885 -0.0025170888 0.0008904271 -0.0003053121 -0.0012926025 -0.0013002921 0.0019335223 0.00017658564 0.002672017 0.0008342736 0.002547507 -0.0036780448 -0.0028643273 -0.00040278825 0.0014118291 0.002602292 0.0032316612 0.0027906285 -0.0035481008 0.0012241935 0.0037068129 8.169509e-05 -0.0019803464 -0.00016943064 -0.0026544987 0.001296097 -0.00046095118 -0.0027840573 -0.00010782886 0.002378735 0.0013609766 -0.00315555 0.0020806615 0.00022421547 0.0021071513 -0.0009966373 0.0011206676 -0.0011564409 0.0031961026 0.00070851395 -0.00067089766 -0.00058318063 -0.0031351037 -0.001577725 -0.0019554035 0.0035514378 -0.002246408 -0.0025227168 0.0035324187 0.0009395726 -0.0032088046 -0.0038268084 -0.0017226562 0.002338601 -0.0027367263 0.0022083009 -0.00043846943 -0.0022395044 -0.0016226614 0.0013119113 0.0030161021 0.00322736 0.00082331296 0.0014399951 0.0036021997 8.0385566e-05 -0.0035381753 -0.0038215825 -0.0032864984 -0.0025049334 -0.0031701422 -0.0020550974 0.0015563004 0.0006525642 -0.0007400288 0.00069774734 0.0027948588 -0.00019054535 -0.0024453623 0.0038881912 0.00029739825 -0.0027557712 0.0034022422 0.003295676 -0.0012338728 -0.003148082 -0.0037539725 0.0032682365 -0.002239503 0.0003213816 2.7478853e-05 0.0021732703 -0.0009993075
524 -0.0023172405 0.0035117795 -0.0032780124 -0.0016271054 -0.002639519 -0.0038784775 -0.0029364566 0.0024505674 -0.001392475 -0.0038228447 -0.0025803735 -0.0026684112 4.147297e-05 -0.0013057785 -0.0029836525 0.002028257 0.00012777021 -0.003010357 0.0004223103 0.0024262893 0.0037113063 0.000988215 -0.0028775262 -0.001395369 -0.003824836 -0.0032843852 0.0017785155 -0.003436791 0.0016777951 0.0016328878 -0.0035566625 -0.0028355694 -0.0033641353 -0.00092268374 0.0005009607 -0.00017964191 0.00054792565 -0.0030521299 -0.0007563454 0.0034599686 -0.0016856015 0.0012771593 0.003242935 0.000649316 0.00039752029 0.0034319307 -0.0017881725 0.0039009382 -0.0026004591 -0.003085218 -0.0006577674 -0.0001970508 -0.002829363 0.0010353427 0.0032393108 0.00096720015 0.0014192167 0.0036923066 0.0016807184 0.003600605 -0.0020306595 -0.0031013272 0.0022582426 0.0014545586 0.0036964198 -0.0038389948 -0.0022961234 0.0038035072 0.0026579709 0.0028657874 -0.00038257465 0.0012838341 -0.0015313711 -0.0018524982 -0.00073391665 -0.00079806335 0.0038004632 0.003137491 0.0008331887 0.0012314676 -0.0033282845 0.0012432223 -0.0027378043 0.0008136854 -0.0013299972 -0.000842781 -0.003841126 0.0009708386 -0.0019408071 -0.0022726632 -0.0033872335 0.0007748327 -0.0019004461 -0.0025287007 0.0022102238 0.0015880403 0.0005579149 0.0033146658 -0.002945306 -0.0005178363 0.0010819236 0.0023431361 -0.0015876623 -0.00016004818 -0.0026468986 0.001676645 0.0013810822 -0.0019859693 0.0025820874 -0.002208094 0.0009685664 -0.0017990165 0.0006766138 -0.000806094 0.0037300268 0.0025972924 0.0013011595 0.0026980513 0.0021585452 0.002912468 0.0010664413 -0.0028258222 0.003203662 -0.0004515622 -0.00078453403 -0.00018914789 0.0007400927 0.0033826067
11 -0.0026959528 0.0008828385 -0.0028471153 -0.0013528743 -0.003288183 -0.0031227923 -0.0008872954 -0.002162191 2.6629717e-05 0.002880394 -0.0007746969 -0.0026172858 -1.1975631e-05 0.0020656218 0.000204952 0.00018145569 0.0016361214 -0.002926626 0.0017344992 -0.000421705 0.0020559365 0.0027805078 -0.0033892298 -0.0029545228 -0.0028164408 -0.0017776679 0.0020055138 -0.00201877 -0.0032020009 -0.0027744607 0.0014693805 -1.1276964e-05 -0.00026619897 -0.0013012683 -0.0010271639 0.0031807052 -0.002732044 0.0036350787 0.0032794774 -0.0029344796 0.00024973045 0.0034527914 0.002594421 -0.0026842526 0.0002238131 0.0014850087 0.0026336566 -0.00031497097 -0.00017846134 -0.0005781637 0.0014767256 -0.0034516682 -0.002956874 -0.00034083248 -0.0014618852 -0.002654927 -0.0034378483 0.0010941324 0.00045623464 -0.00043697047 0.0020457546 0.00017389799 0.000666716 0.0012389381 -0.0006025574 -0.0025566902 -0.003188948 -0.00019755313 -0.0014325158 -0.002690036 -0.0034899234 -0.0011818825 -0.0036248576 0.0034527397 -0.001848356 0.0024075601 -0.0006304826 -0.0029393013 -0.002265036 0.00062812906 -0.0010405855 0.0010378001 0.0014390207 0.0013045211 0.0037653043 -0.0006679798 0.0036227931 -0.0007032408 0.0032929105 0.002495945 0.0027615218 -0.0007805585 0.0027015742 0.0021013974 0.0022937336 -0.0025084857 0.00026402812 -0.0011340862 -0.0033664347 -0.00193527 -0.0018896873 -0.0038102663 0.001891256 -0.001744838 0.0025431635 0.0008694003 -0.0017444523 0.0012266375 -0.0009466559 -0.0015082667 0.00017793402 -0.0009949105 0.003663832 -0.0005344287 0.0027127375 0.0021713849 -0.00021190244 -0.0010376085 -0.0014782228 -0.0012301162 0.003649603 -0.0026062862 -0.0015775694 0.0019053083 0.0001655848 -0.0038393494 -0.002092298 0.0024556862
847 -0.0010143853 0.0038290992 -0.00091081363 0.0024402526 -0.0031820224 0.001069107 3.6940422e-05 -0.0011150015 0.0022097223 -0.0029428964 -0.0023467946 0.0033141496 -0.00029456223 -0.00014651717 -0.0006652196 -0.000844238 -0.0022467482 -0.0009153247 0.0029887785 -0.0019007293 0.0016358274 0.0036457246 0.0024610753 -0.0007745283 -0.0010515179 0.003498236 -0.0028179905 0.0013477122 -0.0013816571 0.001700653 0.00074156374 -0.00037657656 -0.0030388683 -0.002841665 -0.00077380956 0.0015807261 0.0032334146 0.0001715413 0.0024598688 0.00093975454 -0.0016850776 -0.002682562 -0.0027717846 0.0022809012 0.0025663967 0.003902548 -0.0025275312 -0.0009050576 0.0036925646 0.0015839941 0.0036044118 0.00083187135 0.0020476922 0.0005599726 0.002364793 -0.0018157304 -0.0009240031 0.0004538888 -0.001600453 0.0020185264 0.0018145685 -0.0016673635 0.00070330483 -0.002765069 -0.0029466038 -0.0014684682 -0.0032213225 -0.000826829 0.003055092 0.0031019629 -0.003272171 -0.0038546282 -0.00085043965 -0.0025687849 -0.0006211972 -0.0019029361 0.0031598534 -1.3420068e-05 0.00306218 -0.0024450887 0.003428862 0.0010392279 -0.00331894 -0.0034749438 -0.00043777213 0.0030700325 -0.0021887012 0.0024003359 -0.0018380394 -0.0015486816 -0.0017322692 0.003773366 -0.00017831971 0.001537158 0.0018480603 -0.0029584994 0.0029469507 -0.0025935944 0.0014233041 -0.0024855004 0.0032309971 0.0027042227 0.00269038 0.0035370183 0.0033429207 0.0008276829 0.0019284957 -0.0016938862 -0.0030418395 0.0029665064 -0.0036160375 -0.0003165628 0.001072201 -0.0015974707 0.0002605246 -0.0033885827 -0.0017488006 -0.0009215238 0.0021981343 -0.003814141 -0.0037390378 -0.0015262734 -0.0032651338 -0.0009334822 -0.0019102696 0.0015656047 -0.003318203 -0.0013852894
477 -0.00026140016 -0.0016682838 0.0033170988 -0.0006427014 0.00096968835 -0.0021842506 0.0005036314 0.0009650977 -0.0038257688 -0.00079113134 0.0012483795 -0.0025641136 0.00040967952 0.00084387086 -0.0005401748 0.0005146988 0.0007619913 -0.0029318852 0.0014140892 0.0037910535 0.0009391401 0.0013600814 -0.0023483369 0.002666457 0.0018541806 5.3267115e-05 0.0009340125 -0.00085621217 0.0031634315 -0.003156738 -0.00085141585 -0.0002925613 0.0028758608 -0.0023172584 -0.0025846798 0.0039000034 0.0036800432 -0.0025758962 -0.0022086997 0.0020032309 0.0038843092 0.0020637054 -0.0017868225 -0.0010180636 0.00020384045 -0.00056714256 0.0020128726 0.0013518141 -0.002208251 -0.0031841637 -0.0020499348 -0.0006208567 -0.0012365802 -0.0009614107 -0.0036014286 0.0024187795 -0.0027571288 -0.0007550898 0.00093319523 -0.0009706867 0.0018387304 -0.0009933402 0.002323766 0.0034577537 0.0021032833 -0.0033680587 -0.00312714 0.002728667 0.0037814835 0.003354239 0.0029450946 0.0014731314 0.0018865677 0.00029372203 0.0033783268 -0.0015057742 -0.0037170355 0.00361168 -0.0003177329 -8.9739115e-05 0.0039018807 -0.0018817157 0.0028162305 0.0014694472 -0.0025002891 0.0015038975 -0.0013196365 0.0013562343 -0.003888656 0.0009017038 0.0027478295 -0.0012177374 -0.0030666497 0.0027119683 0.0016195113 -0.0007134113 0.002009386 -4.592551e-05 0.0005839217 -0.0018889538 0.0011495117 -0.0011906311 2.452533e-06 0.0034309584 0.0018842145 0.0029151058 -0.0007674954 0.0037385225 0.00072706374 0.0035821637 0.0022478874 -0.0012154971 -0.0010719437 -0.0004322752 0.0022520963 0.002918299 -0.003547469 0.0022951767 -0.0015909052 0.0024746389 0.001216057 0.0037690261 0.00028939307 0.0016757761 0.0037553513 0.0007839778 0.0016414811 -0.0033052738
519 -0.0027858193 0.00086889113 -0.00013302075 -0.002694173 0.0032756424 -0.00021741576 0.00012203665 0.0038301442 -0.002353896 -0.003798441 -0.0014786969 0.0031787 -0.0017338067 0.0020739373 0.0028419243 0.0010334582 0.0024468515 0.0038972066 0.001175353 -0.002524389 0.002750063 0.002565348 0.0015428347 -0.0023224442 -0.00081288384 0.003385369 0.0015150186 0.00087406684 0.0005341176 -0.0025149805 -0.0038062148 0.0018058472 -0.0017474554 0.0013319053 -0.0016802722 -0.00040260347 0.0011767737 0.0021969674 -0.00088219944 -0.0032703052 -0.0002641692 -0.0024551305 0.003296364 -0.002699679 0.0015393365 -0.0008052259 -0.001684951 0.0030376858 0.0017185315 0.0016593533 -0.0024082456 -0.00039456002 -0.0033991388 -0.0019128908 0.00063797913 -0.0007823717 -0.0016160506 0.0023510822 0.0036631273 -0.0038746428 0.0022226023 0.00020505258 -0.0027201553 -0.0010202097 0.0031708996 -0.0008800186 -0.0002618417 -0.00021111846 -0.0022486756 0.0026978205 -0.002762293 0.002844988 0.001830617 0.0028581088 0.0033846456 0.003764898 -0.000252635 -0.003096492 0.0012167982 0.0007514802 0.0027204368 0.00049765396 -0.0024746265 -0.0023414085 -0.0038039105 -0.00031788967 -0.0034130274 0.00077608135 -0.0024594846 0.0018527298 0.00055118854 -0.001191294 -0.00078877696 0.0003422525 8.417629e-05 0.0021692354 0.0026566843 0.00038254348 0.002238773 -0.0024401424 -0.00039824887 0.0028309377 0.002896332 -0.002204709 0.0033937371 -0.003847853 0.0011419628 0.0017519096 -1.7251317e-05 -0.0013366906 0.0021648407 -0.0016462259 0.0018751966 0.0026277818 0.0010767924 -0.0028716885 6.761889e-05 0.0002385614 0.0011006956 0.002095435 0.0036004889 0.0013817387 0.003223446 0.003788577 -0.0011068265 0.0020600555 0.0018158503 -0.00038746416
339 0.0035467069 0.00083130493 -0.0006301003 -0.0033113628 -0.000859815 -0.00069359475 0.0026017337 0.0023071559 -0.0038052252 0.0030042152 -0.0017128156 -0.0030691347 0.0013409992 0.0019190001 -0.0034872703 -0.00028272334 -0.001529699 0.002504366 -0.0011168903 -0.0014534859 0.00057484733 0.0004187996 -0.0012619334 0.0022707582 -0.002426929 -0.0028723658 0.0031294143 -0.0020226664 0.0013610929 0.0025994396 0.0001589523 -0.00040857066 -0.002126993 0.0033660433 0.00025969505 0.0009299503 -0.0012249724 -0.00034196986 -0.0007333376 -0.0023314953 0.003808818 -0.003624124 -8.4889936e-05 -0.0025492688 -0.0011731333 -0.0038156519 -0.0035308555 0.0035198473 0.0039010255 0.001356822 -0.0031885135 -0.0017388917 -0.0016436318 0.00089756836 0.0034798766 0.0019003279 0.0006879734 0.0012886067 -0.0024489556 0.0004076494 -0.002714337 0.0024827325 0.0033018284 0.0013641922 -0.003322436 -0.0037988164 0.0021930358 0.0034176758 -0.0025725183 0.0034338858 -0.0007634998 -0.0027861584 0.0037991584 0.0016345027 0.0028562923 0.000588075 -0.00045033815 0.0003489754 6.343309e-05 -0.0007546637 -3.1250765e-05 0.0030792356 0.0011408597 -6.801572e-05 0.0022037304 -0.0013689438 0.00016436537 0.0014924392 -0.003352228 -0.0031072216 0.001735209 0.0012960666 -0.00087565684 -0.0018537383 0.0027869418 0.0038169846 -0.0012288913 0.0033800195 -0.0038715727 0.0015294071 -0.0034496079 0.0028975175 0.0031643028 -0.0027656246 0.0011163631 0.00018004375 0.00082244177 -0.0030660497 0.0020670863 -0.0010041484 1.1698333e-05 0.0036485812 -0.0025679672 0.001992953 -0.003127922 0.0015436811 -0.0015312685 0.0027406856 -0.0020779201 0.0023861723 0.0003059162 0.00054431474 0.0020094754 -0.003455182 -0.0021871296 0.0021602649 0.0021413185 -0.00013343316
197 -0.0011287372 0.0033606156 -0.0025540963 0.0006646137 0.0026713996 0.0036826355 0.00056857703 -0.0013926869 -0.0017629093 -0.0015693327 0.0023905446 0.0026953337 0.000986215 -0.0010720276 0.0033160746 0.0020816163 0.0004655433 0.0003507623 0.002297942 -0.0013952717 -0.00069513085 -0.00332652 -0.0012100332 -0.00087500614 0.0010079234 0.0036172846 -0.0004679581 0.0027788004 -0.000842835 0.0024301256 -0.0025032698 0.0016185082 -0.0034690066 -0.0033863906 -0.0024164042 -0.00040871775 0.0024611705 0.00032778172 0.0027031566 -0.0025943138 0.001247766 -0.0009066363 -0.0038207204 -0.0013605056 0.0026807946 0.0022166488 -0.0009227667 -0.0022576842 -0.0038296154 0.00058771187 -0.0030986648 -0.0022722122 0.0033849 0.0009417667 -0.0014226357 -0.0016507572 0.00041850496 0.0019826097 -0.00370994 -0.00028807434 0.0035469588 0.00018095171 0.0017172932 -0.001999253 -0.003895131 -0.00056917616 -0.001340311 0.0030277853 -0.0013424878 -0.002409727 -0.001708258 -0.0034274638 0.0038040462 0.002137966 -0.00291032 0.00029411816 0.0018956508 0.00023294153 0.0024156575 -0.0034767068 -0.0025438743 -0.0016991983 -0.0010289678 0.00042092195 0.0020934658 0.00034598145 0.001988987 -0.0036096808 8.446024e-05 -0.0031539113 0.00095575 0.001089369 -0.0011730515 0.00046240684 -0.0017934083 0.0021958633 -0.0011752185 0.00081241544 -0.00093814015 -0.00085756084 -0.0028840802 0.00020731127 -0.0018724665 0.00312306 -0.0021650936 -0.0014813037 0.0013984945 0.0037177873 -0.0008898363 -0.002212548 0.002634398 0.0032469851 0.001230694 -0.0018143866 0.0031926972 0.0015750984 -0.00032698453 0.0013889286 0.0012344838 -0.00043770476 0.0007971846 0.0027282094 1.5920265e-05 -0.0019916382 0.0009650606 -0.00070793065 -0.0003564634 0.0029635068
591 -0.0015102162 0.0028515032 -0.0033055854 -0.0005819821 0.0016968802 -0.0030868722 0.0025773973 -0.0034097806 -0.0029427996 -0.00020533829 -0.00046650908 -0.0014911896 0.0034520982 -0.002676736 0.0021638304 0.001460653 -0.0001192507 -0.0014520156 -0.00017741411 0.0028058041 0.0025609485 0.003758912 -0.0005321128 -0.0022017902 0.0004691032 -0.0007015013 -0.0011735108 -0.0031917738 -0.0015469233 0.00027769533 -0.0025900817 -0.0019247109 -0.0025085872 -0.00012370422 0.003682694 -0.0011024582 1.1064539e-05 3.0106141e-05 -0.003179945 -0.00023688133 0.002555958 0.001183631 -0.00050626515 -0.0024847523 -0.0026694243 0.0021998712 -0.0036662745 0.0027341575 0.0038026073 -0.002580139 0.0011571345 0.0026051302 0.0035943317 -0.0012805545 -0.002601416 0.0011016247 0.0013956669 -0.0031899936 0.00045201305 0.0028026972 -0.0016409663 -0.0034218873 0.0015833455 0.0034265623 0.0004736118 -0.0035996523 0.0022171196 -0.0019154012 -0.0023684886 -0.002710844 0.0010165015 0.0019642399 -0.0007608042 -0.0015625047 -0.0003197374 -0.0034537753 -0.0031371969 0.0012161657 0.001669509 0.0031946963 0.0014634765 0.0038032741 0.003773678 -0.00031401264 0.0022834332 -0.0010603606 0.003219071 0.0022805096 0.0012205454 -0.0016054934 -0.0036774506 0.001466244 -0.0031089336 0.0029531003 -0.0026718362 0.0023575937 -0.00097484863 -0.0013931171 0.0032428862 -0.0010014428 -0.0037715726 -0.0017065642 0.0026559916 0.0038457294 0.0010778387 0.0036983697 -0.00278287 -0.0016680695 0.0007422324 0.0038375466 0.0023491995 0.0008326568 -0.002720152 1.7194923e-05 0.0015434484 0.0008306993 -0.00013212152 0.0027009055 -0.0027727138 0.0032892984 -0.0015112701 0.00032153292 -0.003345112 -0.003724916 -0.0027662024 0.0038590755 0.0006086875 -0.002035193
1078 0.00026903965 0.0027170428 0.0021665741 9.5104966e-05 -0.0026307115 0.0030311316 0.00046310373 0.001007828 0.00065360405 0.0016034913 0.00090110314 0.0008616444 0.0004951785 -0.00195232 -0.0022547797 -0.0005643651 -0.00039873802 0.0016115705 0.0015602215 -0.003355248 -0.0038284534 0.00022685532 0.0011943622 -0.002827536 0.0031255998 0.00036735274 0.0014503924 0.00020181658 -0.0018340603 0.0016871428 -0.0038458838 -0.0019214737 -0.001961043 0.0018792346 0.00076888216 -0.00075555325 -0.0034148674 -0.0023254745 0.00045521604 0.003705307 -0.0033463882 -0.0021398002 0.0005967251 0.002322641 0.0028508932 -5.2923755e-05 -0.0012118672 0.0022692399 0.000576555 -0.0027152263 0.0024902225 0.0037524719 0.0005672394 -0.0005610416 0.00013839772 -0.0033818646 -0.00014039113 -0.0024558997 0.0023620024 0.0029014251 -0.0014695993 0.0034137878 -0.0005111456 -0.0006867968 -0.0017775903 -0.00036270157 -0.0035700917 -0.0010380268 -0.0022699211 0.0033722296 0.0021022153 0.00070413825 -0.0032160068 -0.0018859397 -0.003829748 0.0023684998 8.6108914e-05 0.0011203025 -0.0025021278 -0.003178636 -0.0015622455 -0.0020216433 -0.0010771746 0.00040399595 0.00034066348 -0.0020920625 -0.0035032774 0.0038785385 0.002688138 -0.00014629988 7.708699e-06 0.0013722925 -6.2401676e-05 -0.0036905925 0.0017819653 -0.003486992 -0.0028563326 0.0006660522 0.0025355085 -0.002682689 0.00016922856 0.0014571394 0.003449094 -0.00079393486 0.0022783394 -0.0005345659 0.00020965055 -0.0035287158 0.002431163 0.002271277 0.000985687 -0.0007870182 0.0034651242 -0.0025388533 -0.0024859582 -0.0024324546 -0.0026901895 -0.0008665216 0.0016708542 0.0005646988 -0.0028725746 -0.0013280221 0.0005297606 0.0036261582 0.00089767337 -0.0024736994 -0.0012148943 -0.0014505087
