1222 128
618 -0.0019969803 0.0022931946 0.0014396916 -0.0032957587 -0.002034379 0.0009168396 0.0034107554 0.0008175014 -0.0022884433 -0.001682231 0.00137794 -0.002041951 0.001976628 -0.0018326964 -0.003104956 0.0033093155 0.0024061874 0.0016539971 -0.00034185158 0.0030738816 0.0013420638 -0.002501461 -0.002704674 0.0038834687 -0.0012200014 0.0019932662 0.0038877404 0.0021873938 0.0012956903 -0.0024617205 0.0031486999 0.0026303704 0.0011237699 -0.0002894458 0.0015555634 -0.0027306897 0.0013003254 -0.0014947624 -0.00058154576 0.0007381366 -0.003638669 -0.0027866524 -0.0038443643 -0.0011638775 0.0026317206 -0.000985448 -0.0019118086 0.00039741432 6.803822e-05 0.0020095953 0.0013001442 0.0022822218 -0.0023872422 0.0028282756 -0.0018202732 0.0011586429 0.0019738616 -0.0036527491 -0.0033096024 -0.0011852008 -0.00060498633 -0.0009869159 0.003527685 -0.0028732414 -0.00055448996 0.00033449728 0.00029019619 0.0021574677 -0.0033581448 -0.0018032641 -0.0014367311 -0.0010968399 -0.003841025 -0.0005022302 -0.0025468394 -0.000897374 0.0008039257 0.00289582 0.0008430639 0.0031995361 -0.0011448337 0.0006330134 -0.00095068617 -0.0010358671 -0.0033676364 -0.0010062719 -0.0038895262 0.0027552969 0.0031135855 0.0016215749 -0.0029015713 -0.00014889482 0.002230344 0.0014628585 0.0023755631 -0.0017069099 0.0018247241 -0.0036008158 0.0030696124 0.0002924048 0.001972608 0.0030499408 0.0007305099 0.001993483 -0.0033441018 -0.0015381076 -0.0026902338 -0.0020284352 -0.0022272887 0.002421689 0.003166672 -0.003312904 0.003886734 0.002105815 -0.0003324943 -0.0015782104 0.003086433 -0.0023137697 -0.0036043518 0.0016829578 -0.0030825653 -0.00024896095 -0.00041067172 0.0030385456 -0.002946762 0.00028214234 -0.0026214714 -0.0010729658
100 0.0008885726 0.0027510289 -0.00055102137 -0.0021868905 -0.00090300496 -0.001462157 0.0038483671 0.0012596775 -0.00046412248 -0.0025980806 -0.0017024097 -0.0034574135 0.0035342434 0.0010101054 -0.002783762 4.86028e-05 -0.0026872756 0.0024742451 -0.0027565332 1.191812e-05 -0.002991437 0.0034357745 0.0009982114 0.0002144929 -0.0032757486 0.0034166388 0.0010327129 0.00019877333 -0.00030569005 0.0017824 -0.0031605784 -0.0026488733 -0.0005796427 -0.0013092383 0.0023602357 -0.0035833635 -0.0028585698 -0.00033353275 0.0028953534 -0.0023151082 0.0034768314 -0.002818109 0.0038719631 -0.0035996276 0.0009527446 -0.0017072278 -0.0013583124 0.003276148 -0.0021413509 0.0012486712 -0.0018331845 0.00222679 -0.00311662 -0.0021918546 -0.0010221744 0.003706274 -0.000109845445 0.00073796004 0.003543564 0.0016235824 -0.0020233563 -0.0021086691 -0.0022709363 0.00295853 -0.0026749615 0.00056688755 -0.003578946 -0.0012381583 -0.002840465 0.0038794347 0.00082907727 -0.0038945668 -0.0028164252 0.0038783143 -0.003030203 -0.0016360944 -0.0020938586 0.0009576422 -0.0013092853 0.0015894773 0.001619065 -0.0013650791 0.0007796305 0.0006830387 -0.0030108392 0.0027912972 -0.0003138779 0.0025843973 -0.0019487306 -0.0002600743 -0.0032355275 -0.0006144229 0.003048279 -5.7559122e-05 -0.002096405 -0.0003318646 -0.0038837716 -0.0011301466 0.0020848995 0.0017152467 -0.0016529271 -0.0027944592 -0.00017786637 -0.0026547862 0.0005624925 -0.0031656304 -0.0020568296 -0.0036398845 0.003383272 0.00081552065 0.00075475883 -0.0012889652 0.003028712 -0.00055481517 0.0010667932 0.0011164572 0.003852808 -0.0034273628 -0.00047603718 -0.0036148578 0.0031593714 0.0012023246 0.0031167713 0.0035563293 0.0028710193 0.0035919554 0.0034478444 0.0028356137
126 0.0032597156 0.0023992972 0.0029874502 0.0037427188 -0.0038410735 0.0030083915 -0.0006332543 -0.0005383138 0.002719234 -0.002187841 0.0020364935 -0.0025497088 0.0006656454 -0.0012082095 0.0005406312 -0.0005096788 0.003242462 0.0030822263 0.0015346041 0.0011882888 0.0017918312 -0.0023955677 0.0015406044 -0.0019958804 0.0009824919 -0.0029670997 0.001483603 0.00070009765 0.0020069017 -0.0021117101 -0.002327344 -0.003011887 0.00038777856 0.0017828036 -0.00081133127 0.00025058372 0.0016178213 0.0031285714 -0.0030480942 0.003517232 0.003872769 0.0019141939 -0.0029647106 -0.0010534405 0.0009960146 -0.002421444 0.00084262696 0.0009926108 0.00055072224 -0.0005736636 -0.0011523797 -0.0038754507 0.0029818213 -0.0010155895 -0.0011566577 -0.0011408154 -3.8335747e-05 -0.0020372332 -0.0017386962 0.003058541 0.00019127697 -0.0020451667 -0.0012706518 0.0020046409 0.00019815774 -0.0016375482 0.0014567768 0.00025055956 0.00047466124 -0.002711475 0.0019854303 -0.0013395138 0.0036505118 0.0021902686 -0.002076745 -0.0019785797 -0.0034795285 0.0034198428 0.0015281579 -0.0025844048 0.00189124 0.0028293475 0.0020831716 -0.00258578 -0.0030907076 0.002054618 0.0031857793 0.0017217378 0.0029813522 -0.0013003406 -0.0014533442 -0.0030379647 -0.001050532 -0.003196091 0.0017730416 0.0022015667 0.00050019124 0.0024373403 0.0010560438 -0.003546505 -8.8983725e-05 -0.0012787641 0.0038780947 -0.0021885291 -0.00088537915 -0.0017317458 -0.0020278923 0.0031176894 0.00079239724 0.00022080702 -0.0021226641 0.0034059053 0.00226239 -0.0020394882 0.0020749609 -0.0038798605 0.002237769 0.0024480855 0.0007558118 0.0029238842 -0.0021950083 -0.0027305798 0.0016070002 0.0014227934 -0.003624833 -0.00062222505 -0.003436979 0.0020428356
837 0.0006831264 0.0034426001 0.0005834385 0.0009593237 -0.0019872023 0.0035792596 -0.0027435427 -0.0028163437 0.0028699099 -0.000111773945 -0.0012403853 -0.0031716495 0.00038449853 0.0006263205 -0.0015173703 -0.00047822652 -0.0025871305 -0.0011790784 0.0009342047 0.0008724353 0.0013176124 -0.003785383 0.0032805463 0.0024442016 0.0035045617 -0.0028820753 0.0016115563 0.0028069813 0.0030567015 -0.0029186672 -0.00019351373 0.0023675743 -0.0015003692 -0.0025505638 0.0014665864 0.00015466551 -6.634917e-05 -0.0008214093 0.00069751596 0.0008555033 0.0018887685 -0.0035761413 -0.0024991625 0.0025266348 0.00270873 -0.00079385063 0.0007157922 -0.0034299633 0.0011462267 -0.0037654184 -0.0030087354 0.00080187747 0.0024230015 -0.0038634462 -0.0024764105 0.0014610583 0.0005209385 -0.0008878589 -0.0027924988 -0.0019546028 -0.00018705323 0.003027175 -0.0034295726 -0.0035814987 0.0020847095 -0.0011161736 0.00042043725 0.0018585784 -0.0032511882 0.0023301984 0.0028055345 0.0020597856 -0.0033023688 0.00097222667 0.0011669705 -0.0016809922 0.0006966871 -0.0015459717 -0.0009936447 -0.0025219477 0.002105822 -0.0003820755 0.0011123266 0.0002481952 0.0012395347 -0.00036468677 -0.0036266977 -0.0036130096 -0.0031913207 -0.0021559556 0.0029735903 -0.0023543914 0.0012256507 -6.489197e-05 0.0034354767 -0.0021302945 4.2782573e-05 0.0023210694 0.003746048 0.0037550514 -0.0022575606 0.001899843 -0.0005431312 -0.003593198 0.0032954835 -0.003830633 -0.0024744282 0.0031049883 -0.0020105192 -0.0026750602 0.0016960478 0.0030433475 -0.0010450201 0.0006910894 -0.00070769154 0.0023846547 -0.001218981 -0.003465402 -0.0018673392 0.003447373 -0.003349195 0.0012376573 -0.00086691213 0.0011539562 -0.001097326 -0.0035695655 -0.0011321733 0.0005590992
1177 -0.0026425854 0.0011599336 -0.0011427206 1.4604026e-05 0.002403341 -0.0036085849 0.003736779 -0.00041274438 -0.0037719975 0.0018167652 -0.0010910433 -0.0010264937 -0.00040266092 -0.0030884424 0.0005830795 -0.0023205916 0.0015896916 0.0030262046 0.0014314664 -0.0012771146 -0.001799428 0.0026494705 -0.0010086898 0.0008347911 -0.0022985318 0.0020451471 -0.0026231077 0.0025092138 0.0028195034 0.003675124 -0.0027687284 0.00052607205 -0.0020167045 -0.0006411817 0.0012471449 0.0009583713 0.001623015 -0.0032558965 -0.0029026116 -0.0013705344 0.0026047803 -0.0001674493 0.0020631698 -0.0033759726 0.0014275423 0.003084107 0.00031372797 0.0019439935 -0.001030925 0.00032044767 0.0005451784 0.0036827135 -0.00090540724 0.0025599357 -0.0015487646 0.0029691886 0.00043322938 0.0021179907 0.0029065923 -0.00021735155 -0.00078743114 0.0025340756 0.0029106855 -0.00019153504 0.0032087306 0.0013338632 -0.00033308586 0.0022527725 1.5549083e-05 -0.0027192817 0.003593262 -0.0003809401 0.0012319634 -0.0029089637 0.0022424173 0.0005692262 -0.0017196353 0.0011703036 0.002695237 0.0014548901 0.0017525435 -0.003074991 -0.001157505 -0.0032579617 0.003832192 -0.00061967806 -0.00011477127 -0.00091554236 -0.00034212833 -0.0017760671 -0.002390552 -0.0034295341 -0.00076991436 0.00092491385 0.0018762854 0.00096471986 0.0007828744 0.0021799956 -0.0008044509 0.00014041798 0.00036383982 -0.0017083066 -0.0010512505 0.0013321773 -0.00048654422 -0.0004378185 -0.001291357 0.003793399 -0.00041396468 -0.00085455185 0.0018996404 -0.0012270531 0.0037999777 -0.0012133756 0.00014268557 0.0020115864 -0.0032060908 -0.0030584652 -0.0037963968 0.0036473363 -0.0031164137 0.0004839602 0.0014629745 0.0013548944 -0.0022600843 0.00093016034 0.0026423722 -0.0020836552
496 0.0003215689 -0.0022163978 -0.0010455272 -0.0037492707 0.0013965733 -0.0014764931 -0.0018799468 -0.0007649356 0.0022709717 0.003408519 -0.0035247018 0.0024477488 -0.0022659043 0.002179396 -0.0002471586 0.002779369 -4.459099e-05 0.0018130284 0.0004884716 0.0033053095 -0.00041924763 -4.25616e-05 -0.0025211598 -0.0011458714 -0.0007491641 0.0027685938 -0.00093596795 0.003576071 -0.002442832 0.0006022493 0.0030657751 -0.0011356552 0.0036229808 -0.0032594837 0.0021122792 -0.000205506 -0.0025792832 -0.003729212 -0.0037902095 0.002816503 -0.0003882395 -0.0018889344 0.00087503245 0.0015769396 0.0038489532 0.0037536365 -0.0004865405 -0.0029929483 -0.0014387217 -0.0021430943 0.0022897683 0.002653424 -0.0026095237 -0.0019716828 -0.00042417014 0.0013136206 0.0008525984 -0.0005640988 0.0011955064 0.0029373078 -0.0011472292 0.0035348793 0.0026709458 0.003168369 0.0014521718 -0.00041835153 -0.001476324 -0.0036876244 -0.0032048936 -0.003186125 0.0007208014 -0.0020412654 0.001242023 -0.0030471748 -0.0025788543 0.003255348 -0.00034204987 -0.0029118154 -0.001138936 -0.0019549783 0.0038778246 0.00068108365 -0.00175045 0.0018125913 0.001983655 -0.000766637 0.0027047717 -0.0035991736 -0.003773125 -0.0020943193 0.0018153889 -0.0034058203 -0.0017152982 0.0015938594 0.0038210815 -0.0032058542 0.00057578366 0.0009332045 0.0028011526 -0.0038440095 -0.00034636844 0.0035478282 -0.0024076717 4.7783324e-05 0.0027427885 -8.429076e-05 -0.0011021263 0.00085737044 -0.0030895034 0.0032209689 -0.002185599 0.001477846 0.0037115435 -0.0018628994 -0.0018136847 0.0012581157 -0.0016947764 0.0012836767 -0.001953946 0.0014027162 0.0035618132 -0.0012675357 0.0011143298 0.0033431372 0.0020813742 -0.0022857245 -0.002000745 0.001561201
565 -0.0033592891 0.0024358628 0.00198494 0.0030494623 0.0012799533 -0.0015080534 -0.0009913493 -0.00056042895 0.0030661712 -0.002696529 -0.00080566615 0.0014363313 0.0038637605 -0.00018059881 0.0009965119 -0.0034660706 0.0015691476 -0.0004318755 -0.0038249397 0.0019770043 -0.0020022285 0.00074368104 -0.0020752698 -0.0023381023 0.0027740374 -0.0036894355 0.0030425293 0.0032205102 -0.0027983799 -0.0034637805 0.0025353509 -0.0004221111 0.002647627 0.00040371466 -0.003351406 -0.0016314947 0.0024275212 0.0032617934 -0.0014327031 -0.002336369 -0.0028944327 -0.0009518058 0.00212088 0.0029438103 0.0008360903 -8.627353e-05 -0.0018318519 -0.0018034562 -0.0018287717 0.0025909678 -0.0026289872 0.0024959596 -0.0015485222 0.003831613 0.00010945851 0.0015774972 0.00020260758 0.0035382176 -0.002739462 -0.0035719015 0.0013066381 -0.0025220877 0.00097589794 0.0019952904 -0.0010978197 0.0031426318 0.00010073891 -0.000381307 -0.0007367548 0.0017659476 0.0004611426 -0.0013181475 0.0023831222 0.0014175889 -0.0035032905 -0.003063999 -0.0027856869 -0.0014653398 -0.0005765735 -0.001431309 -0.0028666023 -3.9634695e-05 -0.0033886682 0.0025345196 0.0012700537 0.0016368452 0.003091677 0.0021904348 0.0019480742 -0.0009953816 0.0013921648 0.0003851453 0.0025083285 -0.0018029145 0.0036960274 0.0032141462 0.0035884024 -0.0016362108 -0.0012845204 0.0011243618 9.069844e-05 0.0029823023 0.003394106 0.0012255777 -0.0007297187 0.0002423547 -0.0033971083 -0.0008524498 0.0025605157 0.00037495384 -0.0033870377 -0.0012155874 -0.00010694061 -0.0021247717 -0.0009307014 0.00043687635 0.0012016447 0.00075945933 0.0023554699 0.00018096123 0.0026637646 -0.0026559485 -0.0028600802 -0.00053380197 0.0029704338 -0.00029257295 0.0014368168 -0.0017345641
767 -0.0035193656 0.003626039 -0.0017576851 0.0025428832 0.003212398 0.0023220144 -0.00030855148 -0.0022936608 -0.0029542374 -0.0021497433 -0.0021258818 -0.0039020872 -0.00085167435 0.00021587209 -0.0007229277 -0.0031847921 -4.0208906e-05 -0.0008782772 -0.003659852 0.0023681729 0.0034169503 -0.0006334236 -0.0022804567 0.0031682048 -0.0022458397 0.0009411574 0.0023885954 0.0035919969 0.002955713 -0.001387626 -0.0035064027 -0.0012517278 -0.00032630624 -0.0019571264 0.0016323467 0.0010220674 -0.002993153 -0.0022826104 -0.002068214 0.0002769619 -0.00061262713 0.0012958703 -0.002639622 -0.0028385797 -0.0005101967 0.0004710422 -0.0019545758 -0.0022839997 -0.0022298528 0.0013723094 0.0005456996 8.400081e-05 -0.0031635347 -0.0028635396 0.0031410751 -0.0014364432 -0.0027312948 0.0019645146 -0.0033898256 0.0022152816 -0.0011557136 4.586384e-06 -0.0020807192 0.0023585826 0.0037932836 -0.00032900024 0.0015276136 -0.0020180398 -0.0010730607 0.0036932738 0.0035776217 0.000843857 -0.0016521633 -0.0016786586 -0.00012238995 -0.00038440595 0.0018483035 0.0008982146 0.0033807075 -0.00061930803 -0.0010411793 -0.002418169 0.0036337993 0.0030487203 0.0031637356 0.0034568706 0.0032232031 -0.0003897121 0.0001635257 -0.0017029403 -0.0016563069 0.0022393467 -0.0023287737 0.0032883168 0.0008207159 0.0006022983 0.0009309211 0.0018741721 -0.0035492014 -0.0037456434 0.0014658604 0.002486163 0.0032167467 0.0021364999 -0.0036611801 -0.0019341707 0.0029498339 -0.0027915284 0.0038283602 0.0001832399 0.00356569 0.00014206428 0.0037130583 0.0036555608 -0.000486563 -0.0022880177 0.0017620762 0.0014757896 -0.0014933654 -0.00025850884 0.0030558761 -0.0009738813 0.0023549944 -0.0021087558 0.0025961443 -0.0029258037 0.002228296 -0.00299081
945 -0.0017869303 0.00057938154 -0.001019191 -0.0037357186 -0.0028249922 0.0029645166 -0.0002378405 -0.0032754478 -0.0011422926 0.0037406802 -0.0035729967 0.0036866304 0.00019348065 -0.0027915507 0.0034290473 0.0013695769 0.00035577815 0.003333476 -0.0010965235 0.0037235096 -0.0012838972 0.0017362983 0.0032058174 -0.0032367697 0.0011865277 -0.0019896384 0.00015677142 -0.00077808613 0.0036481505 0.002666648 -0.0023183867 0.003093074 0.00038066355 -0.0012857997 -0.0012680806 0.0020524831 -0.0028596933 0.00033575308 0.0033234716 -0.00051554013 4.4790642e-05 -0.00017296201 0.0011053086 -0.0037064007 0.0018110982 -0.0028769705 -0.0010326176 0.0008445996 0.0009799456 -0.0006287324 0.0021908267 0.0012441531 0.003859318 -0.0007308661 6.347487e-05 -0.003721644 -0.0036548644 0.0036904323 0.0010624266 0.000114590344 -0.00307028 -0.0013276695 -0.0025998852 0.0017349956 0.0019510888 -0.0025954596 -0.0017462795 -0.0010102488 -0.002528379 -7.1075534e-05 -0.00069239497 0.0033942182 -0.0024129415 0.0021567885 -0.0028102782 0.0027826717 -0.0006819641 -0.0021492494 0.0014582782 0.003375606 -0.0019044413 0.002408947 0.0027185236 0.0015249634 0.0037573618 -0.0031484987 0.0031541395 0.0029478802 0.0013507894 -0.0002804405 0.0039004448 1.8991757e-05 0.001205808 -0.0029724285 -0.0016442426 -0.001106474 -0.00047792547 -0.0017902596 0.0028840806 -0.0030800398 0.0006340442 0.0020244294 0.0023875483 0.00091114675 0.0036070298 0.0014252759 -0.0007825071 0.0021418722 -0.0026644543 0.00080848444 -0.003491994 0.0012353517 -0.0032238378 0.0032889363 -0.0016966173 0.0028567705 0.0030598834 -0.0029997914 -0.0035784366 0.0025840288 0.002209473 0.0007173839 0.0021502357 0.0012693807 -0.0032480217 -0.00047440664 0.0029473468 0.0038267376
138 -0.0013650835 -0.0011316929 -0.0021022721 0.0036841303 -0.0038816861 0.003021828 -0.0027065175 0.0020454158 0.0015447524 -0.0014487557 -5.8415594e-06 0.0034879155 -0.0018645425 0.00239641 -0.0013675389 -0.0021039925 0.001763943 -0.00028538294 0.0015994164 -2.4032202e-05 -0.0034176365 -0.0033916335 0.0013884348 -0.0034449636 -0.0031011896 0.00211386 0.0024168375 0.0024546073 0.0022983095 0.0001564553 -0.0030063542 0.0015747071 0.002505633 -0.0013253567 -0.0033121791 -0.00091105176 0.0012849903 0.001406391 0.0016871144 -0.002541154 0.0016638433 -0.0006325978 -0.00347834 -0.0010312373 -0.0017015716 -0.0035298327 -0.0032691583 0.0029770508 0.0028586306 0.0008065881 -0.0013197002 0.0029616253 0.0009892794 -0.0021046004 -0.0031066285 0.00132887 -0.0029936044 -0.0029805305 -0.000575253 0.0005721075 -0.0011803205 0.0007076927 -0.00020692521 0.0017424362 0.0015228599 0.0022319404 0.0037992564 -0.00091609766 0.00085631164 0.00053900754 0.00052178494 -0.0033756914 -0.0014064573 -0.0005177944 -0.0023940983 0.0022437398 0.0033190972 -0.002516941 0.0037953907 0.0031252252 0.0022539333 0.003346294 -0.0029391458 -0.00044114311 0.002786649 0.0005829267 0.002648499 0.00041325294 0.0034305493 -0.00038491315 0.0008354211 -0.0026037958 -0.00053047005 -0.001407097 -0.0014067527 0.0018168357 0.00034019735 0.0004202661 -0.0012053837 -0.000639967 0.0034318825 -0.00083518494 -0.0021095774 -0.0034629048 -0.0037119673 0.0006655328 -0.00020194685 0.0035641727 -0.0012582686 -0.00070862786 0.0014930475 0.00095347466 0.0024621324 0.0014249898 -0.0021227377 0.00023907634 -0.0023402344 0.003559344 -0.0023390322 -0.0022023057 -0.0011613449 0.0009852101 -0.0012987814 -0.00057018956 0.00231672 -0.0025897617 0.0010130265 -0.002635102
1005 0.0006702367 0.0033472064 0.0012256397 -0.002157292 0.0016287707 0.0011289597 -0.000112074384 0.0024705955 0.0036785142 -0.00017063688 0.0030563183 0.0032681848 -0.0013295182 -0.00083570863 -0.0023912534 0.0022304761 0.0029353104 0.0009417311 0.0020288453 0.0018753846 0.0028024926 0.0006390234 -0.0022493727 -0.000737221 -0.00013461198 0.0032098747 -0.0016263976 -0.002391409 -0.00024754994 0.0005357941 0.0028207733 -0.0022127035 0.0029571475 0.0025679716 -0.002617445 -0.0026199385 0.0038404146 0.0018455572 -0.0032071755 -0.002210427 0.0001954728 0.0016492304 -0.0007763056 0.0017257386 0.0002959234 0.0022807447 -0.0027621945 -0.002151394 -0.0019315908 0.0034473245 -0.0030062306 0.0037407773 -0.00013149403 -0.003576582 -0.0032241156 -0.0010959641 0.002035019 -0.0034973861 -0.0033025662 0.0034801895 -0.002634086 0.0018509619 -0.002269283 -0.0016339875 0.0033861727 0.001529951 9.067368e-05 0.0004711837 0.00090760866 -0.0013317551 0.0018671493 -0.001677878 -0.0011135546 0.00030560917 0.0018910944 0.0011965511 -0.002996289 0.0015847887 0.001175077 0.0037918675 -0.0007192307 -0.0012567233 1.0503431e-05 -0.0027384954 0.00025598856 -0.0033959968 0.0002107944 0.0013917431 0.0008195839 0.0025585198 -0.0017762505 -0.00088546186 0.0007139634 -0.0006421173 -0.0001089263 -0.0013827975 -0.003610301 0.00017537903 -0.0019108683 0.003862454 -0.0016954166 -0.0016969563 -0.0018755032 0.00044853313 -0.0005096003 0.0004732518 0.0008194312 -0.0028388817 0.0018700479 -0.0006312097 -0.00012401158 0.0027734246 0.0022027756 0.00018503355 4.132026e-06 0.00016353905 -0.0016186472 -0.0017415717 -0.0037320727 0.0017377953 -0.00078688725 -0.00083704933 -0.002285455 0.0023185785 -0.0031294199 0.0012211078 -0.00333479 -0.0012350461
719 -0.0015954876 0.0028256997 0.0025190248 -0.0036068873 0.0019439588 -0.003690424 0.00318857 -0.0006617266 0.00015382575 -0.0010849913 -0.0014634146 -0.003071104 -0.0020855025 0.0037141116 -0.0006807178 0.0020855006 0.00025710074 -0.00045699682 0.00065102003 0.00015458527 0.0017487896 -0.002245706 -0.0005382463 -0.0010588561 -0.0002423534 6.341518e-05 -0.0033843617 0.0029054233 0.0013045165 -0.0028446047 -0.0024161614 0.0026684399 -0.001218026 0.0007884031 0.00014343626 -0.00354582 0.003035913 0.00022053914 0.0016220018 -0.0033917576 -0.00331026 0.00272863 -0.0039056467 -0.0033613082 -0.00033753703 -0.0013217059 0.00064060005 0.0008675687 -0.0021512355 -0.00072374183 0.0038952997 -0.0036779167 0.0018710574 0.0016681947 0.003462646 -0.00018269308 0.0009871044 -0.0025184655 -0.0010844691 0.00041299575 0.00030678403 0.00046317288 -0.0032851696 -0.0020742523 0.00045448044 -0.0020208845 0.0020134733 0.0010402765 -0.0015998619 -0.0037639765 -0.00066891144 0.0034730323 0.00112184 0.0019814922 0.0016014258 0.0007159694 9.082292e-05 0.00071216334 0.00016788884 0.0020034101 0.0009519398 0.002033398 0.0004541339 3.544036e-05 -0.00091140176 -8.861274e-05 2.8613984e-05 0.000876341 0.0008475053 -0.001252815 0.001702907 -0.0001966296 0.0025596144 -0.003200967 0.0014499814 0.0025256197 -0.0021390964 -0.0035374903 0.0038872403 -0.0011973592 -0.0032244616 0.00057692605 -0.0028687073 -0.002146102 0.00013581858 -0.00049293117 0.0033009935 0.00028974316 0.0018632906 -0.0012599567 -0.003707649 0.002894859 0.0034687282 0.0008952801 -0.0026576507 0.0008189852 0.0027119298 -0.0017941383 0.0022224502 0.0027873782 3.992183e-05 0.0005212021 0.0031448007 -0.0014228891 0.0037836048 -0.0016455819 0.0032258779 -0.0024559118
47 0.0019891555 -0.0016619386 -0.002495643 0.000620499 0.0015889324 0.000188713 0.0009899874 -0.0022641055 -0.0024112235 -4.9049788e-05 0.0016495046 0.0007501817 0.003074926 0.0021322933 0.0026440176 -0.0006178482 -0.00035515908 0.0023241136 0.0032690333 0.0023117869 -0.0021981227 8.000229e-05 -0.0027387133 -0.001236674 0.0012004707 0.0021686913 0.00053915667 0.0018889616 0.0038148174 0.000183993 -0.0035194345 0.0012774576 0.0022464024 0.00095413026 -0.0016628508 -0.0021238506 0.00010838184 4.074454e-05 -0.0018769162 0.0034806933 0.0037710282 -0.0016214121 0.0026324189 0.00077772315 -0.0006775252 0.0016984477 0.0037207461 0.002273712 0.0002848024 0.0026145678 0.0006463503 -0.00097312534 0.002534892 -0.0010395106 0.00360384 0.00089404924 0.0012010374 -0.0014707198 -0.002808136 0.00061218184 -0.0022952694 0.0020774414 -0.002305576 0.0007376231 -0.0021476005 0.0012517107 0.0031113902 -0.0013440128 -0.0035697604 -0.0014708026 0.0018636682 -0.0028942465 -0.0032655078 -0.0038574506 0.0019221869 -0.0029599213 0.0031613149 -0.0031965321 0.0035717178 0.003199171 -0.00047672435 0.0032411262 -0.0022976038 0.0024397261 -0.0024921142 0.0034500086 -0.0014377782 -0.0005731645 0.0022514635 -0.0017735073 0.000534596 -0.0029882267 0.0014264509 0.0008404909 -0.002829281 -0.0023318462 0.0027012397 -0.00034454901 -0.0037125947 0.0026014238 0.00047294152 -0.0014018464 -8.580352e-05 0.0017325965 -0.002124741 -0.0029805969 -0.0008565661 0.0014392269 -0.0006122879 -0.0030276303 0.0023442805 -0.0029152075 0.0012267657 -0.0031212121 0.0015435887 -0.001084902 0.00021663426 -0.00095464755 0.0031563747 -0.0011262073 0.0012650089 -0.0014600359 0.0029192015 -0.00013287735 0.0010519553 0.0010366971 -0.0023468507 -0.003062629
575 0.00028279977 -0.0025002707 0.0021124985 -0.002949226 0.0020764188 0.0012071826 -0.0028705704 0.0027344313 0.0013989173 0.0004482023 -0.0022572153 0.0025977972 0.0017890558 0.0027048402 -0.0014178359 -0.0017202753 0.0027015018 0.00047497594 -0.003488515 0.0026120348 -0.0032967615 -0.0035208156 -0.0026571571 0.0020561754 -0.00027777508 0.00058520393 0.00094029855 -0.0011604202 0.00030220245 0.0013503879 -0.00072869554 -0.000627223 -0.0031429783 -0.00084856956 0.0013798069 -0.0003849126 0.0038746968 0.0005729746 -0.0038420232 0.0009979806 -0.0037700816 -0.00073443755 0.0016913549 0.00031667438 0.002129188 0.0013987127 -0.0018737264 0.00058995833 -0.0021647052 0.00045208636 -0.0035832492 -0.000988667 0.0037625742 -0.0005188624 -0.0028733902 0.002631195 -0.003151719 0.0037604857 -0.002845382 0.001361211 0.0027159613 0.00011475834 -1.3344469e-05 -0.0030501438 -0.0014447186 -0.00019305272 -0.0032447155 0.00031810248 -5.1895542e-05 0.00033201845 -0.0021982482 0.002210761 -0.0012416699 0.0012551693 -0.00088941597 -0.0007592642 0.00070995337 -0.0010506972 0.0014908601 -0.002352697 0.0015477025 0.00035735988 -0.0013602824 -0.0032823642 -0.00014505255 -0.0018179587 0.00035465253 -0.000970082 -0.0030417787 0.0031834797 0.0033335665 0.0028570876 -0.0018442614 0.00048947043 0.0038195373 -0.0005198009 0.0020748544 -0.0013043799 -0.0013603895 0.0015216199 -0.001147076 0.0011824697 0.0015759501 -0.0038622445 0.00010057623 0.003681711 -0.0033193738 -0.0012279194 -0.0004701918 -0.0017224771 0.003901249 -0.0014345077 0.0023972206 0.0007171392 -0.0034934208 0.00033354122 -0.00042553523 0.0027053754 0.002549015 0.0014146534 0.00028177374 -0.0024030218 -0.0011038166 0.0034250217 0.0026793864 0.0023524265 0.0034534389 0.0017770006
671 -0.0018500509 -0.0007783811 0.0036790096 0.0034775476 0.0011815231 -0.0008217826 0.0006622009 0.0009942346 0.0020240538 0.00014927884 0.0037417368 -0.0002780593 0.0026468171 0.0012774136 -0.00017717012 3.173906e-05 -0.0027112083 0.00055386836 0.00021366256 0.0033344403 0.0033714822 -0.0031385631 0.00044026674 0.0005558442 -0.0024352423 -0.0012348577 0.0024129981 0.0020244853 0.0038993976 0.0015582428 0.0010443939 0.0031086907 -0.0004089332 0.0036620062 0.0033692315 -0.0024119318 -0.0037771165 0.0019673486 0.0019747608 -0.0024584346 0.001819044 -0.0025349807 -0.0033185687 -0.0024867468 0.0024592606 -0.00085039105 0.00056543754 -0.0016917742 0.0012679248 -0.0023861774 -0.001455791 0.0024042218 -0.003215892 -0.0037364147 -0.0019868608 -0.00011930925 0.0005619757 -0.0004447693 0.00041577886 0.002685423 -0.0037182802 0.0012525349 0.00029977175 -0.0037989444 0.0019025517 0.001738823 -0.00096442504 -0.0030297262 0.0009293195 0.0028541167 0.001031724 -0.0029610528 -0.0029674345 -0.0010127665 -0.0006932652 -0.0008044275 0.0012422077 0.002782871 -0.002438491 -0.002143642 0.0027942068 -0.0038481848 -0.0031670055 0.0011247359 0.0030973325 -0.00011944037 -0.0029124885 0.00011652803 0.002514031 0.0036924789 0.002488908 0.0036277345 -0.001984605 -0.0019060893 0.00012706642 -0.0021591126 -0.0029329115 -0.002185709 0.0030813373 -0.0022520213 0.0029276304 -0.0034973382 -0.0011130435 0.0026407705 -0.0030320059 -0.0029867718 0.00081890053 0.0029629613 0.00042488627 0.0031049182 0.0012687367 -0.00052976183 -0.000547994 0.0017667677 3.4636462e-06 -0.00085458346 -0.002947102 5.3407046e-05 -0.0015858632 0.0035055482 0.0026289208 -5.956075e-06 -0.00287888 -0.000869478 0.00083043263 -0.0011641157 3.523495e-05 -0.0008085432
403 -0.0014056229 6.190452e-06 -0.0018435942 0.0037074601 0.0026444194 0.00228127 0.0018478229 -0.0003532575 0.0025863978 0.0037982645 0.0026345598 0.0035536133 -0.0031269884 0.0035415897 -0.0025485205 0.003691736 -9.745672e-05 0.00025385252 0.0011031085 0.0014716634 0.00023078758 -0.0035537882 -0.0036558786 0.0025498455 0.001437923 0.0029320559 0.0027128682 -0.0027380695 -0.0032826685 -0.0021519011 0.002113355 -0.0024014863 0.0021820683 0.0028287515 0.0036640086 0.00086153834 -0.0024021317 -0.0012970134 0.0005708396 0.0018156343 0.0002510409 -0.0030545194 0.0025458154 0.0033547506 -0.0036719292 -0.00015005597 0.0033651616 -0.003586418 -0.003365191 0.0016160386 -0.002250352 -0.00039575784 -0.000510788 -0.00045590248 0.003810041 0.00030666438 0.0023329195 0.0009598297 -0.0038603942 0.0029906228 0.0014944609 -0.0014382567 0.00026148293 0.003593173 -0.0014180415 -0.0020297915 0.00383789 -0.0023147818 0.0022465894 0.002816967 -0.0003116985 0.0010442567 -0.0031126037 0.0021024416 -0.0029756902 0.0025367925 -0.001475255 0.001916717 -0.00089805515 -0.0029024547 -0.002061294 -0.0018000859 -0.0034436977 -0.0011955787 0.0010376729 -0.0020700784 -0.0021661 0.0009773289 0.0014288923 0.0017816989 -0.0011943341 -0.001583912 0.0028344372 -0.0038955456 0.0020008096 -0.0008780472 -0.0008548462 -0.0030539567 -0.0024815414 0.0019318565 0.0007082472 -0.0017868731 -0.001700089 -0.0020521618 -0.0033604407 0.002528125 0.0029129495 0.0019083151 0.0017879071 0.000320338 0.00079934485 0.0030749543 -0.0014702424 0.0021177789 -0.0023232521 0.0017429739 -0.0035386311 0.0023227248 0.0026576319 -0.0037221506 0.0012273797 -0.0025111753 0.0013264922 0.0018584238 0.0036861077 0.0018520608 0.0037435966 -0.0014109343
1199 0.0013727521 -0.003053287 0.00042326684 -0.0017038287 0.0018064 0.0007099721 -0.0015856305 -0.00056840974 -0.003684882 0.0011378566 -0.0010320576 -0.0016901682 -0.0034173944 -0.003601793 -0.0034968446 -0.0005541756 0.0018439204 0.003769217 0.00026307203 -0.0035217928 -0.0020628036 0.0019534125 -0.0024543288 0.0014042569 -0.0012675943 0.00014803022 0.0025322004 0.00057690387 0.0006016761 0.001801844 0.002366438 -0.0022458762 0.0027288815 0.0033608247 0.0036472587 0.0031783504 -0.00057712634 0.0034445724 -0.0008949938 -0.002398379 -0.00031675646 -0.0026792956 -0.00035946685 -0.0028056365 -0.0009665548 0.001736173 0.00183589 0.0010044003 -0.002748617 -0.003773836 0.0036434298 -0.00046595724 0.0006432135 -0.001263959 -0.0004191497 0.0033510942 0.0034857786 0.0016659101 0.0010961889 0.0036251605 -0.0016553707 -0.0018256778 -0.0023115827 -0.0013433325 0.0016827224 0.003565385 -0.0011331115 -0.0026109985 -0.0038068069 -0.0038580368 -0.0032345424 -0.0023545783 0.0038429496 0.0006085632 -0.0029994808 -0.0026694685 -0.00084069715 0.002863946 -0.0013208052 -0.0015182252 0.00060451153 -0.0036668326 -0.0013628834 -0.00038601 -0.00036499815 -0.002899657 0.002483588 -0.0010228517 0.0026926852 0.0015225976 -0.003186705 0.0032546453 -0.0022531333 0.002483897 -0.0015822253 -0.0026629365 0.0029711616 0.000112314716 -0.003813984 0.0016498622 0.0031811215 0.003503043 -0.00032553944 -0.0002921538 -0.001402154 0.0016707681 0.0016048851 0.0022685872 -0.0025062622 -0.0022505603 0.0029381907 0.0017520797 0.001398641 0.0012856328 -0.002265998 -0.0035731103 -0.003485184 -0.003189237 0.0018952375 -0.0037654685 -0.002339098 -0.0024478564 -0.0033690084 0.0005757402 0.0022080336 -0.0011986487 0.00049288315 0.003372554
921 0.0025832348 -0.0020743697 0.00038954068 0.0014564863 -0.00044346094 0.00073796784 -0.00051737006 -0.0006871162 0.0018217841 -0.0009576531 -0.002795549 0.0022897662 0.0008121469 -0.0010227797 0.0022161016 -0.0005140987 0.0004564856 0.0005348628 -0.0005108554 0.00076424144 -0.0026702934 -0.001245723 0.0019232013 -0.0026633958 -0.0027900636 0.00071882916 -0.0022211901 -0.0008412678 -0.0026431235 -0.002417784 -0.0025832134 -0.0013396562 0.0010392698 -0.0014231207 0.0013274498 -0.002001402 0.0013444619 -0.00374852 -0.003819739 -0.001148899 -0.00032716774 0.00044665483 0.0030454593 -0.0026157673 -0.003366086 -0.0032934244 0.00019560778 -0.0024480573 0.0008355596 -1.3819399e-05 -0.003844181 0.0010123128 0.0006646339 -0.0037395896 -0.003229674 0.00081315427 -0.00086103356 0.0002996301 0.003802017 0.0023174935 -0.0014381355 -0.0037109032 -0.0013493394 -0.0021411055 -0.003791815 -0.0005935828 0.00087820104 0.00016529304 0.00074903556 0.0017610644 0.0030723403 0.0027700632 -0.0027624606 0.0033840933 0.001726137 0.0006992726 -0.0013782554 -0.0015317042 -0.0025189028 -0.003409477 -0.0017266427 -0.0005794096 -0.0003860993 0.0011763447 0.0024215532 -0.003238368 -0.0005905546 0.0023774363 0.0027657705 -0.00057531294 -0.0023343556 -0.00096171105 -0.0029413518 0.0027361598 0.0018462423 0.0013032324 0.0021754156 0.0026314973 0.00348793 -0.00034652487 0.0033181 0.00012931794 0.0007451703 0.0012686119 0.0033031355 -0.0018093112 -0.0035959375 0.003510812 0.000825777 0.0029488665 0.00034612397 0.0032977671 0.00035992908 0.0032531843 -0.003537442 -0.0002565011 0.001385643 -0.0020673142 -0.0036563235 0.0008757584 0.00093638425 0.0002903978 0.0021880837 -0.003628976 -0.0028975692 0.0010884092 0.0026447568 -0.0013172531
829 0.0015914916 0.00014396198 0.003682127 0.0005772232 -0.0020256022 0.0039029617 0.0033445284 0.00022634836 -0.0033810386 -0.0012367452 0.002956595 0.0014105504 -0.0012786475 0.0035129632 -0.00093630655 0.0036238607 -0.0008618396 -0.0032188757 -0.0016889985 0.0006757886 0.0028271924 0.0018453824 -0.0008140848 -0.0003785488 -0.0037138392 0.0013563827 0.0014231239 1.49168345e-05 -0.003862161 -0.0038200303 -0.003325654 -0.0021163546 0.0017154276 9.863013e-05 -0.0015244341 0.00093893224 0.0030071894 0.0011873943 0.0022517575 0.003741897 -0.0017689518 0.0002929771 0.003401001 0.0008271135 0.002093946 -0.0019529907 0.0026659598 -0.002655332 0.0029118634 -0.0015987786 0.0020278445 -0.003795359 -0.0007644999 -0.0013151504 -0.0019040437 1.4883834e-05 -0.003751453 0.0010787443 0.0027537434 -0.0022675039 0.003766535 0.003371931 -0.0033721845 -0.0009911238 -0.0035103015 0.00041820065 0.0030122364 -0.0029956938 -0.0010972858 0.0012370531 -0.0038348287 0.0018570657 0.0005722742 -0.0021324165 -0.0009392268 0.0013164041 0.0008061685 0.0024630134 0.0035671906 -0.0032397958 0.003210009 0.0025947157 -0.0033711179 -2.8746503e-05 0.0019797264 -0.0008157903 -0.0015443471 -0.001960109 -0.0010414952 0.00049845205 0.0035720295 0.0012229638 -0.0018040166 -0.0027605752 0.003066931 -0.0017203481 0.0034516833 -0.0033437961 -0.0031119562 -0.003559937 0.00072965206 -0.002400517 -0.0013245278 0.0030991966 -0.0009595768 -0.002615322 -0.0007048794 0.0036069362 -0.0033300433 0.0024370989 0.0023782658 -0.0034176968 -0.001453086 -0.0016111321 -0.0021680533 0.00028037408 0.0032299922 -0.00024588188 -0.0023551167 -0.0022780462 -0.002201251 0.0014061815 0.0031381997 0.0021708866 -0.0023556524 0.002279465 0.0013578383 -0.00326353
252 0.00061166455 -0.001953817 -0.0016207277 -0.0037898421 0.0005479803 -0.0036247636 0.0011796881 -0.0014848603 -0.0007080277 -0.0030920797 -0.00011428293 3.763106e-05 -0.0028995106 -0.0036623415 -0.002292385 0.0033449838 -0.0015561683 0.0025471332 0.0024666586 -0.0024118319 -0.0010745185 -0.002321146 -0.0015655357 -0.0028609044 -0.001426772 0.0038458565 0.0011448513 -0.0015845416 7.857202e-05 0.001836421 0.0010538033 0.0036099078 0.002321795 0.0019453978 -0.00075972494 -0.00314124 0.0036706568 -0.0025143463 -0.0024158391 -0.002589361 0.00074359955 0.002358592 -0.0010230449 -0.0038013246 0.0011383813 -0.0032999476 -6.415923e-05 -0.0034341447 0.0011272638 -0.0038076662 -0.0017649418 -0.0019130034 0.0020918143 0.002809885 0.0030476225 0.0036411667 -0.0034388853 -0.0019492054 -0.0012968713 -0.00092994934 0.0038993617 0.0017235155 0.0025795342 -0.0014510268 -0.0020152216 0.0017934566 -0.00028708146 0.0019208961 0.00020437854 0.00079699885 -0.0013468511 0.0018926301 0.00093196885 0.00018693137 -0.0016844671 0.0006183911 -0.003345786 0.0028112093 -0.0032646817 0.002724798 -0.0015745198 -0.0020316595 -0.0036819254 5.4651824e-05 -0.0019660606 0.00079358334 -0.0018505183 -0.0027788132 0.0031988642 -0.003803885 -0.0028245929 0.00020365827 0.002624422 -0.0030445051 0.0017363201 -0.0028542278 -0.001549316 0.0034764651 -0.0030224381 -0.0009766874 0.0015615114 -0.0021227144 0.00035721203 -0.0010363314 0.0024921475 -0.0016111401 -0.0036500925 0.0013420493 0.0014171017 0.0025389805 -0.0025246905 0.0019603122 -0.001660851 -0.001510028 9.563201e-05 -0.0036559647 0.0033552225 -0.0038027395 -0.0012613622 0.0013337538 -0.0011521651 0.0025742098 0.0036830883 -0.0011581598 0.0024232455 2.0641945e-05 0.0038759357 -0.0034978366
380 0.00144332 -0.0015592764 0.0032321701 0.00097189937 -0.0008886042 -0.001681903 0.00033715332 -0.0021570716 0.0012909106 -0.0008874203 2.140988e-05 -0.0010422983 0.0006000559 -0.001327795 -0.0017049267 0.0036038938 0.0030821478 0.003028748 -0.0014745258 0.00026508904 -0.0033197089 0.0020639743 0.0035117303 0.0015052542 -0.00049953023 0.0020256566 -8.893695e-05 -0.0037692257 0.003730735 0.0033484087 0.00062159274 -0.002283813 0.0017029955 -0.0016485992 0.0019425998 -0.0010217055 -0.002385617 0.0013779077 -0.00065827474 -0.0030054562 -0.0030637218 -0.0028865295 0.0017660242 -0.0037923306 -1.8079005e-05 -0.0027474044 -0.0035945498 0.0028005904 0.00017001599 0.0001713681 0.0017626219 -0.0022417414 2.4248924e-05 -0.0019929414 0.003752374 -0.0011157843 0.00056303036 0.0024366954 -0.0019960834 0.0025431474 -0.0012744862 0.0030426036 -0.0034546114 -0.0001499165 -0.0020647228 0.0035867358 0.001849728 -0.0021868956 -0.0034311058 0.00032393791 0.0015058864 -0.0033178306 0.0022324643 0.0005448191 0.0013875369 0.0016257779 -0.0013287844 -0.0036589457 0.0034146714 -0.0028940951 -0.0014546349 -0.0035621384 -0.0010903716 0.003826607 0.0015260536 0.0036661031 0.0024305375 -0.0036686822 0.0019168968 -0.0011177432 -0.0023518149 0.0002828865 -0.0017759795 3.601868e-05 0.0014244325 0.0022699588 0.0006146239 0.0011996982 0.0011909143 -0.00035335048 0.0026109477 -0.0017707392 -0.002245586 -0.0033065546 0.0013940354 -0.0020856624 -0.0024986342 0.0022126683 0.0006278485 -0.0019603025 0.003533347 -0.0018942901 0.0009372195 0.0039048125 -0.0020570387 -0.0017493978 0.003319653 0.0007793685 -0.0026983127 -0.0004953801 0.0014077227 -0.002484381 -0.0004001943 -0.0025274802 0.000604724 0.0003821232 0.00044291274 8.662417e-05
889 -0.0011473977 0.000822636 -0.0036947709 -0.0021687625 -0.0016868032 -0.00032563868 -0.003242465 -0.0010237098 -0.002094513 -0.002126198 0.002428876 -0.0019137406 -0.0016811162 -0.0025804602 -0.0017128028 0.001711602 -0.00031054267 -0.0033994908 -0.00016248343 -0.0015858869 -0.0036889713 0.0029606796 -0.00023522625 -0.0023772004 -0.0019465801 -0.0003554791 -0.0024652882 -0.0020335694 -0.0005093042 -0.002187354 0.0030766258 0.0022987232 0.002942789 0.0005418916 -0.0018344801 -0.0033265736 -0.0012388717 -0.0030667807 0.0017354907 0.0020632718 -0.0013152653 0.002353798 -0.0028543796 0.0009623913 0.003799372 -0.002903701 0.0007592247 0.001095678 -0.0017196814 -0.003151962 -0.0023254901 -0.00094201916 0.0011112444 0.0009865751 0.0010470576 0.0010974887 0.003735444 0.001753205 -0.0038237672 -0.0009019863 -0.00020627843 -8.32817e-05 0.0034154437 -0.0015587815 -0.0038900329 0.0036334507 0.00033056893 -0.00027850267 0.0007596062 0.0012503404 0.00021316453 0.003232489 -0.0018891769 -0.0022032019 0.0021241682 -0.0020137448 -0.0035891354 0.002757469 -0.002172401 0.003339608 -0.0024700845 0.00082389027 -0.001095212 0.0022086247 0.002115445 0.0024493923 0.003817701 -0.0029046852 0.0015652158 -0.0011423427 0.0014013661 -2.9026309e-05 -0.00049109495 0.00125147 -0.000738017 0.0005061161 -0.0036328782 0.0014890571 0.0023599393 0.0022386683 0.00045948877 -0.003682061 0.00070695736 -0.0015713498 0.0017846591 0.0029337 0.0018106217 -0.0012484458 -0.0009116247 -0.0014040822 0.0015492775 -0.0031003943 0.0023333658 0.0021087553 -0.0021955688 0.0017877453 0.0038444663 0.0011462482 -0.0003070964 -0.000814413 -0.003452168 0.00075238716 0.00049281283 -0.0031437736 0.003301535 -0.0038220503 0.0015894305 -0.00235751
638 -0.0015016913 -0.0009673187 0.0017949028 -0.0032922367 0.0018194009 0.0012383132 0.0010111543 -0.0010769662 0.0013572797 -0.0017075653 0.0012954606 -0.0029318014 0.0018302465 -0.0017756008 -0.0025913878 0.002120112 9.039578e-07 0.0036865305 -3.911416e-06 0.00052248716 0.0005042509 0.0027842743 0.0013068989 -0.0031786016 0.0038871274 -0.0028779272 7.559245e-05 0.0035592343 0.002344026 -0.0014456103 -0.001300477 0.0026749368 0.00039903162 0.0023253092 -0.00071094366 -0.0012521388 -0.0037358939 0.003887666 -0.0010978838 -0.0022087498 0.0023902862 -0.0023467059 0.0033185685 -0.0008382487 0.001205966 -0.0006452716 0.00043218804 0.0005757048 -0.00042069933 0.002251051 -0.0007976597 -0.00048561822 0.0014360431 0.0037697623 0.0031077713 0.000500308 -0.0030750036 0.0019994928 0.0018231388 0.0010562101 -0.0008571821 0.0013605821 0.00028784375 0.00027045538 -0.0019080973 0.00028929426 -0.0021620241 0.0019553516 0.0026239217 -5.893593e-05 -0.0009940123 0.0035220871 -0.003126048 0.0024045666 0.000116469324 0.0013573188 -0.0021033105 0.003526246 -0.0024382037 -0.0004124902 0.0024342325 -0.00094483135 0.00012225313 -0.000637812 -0.0035457627 -1.4830293e-06 -0.0038888087 -0.000103867525 -0.0028209817 -0.0018973831 0.0010688845 0.0009893436 -0.0036146918 -0.0012778783 -0.0027478507 -0.00015479831 0.00038966956 0.0032353946 0.0030123205 0.0009291065 -0.003826755 0.0019056726 0.0020739476 -0.0029918079 0.00041040228 -0.001391521 -0.0019425149 0.002765595 0.0033506518 0.002962547 0.0016360779 -0.0030678187 -0.0005621409 -0.00037594239 0.0019874356 -0.001847435 7.710998e-05 0.001052875 -0.0012437229 0.0016080519 -0.0013467555 -0.000762709 -0.0022246914 0.000962605 0.00016410372 0.0035025063 -0.001857396 0.000712486
1142 0.00063083624 0.0036004425 0.0034308168 -0.0007807184 0.0016292493 -0.0012241617 0.0011857591 0.0033999314 -0.0018420957 0.003250082 0.0008376712 -0.0011922083 -0.0019987451 -0.0027085557 -0.0020046604 0.0010134316 0.001199653 0.0012745522 -0.0017166467 0.00014681403 -0.0022982685 0.00045220752 0.0030530272 0.0012756558 -0.0028307845 0.003452908 -0.00038159906 4.4163266e-06 0.0013556213 -0.0020667508 -0.0032827894 -0.0003468492 0.0024753807 0.0024419609 -0.0014513059 -0.002732538 -0.0035782766 -0.003719947 -0.0025038593 0.0035466317 0.0035929605 -1.897976e-05 -0.00016469721 0.0016388851 -0.0024527526 -0.001186648 0.00025174662 -0.0028528492 0.0012712573 0.0008582335 -0.0024273037 0.00013464894 -0.000761463 0.001644527 0.0013649965 0.0023039794 0.0006368212 0.0008751228 0.0005218192 -0.0011491585 0.00024953377 -0.0025144212 0.0034107096 0.0016426208 0.00076225935 0.0017679401 -0.0026370676 -0.0030564715 -7.482017e-05 -0.0016103324 -8.976357e-05 -0.0031628443 -0.0020955044 0.00040707216 -0.00221912 0.0020844182 0.002316239 0.00041436084 0.0035764494 -3.4677534e-05 0.0009391501 0.00090767717 -0.0017414838 -0.00047685308 0.000104513165 0.0026843215 -0.0007821533 0.0007317239 -0.0026414203 0.0035662365 -0.0037426448 -0.0007849378 -0.0026490926 -0.0005164324 0.0013037443 -0.0009378675 -0.001384292 -0.0037210432 -0.0016263415 -0.0026478171 0.0022666485 -0.0016400764 -0.0014432269 -0.0024611913 0.0032045473 -0.0037970678 0.003250381 0.0012422593 0.00011914249 -0.0019106403 -0.0010869706 0.0013858145 -0.002263631 0.0020928376 -0.0036623585 -0.003485303 -0.0028897605 -0.000591935 0.0038177832 -0.00052179815 0.00066978746 -0.0013894362 0.0032535233 0.0023716616 0.0025658892 -0.00032159584 0.0036561016 0.0011284536
583 -0.0007227402 -0.0005727056 0.0018063727 -0.0012313862 0.0011035473 -0.0024217465 0.0018869973 1.863338e-05 0.0034921651 0.00096956745 0.003467257 -0.0019057121 0.0019034577 -0.0009820829 -0.0037539755 -0.0036298211 0.0037817485 -0.0012227152 -0.00030766265 -0.0035715727 0.001384695 0.0021869016 -0.0026845427 0.002181578 -0.0034373878 -0.0032841393 0.00043886265 0.0016373879 -0.000498342 -0.0024605528 -0.0029913206 0.0008654948 -0.002237825 0.0037501703 0.0026392615 0.0037075868 -0.0027720972 0.0035516634 0.0033758122 0.0008565594 -0.0027365338 0.0013091932 0.0039038837 -0.0033882784 0.0008147196 -0.0016410061 -0.0023677796 -0.002918407 -0.0011999438 -0.0014538855 -0.0026292629 -0.0013295935 -0.0013310399 0.0007722711 -0.00084435655 0.0016439212 0.0011444158 -0.0022485584 0.0024947023 0.0009640844 0.0014751041 0.00047858647 -0.0015144295 0.000485647 -0.0026433168 0.002676767 0.003719033 0.0022578326 -0.00031395323 -0.0025620668 -0.00087194925 0.003814398 -0.0031777709 0.0012342099 -0.002510295 -0.001240424 0.0017239696 0.0038413543 0.0015017272 -0.00079469953 -0.0015582311 -0.00036901393 0.0022170122 0.00013119327 -0.00036104774 0.0028241791 -3.4030752e-05 -0.0031823984 -0.0033243715 -0.0017394491 0.0003534829 0.0016866411 0.0017283187 0.0016634957 -0.003381049 -0.00054119714 -0.002863143 -0.00072524394 -0.0027974446 -0.00021124112 0.00059460907 -0.0009367812 0.0033174271 0.002077901 0.0005456237 -7.728644e-05 0.0028581896 0.0021739933 0.0017483676 0.0018928535 -0.0003415872 -0.00024424322 0.00060467207 -0.0002564192 -0.0032239507 0.0005497413 -0.0019749394 0.0023406022 0.0036813037 0.0028567575 -0.00023654751 -0.001930152 0.001768217 -0.0031639223 0.0010707019 -0.0032101485 -0.0027691373 -0.0026767787
781 0.0022461892 0.0014730458 -0.0033001332 -0.0005669007 -0.0017742189 -0.003164755 -0.002537653 0.0017501878 -0.0029763472 0.00031924393 0.0028795323 0.0034043812 -0.0018140406 -0.00031620488 0.0015319358 0.0035927398 0.0007664814 -0.0013613252 0.0016304709 -0.0011995046 0.001679838 -0.0005378861 -0.0014838995 9.4816874e-05 -0.0032076987 -0.0036502786 -0.0018546613 -0.0020300227 0.0019344317 -0.0034237148 -0.00017380579 -0.0022905527 0.003103291 0.00023120525 -0.0036233338 0.0017180841 8.94367e-05 -0.0008061145 0.0007152506 0.0024281095 -0.0023973582 -0.0021446636 0.0017763346 0.0028660358 0.0034090015 0.0014747458 -0.0029502222 -0.0030315155 -0.0016631054 7.541428e-05 0.0014754288 0.00069676765 -0.0015132971 -0.00031041677 -0.0012706426 -0.001845585 0.00022748315 0.00073400536 0.00045228528 -0.0019212681 0.0031316043 0.0034744374 -0.0026117235 -0.0019631004 -0.0003237808 0.0022422513 -0.0031176559 0.0015036184 -0.0014545802 0.0021626335 -0.0035996928 0.0026120963 0.00090274925 0.0028524406 0.0018912036 -0.0024015156 -0.0002658489 0.0035971436 -0.0014328866 -0.0012682938 0.0019224401 -9.473715e-05 -0.003536124 0.00021442212 -0.001759513 0.001491108 0.0016725098 -0.0021307394 -0.0011635724 -0.0028297242 -0.0026740835 0.0036925625 -0.0011362168 0.00043274288 0.003173309 -0.0034112819 -0.0030071845 0.0029929355 -0.0035622034 0.001495624 0.0007557401 -0.003580894 -0.0028081208 0.002843421 -0.0026600426 0.0022945504 0.0023799613 -0.0021053017 0.0036775696 0.0027481907 -0.0029211338 -0.0011505556 0.0031064246 0.002944177 -0.0032523125 0.0035352756 0.0031770482 -0.00021503255 8.3308136e-05 0.0006801344 -0.0006481992 -0.0022091293 -0.0024878855 -0.002267094 -0.0005163025 0.0018625525 -0.0010209177 -0.00061742525
1029 0.0007185621 -0.0031870161 0.001591394 0.0037032848 -0.00071686716 -0.0035739802 -0.0031447085 0.0013658701 0.0023967924 -0.0026334054 0.002094014 -0.0005804674 0.0023816568 0.0010373316 -0.001394498 -0.0023948923 -0.0006302257 -0.0005790279 -0.0010348543 -0.00019413562 0.0014149519 -0.0035586227 -0.0033209932 0.0008772437 0.002462386 0.0015203947 0.00011672773 0.0013028575 0.0016329073 -0.0025202108 -0.00067833887 -0.001342235 -0.0015162935 -0.0012022785 -0.0016092607 -0.001966749 0.0037824127 -0.0033606635 0.0030144106 -0.0037207466 0.0025749505 -0.0018984332 0.0031453713 0.00038887843 -0.0017591106 0.00037071557 0.0014999047 -0.0028223414 -0.0026079633 0.0008714526 0.0019785939 -0.0008084279 6.6653745e-05 -0.003606787 0.00038920165 0.003730911 0.000104231265 -0.0018031661 0.0017226072 0.0011631958 0.0016953868 -0.003251599 0.0034874454 -0.0016990615 0.0022237184 -8.894991e-05 0.00020627886 -0.0020816508 0.003536265 -0.0009708986 -0.0022536353 -0.001160008 -0.0018433837 -0.0016307816 0.0004775983 0.0029339462 0.0017202282 0.0029689278 -0.00072947517 0.0028709301 0.00034754295 0.002223471 0.00014688706 0.0032506722 -0.001879162 0.003654861 0.0035565759 0.0028264557 0.0007008502 -0.0019898757 -0.00096289936 0.0004693246 0.0026253308 -0.0016181656 -0.0016658305 -0.002283674 -0.0005221995 0.0037751172 0.0038444565 -0.00083634513 0.0022332615 -0.0012269543 0.0009391614 -0.0010872801 0.0027555102 -0.0012595507 0.0028560197 0.0023938231 0.0012576458 0.0021996642 -0.0032228816 0.00022995913 -0.00354269 0.0005191283 0.0010839344 0.0005022154 0.00024021252 -0.0023459403 -0.0021339203 0.0030665018 0.0036456897 -0.00076600554 -0.0014667097 -0.002400806 -0.0034338855 0.0033233087 0.0014888083 0.0010854602
1212 0.0033976878 0.003666007 -0.0028976123 0.002254243 0.0027775718 0.002748986 -0.0031470908 -0.0019108669 -0.0028846397 0.003532155 -0.0007451451 0.00028421843 -3.204524e-05 -3.716141e-05 -0.00085395866 -0.0008542134 -0.00020539982 -0.0017895697 -0.0019224498 -0.0030618503 -0.0035198207 -0.0018593987 -0.0009848534 0.0021918267 -0.0036174324 0.0023717252 0.0010000664 -0.0010881493 -0.0010922467 0.0028580101 0.0007622021 -0.0015381326 -0.0033567266 0.0011140439 -0.0033824835 0.0013450395 -0.00032952745 -0.0019732413 0.0020069436 -0.0036587238 -0.0034303837 -0.0027724693 -0.00379791 0.001494318 0.0030823871 0.001715016 -0.0004135805 0.003062271 0.0023143876 -0.001999398 0.003547515 -0.00047673288 -0.00029460326 -0.0023292997 0.0022110138 -0.003136389 -0.003732492 0.00094031 0.0032473002 -0.0008526565 -0.003352529 -0.0015827531 0.0027125762 0.0023066213 0.003366548 -0.00073430606 -0.0026397924 0.0013400718 -0.00040149596 -0.0030413899 0.0009943614 0.0032684412 -0.0034720213 0.0017208722 0.0034544705 -0.0020069936 0.00085824734 -0.0034297628 -0.00078615145 0.00045922273 -0.0005513501 0.003648141 -0.0038292236 0.00016353081 -0.0029700557 0.002701402 0.002171649 0.003560269 0.0013879929 -0.00315622 0.0038730414 -0.0016357828 -0.0016460522 0.0038979957 -0.0014048783 8.1526596e-05 -0.00088514667 0.002752299 0.0011799871 0.0027874676 -0.00045845288 -0.0021526264 0.0032531586 -0.00058774976 -0.00026273858 -0.0009899236 0.0012863812 0.0011564253 -0.000270918 -0.00063739374 0.003641794 0.0006179005 0.00097443984 -0.00044709473 -0.0016024321 0.00084090774 0.0032421465 0.0037327309 0.0015101008 0.0007299839 0.0018566439 8.4816005e-05 0.0006393914 -0.000997562 0.002823044 0.0015928912 -0.0006685906 0.00059576245
1167 -0.00022514611 0.00066919194 0.002209163 -0.0017936899 -0.00013836825 0.00061202166 -0.0006800648 -0.0016358353 -0.0018079779 -0.0018354051 -0.0015895336 -0.0023378623 -0.0012932871 -0.002391495 0.0029112783 0.0016751665 0.00071815593 0.0027415045 -0.0013910732 -1.3603812e-05 -0.00037037412 -0.0038256028 -0.000578805 0.0025663034 -0.0013262087 -0.0033309106 -0.0032287894 0.00037534034 -0.0020382176 0.00048654567 -0.0024047184 -0.0035116624 -0.0033982117 -0.0019539504 -0.0024513414 0.00047948264 -0.0019660327 -0.0020532182 0.003773638 -0.0024582115 0.0022567317 0.0035331808 -0.0029646594 0.002550582 -0.0007962327 -0.0011482416 -0.0035946844 -0.003784949 0.0031321733 0.0013902141 -0.00037153557 -0.00023938603 0.00015981431 -0.0023935027 -0.0024513751 0.00042936616 0.002431103 -0.0022794965 0.0035791046 -0.0032917259 -0.0016816589 -0.001986206 0.001604797 0.0034499604 -0.0004793478 0.00073896185 0.0031570205 0.0019680415 -0.0037854004 -0.00070914626 0.002510231 0.003104479 -0.002774253 -0.002751807 -0.0012670301 0.0006270563 -0.002010393 -0.00058601756 0.0030706408 -0.0005417637 -0.0019314324 -0.00027909654 0.0008144346 -0.00093175704 0.003195164 0.0038682583 -0.002126251 0.0019993945 0.00019709519 -0.0037324529 -0.00023627332 -0.0014316383 0.0026000033 -0.0006847741 0.003474791 -0.0001352609 -0.00080620707 0.00064110267 -0.002706039 -0.0033553555 0.00029099386 0.00015300789 0.00058246846 0.0006280891 0.0021213554 -0.0002591943 -0.0022080645 0.0015228699 0.0030905553 0.003424254 -0.00037742243 -0.0018137592 0.00284939 -0.0002078373 -0.00015371526 0.0022604715 -0.003641668 -0.0023520447 0.002355231 0.00376196 -0.0011353004 0.0035129194 -0.00031948084 -0.0009395536 0.0029837387 0.00012800469 -0.00066787656 -0.0035103874
497 -0.0020075715 -0.0015915842 0.0013309263 -4.0714323e-05 0.0026730984 0.0015683331 -0.0031852806 0.0014418846 0.0031608115 0.0019663298 0.00091569475 -0.00024456813 -0.0014791748 -0.0017758617 0.002280838 -0.001706573 0.0021626146 0.0008537344 0.0034444884 -0.0029814444 0.0004177197 0.0001243469 0.0024315105 -0.0024454065 -0.0036356372 0.0008071501 0.0013480531 -0.00080883165 0.0009454351 0.0019379664 -0.0037412355 0.0024545447 -0.0018261803 0.0037707633 0.0022192008 0.002149659 0.0006309931 0.001139944 0.0030210821 -0.0021936698 -0.0004508001 -0.000797459 0.0038940313 -0.0023242624 -0.00030862942 -0.0013362395 -0.0036898493 0.0013025474 0.0015723316 0.0008148761 0.0013557667 0.0025708177 0.00078069454 -0.00029472692 -0.0029052717 0.00045760392 -0.0012207184 0.0029560651 -0.0037213569 -0.0026366268 -0.0033850567 -0.00012693433 0.0031090877 -0.0020672882 0.0012626281 0.00132771 0.0030768265 -0.0026413763 0.0031091825 0.0019377931 -0.00096121477 0.0011076485 0.0023601714 -0.0012001833 -0.0029188744 0.0024035864 -0.0026500232 -0.002996564 -0.0021208613 -0.002834799 -0.0005425002 -0.00023247971 -0.00082992384 0.002983617 -0.0017121105 -7.2165116e-05 -0.0019852857 0.0024234941 -0.0019566205 0.0011981081 -0.0033764518 0.0005615962 0.0028789886 0.00251986 0.0028453125 -0.0010146017 0.002024493 0.001588009 0.0033614784 0.0024374165 0.0026174167 0.003752138 -0.0024896099 -0.00017118115 0.0027690209 -0.0019539245 0.0024069808 -0.0017887346 8.4037456e-05 -0.0033516344 -0.00052559347 -0.0011062691 0.000810056 -0.002819714 -0.0005598719 -0.0018805979 -0.0010605865 0.0026359984 -0.00294594 -0.001357635 -0.0012308442 0.0010098137 -0.0018216732 -0.0004373082 -0.0017100865 -0.000130449 0.0015186851 0.0023201366
742 -0.002801015 0.0027448384 0.0035008995 -0.00084246305 -0.0011976939 -0.00011375085 -0.0031041752 0.001457514 -0.0005544799 -0.0034232591 0.0033109155 0.0025977036 0.000104193685 0.0004921496 0.0018332343 -0.0027336027 -0.0020195302 0.0032214022 0.0002822342 -0.0021310705 -0.00017519399 -0.0014372705 -0.0010838301 0.0024939058 0.001506091 0.00022726053 -0.0012542275 -0.0028971704 0.0008223651 -0.0009709593 -0.0027243376 0.0031582704 -0.00069722644 -0.003081431 0.0012843062 -0.003126404 -0.002021478 -0.0034583665 0.000982718 -0.0021859035 0.001110534 8.484678e-05 0.00069391576 0.0010947484 0.0022276575 0.0031603915 -0.0019582051 0.00015127881 -0.0007802802 -0.0011556777 -0.00043638734 -0.0022814223 0.0017777131 -0.0017368158 -0.0030607635 0.00070008717 -0.002163047 0.003127799 -0.0011589241 0.0012470182 0.0025077737 0.003721275 -0.001006572 -3.8461792e-05 -0.0020522152 -0.00014426337 -0.0017558765 0.0020716619 0.0029917364 -0.0009900687 -0.0012621154 -0.0020233835 -0.0007832061 0.00057651853 -2.9331773e-05 0.0020276464 0.00096016936 0.002247682 -0.0030084192 0.0020559912 0.00031243352 0.002910426 -0.002948338 -0.00029442026 -0.0014613929 0.003182983 0.0008575658 0.0014209003 -0.0039029142 0.0020195001 -0.0017579199 -0.0020809001 0.0036510555 0.00020767222 -0.0024193167 -0.00076940417 0.0033651097 0.0031348823 0.002923791 0.0011577805 0.0009935804 0.0019608063 -0.0026255103 -0.00066219986 0.0018203644 0.0017895856 0.0035515476 0.0034582163 -0.0036973334 -0.00052614463 0.00065267575 -0.0038353882 0.00019790519 -0.0012173199 -0.002987477 -0.00011182315 -7.643314e-05 -0.0010623569 0.003434398 -0.00354821 0.001032964 -0.0015876449 -0.003879423 0.00203975 0.0011521961 0.003165324 0.00035122404 -0.0013872467
375 -0.003609088 0.002288743 0.00079463073 0.0036973343 -0.0032845337 -0.0036313569 -0.0035715553 0.0016854741 -0.00013044359 0.0037557723 -0.00071177183 -0.0034911535 -0.00029959565 -0.00042000445 -0.00027392418 5.8274123e-05 -0.0015383919 -0.0030704737 0.0004051649 -0.0036210257 -0.0036971737 -0.002438383 -0.00091638125 0.0032138408 -6.498519e-05 0.003641023 0.0033213203 0.0035525635 0.0019640797 0.00012581612 -0.0031370923 -0.0020481583 0.003476196 -0.0036757423 0.0002784942 0.0011496419 0.0015022139 0.0036028475 0.0010641761 -0.00284651 0.0022873108 -0.0019229514 -0.003313731 -0.0037824896 -0.0023735412 -0.00021163876 -4.3326683e-05 0.0025244113 0.00088059733 -0.00095454475 0.0017878211 -0.00043390985 -0.0017021496 -0.0023276228 0.0015813056 0.0030660215 0.0025885543 0.0020324246 -0.00043519863 -0.0037607593 -0.0025029997 -0.0024590497 -0.0016901916 -0.0023941947 -0.0023556664 -0.0033574589 0.0028400356 -0.00095826644 0.00055625034 -0.000638441 0.00033875136 -0.0008052813 0.0006929289 0.00013174428 0.0029902111 0.0025290202 0.0013725114 0.0011041216 0.0031736896 -0.0026321944 0.0024570394 0.0007703936 0.0010795367 -0.001554055 -0.0030623002 -0.0022038857 -0.00210194 -8.1501086e-05 -0.002496471 0.002477069 -0.003800423 2.4035771e-05 -0.0024912981 0.0025002307 -0.0014345298 -0.0023742944 -0.003350047 -0.0008160608 0.0027936527 0.00012895855 -0.00030431565 0.0033528104 0.0021259864 -0.0003653507 -0.003224832 -0.0032674891 -0.00016278775 -0.0012174997 0.00027594052 0.0037199655 -0.002237361 -0.001744391 0.0027681824 -0.0015736481 0.0028205507 0.00019547992 -0.0013830186 -0.0010000215 -0.0030778588 0.0029241212 -0.0014463117 0.00022132476 -0.0020805607 -0.0009494935 -0.002123069 -0.0011158534 -0.0024924842 -0.00034566884
790 -0.002154752 0.0019295474 0.0012879363 0.0008524486 -0.0025003788 -0.0014732277 -0.0026618175 -0.0010851865 0.0008972278 0.0018287038 -0.00020441164 -0.0017536591 -0.003771388 0.0037387447 0.00025874903 -0.0003741714 -0.0023152344 0.0037911166 -0.0005744165 0.0023400919 -0.0008398752 0.0012586919 -0.0026101742 -0.0017436447 0.001393398 0.00018646558 -4.4045773e-05 -0.0030699726 0.00032547695 7.08819e-05 -0.002398237 -0.0013682555 0.0031599929 -0.0017894577 -0.0023759776 0.0018213013 0.003657375 -0.0031006408 -0.0021031727 -0.0021453495 -0.0031948697 0.0018735161 0.0012816424 0.0024823283 0.0029040084 3.333994e-05 -0.003631253 -0.0035239588 0.0024976225 -0.0030391456 0.0017190918 0.00026541043 9.311405e-05 0.0014178709 0.0022923162 0.0018098035 -0.0032663867 -0.0011837461 0.0033015513 -0.0022836332 -0.0031856056 -0.0023432556 0.0011509474 0.0027595093 0.00048700225 0.00055150274 0.0030831806 0.003095854 0.0017118015 0.0013216387 0.0025710268 0.0004192245 -0.002339808 0.0009182546 -0.002638488 0.0021174287 0.0016347484 -0.0032878707 4.558706e-05 -0.0017898146 -0.0026468546 0.0029014077 6.717791e-05 -0.0015434903 -0.0006811138 0.0027257565 0.0012933615 0.0030201199 -0.0013552728 0.0008666379 -0.0032314216 0.0026353546 -0.0014609152 0.0020245211 0.0030869537 -0.0024082868 0.0036064861 -0.00016610905 -0.0004955718 0.00084853894 0.0034792966 -0.00087642827 0.00046817545 0.0011537564 0.00017459632 -0.001735173 0.0039059895 -0.0032173255 0.0015079168 -0.003283751 4.3946264e-05 -0.0006956028 -0.0018411452 -0.0014256244 -0.0018945055 -0.0014759486 -0.0025857817 -0.00087864354 -0.0024578024 -0.003471359 -0.0026910414 -0.0019462595 -0.0015516379 -0.0019027089 0.00065713725 0.0015933337 0.0010794232 -0.00019410059
122 -0.0037986923 -0.00036968215 0.00013170223 0.0038668404 0.0006082145 -0.0036348882 0.0037109526 0.0036859387 -0.0019313585 0.0034816416 -0.0003602837 -0.0006278602 0.001071537 0.0033343378 0.0025220308 -0.002092773 0.0006664224 -0.0019338187 0.0038884473 0.0032794254 0.0033219492 -0.0021500804 0.0016012088 -0.0023862068 -0.0012412688 0.0025739907 0.0008792484 -0.0016015752 -0.0022774537 -0.00015693303 0.0030358043 -0.0035682924 -0.0033101637 0.00018155316 0.00072337716 -0.002679553 0.0027415352 0.0036931655 0.0022198684 -0.0006395816 0.0033298933 0.0022173736 0.0024376172 6.812329e-05 0.00231055 0.0018534824 -0.0027422586 0.0018816646 0.0017286473 -0.0031293698 0.0007758239 0.0016493086 -0.0015795871 0.0016272353 0.0024203712 -0.0025614826 -0.0018501978 -0.0025350747 0.0011838095 -0.0011532417 0.00031243518 -0.0021051331 -5.326283e-05 -0.002160662 -0.0037771633 -8.612028e-05 -0.00010176839 -0.0024644865 -0.0012629952 0.0029827517 -0.0011979619 0.003580845 -0.0026279497 0.0019604166 -0.0032087048 0.0006025838 0.0035666309 0.0018610525 -0.0024440328 0.00015411305 0.0015959154 0.00012799715 0.0010488289 -0.002691505 0.0004233643 -0.0016419874 0.002757462 0.0024478736 0.0034407286 -0.0014076905 0.002430119 -0.0032150887 0.0028798003 -0.0023787362 -0.0015317891 -0.0010519024 0.00093959196 -0.0031844063 0.0016451614 -0.003634614 -0.00048931444 0.00048739594 -0.00070217164 0.00094820064 0.0026557138 0.001907221 0.0034768481 -0.003841914 -0.0023543648 -0.0024173316 -0.0010757082 -0.0029461633 0.0033638787 -0.0035097178 0.0026748918 -0.002666193 0.0026016722 -0.0010091794 0.0033853233 -0.0022954894 0.0025213263 0.0011114785 0.0019711538 0.0016401015 -0.0031108751 0.0035572667 0.0012414368 0.0010333332
1179 0.00051353057 0.00044542516 -0.00039244868 -0.0030930322 -0.001556215 0.0032124512 -0.002117509 -0.0025370396 -0.003617696 0.002179263 -0.0028185581 -0.0032816676 -0.0030651488 0.003800866 -0.002100446 -0.00217082 -0.0009555344 -0.00047091456 -0.002538992 -0.002514342 0.003454446 -0.0038011593 -0.0036400098 0.0032226038 0.0028234853 0.0021116347 -0.00016188619 0.0006286586 0.0026128176 0.0036920013 -0.00038790336 -0.00019730326 0.00032571304 -0.0011546637 0.0018651228 0.00016992683 -0.0012295725 -0.0012741474 -0.0012841765 0.0027653803 0.0028556746 -0.0028250716 -0.0022529177 0.0015236919 -0.00070644205 0.0020664262 -0.0031129555 -0.0024799553 0.0014627865 -0.00086820766 -0.002829984 -0.00024666288 0.0014103634 -0.0030720392 -0.001672748 0.00036051086 -0.0027129545 0.003739117 0.001561852 -0.0006122817 -0.003817821 -0.002592907 -0.0019579742 -0.0031777085 0.0007091383 -0.0038908923 -0.0014512831 -0.0021420598 0.0009977005 0.0018912936 0.002932415 0.0023713466 -0.0026820183 0.00049135124 -0.00022787024 -1.0538988e-05 -0.003325036 0.002269752 -0.0012393066 0.0010279617 -0.00061929575 0.0003661086 0.0031795194 0.0019889234 0.0038800351 0.00204674 -0.002264553 -0.003109421 0.00025780432 0.0005321327 -0.0019728825 -0.00070377917 4.666392e-05 0.0023124383 0.0036570067 -0.0031604557 -0.0010956472 -0.0034144472 -0.0012741142 0.000599141 -0.0035603023 -0.00059248216 2.159504e-05 0.0031592494 0.0032732068 0.0037312668 -0.003368334 -0.0030800616 -0.0030141708 -0.0017875916 -0.0005216918 -0.0037872707 0.0012070305 -0.002553189 0.0015400331 0.0035103979 0.0012909179 0.0033966054 -0.0006655309 0.0024000232 -0.00047229312 -0.002548432 -0.0019004385 0.0006643097 -0.0020951207 -0.0032876902 0.0029374748 5.965893e-05
974 -0.0029430806 -0.00096872816 0.00012911475 -0.0033874665 -0.0039003005 -0.0010616248 -0.0038806833 0.0024389974 -0.0022594118 -0.0023358264 0.0036861203 -0.0030989659 -0.0007414 0.00033281697 0.0025558323 -0.002722481 0.0037572477 -0.0004996529 0.0035741678 0.0036660505 -0.003618923 0.0005487097 0.0008239034 0.0006930043 -0.0023278778 0.00066445465 0.00056392973 0.0031985429 0.0035517209 0.0027207674 -0.0018626476 -0.0012953293 0.0020426142 0.002296529 -0.002831013 0.0034629325 -0.0027279672 -0.0020414246 -0.0032875934 -0.0026027067 0.0027171469 0.0010213754 -0.0022196202 -0.00091376225 0.0026655658 0.0010280673 0.0012135614 -0.00044357462 -0.0024100328 0.0025933448 -0.00027572954 0.0017171807 -0.0013957323 0.00049570535 -0.003076505 0.0011189947 -9.446485e-05 0.0013324206 -0.0006484257 -0.0010219276 -0.0035092572 -0.0038865171 0.00072466116 -0.0008947261 0.0010225957 -0.00039201922 -0.0012089834 -0.00079092215 -0.002288484 0.0015117861 -0.00039553767 -0.0022601134 -0.0030810717 0.003093732 -0.0033094333 0.0024447988 -0.0038551057 0.0020427196 0.0035693054 -0.001508204 -0.0035250806 -0.0006659147 0.0007686208 0.0014947222 -0.0012191266 -0.0017364168 0.0018562579 0.0020353245 -0.0007522352 -0.0005067274 -0.0028367445 0.0031662108 0.0024385958 -0.0009320106 0.0030423286 -0.0020492151 -0.0035341738 -0.0035369203 0.0011118355 0.0014056134 0.001636651 -0.001297916 0.0012055223 -0.00261166 0.0008265733 -0.0004270616 0.0009929845 -0.0020793793 -0.0002836168 -0.0026952394 0.0015482669 -0.0010398206 0.0037327781 -0.0020238482 0.0015704392 0.0031997906 0.0015532289 0.0002697533 0.0021583831 -0.0027503937 0.0021221335 0.00089309545 0.002343314 0.0004790232 0.00093716756 -0.002192128 -0.0014285336 -0.0037922228
741 -0.0031880978 -0.0022373903 -0.00038984886 -0.002218741 0.0031206943 -0.0038279935 0.0018564776 0.0038572117 -0.0033345448 -0.0017203223 0.00025321398 -0.001765298 0.0016906209 -0.0036502848 0.00018335032 -0.0026694487 -0.0004935528 -0.00070172007 -0.002554209 -0.0029349732 -0.0031552548 -0.00030711715 0.0007158082 -0.0036621368 -0.0025827414 0.00044660654 -0.0013361949 -0.0012450161 -0.0028269917 0.0016990611 -0.0022429486 -0.0018207394 -0.0006071306 -0.0015645574 -0.00036564854 0.00077694654 0.0012154621 -0.0033433489 0.0014522026 -0.00033130017 0.0007693024 -0.0037581408 -0.0022495538 0.0005940571 -0.0021362917 0.0027564033 -0.0023642671 0.0010769537 2.6633077e-05 -0.0009810927 0.00025378275 -0.0009951118 -0.002249567 0.0037484893 0.0020424603 0.0018832183 0.0010371871 0.0019489657 -0.00019090681 -0.0024156081 0.003304966 0.00018344875 -0.0013014437 -0.0023014147 -0.0018025168 -5.362843e-05 0.0010318701 0.0005044385 -0.0012554051 -0.003630888 -0.0027353987 -0.0005425222 0.002347801 0.003816842 -0.0018790601 0.0021974451 -0.0030245197 0.0009305404 0.0010255926 -0.001069421 0.0012396814 3.9567352e-05 0.000364112 0.0026381453 0.0012984163 0.0036733805 0.0001721013 -0.0035079755 -0.0024321384 0.0014703625 0.0014812694 0.0030304638 -0.0036051958 0.0026013611 -0.002500659 -0.0015113642 0.002841958 -0.002465201 -0.0014692764 -0.001649624 0.002202771 -0.0028450876 -0.00030701712 -0.0027657035 -0.0038961414 -0.00024115949 0.0028470997 -0.0018032137 0.001307216 -0.0021354842 0.0013941864 -0.0009527819 -0.0023023696 9.3659415e-05 -0.0022149917 0.0017515678 0.002337759 0.002997165 0.0030921975 -0.0022303355 0.0013136363 0.0022424124 0.0013325784 -0.0016106777 -0.0012344203 0.0037054713 -0.0034019977 -0.0025637383
1198 -0.0021168627 -0.00040605073 0.0009761791 -0.00055927085 -0.0019561367 0.0015113641 -0.00023672797 -0.0008959667 0.0029074647 -0.0025446657 0.0037504188 0.00077263656 0.0011551584 -0.0025847303 0.0025744732 -0.0016031098 -0.0030074806 0.00043382758 -0.0013205401 -0.00019292517 0.0026091672 -0.00014473507 0.0037248174 -0.0019242136 -0.0004333146 0.00096501625 -0.0018246347 -0.002484999 -0.001769412 0.00029202367 -0.0018545844 -0.0029439179 -0.0008318168 0.0016592664 0.0035029422 -0.001385284 0.0020625053 -0.00139 -0.0035281093 0.0012492151 0.0015536847 -0.002422374 0.00080486847 -0.0033543122 -0.00087025214 -0.0024221318 -0.0019746034 -0.00044343033 0.00038753115 -0.0036134333 -0.002004234 0.0031135734 -0.003599553 0.0007839784 0.0017440164 -0.000573812 0.0020944297 -0.002787306 -0.0012095844 0.0032075131 0.0017899522 0.003560067 -0.0021997062 0.0036478154 -0.0033323893 0.00313939 0.002640601 0.0023433892 0.00080010627 -0.0026606123 1.34017455e-05 0.002847998 -0.0009208656 -5.3950633e-05 -0.00025203262 0.0036815458 2.653225e-05 -0.0019175013 -0.0029271164 -0.0007164928 0.003865603 -0.0010760801 -0.0009771698 0.0023438856 -0.0034451704 -0.0029931075 0.0016632946 -0.0012600444 0.0018582485 0.002378164 0.0005755256 0.0038139664 -0.0032165085 0.00050520734 -9.881008e-05 0.003283444 -0.001717345 -2.0267178e-05 0.0011891878 0.00021650745 -0.0029427449 -0.0018389515 0.002394439 0.0018951547 -0.0013585417 0.0027916369 0.0033988343 0.0026321763 0.00020046382 0.0021152787 -0.0015249684 0.0038130286 -0.00015808469 0.00017955653 0.0014954525 0.0018294957 -0.003805413 -0.0010365563 0.0033323348 7.244778e-05 0.0033115668 -0.0038657316 0.0010719991 0.0037686063 -0.0027395675 0.0026787808 0.001927779 0.0036302514
421 0.00048087782 0.00096033205 -0.0035871079 -0.0026538249 0.0001366031 1.5349762e-05 -0.0006320717 -0.002300545 0.002761799 -0.002987294 -0.0033246046 -0.0038797888 -0.0013369862 0.0032131742 0.0031693978 -0.0024460037 -0.0030240638 0.0037629916 -0.0010533235 -0.0018256557 0.0012842327 0.003424738 -0.0010429795 0.0021415357 0.0030615325 -0.0018978836 0.0014755579 0.0019011217 -0.0034895374 0.00243055 0.0003675316 -0.0034050548 -0.0009436212 -0.00072491926 -0.0008800136 -0.0005742476 -0.0024176065 0.0032345427 -0.0020293067 0.0033799517 0.00043189188 -0.0010560515 0.0026945018 0.0009212716 -0.0020706325 0.0032880334 0.0032323224 -0.001306048 -0.002962894 -0.0031582187 -0.0036688936 0.00211939 0.0019428335 -0.0006210271 -0.0023690446 -0.0018585795 -0.0023706339 -0.0012013777 -0.0007943471 -0.0014197475 0.001927735 0.0024245644 -0.0019455047 -0.003430542 0.0017086194 -0.0023211576 0.0011597682 9.532618e-05 0.0005875944 0.00037388224 -0.002872181 0.0024644046 -0.0031761131 0.0016925911 -0.0022234668 0.0009647689 0.0035374973 -0.0037884898 0.0032715066 -0.0027350334 -0.0031803641 0.002821599 0.0037977837 0.002653107 -0.0026567546 0.0008343966 0.002002888 -0.00073589943 0.0035723443 0.002593301 0.0015022353 -0.001974793 -1.898615e-05 6.8624777e-06 0.0018323765 0.0025689192 0.001583212 0.0010793756 -0.0014669285 0.0032854546 -0.0036001992 -0.0033225035 0.0018832065 -0.00072031363 0.003119745 -0.0016131257 0.0007584266 -0.00088624674 -0.0006922278 0.00087929744 0.0011824525 0.0015278275 -0.0014879213 0.0032650412 -0.003135862 0.0033019618 -0.00030027897 -0.0025497081 0.0004242998 0.0012465188 -0.0011401455 0.00018081607 0.0015754176 0.0011958784 -0.0022447633 0.00033138102 0.0016351369 0.0009396405
371 0.0028586078 0.001119571 -0.0012019954 0.0035914166 0.0011576348 -0.0017434397 -0.0034852924 -0.0035243402 -0.0012511394 -0.0005665681 0.0018365443 -3.0708128e-05 -0.0009573703 0.0038693752 0.00137363 -0.0038689468 0.001370725 -0.0035135504 0.0035215386 0.0021777232 0.003087198 0.0019968646 0.0014930959 -0.0012076895 0.0036793235 -0.003727762 0.0016226055 0.0028942379 -0.0018236347 -0.00026277427 0.00073993613 0.0019276205 0.001138491 0.0013691111 0.00028920663 0.0038386185 0.0037298906 -0.0018535687 -0.0035684633 -0.00092742936 -0.0020878261 0.0023543737 -0.0027216282 -0.0018133715 -0.0004213214 0.0005042739 -0.0018622332 0.0028054132 -0.0022385886 0.0013547014 0.0026408678 -0.0011762728 0.0020816454 0.00079298223 -0.0036353187 -0.000737722 -0.0030242493 -0.003484974 0.0030730763 3.771352e-05 -0.0010421041 0.002766334 0.0005628343 -0.00029478897 -0.0030627903 -0.0011588358 0.0017691315 0.0009630754 0.0011371146 -0.00011778886 0.0037003958 -0.0006446687 0.0016368682 0.0016873642 -0.0031075233 0.0031761902 -0.0018394873 -0.0014601399 -0.0025711393 -0.0028568336 -0.0010192845 0.001732037 -0.0029190185 -0.0018447967 0.00075135374 -0.0024000446 -0.0018944412 -0.0032735637 -0.0038329354 -0.0035957012 0.001736476 -0.0034391829 -0.0036837687 0.00073081005 0.0026464718 -0.00044041235 -7.689084e-05 0.0037302456 -0.0036160874 -0.00025752236 0.0010227278 -0.0027415308 -0.0015222768 0.0019026059 0.001298849 -0.002542709 0.0027995966 -0.0028805314 0.0028187516 0.0023541155 -0.0021647247 0.0016140714 -0.00040916214 0.003148624 -0.0025414561 -0.00085446925 -0.0028362786 -0.0022990548 -0.0016966251 -0.0033619073 0.0027937433 -0.0009972112 -0.0018157071 0.0008027444 -0.002370372 0.0011494419 0.0031133166 -0.0022214984
300 -0.00195648 0.0022174255 -0.0023969237 0.002907474 -0.0024803563 0.0014751215 0.0019331493 6.7179266e-05 -0.0037931367 0.0005945933 -0.0029509536 -0.0013864104 -0.0034362415 -0.0022547273 0.0008023662 0.003799669 -0.0032832073 -0.0026344403 0.0017278026 0.0014827644 -0.003514053 0.0038512426 -0.00011172667 -0.00097311614 0.0027984388 0.0025008672 -0.0019806123 -0.00092149986 -0.0019035868 0.00031108 0.0005616436 -0.0012814947 0.0018808653 0.0036333525 -0.0033154795 -0.00059753016 0.0024704423 -0.00161002 0.00031499864 -0.0028603512 -0.0025177381 -0.0010655471 -0.0026488553 0.0032562895 -0.0021004784 -0.00018752192 0.003224293 -0.00097458455 0.0029182704 0.00216806 0.0028500431 -0.0017040714 0.0035876909 -0.0009076222 0.0013345352 0.002633619 -0.00057819526 -0.0021277622 -0.0031420023 0.00238048 -0.0003089795 0.00090354006 -0.00047993838 -0.00025330868 -0.00053015497 -0.0019168297 0.0017692028 0.003062681 0.0021782084 -0.0038549143 0.0016090982 0.0029016323 -0.0038909232 0.0015967835 0.0026188984 0.0033736299 -0.0032941897 -0.0035716877 -0.0017589129 -0.00268132 -0.0005163419 -0.0031557663 0.00040702007 -0.0009076922 0.0005055452 0.0012121272 0.00053610664 0.0033630156 0.0016359573 -0.0032732906 0.0019226633 0.0022666466 -0.0036601645 0.002770806 0.0013898623 0.00333605 -7.4522985e-05 0.0032969343 -0.0039014977 -0.00015167346 -0.0032855195 -0.0026983132 0.0008756299 -0.0010100442 -0.002166836 -0.0011951885 0.0034601886 -0.001008402 -0.0028548182 0.0037791836 -0.00034336315 -0.0014397107 0.0023129582 -0.0028575307 -0.00158945 -0.0029192567 0.0038116726 -0.00164469 -0.0025077916 -0.002669167 -0.0012502245 -0.0011339259 -0.0014915573 -0.0035696807 0.0010330712 -0.0038579472 0.00033309747 -0.0018484055
672 0.0018800726 -0.0017572751 0.0018369708 -0.0009140695 -0.0013200642 1.7304606e-05 0.0025385532 8.182452e-05 0.00060472847 0.0024391483 -0.0024644956 0.002250736 0.0028680665 -0.0033468213 0.0018339788 0.003650976 0.0010230138 0.0010936926 -0.0018973851 -0.0005398896 0.0006978663 0.0013974686 -0.0009270257 0.00048426722 -7.185414e-05 -0.0014263049 -0.0007654651 -0.0014867899 0.0030105747 0.001612075 0.00021928734 0.00012689258 -0.0013907312 0.002586935 -0.0023068967 0.0029763565 0.002308554 0.002943584 -0.00049332395 0.0013959026 0.0011384008 -0.0019271409 -0.0012688324 -0.0018583194 -8.9224515e-05 -0.0019593774 -0.002795969 0.0013217145 0.002578152 0.0025970975 -0.0035600862 -0.003858841 -0.0021944812 0.00028979717 -0.0014482766 -0.002881234 -0.00021653486 0.0018050201 0.0005078484 -0.002857854 -0.0035213546 -0.0026642308 0.003737898 1.5818758e-05 -0.0028983175 0.00040709987 0.003512836 0.0009705545 0.00033823296 0.002875536 -0.0013471202 0.0020848133 -0.0016969391 0.0026314666 -0.0028901657 -0.00052504486 0.00011455226 -0.0025799295 0.0033164655 -0.0030749363 -0.0013104078 0.003835896 -0.0018385208 0.00076071 0.0023628362 -0.00031193037 -0.0020266077 -0.0023581826 0.0017126934 0.0038245018 -0.00064937974 -0.0025611797 -0.0020944648 -0.0023746116 0.0034680176 -0.0015691526 0.0025942696 0.0012362177 -0.0014253502 0.003209701 0.0006434444 -0.0021646442 -0.00027820643 0.0027068488 -0.0023138572 0.0004845986 0.00024282064 0.00023045641 0.0013079726 0.00258835 -0.0032011743 0.0027170354 -0.0025948293 0.0035889058 0.000120491306 0.00340093 0.002169134 -0.0022827105 -0.0012961965 -0.0013266797 0.0008181232 -0.0017617907 0.0025241293 -0.00088701217 -0.0002519592 -0.000619621 0.0010533563 -0.0008124404
427 0.001354889 0.0025402238 -0.0022310356 -0.0017151148 -0.0011004802 0.0010688374 -0.0028695527 0.0007621568 0.00010658501 -0.003285128 0.0015155321 0.00076050643 -0.0019663856 0.0006690349 -0.0035538957 -0.0011299164 -0.0016869749 -0.0003935055 -0.00057042856 -0.0026092639 0.0019488828 0.0027643659 0.0018345504 -0.001106551 -0.0007114743 0.0012959011 -0.00087518356 0.0019030061 -0.0019809357 -0.00160795 0.0015738747 0.0019371462 0.0028662449 0.0039048812 0.0031589814 0.0011011353 0.002571597 0.0025479353 -0.003182852 0.0008615895 0.0010231207 -0.0038301763 0.001199841 -0.0037786295 0.0010949888 0.00095922686 -0.0006759541 0.0033886996 -0.0020758975 -0.002827948 0.0028104116 0.002888714 0.001477563 -0.0007231235 0.003533721 -0.0021142475 0.003150561 0.001267367 -0.001373599 0.0005713471 0.0030871548 0.002374658 -0.0014568414 -0.00183061 0.0026195734 -0.002891249 -0.0010261997 -0.0038380097 -0.0034865667 -0.0004687675 -0.0005294721 -0.0035611314 0.0005485998 -2.0041593e-05 -0.0012398358 -0.0006548039 -0.00047566748 -0.0010888113 -0.00075511105 -0.0005816157 -0.002244055 -0.0017096516 0.0031189492 -0.0022012352 0.0018080256 -0.0020329468 -6.268771e-05 0.0006774515 -0.0015757919 -0.00055350317 0.0032130051 0.00390424 0.00015534023 0.0008988844 -0.0011832957 -0.0034108164 0.0034889071 0.0019245312 -0.0021315203 -0.002101911 0.0029388978 0.00077079353 0.0038338888 -0.0036271825 -0.00037296224 -0.00076171284 0.0016056218 0.0027401664 -0.003039567 -0.0021758752 0.0031537581 0.0030905223 0.0018604122 -0.0033405952 -0.0024582744 0.0020527826 -0.003200272 -0.0026098944 0.003612304 0.0035200992 -0.0008941534 -0.00024208729 -0.0018871537 0.0021565882 0.003655273 -0.0008075543 0.0028441483 -0.0015439464
244 0.0038306406 0.003118421 0.0027762086 -0.0037199208 0.0035330341 -1.3778225e-05 -0.0006462491 -0.001274399 0.0032535954 0.0013586519 0.0028125022 0.00331915 -0.0015237365 0.0010232726 -0.0016919767 0.00016974326 -0.00044186978 -0.0033844644 0.0017144788 0.0034191112 -0.0033373376 -0.002238356 0.0032944686 -0.00035737545 -0.0035208683 0.00097271055 0.000108285945 -0.0031456233 -0.0024575805 0.0031831122 -0.0038159257 -0.002440898 0.0005360267 0.0032309406 0.0033695484 0.002747283 -7.398305e-05 -0.0029821622 -0.0036712685 0.0021059827 0.0015177919 0.0036435807 0.0013175458 -0.00077830063 -0.0029367143 0.0023678013 0.003007249 -0.0015680428 -0.0013018772 -0.0014170597 -0.002866096 -0.002061408 -0.00083341624 -0.0019859418 0.00081738003 -0.0030766188 0.0001634722 0.002381072 0.00011192937 0.0034395913 0.0015258943 0.0019240957 8.1380866e-05 0.0028468245 0.0015027804 0.00046620241 0.0017549756 0.0009065216 -0.001351262 -0.0019359475 0.00023755943 0.00013073577 -0.0008592965 -0.0021548 -0.00353883 0.00046772757 -0.00043975402 -0.003133615 0.0008160403 -0.0012862689 0.0010218029 0.0013668155 0.00030001748 0.0031311882 -0.0037339781 -0.0008199177 0.0030090844 -2.1656568e-05 -0.0022227685 0.0036357879 -0.0018014181 0.0024337042 -6.69232e-05 0.003460286 0.0023612464 -0.0034859283 -0.0012290732 0.0019787985 0.0032301315 0.0020411175 0.0028169903 -3.9403396e-05 -0.0011122535 -0.002326304 0.002604151 0.00077848375 -0.0014435913 0.0014530141 -0.00077581947 -0.00021999494 0.003258305 -0.00039169713 0.002039074 -0.0018915519 3.6680296e-05 0.0027298974 0.0015269123 0.0016935195 0.0036494462 -0.0010172423 0.0014096863 0.0012595098 -0.0021164268 -0.001924072 1.3163827e-05 0.0012962507 -0.0017068186 0.00082396285
1211 -0.0016802232 0.0030643488 0.00010821998 0.0009597822 0.0010964769 -0.00039404887 0.0033891536 -0.0019617204 -3.4747936e-05 -0.0020179467 0.0037332382 0.002842675 -0.0035010434 0.0011682287 0.0010685539 0.0030596203 -0.0014536033 0.00028748318 0.0017676266 -0.0011560956 -0.0009925915 0.002242463 0.0026393828 0.003508355 0.0018330704 -0.003560284 0.0007415284 0.0006183042 0.0012772317 -0.0028614535 0.0034033596 0.00047283145 -0.0010725745 -0.000114944974 -0.0014056669 -0.0032540148 -0.0013594325 0.0018888855 -0.00092247565 0.00012682744 -0.0035369627 0.002991319 0.0007351463 -0.0005870551 -0.0014773385 -0.0026489918 0.0022670815 0.0033669416 0.000521837 -0.0034239127 -0.0004141397 0.0024889698 -0.0021567133 0.0017347281 -0.002930435 0.0027252636 0.00012376934 -0.0033553932 7.527037e-05 0.0016157017 -0.00018905806 0.0029711318 0.0026115046 -0.0007030904 -0.002469691 -0.0033993223 0.0037906996 0.0009958098 -0.0035492014 -0.002194962 -0.0014290655 0.0013082261 -0.0010187726 -0.0006868148 -0.0019877492 0.0012710501 -0.0011970833 -0.0022385688 -1.8456889e-06 0.001475082 -0.0029101465 0.0034818514 -0.0028602188 -0.0018269792 0.0032540502 -0.0030169194 -0.0036311692 0.001224275 0.00013611946 -0.0003343105 5.5344495e-05 0.0014147605 0.0010849633 -0.0024530485 0.002323812 -0.00017952545 -0.003734774 -0.002587562 0.000939253 -0.00094656023 -0.00014908832 0.0028371918 0.0012737361 0.0026360175 0.0038707166 0.0016551727 -0.001047562 -0.0013221334 -0.0028795602 0.0030615164 0.0015579405 0.0018995317 -0.0015618814 -0.0003624414 0.0006055067 0.003367409 0.0016478021 -0.00016657011 -0.0008524931 0.0032471057 0.0013258194 0.00029385454 0.0005848491 0.00274416 0.0006169457 0.00070212287 0.002903 0.0034435485
404 0.001944066 -0.0038205073 0.0030825639 0.00045136892 0.0013755467 -0.0022447256 0.0038453394 -0.0022015565 0.0008734612 0.0027686006 0.003588116 0.0031606157 7.781888e-05 0.003738155 -0.0021544588 0.003209591 0.0028998011 0.0033652184 0.0011940136 0.0026412883 -0.0017223572 0.0006525304 0.0013417386 0.0005586442 -0.0007505934 -0.0011671658 -0.0005701825 0.0027806319 -0.001327186 0.0019079143 -0.0010700125 0.00030711468 -0.0029189542 -0.002941942 -0.0024053277 0.00014475599 -0.0013513494 -0.002726197 0.0008651942 0.0030731657 0.00069578545 0.0030552796 -0.0028483386 -0.0010461301 0.003841616 0.0030551571 0.001351916 0.0037329365 -0.0029385523 0.0022626857 0.0019573967 -0.0024426358 0.0014016158 0.0009780963 0.0013070724 0.0025019834 0.0023453152 -0.0023074667 -0.0012199413 0.0019435625 0.00056172523 -0.0004673401 0.0021871212 0.0031431532 0.0013618905 -0.0020806063 0.0032054659 -0.0022574612 -0.0035947138 0.0034128148 -0.00019852252 -0.0019451593 -0.0004725113 -0.0009548249 -0.0029059097 -0.00029763643 -0.002576763 -0.0028493989 -0.0007532774 -0.0029318507 0.0029378713 0.0035851707 -0.00039886174 -0.002392015 0.0033326102 -0.00079788244 -0.002984529 0.002662979 -0.003617436 -0.0016741212 0.0012206549 -0.0022885741 -0.0027451343 -0.0034096767 0.0034229734 0.00157883 -0.0024187926 -0.0008353029 -0.0011755613 0.0002925419 -0.00060020277 -0.0022083716 -0.0013959194 -0.0016200545 0.00082712685 -0.00024271043 0.0011354304 0.00021471088 -0.0016462058 -0.0026704099 0.0020807278 -0.0022315225 -0.000511738 0.0019737324 0.0006649466 5.9648697e-05 0.0026286305 0.0015598594 -0.0022089619 0.002397888 0.0013280064 0.00011372643 0.0013798336 -0.0019208207 -0.0011368177 -0.0021819216 0.0017755952 -0.0033921155
231 -0.0031883263 0.0011835861 -0.0027706805 -0.0037340552 -0.002967746 0.0013854811 0.0014978917 -0.0031623787 0.0025707253 -0.0021385537 0.003808657 0.0019021484 -0.0021034745 -0.0036663967 0.0004995443 0.0023253649 -0.0005421507 0.0017889246 -0.0034621127 -0.0024215109 -0.0018269063 -0.003703609 -0.003621043 -0.002967548 0.0024307899 -0.0037709011 0.0010133412 -0.0013095846 0.0032753642 -0.0029587059 0.0024002774 0.0013933661 -0.0037018356 0.0028263798 0.0017593508 0.0035270446 -0.001859642 0.0016855543 -0.0013710002 0.00319019 -0.002881019 0.0032979327 0.0023500978 -0.0025030682 0.0019709445 0.0012153327 0.0036151698 0.0014468819 -0.0035780366 0.0022659036 0.0011095861 -0.0019959637 -0.0021765125 -0.0028955233 -0.00035855276 0.0018767439 -0.0011644479 0.0029548574 0.0030663915 -0.00051052304 0.00042191893 0.002158983 -0.0023018094 0.0015282067 -0.0024957873 0.0037307907 0.0002795774 0.001149089 0.001303985 -0.0015603121 -0.00082403724 0.0029344428 0.0019413341 0.0019362825 -0.002812218 -0.0025455456 0.0023944448 0.002145105 0.0020000287 0.0012480491 0.0005533358 -0.0034434865 0.0022232614 -0.0021530313 0.00045865768 0.0024839474 -0.0028544464 -0.0014427996 0.0014365015 -1.869073e-05 -0.0021258004 0.003794318 0.0016699116 -0.0022665078 0.0020684495 -0.0026469112 -0.0009384715 -0.003459073 -0.003264753 0.00254305 0.0015571512 -0.001993307 -0.00262313 -0.0017888497 -0.0011139387 0.0030776244 0.00016393834 -0.0005573513 0.0027731287 0.0024723955 -0.0027563665 -0.0014178426 -7.10617e-05 0.0007115444 0.0026739277 0.0012847397 0.0038336583 -0.00033948608 0.00094990234 -0.0017956984 -0.0021290786 -0.0005150165 -0.003674404 -0.0006674028 0.0018045311 0.0033217953 0.0010580987 0.0008093877
357 0.0005397935 -0.0007790973 -0.0022461645 -0.00034206937 -0.0031465134 -0.0037697186 0.0024570883 0.0007079656 -0.0016853194 -0.0023489397 0.003451914 -0.0010949326 -0.0035170782 -0.0023192689 0.0020553314 0.0031399536 0.0016558978 0.0033242193 0.003000622 0.0032436592 0.002861701 0.0019688732 0.0011328515 -0.002702231 -0.0029436569 -0.0036544274 0.001046011 0.003071378 -0.0022672522 0.0031363375 0.0005866866 -0.0009700848 -0.0032748801 0.0021123604 -0.003053073 0.0002476353 -0.0020375648 0.0026721389 0.0022128844 0.0013598694 -0.0018447995 0.003423846 -0.0012716573 -0.0023401028 -0.00084390043 -0.0026840153 -0.001087423 0.0030206535 0.0036377304 0.00051928207 0.0032932127 0.0022635334 -0.0022347004 -0.000557566 0.0015815891 -0.0034591663 0.002629103 -0.0028087231 0.00043706526 -0.0025892765 0.0035318607 0.0030317034 0.0025842732 -0.0012781388 0.0034697717 -0.0035886983 0.00081060006 -0.00026633395 0.0019647435 0.0004025535 -0.00034202775 0.00033673918 -0.0037332303 -0.0009863395 -0.0021401648 0.00068171334 -0.0010434255 0.0030767205 0.0020678008 0.002826569 -0.00022362046 -0.0021689062 0.000764423 0.0014411972 -0.0026760162 -0.00218652 0.001256541 -0.00071586267 0.0017646723 -0.001351495 0.002985311 -0.0016494277 0.0030788356 0.0012183816 0.00051458285 0.0010457573 0.0015819416 -0.0010681205 -0.00088289665 0.00040438998 0.0016911882 -0.0019348855 0.0013735209 6.959862e-05 -0.00067016465 0.0028984766 0.001270932 -0.0021066067 -0.0021349574 0.00326622 -0.0034507446 0.0027458752 -0.0009960077 -0.003336529 -0.0032287827 0.0020190047 -0.002064865 -0.00020207063 -0.0032173605 -0.002788851 -0.0035349214 -0.0034328674 -0.00017059116 0.003843794 -0.0031128444 -0.0033049562 0.0012451425 -0.0035660327
847 0.0032588446 0.0012082133 0.0038809285 0.0019325921 0.0027251036 0.0037016608 0.0022409628 -0.0022696564 -0.0003171047 -0.00069852255 0.00014357513 0.0036884698 0.0025210546 -0.0013179963 0.0003742782 -0.0036809782 -0.001708929 -0.0033683393 0.0032242774 -0.0031332942 -0.0020878501 -0.00022141016 0.0027131648 -0.0024726663 -0.002305116 0.00021657556 0.0028401518 0.0012100147 0.00012861598 -0.0036517289 0.0032940353 -0.00136502 0.00029698634 -0.0036271052 -0.0020484931 0.0036554749 -0.0011976614 0.0026331774 -0.0013271178 0.0037824933 0.0015603538 0.002807054 0.0020553921 -0.00041432018 0.00043754856 0.0014991306 -0.00062618195 0.0023883565 -0.00042188534 0.0032370938 0.0011101261 -0.002050431 -0.00096790737 -0.0025681588 0.0017756025 -0.0016740016 -0.001866492 0.00050377956 0.0011943021 -0.002466708 -0.0003254296 -0.002139114 0.00077740615 -0.001032062 -0.0005423412 -0.0016950943 -0.0010657156 0.0018711413 -0.003362645 0.0036875561 0.0028254609 0.003737425 -0.0028244348 -0.003022837 -0.00046921417 0.003237377 0.0028853195 -0.0006403775 0.0031296334 0.0020349824 -0.0018715619 -0.001025959 -0.001683342 0.000859336 0.0014997369 0.0009621464 -0.0026059796 0.001411536 0.0032680049 -0.0028647692 0.0017496261 0.0024970872 -0.0017291558 -0.0007117237 0.00052883517 0.0015757892 -0.0029138566 -0.002712391 -0.003743321 0.0008775031 6.426962e-05 0.0011750625 -0.0017466268 -0.0033204248 -0.00031579135 -0.0021179866 -0.0014489347 -0.002572748 0.0017566306 -0.003257743 -0.0012675637 -0.0025689928 0.0016936188 -0.003089569 -0.0029300635 -0.0035735187 -0.0009905765 0.002941979 -0.003190706 0.0001103324 0.00014040967 -0.0014369542 0.0021623252 -9.9909215e-05 0.00043547398 -0.001597736 -0.0019052015 -0.0012581372
477 0.0013372021 -0.00023478382 0.0022401495 -0.002423214 -0.0016419213 -0.0030335037 0.0035551735 -0.00095715444 -0.0033023604 0.0035725294 -0.00029740727 0.0017712305 0.0011087935 6.0195423e-05 0.0031648779 0.003138174 0.0005202318 -0.0022388338 0.0032501488 -6.260452e-05 0.00016679162 -0.0026313497 -0.00040806227 -0.001981668 -0.0020367154 0.0033376478 0.0031764933 0.002482686 -0.0037101803 0.0032821628 -0.0031930578 0.0022870984 -0.0028136368 -0.0021965206 0.0008789356 0.0012818252 -0.0029753174 0.0015803864 0.0022234803 0.0030534586 0.0013052364 0.0015871719 0.0008867035 0.00092567946 0.003763232 0.0009701137 -0.0013089487 0.0014563478 0.0012565175 -3.2574724e-07 9.179783e-05 -0.002288631 0.0024305582 0.00013417509 -0.0020559665 -0.0005691815 0.002689404 0.0011704245 0.0013348736 -0.0008331352 0.0035298537 -5.2963973e-05 -0.0028930588 0.002420251 0.0037757314 -0.00055948 -0.0034546629 -0.0027429166 0.0036505046 -6.506486e-05 -0.0036587014 0.0008896975 -0.0030737661 -0.0018106386 -0.0015871961 -0.00041148564 -0.0032920183 -0.0008716918 0.0008297987 -0.00082504854 0.0023033277 0.0010626498 -0.003580714 -0.0031092702 0.001328582 -0.0017955792 -0.0024647794 0.0015653623 0.0012151883 0.0026836656 0.0036702107 -0.003633049 -0.003048739 -0.0022034482 -0.00033486827 0.0025684773 -0.00026866276 0.0020237162 0.0025346205 -0.003803549 -0.002792862 0.00029988628 0.0015934985 0.003718535 0.0027753266 0.0033511028 0.003730513 -0.0023368679 0.0012590261 0.00016722799 -0.001176864 -0.0032428792 -0.0024254574 0.001750006 -0.0019403307 0.0010338769 0.0018816842 -9.105457e-05 -0.0025793845 -0.0025927646 -0.0021840185 -0.0012008874 -0.0033970843 0.0013937213 -0.0036407993 0.002276206 -0.0035752023 -0.0037031053
524 0.0006891481 0.001203828 -0.0022291932 0.00312401 0.0038888352 -0.0031631626 -0.0020974977 -0.002417967 -0.0006140294 0.0022694783 -0.0013891065 0.0027565346 -0.002274148 -0.0013780394 0.0036885282 0.0005683155 -0.0030686809 0.0016323372 -0.0007130219 0.0026343784 0.0021909198 -0.0038280599 0.0002060104 0.0011801175 0.0024764438 -0.0033359209 -0.0018376159 0.0035133816 0.0017811602 0.0014093602 -0.00095291465 -0.002703288 -0.0034134458 -0.0035402072 -0.0014834452 0.002517017 -0.0005632666 0.0014084545 -0.0036458916 0.0016029796 0.002586105 -0.0026643625 -0.00024605604 0.0022994464 0.00088417827 -6.304387e-05 0.0006533584 -0.0019137433 0.001220586 -0.00088052097 -0.0016218809 -0.00091659144 0.0025427453 -0.0034681107 0.00045755424 0.0033943693 0.0028384824 -0.003299002 0.0024388307 -0.0015975839 -0.0017995525 0.003813488 -0.000575998 -0.0026471287 0.0026677179 0.0023637211 -0.00079568924 0.0028173318 0.0002774753 0.0038281844 0.0018059651 0.0035161336 0.0004697299 -0.0003892046 0.00024200485 0.0009069285 -0.0004186163 0.0032089283 -0.00020187224 -0.0017188292 -0.0010538964 -0.0032647294 0.003253432 0.0014564869 -0.0029320382 0.00070101785 0.0039021766 0.0034839518 -0.00028859908 0.0038893677 0.0031291724 0.00047847856 -0.003804104 0.0020312255 0.0018048623 -0.0011996123 0.0022579578 0.0006931863 0.0033718622 -0.0012659074 0.0020186559 -0.0013242299 0.00082488306 -0.0011645489 0.0001742316 -0.0017820619 0.0023728611 -0.003139097 0.003598371 -0.0016125345 -0.0018634783 0.0019998369 -0.0030914496 -0.0038253963 0.0003940758 -0.0012695641 0.00032975935 0.0037641504 -0.00017320791 -0.0032733202 -0.0023312496 -0.0028361813 -0.0005393141 -0.0036396387 0.0017682075 0.0013306765 0.0025783004 0.00045463565
11 -0.0027465264 -0.0007092121 0.0025496308 -0.0029751312 -0.0013027232 0.0037396215 0.003161708 0.0013303234 -0.0027937489 -0.0023882869 0.0011156981 0.0012577942 -0.0020632737 -0.0038661696 0.0021554024 0.0006385361 0.0029386126 0.00020161037 0.0015615156 0.00029348247 0.002123591 -0.0004850867 0.001975924 -0.0037474395 0.0026271874 -0.000527906 -0.0011029766 0.00035946193 -0.003553223 0.002592869 -0.0006179119 0.0025357092 -0.0033814078 0.0011682747 0.0033108077 0.002510963 -0.0011789971 -0.002481452 -0.0033829191 0.0007586314 -0.0036748173 -0.0009157429 0.00278785 0.002401429 -0.00028749878 -0.0033499876 0.0032528283 0.0024926835 0.0027184526 -0.0010252941 -0.0013160477 0.00059723307 0.0027418158 0.0018318973 -0.0005748485 -0.0003495538 0.0014542892 -0.0016540402 0.0036023688 -0.000697584 0.00068356167 -0.0005122962 0.00010127905 0.00047761342 0.00011491345 0.0001237954 0.0031648222 -0.001706474 -0.0018067857 -0.0014048567 0.0034557427 0.0023752302 0.0031823358 0.0020607796 -0.00081687013 0.0015676406 0.0028519025 -0.0018392855 -0.001112747 -0.0014968329 -0.0022239904 -0.0038369938 0.0021009136 0.0027670008 -0.0029777698 0.0026457799 -0.0028313952 0.0023250254 -0.0019443188 0.0030818393 -0.002313641 -0.0012658815 -0.0018458021 0.002188232 -0.003233481 -0.000754047 0.0015172822 -0.0016411192 -0.000157581 -0.0029761817 0.0030847555 -0.0031909302 0.00200192 -0.0021826748 0.0036803398 0.0026901457 0.003571495 -0.0038075754 0.0008648939 0.0038875814 0.0024970456 -0.0037748273 0.0008289229 0.0010236466 0.0033112932 -0.0009080955 -0.002920733 0.0024019005 -0.0031896331 0.000499317 -0.0010118983 -0.0027525085 -0.003388469 -0.0023735836 0.001141105 0.00018080637 -0.0010551777 0.0009872076
417 -0.0019457748 -0.00084593234 -0.0019099198 0.0009247803 0.002123185 0.0015508558 0.0031663163 0.0013384469 0.00053077674 0.00097141997 0.0017596239 -0.002171572 0.00025473375 -0.0022858742 0.0028227856 0.0022208067 -0.0038197902 -0.003211651 -0.00097350415 0.0017571875 -0.002664564 -0.0010658783 -0.0036711192 0.002360922 -0.0035244608 -0.0007293371 -0.0037302938 -0.0024297799 0.00029257569 -0.00020076237 0.0006500854 0.00024085783 -0.0017733391 0.0038626883 -0.0012369148 -0.0012510589 -0.00032183385 0.0038946832 -0.0026339223 -0.002091143 -0.0011339629 0.0027399918 -0.000444453 -0.001843279 -0.00025290356 0.00048941915 -0.0010599608 -1.3074593e-06 -0.003672171 -0.002060618 -0.00048426553 0.0011015458 -0.000965965 -0.00082161254 -0.002535079 -0.0005163304 -0.0014776291 -0.0006929317 0.0020186668 -0.0026444653 0.0011565649 0.0011660462 -0.0025763453 0.0018439019 -8.3172905e-05 -0.00041254456 0.0004998718 0.003730577 -0.0019278909 -0.0012435461 0.0011350176 -0.0031155986 0.0033552889 -0.002241116 -0.0023301544 0.0022839955 -0.002022877 0.0023523406 0.0037287339 -0.00061609247 0.0025229137 -0.0038360434 0.0012943577 0.00014729532 0.0017293217 0.0038222028 0.0011940624 0.0023891523 0.0031545884 0.0008688335 0.0036657932 0.002236693 0.0030859266 -0.00026030044 0.0005796611 0.0038045442 0.0019103988 -0.0020623642 -0.0017435877 0.0036888954 -0.0013433599 0.003680285 0.0011958941 -0.0011527911 1.3439621e-05 -0.0022907376 -0.0010450794 0.00047794142 -0.00036232843 0.0013111404 -0.0015330509 -0.0028759358 -0.0010951437 0.0022464236 0.0015812461 -0.0038365412 0.0026721538 0.00249666 -0.0009967915 0.0015292149 -0.0014618863 -0.00033473782 6.2773026e-05 -0.00087406894 0.003061623 -8.075331e-05 0.00037548706 0.0014924716
197 0.0036228483 0.0007788569 0.0012084878 -0.0023399696 0.00050934573 -0.002199061 -0.00016567872 0.0032181486 0.00055905315 0.0006377319 0.003658566 -0.0031552406 -0.00064458314 0.00060109684 0.0021482792 0.0031557246 0.0036612833 -0.0015874036 -0.0033613853 -0.0034943195 0.0038493336 -0.001441218 0.0038052383 -0.0028063506 -0.0033314216 0.0037449063 0.0019289961 0.0016794733 -0.00066946296 0.0030863022 0.0004728954 0.0034979072 0.0032415166 0.003207257 -0.0037664631 -0.0022243997 0.0001654071 0.0029321618 0.0024489232 0.0034904014 -0.0022709402 0.003692761 0.002382268 0.0020069699 -0.0028926954 0.0036307639 0.00048164654 0.0027103883 0.002542206 -0.0032956344 -0.0038385675 -0.0038606783 -0.001859683 -0.0038823672 -0.00020185548 -0.0015453934 0.002033825 0.0031296553 0.00081640715 0.0006850465 0.0028560546 -0.0014324419 0.0005808907 0.003716477 -0.0021904348 0.0029868323 -0.0014233021 -0.0031318325 -0.0012870238 -0.0037221902 -0.00067697524 -0.0018749976 0.0025526604 0.0034501255 0.003689616 0.0011617047 0.0012187677 0.0034384471 0.0009484587 0.0027119012 0.0036998526 -0.000590614 0.001056173 0.0016952392 0.00064945116 0.0003266739 -0.0021713255 -0.0023910296 0.0005018726 0.0035775257 0.0027795115 -0.0022071202 0.0011403093 -0.0031862056 -0.0007796047 0.0028519307 0.0022168127 -0.002826639 0.002268897 -0.0017975891 -0.0011559485 0.0036562008 -0.0026533105 0.0024092344 -0.0035418721 -0.0011992916 -0.00019044524 0.003143133 0.0008794131 0.0024747332 -0.00019991423 0.0012409557 0.0029751225 -0.002842708 0.00028640634 -0.00075571844 -0.0012206109 -0.0012082347 -0.0032001962 -0.0017496336 0.00022285702 0.0021782196 -0.0027472426 -0.0022681642 -0.0038460137 -0.0007000658 -0.003385151 0.0002393079
881 0.002892474 -0.00040992512 -0.0034531436 -0.001984243 0.003548371 -0.00068260805 0.0022769999 -0.0016203251 0.0016483874 -0.0031507954 -4.7401598e-05 -0.00085829274 0.0010220655 0.0015047039 0.00013681507 0.0005056628 -0.0022805675 -0.0005391486 -0.0018384851 0.0013844918 0.0024878976 -2.7438899e-05 -0.0028969138 0.0008166467 0.0008890071 -0.0033736015 -0.0029807093 -0.0026604852 0.00049853924 0.0027085661 0.0016214215 -0.00056404667 0.0009473618 0.00016752869 -0.00036728173 0.0024539556 -0.0013707501 -0.0007745954 -0.0026244477 0.0014731244 0.0014499456 6.467555e-05 -0.0027874354 0.0018134223 0.0033036931 -0.0020779546 -0.00061309437 -0.0005286371 0.002121494 -0.0009129713 0.0024574476 0.002109653 -0.0005412934 -0.0012513547 -0.0001547037 -0.0034019127 0.0028201928 -0.0016283744 0.00012024001 0.0039050123 -0.0028414726 0.0033112948 -0.0036860965 0.0027602788 -0.00010694493 -0.001947147 0.0006589002 0.00073129823 0.003093269 -0.0015669692 -0.0030668657 -0.00021397122 0.003614033 -0.002538015 -0.00085538696 0.0007740778 -0.0020015417 -0.000369578 0.0004300264 0.0012383098 0.0014846494 -0.0034827013 0.0010023881 -0.001432554 -0.0026630494 -0.002102396 0.002893264 0.0020913188 0.0024656393 0.0033070452 0.0025501638 -0.002557703 0.00078187406 -0.0014682738 -0.0023020096 -0.0019226689 -0.0013141851 -0.0026386278 0.000644101 0.0009585384 -0.0023159806 -0.0022398583 0.0014631266 -0.003899815 0.0018612185 -0.0025667085 0.0006411548 -0.0019328813 0.00094787375 -0.0018915089 0.0037038457 -0.0028121166 -0.0038659624 -0.0014681395 -0.0019682941 0.00047290724 -0.0026681419 -0.0005727763 0.0032329648 -0.0001239018 0.00017878502 -0.0003912149 0.00040859368 0.0018062531 -0.0021615662 0.0018205375 -0.0022213755 -0.0016986583
519 -0.0037538714 0.0011759341 -0.0005292993 -0.0016934302 -0.0023597586 0.0031622804 -0.0029737663 -0.002054233 -0.0024463213 0.0020383804 0.0004021198 0.0016500538 -0.0011427474 0.0019596287 -0.0005601767 -0.0018122857 -0.0027004771 0.0014315371 0.0010563661 -0.0009923892 -0.0036337648 0.003410642 0.0015307032 0.0021694105 0.0019773347 0.000121898986 0.0005649957 0.0004915649 -0.000410779 -0.0021172124 0.0027541874 0.0023347244 0.00237391 0.0003221866 -0.0013525534 -0.0033461747 -0.0033136886 -0.0036793745 0.002716776 0.0028489062 0.0011330436 0.0036088664 0.0034108774 0.0016433444 -0.0012162887 -0.00080335326 0.0021797197 -0.00274737 0.00091151503 -0.00015314588 -0.002142713 -0.0023751585 0.0032868448 -6.213384e-05 0.00034481921 0.003501749 0.0034899614 0.001504677 -0.0022635297 0.0034052895 0.0019766497 0.0036771023 -0.0035586243 0.0031047529 -0.0004914077 -0.00068664196 0.0037739172 0.000404597 0.0036631764 -0.0033604149 0.0019216965 0.0008941646 -0.0029847638 -0.003538684 0.0004454801 0.0034665863 0.0034388728 0.0017819816 -0.0030465643 -0.0030844794 0.0033333953 -0.00044422148 -0.0030040222 -0.0015971427 -0.0029285722 0.0032858048 -0.0036370005 0.0036944826 0.0030125934 0.00011735626 -0.00084428996 -0.0011679948 0.0033908328 -0.000285851 0.0029137367 -0.0037131582 -0.0030545848 0.0030939858 -0.0025257855 0.0029100417 -0.00018549134 -0.0023293295 0.0017256364 0.0019990916 0.0027487332 -0.0011178615 -0.001411766 0.0009368518 -0.0011032611 -0.0013477684 0.002735162 -0.002044158 0.00020196807 0.0019991808 0.0025469442 -0.0008234572 -0.0035165714 0.003027886 0.0034785909 0.0010649742 0.00024933607 -0.0035321878 -0.0026962273 -0.0018363796 0.0029287816 0.00278457 -0.0024310367 -0.0013231189
591 -0.00045542765 -0.0020304027 -0.00046192543 -0.0006267462 -7.964457e-05 0.0021999157 0.00059236574 0.0007498661 0.0011591958 -0.0021200671 -0.0005194416 0.0037675097 0.00096731866 0.00021468673 0.002398935 0.0012321064 0.0009294317 -0.001607279 0.00081614824 0.0015012994 0.0007236327 0.0027203052 0.0015604419 0.0027526713 -0.00070870016 0.00015920996 0.0012205308 0.0034035868 0.0032786655 -0.0018895197 -0.00021557578 0.0034997899 -0.00069183024 -0.0018998134 -0.0014651623 -0.0021681036 -0.0031420244 -0.0033342773 -0.0022889 0.0031096486 -0.0032275452 -0.0025297245 0.0009226109 -0.003633973 -0.0020308124 -0.0020409839 -0.0003248151 0.0012181147 0.00013958628 -0.0033087358 -0.002361284 0.0016200168 0.0012268476 0.00094264897 -0.0025042533 0.0022670736 0.0010831548 -0.0032583808 -1.3803246e-05 -0.0032643166 -0.0035619056 -0.0018926695 0.0018536183 0.0037355397 -0.0011077151 -0.0022175743 -0.00034195656 -0.0010705137 -0.0003779347 -0.0014663981 -0.003576592 0.00067649677 0.0018694735 0.0008561944 0.0007565569 -0.0035029266 -0.0011999281 0.0017242966 -0.00026580022 -0.0032928635 0.0012797392 -0.0002874701 -0.0007806758 0.0036018176 -0.0015196385 -0.0033934512 0.00033267104 -0.0014798632 0.0019549995 -0.0038339973 0.003177731 -0.0001138948 -0.0034592045 -0.0015074861 -0.0010280156 0.00061660836 0.0007767945 0.0016281422 -0.0007300343 0.0037165552 0.00019301864 0.00081056246 -0.0031730481 0.0018162284 -0.00014278792 -0.0026975016 0.0012819757 0.0013248362 0.0027990695 0.003183027 0.0010766898 -0.00012902445 0.0034204756 -0.0008170606 -0.0001897302 -0.002960548 0.0010376241 -0.0024863044 0.0023541772 -0.0010100692 0.0032658821 -0.0023547667 -0.00020572337 -0.0015512301 -0.00039351336 0.0007926671 -0.0021185677 -0.00042470137
