92 128
37 -0.0034226223 -0.0034148258 0.0019451173 -0.0031098297 0.0009247739 0.00014909 0.0027492207 -0.00022596619 0.0013910431 0.0018183687 0.0006309134 0.0017938324 -0.0038562932 -0.0037714187 -0.00039354185 0.003377251 0.0034774402 -0.0025044382 -0.0002002456 -0.0022318223 0.0019470326 0.00048815424 0.0007842797 -0.0010516346 0.00038058197 -0.0021925124 0.002752093 -0.0005958523 0.0028842078 -0.00054733956 0.0019926003 -0.0014911699 -0.0010050562 0.0038583742 -0.002620834 0.0014365171 0.00013109138 -0.0031779276 -0.0005220351 0.0008851242 -0.002468153 0.003363379 0.00049717876 -0.00060403044 -0.0020903717 0.0024248369 -0.00066864147 0.0014734745 -5.4579672e-05 -0.0015795219 0.0017757431 0.0007024473 0.0027281756 0.0033155433 -0.0011942756 -0.003771353 0.00374761 -0.0037031807 0.0020735 8.762304e-06 0.0014215836 0.0036790352 0.0027189231 -0.0017024411 0.0024130295 -0.00027432956 -0.0036267193 -0.002540748 -0.0031405229 0.0026616955 0.0020436214 0.002757897 0.001123282 -0.00376416 -0.00092122843 -0.0001341274 0.00072831317 0.0028743104 0.0017982041 0.0036893613 -0.0028544534 -6.952167e-05 0.0013001881 0.0032631585 -0.0014204406 0.0027432304 -0.0037164201 0.0035502603 0.003903473 0.0009835218 -0.0031169215 0.0024521016 0.0024218608 0.0016332815 -0.00024612754 -0.0023704355 0.0021667774 0.0003546995 -0.0020068602 0.0007924955 0.0018765391 -0.0011972045 -0.0035085347 -0.0016910867 0.0014796318 0.0014513577 0.0016450388 0.001069354 -0.0032448426 0.0031285747 -0.0023714486 -0.0004159609 0.001856921 0.0006060135 0.00016708163 0.003271058 -0.0026535157 7.2772114e-06 -0.0007828216 0.0027641095 0.003026787 0.00040468175 -4.1484714e-06 -0.0016719772 0.002342367 0.001972367 0.001263167 0.0013791772
50 0.0013625082 -0.0027314734 0.002308491 0.003508209 0.0018850846 -0.001433613 0.00074596814 -0.0029234157 -0.0019723212 -0.00064522214 0.0006215543 -0.0030384108 -0.002219112 0.00019675469 2.044838e-05 0.0011729073 -0.0035140044 -0.0023623633 -0.003829103 -0.0021377427 0.0024001845 -0.001473594 0.0013496283 -0.0018235107 0.0015993342 -0.003882892 -0.0007000865 -0.0029349986 0.0036743467 0.0008429901 0.0009475504 0.0029249743 -0.0037321483 0.0036076603 0.0017646282 -0.001873757 -0.00094995036 -0.0027356113 0.0008110131 0.0019854626 0.0032667841 -0.00034605843 -0.00035365904 -0.0037400504 0.0032136275 -0.0014856833 0.0022526223 0.0009282248 0.00090109743 -0.00088994135 0.0026778555 -0.00014207124 -0.0015967184 0.003282696 0.0038433122 0.00023820595 0.0027717804 -0.0006016173 -0.00021086616 0.0012263099 -0.0021209912 0.002660728 0.0020086518 0.0027033484 0.00016452183 -0.0029518753 0.00026227298 0.003017465 -0.0021679532 0.0014642846 -0.0015710302 -0.0019201176 0.0030369556 -0.0020544797 0.0021526434 -0.0019876582 0.0014706671 0.003486939 0.0012140766 0.000765263 0.0022178704 0.0019570075 0.0006336193 -0.002351876 0.0037788546 -0.000975701 -0.000601208 -0.0006841959 -0.00040430482 0.0005475588 0.0035129392 0.002445852 0.0028927433 0.00017620415 -0.00053961104 -0.0016711882 0.0032755872 0.00080111495 0.0013436164 0.003511678 -0.00077879895 0.0020805867 -0.0015518055 -0.00252546 -0.0015078317 -0.0033151428 0.0033348256 -0.0036099618 -0.00021394409 -0.0033050466 0.003134176 -0.0017494638 -0.0033952065 -0.00079579273 0.0032817659 0.0010799643 -2.6530852e-06 0.0027764342 0.0021912823 -0.0029766455 0.0020073466 0.0016227412 0.003334836 0.00093172555 0.00053178804 0.0006818187 0.003009756 -0.002169322
34 -0.0008187215 0.002702412 0.0032147644 -0.0027369193 0.0012078882 -0.0021129309 0.0023932222 -0.0023426057 0.000530619 0.0017569629 -0.0015507238 0.0021680798 -0.0009824305 0.0015655863 0.0022113514 -0.0011980251 0.0004190263 0.0005470785 -0.0019143133 -0.0014929448 -9.604374e-05 -0.0036344691 -0.0005570499 -0.0003874526 0.0022651295 0.0037514507 0.0038336008 -0.000937006 -0.0030108609 0.0014374135 -0.0024372146 -0.0018517937 -0.0014048584 0.0039042954 -0.003508839 0.0013017848 0.0033176083 0.00037114436 0.0007951717 0.0011885577 0.0021486469 0.0011658387 -0.00022280567 0.0027439487 0.0032884136 -0.0018549963 -0.0032700775 -0.0012137387 -0.003892214 0.0007071082 0.0025054675 0.0030494982 0.0020433075 -0.0030397912 -0.00012972027 0.002373114 0.003529083 0.003286578 -0.0016716184 0.0012193924 0.0028551 0.0003376934 -0.0027362374 0.0016122343 0.0026462441 -0.0014724162 -0.0033001122 -2.8383483e-05 -0.00027904718 -0.0014697585 -0.002457147 0.001978976 -0.0010601194 -0.0013484022 -0.000109522945 0.0022983113 0.0005574506 0.0023123855 -0.00031513805 -0.001936721 -0.002788298 -0.0001568696 -0.0036774883 -0.0034369566 0.0038147161 0.0011185412 -0.0026124457 -0.0018806709 0.0033733451 0.0028684689 -0.003341064 0.0012813796 0.0021517454 0.0015163074 0.0028438875 0.0030169275 0.00088122144 -0.0011449199 -0.0002629374 -0.000931264 0.0019775734 -0.00030152412 -0.0023141808 0.0023171175 0.0029305792 -0.0020109732 -0.0020355678 0.0021762298 -0.00036295835 0.0010089633 -0.0006507879 -0.002497104 1.7450451e-05 -0.0023298063 -0.0022821755 -0.0031948069 0.00017295733 -0.0036376356 -0.0034722975 0.002515883 0.0036852986 -0.0025933736 -0.0034948771 0.0023751098 -0.002879782 0.0016618676 0.0022627173 0.00031614542
49 -0.0032971094 0.0037414345 0.0027444942 -0.0026086231 0.003302472 0.0020250627 0.0037937735 -0.0029073986 0.0017855567 -0.0010504146 0.0024402891 0.000608419 0.0036444701 0.0034849131 0.0008672587 0.0035789362 0.0011719518 -0.00038006355 0.002779924 0.0037954913 -0.0010767129 -0.0037249723 -0.0006243945 0.0013795784 0.001774369 -0.00084889133 0.0013921412 -0.00093756244 -0.0029083032 -0.0024544836 0.0003972558 -0.0038822494 0.0024299517 0.00060090853 -0.00033724864 -0.0031637605 0.0009293097 0.0021477058 -0.0029995602 -0.0005286908 0.0020763255 -0.00041634135 -0.00021440885 0.0021863899 0.0021670351 0.0032628041 0.00057125353 -0.0012443702 -0.0004595731 0.00080838636 -0.002224125 -0.0015286705 0.002024576 -0.001954646 0.0015956742 -0.00017599163 -0.0024894043 -0.00039239292 -0.000669849 0.0021386808 -0.0027750481 0.0015102292 0.0033094839 0.00044813013 -4.5518816e-05 -0.0031859817 -0.0021045057 0.0031727904 0.0028308171 -0.0012039843 -0.0031192524 0.002113151 -0.0005967261 0.002093762 -7.414607e-07 -0.00022739691 0.0018892608 0.003366262 -0.00011699693 0.0023761655 0.00026150487 -0.0035822415 -0.0025017576 0.0019403553 -0.0003529745 -0.00036955296 0.0008157963 0.0010105799 0.0032915748 0.0033630077 0.00060145016 -0.0037397256 -0.0018841503 0.0017063112 -0.0019406116 -0.0025726766 0.0003138162 0.00259335 -0.0010600989 0.002572614 -0.0035915698 0.0019366291 -0.00089716265 -0.00052953797 -0.003037528 -0.0030797513 -0.0026960494 0.0012906863 -0.0020591454 -0.0004524397 -0.0019414964 0.0014715592 0.001625034 0.0007075561 -0.0025673702 0.0029851587 -0.0032254416 -0.002023299 -0.0030296876 -0.003730083 -0.0011189663 -0.0032264956 0.0012682482 0.0014524098 0.0018314867 -0.000489905 -0.0018698415 -0.0006890942
33 -0.0017726214 0.0036600255 0.00016200374 0.0038684593 -0.0035308646 0.0014401014 0.0013701722 -0.0006996617 -0.001804611 -0.001648072 -0.0036048293 0.0021130098 -0.0025729875 0.0014093549 -0.0004912395 0.0035575044 0.0024417678 0.0013581247 0.0031616658 -0.0019591572 0.0026626806 0.0033147815 -0.00023873901 0.0011254986 -0.0017731995 0.0022039074 0.00029979815 -0.002705602 0.00062567776 0.0030453773 -0.00059514405 0.0011503302 0.001589655 -0.0028355941 0.00086492096 -0.002988927 -0.0028658486 0.0029948857 -0.002356072 0.003056283 -0.00051930733 0.0038655857 1.7978208e-06 0.0014812662 0.003702286 0.0030453915 -0.0014083061 0.0036839982 0.0033022948 -0.00079709286 -0.0018375576 0.003689936 0.0028315615 0.0023616697 0.003592502 -0.00065070257 0.0016757455 -0.0015380555 0.0017201978 0.0011651271 -0.0006728631 0.0003735079 -0.0036717458 -0.0005835901 0.0017544519 -0.003096596 -0.000475395 0.0010822396 0.00068127544 0.0017469155 -0.0005843563 -0.0033458609 0.002610149 0.0033020934 -0.0038987685 0.002548567 -0.00058734557 -0.0033369563 -0.0032311599 0.0028670798 0.003691839 -0.0029460813 -0.0026703118 0.0032562336 0.0018529929 -0.002610153 -0.0007110928 -0.0003864857 0.0010793771 5.1168794e-05 -0.003060747 -0.0007658108 -0.00096938905 -0.0010420259 0.002744461 0.0023112355 -0.0021507791 -0.00069543655 0.0037733235 -0.0011549642 -0.0011249924 9.38386e-05 0.0016891005 -0.0007068183 -0.00049162266 0.0020341964 0.0034905393 -0.0015647783 -0.0019235999 1.5454105e-05 0.0022354776 0.0024376998 -0.002522387 0.0038798403 0.0020251544 -0.003667644 -0.0037908105 -0.003386483 0.003169888 -0.0027498086 0.0028485782 -0.0006616055 -0.0033438636 -0.0013663583 -0.0012828085 -0.0005319076 -0.0023009914 0.0033629178
60 -0.0027403077 -0.00033150474 -0.00109557 -0.001627463 -0.0028126428 0.0027693864 -0.0015170014 -0.0036421607 -0.00062890205 -6.6537235e-05 0.0018720961 -0.0032232828 0.0025970798 -0.001080997 0.00016968146 -0.001981414 -0.0015078731 -0.0034112176 0.0021656102 0.0015992641 -0.0023631824 -0.002966802 0.0003809849 -0.0013935347 -0.00016937619 0.0022005462 0.0034069307 0.0020524336 0.000652877 -0.0014514654 0.003357498 0.00038377382 0.0026761587 0.002512925 0.0015235483 -0.0015673252 0.003072597 -0.0028457285 0.0012078029 -0.0038582725 0.0013760251 -0.0018156223 0.0037915623 -0.0003684235 -0.0034332501 -0.0013830437 7.622933e-05 -0.0036269433 0.0021037143 -0.00291353 -0.0020234953 0.0035450116 -0.0028285412 -0.00045353826 -0.0010208774 -0.0016768668 -0.0012656115 -0.0018440571 0.0020553921 -0.00024484366 0.003536675 0.00016443829 -0.00058801484 -0.00036927112 0.0012107217 -0.0027740388 -0.00091277243 -0.002954864 0.0012397022 0.003050213 0.0018662289 0.00173579 -0.002253934 -0.00058050355 0.00077126554 -0.0029448033 0.0010067545 -0.0025140496 -0.00055489433 -0.0027630401 -0.00064880785 -0.0016430567 -0.0037275003 1.594359e-05 -0.0038527763 -0.0035333133 0.00064297934 -0.001548187 0.00018479572 -0.0022224232 -0.003293124 0.0012223888 0.0022409228 -0.0037159403 -0.003010363 0.001008786 -0.0018502567 -0.0036368866 -7.303888e-05 -0.0037264721 -0.0014873398 -0.002636043 0.00037406193 -0.0011074034 -0.0029166467 -0.0029805617 0.0031734395 -0.0025471463 -0.0002731759 0.0034191245 0.0036754145 -0.00070501573 0.0029904486 -0.0024205642 -0.0003976717 -0.0026291378 -0.0016782413 0.0012414005 -0.0028447262 0.0019352955 0.0022604216 -0.0013841945 -0.0034469953 -0.0006486097 -0.0020794813 0.0021832143 -0.0038254922 0.002931429
42 -0.00209125 0.0023098155 -0.0012320227 -0.0012532875 -0.003336348 0.0015880426 -0.0027358653 0.002506335 -0.00076882023 -0.0013387379 0.0017456609 0.0010697965 -0.0029419756 -0.00080779137 -0.0032075825 -0.0027326797 -0.001841557 -0.0001723359 -0.0005036349 0.0024048835 0.00218226 0.0018767386 -0.00044366714 -0.003321738 0.00082575623 -0.0013469415 -8.0555335e-05 -0.0005264382 -0.0015303422 -0.0026050247 0.0005017098 -0.00084499875 -0.0025931187 0.0025229305 -0.0025332388 0.0011162792 -0.0033954815 0.00047596986 -0.0015838346 0.0017488968 -0.00033701936 -0.0013588967 -0.0031963168 0.000721385 0.0014410978 0.0034465645 0.001822945 -0.0018654953 0.0016597196 0.0020561009 -1.1953931e-05 -0.0019302478 0.0037406248 0.0038905363 0.0008975517 0.00091697846 0.00018881282 -0.0025741067 0.0033537198 -0.0031682267 0.0025471768 0.0016084841 0.0009362682 0.000779516 0.002940093 0.0024719446 -0.0021089313 -0.0016885295 0.0031781353 -0.0028891617 -0.0022388936 -0.0021230713 0.002241856 0.002242296 -7.254774e-05 0.002668097 0.0007384496 -0.000251741 -0.0013936273 -0.00035870497 0.00019448058 -0.002790046 0.0038538068 -0.0030750819 0.0016612929 0.0021758317 0.0016328398 0.00031736973 -0.0016327101 -0.0018986498 0.0013297698 -0.003854161 -0.0021842278 0.00061119016 0.0014521529 0.0019704571 -0.0011934214 0.0032941196 0.0028124987 0.0015345827 0.00045118498 -0.0030438572 -0.0009067994 0.0024721597 -0.0013185248 -0.0016232037 1.8583247e-05 0.0025684182 -6.808675e-05 -0.0033253056 0.0026579204 -0.0013757318 -0.001560984 -0.00021711709 -0.0011075204 -0.0038395321 0.0026855236 0.0031858108 0.0034639705 0.0015607952 0.0038326292 -0.0034576638 -0.0023844806 -0.0016942272 0.0008207486 0.0021378526 0.0012836079 -0.00022433363
69 2.4012234e-05 -0.0037841646 -0.00025428314 -0.0026741542 -0.0011564449 0.0032212848 -0.00079162983 0.0036894812 -0.00043505084 0.0015406917 0.00046303394 0.002735385 0.0022374361 -0.0021038477 -0.0020179548 -0.003346964 0.0014151209 0.0019235399 -0.0008077183 -0.0003593414 -0.0028059667 -0.0016427918 0.0010061234 -4.6610206e-05 -0.0006703036 0.0008657902 0.0024053645 0.0034212435 0.00012110752 -4.582787e-05 0.0021226367 -0.0008486058 0.0015759736 0.0037069519 0.0005640668 0.0002840549 -0.0031262632 -0.003232992 -0.0035345268 -0.0026724276 -0.0017180009 0.0013244916 0.001914112 0.0023256883 -0.0019301175 -0.0010952575 0.00029023227 0.003714883 -0.002942345 0.0014633114 -0.00203373 0.003021594 0.0025953604 0.0031668006 0.0024953745 -0.000668066 0.0018687902 0.0019933311 -0.00045389478 0.0030674548 -0.00070126925 -0.0013197594 -0.0034409876 -0.0016633875 -0.00053640467 -0.0013068636 0.0030199452 0.00080379925 0.0002966119 0.0018966874 -0.002196721 0.00071144174 -0.0031426754 0.0013869363 -0.00083332584 -0.0006784789 0.00026867504 0.0026072974 0.0023662802 -0.0031164922 -0.0010433965 -0.0014025621 0.00030207395 -0.0028902998 0.001302343 0.0026543057 0.0013087055 0.003884733 0.0037284172 -0.0032787991 -0.0030527313 -0.002386045 0.00352109 0.0029232216 -0.0030167066 0.0019408591 -0.00028510985 0.0038297775 -0.00024012258 -0.0010561632 -0.0036074854 0.0003295257 0.00325827 -0.00019291688 -0.0027167054 0.0021380123 0.0005459623 0.002688243 0.00022539044 0.0032998272 -0.0033457216 -0.0001073095 -0.0033770336 0.0032623543 -0.0020372039 0.0012548129 -0.0009935845 4.5290377e-05 0.00291602 0.00058427645 -0.0033786846 -0.00029215982 -0.0026666892 -0.0011961824 -1.4981966e-05 -0.001031453 0.0038280585 -0.0036288938
48 -0.0021016959 -0.0017280084 0.0017937156 -0.0010981304 0.0007519883 0.0011494352 -0.0005019999 0.0021016554 0.0038314217 0.0008707961 -0.0011030576 -0.0029842453 0.0034782945 0.0007772414 0.0020271766 0.001964538 0.0036041497 -0.0010018056 0.0004477994 -0.0031128249 -0.0020862794 0.00273599 0.00011709449 3.809103e-05 0.0012504624 0.0011481827 -0.0035349915 0.0035946793 0.0019728963 0.000757641 -0.0016889456 -0.000968338 -0.0021899648 0.0033933339 -0.001412846 -0.003403669 -0.0021108866 -0.0014443664 -0.00032545076 -0.0017523413 0.00022143885 0.0018487078 0.00045783079 -0.0010479604 -0.0013569877 0.0030593139 0.0036237019 -0.0015409247 -0.0010469852 0.0038317482 0.0012611374 -0.0035968078 0.0022380208 0.001796217 0.0018288231 -0.0029157142 -0.0023787098 -0.00030099569 0.0019879648 -0.002508181 -0.0011710138 -0.0018914775 -0.0037923218 0.0017993056 -7.573502e-05 0.0035780915 0.001398283 0.0014896595 0.0010920713 -0.0023952818 0.0019587947 -0.0024455797 0.0023256012 -0.0022682021 0.002568617 -0.0020987182 0.0034407778 -0.0007588269 0.001458954 -0.002394035 0.001026263 0.003139407 0.0032082438 0.001742128 0.0025274071 -0.0006205355 0.0022670324 0.0014085541 0.00094500865 0.0002908411 0.0012188315 0.003231542 0.0011763049 0.0012149569 0.00390614 0.002291722 0.0011811212 0.00045043894 1.1046856e-05 -0.0016921484 0.003002085 0.002654735 -0.00092031836 -0.0018243527 0.0007590139 -0.0034844065 -0.0038153701 -0.0025954922 0.0019029389 -0.0010429161 -0.0023121214 0.0013856223 0.0013261162 0.0013187866 -0.0014089632 0.0031617912 0.0009795337 0.0031734102 -0.0004896742 0.0017884611 -0.002412295 0.0013182334 0.0029341553 -2.4999777e-05 0.0018519068 -0.00093600876 -0.00064953254 0.003725686
51 0.0029138448 -0.00023093249 -0.00018665701 -0.0006376347 0.001828189 0.0035597503 0.0005965584 -0.0017869432 0.0024802985 0.002179563 0.0017386632 -0.0002586225 -0.0018213089 0.002177014 0.0026903031 -0.0010280104 -0.000583927 0.0036980212 -0.00064494164 -0.000807001 0.00041357114 0.0027211895 0.002676446 0.0012340542 0.00045464523 -0.0020661734 -0.0017102425 0.0019567923 0.0028261063 0.0029570619 0.0017898077 0.0038782572 -0.0014234645 -0.0023895612 -0.0019208833 -0.001494202 -0.00228362 -0.0024913095 0.001648786 0.0018226458 -0.0037290193 0.0022299392 -0.0038417198 0.0028598602 0.0016974371 -0.0035975557 -0.0032990936 -0.001932653 -0.0036364682 0.002763458 -0.0018645274 -0.0027809292 0.002817653 -0.002073042 0.0011745709 0.002361601 0.0032278383 -0.0021304067 -0.00076147367 -0.0019365005 0.000104471845 -0.0004544722 0.0035589805 0.0029986694 0.00062805606 0.00061881996 0.0037564442 -0.001955823 -0.0024280776 0.0036277848 -0.0027915093 -0.00024824467 -0.00025524193 0.0029135346 0.00060447934 0.0007625911 -0.0021316078 -0.00269472 -0.0021945618 -1.5001684e-05 0.0037399284 -0.001732152 0.0013088785 0.002890658 -0.0032529267 -0.0025425495 -0.0016887736 0.0021858197 0.0017996733 0.0011808928 -0.0007514226 0.0032411842 0.0026083104 0.0026837434 0.0029096154 -0.000427968 -0.0001921033 -0.0021454429 -0.0038540822 0.0022397228 0.002244956 -0.0036835794 -0.0026907404 -0.0024655736 -0.0004094874 7.600165e-05 0.0031262888 0.0020237644 0.003100834 -0.00057702337 0.0025559317 -0.003829092 -0.0008314037 0.001313575 -0.000531853 -0.0029510465 0.0033111332 -0.0013882809 0.001117414 -0.0016165661 0.0034386653 0.00042021248 0.0003930306 -0.0027316494 0.0032698982 -0.0013521608 -0.0010226212 -0.00058811414
86 -0.0012817078 0.0028192317 0.0020138083 0.0004811326 -0.002924175 0.00034149995 -0.003423809 -0.001195246 -0.0012462058 0.0037082324 -0.0017378383 0.0033297464 0.0037046073 -0.0029071511 -0.0025247948 0.0036443921 0.0026710306 0.001826926 0.0034194277 -0.0017582743 0.0019037533 0.003389088 0.0008007361 -0.0011401026 -0.0029336503 0.0012555089 0.0024540143 -0.0022023048 -5.6066365e-05 -0.0025907191 -0.0005386028 0.0027811152 0.00354313 0.0037886554 -0.0029594025 0.0005038978 -0.0009571156 0.0036927 -4.8484917e-06 0.00048135503 0.0032863228 5.412934e-05 -0.0038781837 0.0013650687 -0.0010696804 -0.0013563982 -0.0024760957 -9.374826e-05 0.0030726956 -0.0026542232 0.00042022872 -0.0017462419 -0.002687329 -0.00363607 -0.00022337987 -0.003618636 -0.00014360186 0.0014823312 -0.0027602578 -0.0033582342 0.0012347728 -0.0005795811 0.00089532457 -0.0004890891 -0.0019788893 0.0025980212 -0.0031851293 0.0016615171 -0.00010328342 0.003355795 0.0025856928 -0.0005239304 0.0017673807 0.0006974626 -0.0037038198 0.0037264684 0.0020091224 -0.0011947522 0.0024601887 -0.0035094186 0.0035199593 -0.0027772605 0.0010479777 0.00013695162 0.0005688828 -0.0028229493 -0.003756564 -0.00042825058 -0.002904452 0.00022312399 -0.0017881305 0.0032672884 -0.002259583 0.0029662973 -0.0021630928 0.0023806465 0.0020102647 0.0023115312 -0.0036015417 0.0038658942 -0.00037761635 -0.0023391296 0.0009234852 -0.0037406983 -0.0035505632 0.00052101247 -0.0021398854 -0.0034148938 0.0023254629 -0.001295093 0.0010848717 -0.0022471156 -0.0006554332 -0.0012630612 0.0013166274 -0.002548065 -0.0005257402 -1.3992773e-05 0.003416966 0.002425876 -0.0036068119 -0.0035966109 -0.0006288994 -0.0036164522 0.0026272077 -0.0007813502 0.00085809384 0.0033060284
17 -0.0003357097 0.0010552021 0.00046751072 0.0037537643 -0.0005825985 0.0036946062 0.0036615038 0.0033062254 0.002292421 -0.0013134151 0.00030915544 0.002032773 -0.003674391 0.002804079 0.0016178703 -0.0007016697 -0.0031374593 -0.0016639503 0.0010107019 0.003468211 -0.0008557867 -0.00017857502 -5.4112475e-06 0.001267445 0.00036797987 0.003202082 0.0006039648 0.0006854488 -0.0026059912 -0.0016575335 -0.00017832158 -0.0020897563 -0.0005533795 0.0017355235 0.00077046134 -0.0013425439 -0.0027468232 0.0024246646 0.0012704327 -0.0022124758 -0.0020126936 0.0018730968 -0.0026044967 0.0032116203 -0.0026525948 0.00058496534 -0.0004180296 0.0018550676 -0.0010658029 -0.0018756618 0.0029487435 0.00017833925 0.0018925875 0.002001157 -0.0016130353 0.0017515796 -0.0012899925 0.0017276886 -0.0020583328 -0.0014060723 -0.0020870047 -0.0011013738 0.0021124668 -0.001502281 0.0016641238 -0.0023558028 -0.0027966362 -0.0027494768 -0.00087723124 0.0011126517 0.0013158466 0.0038721547 0.0010798225 0.0014502091 -0.0014337263 -0.0018237552 0.00043052918 -0.0038086667 0.0015742639 0.00010173362 0.0032626558 -0.0023468127 0.0025161973 -0.0038593179 0.0036883953 -0.0009995487 -0.0028565596 0.0019038509 0.0015195359 0.00019175383 2.7277996e-05 0.0014357576 0.0031259304 0.0009896614 0.0026986864 0.0019142563 -0.0036172706 -0.0037609835 0.0005409376 -0.0011959209 -0.0018537564 0.0024622686 -0.0035489518 0.0010126125 0.0018676787 0.0018503604 -0.0017590005 -0.00045731975 0.0015256383 -0.0035730225 -0.0038856654 0.00048850133 0.0017817033 0.0015166008 0.001289408 0.0021229873 -0.003567177 0.0021300954 0.002279305 -0.00034433414 0.0031684227 0.0025157128 -0.0031816927 0.00032779857 0.001434079 -0.0009447365 -0.0018948939 -0.001072414
61 0.0022095293 0.0008897652 0.0033230283 0.0028118293 -0.0005837095 0.0017215789 0.0037649109 0.0007660576 0.0031856487 0.0032152482 -0.0020358078 0.0006363202 -0.002210877 -0.0018497226 0.00011018996 -0.0015584896 -0.0023284536 0.0036505002 -0.00039969943 0.0033200094 0.0014771351 0.0016684254 -0.0038880697 0.003081233 -4.201633e-05 0.0010991523 -0.00261938 -0.000891801 0.003452714 -0.0010725167 0.0015820491 -0.0014772334 -0.0025011122 0.00043313435 -0.00263105 -0.0022606922 0.0027987633 -0.002549908 -0.00022939159 0.0031178244 0.0012329868 -0.0030092292 0.0012786553 -0.002523392 0.0009337789 0.00079174043 0.0027121096 -0.003875902 0.0036864188 0.00013865603 0.0013551982 0.0011041772 0.0007963507 -0.0026175338 0.001271384 -0.002288834 0.0028579242 -0.0012542761 0.0032914893 0.0019537476 -0.0006260978 0.0015920119 0.002284308 0.0016528813 0.0036763353 0.0010909786 0.0034235385 0.0020586334 -0.0027947095 0.002574669 -0.002448071 0.0034441485 0.00014405871 0.0023543518 -9.079321e-05 0.003424923 -0.0015084414 -0.0028138184 0.0012490797 -0.0018168624 0.00046386 -0.0034467652 -0.0011557643 0.00068788114 -0.0007638141 -0.0021315152 0.0032045627 -0.00071329507 0.002397503 -0.0002742174 -0.0019934447 0.0026888715 0.00024120088 -0.0018867245 0.002819198 -0.0016653826 -0.0033784164 -0.0009610671 0.0032401623 0.00049613015 0.001555495 0.002434103 0.0006054575 0.0018311802 -0.0036564511 0.0005488356 -0.003184514 -0.0026516195 -0.0034284713 5.3002204e-05 -0.0003140957 -0.0007148006 -0.00025837423 0.003455175 0.00312926 0.0027474014 -0.0033225652 0.0021368284 -0.0011011801 -0.0025265038 -0.0019135717 -0.003378905 -0.0020094682 0.0008257911 0.001652173 -0.00024866933 0.0037081884 -0.0022564807
36 -0.0035214557 -0.0037906887 0.0018369188 0.0013339124 0.003010835 0.0004836792 -0.0002585815 -0.0033252228 -0.0031014392 0.0007696729 0.00012258782 0.002207186 0.0026258857 0.00014130633 -0.002602371 0.002547769 -0.00066886656 -0.00010423359 0.000988151 -0.0019992613 0.0032935292 -0.0017453319 -0.0015575362 -0.002188497 0.0030218281 -0.002943872 0.0038171855 -0.0025958186 0.0026810572 0.003213674 0.0034749717 -0.0034605858 -0.00261811 0.0011347979 -0.0029027495 -0.0024820212 -0.0024557866 -0.00030552768 0.0035787309 -0.002216395 -0.0031317486 -0.0013054752 -0.0010752126 -0.00071790087 0.0018938539 0.0028700642 -0.0027530103 -0.00037553298 0.0031261318 0.002078847 -0.003690941 0.0033453342 -0.0027462498 -0.0018375196 -0.0024919864 0.0009861811 0.0012180683 0.00012631991 -0.002459448 -0.002048556 0.00125055 0.0023192433 0.0014642548 0.0025732282 0.0003189907 -0.0017861268 -0.00023922474 0.0010668171 -0.0025460145 0.0034551886 0.0002866352 0.0034300995 0.0021099313 0.0027888704 0.0022632754 0.0018367107 -0.00013907181 -0.0005318014 -0.00039577426 0.0034327789 0.0029704312 0.0009664548 0.0029333015 0.0023148663 -0.0017881478 -0.0027083126 -0.00035995684 0.0034111047 0.0032869654 -0.0018479556 0.00034205322 0.00043314308 0.000379192 -0.0002413609 -0.0005444665 0.00031069404 0.001754078 0.0018890788 0.003068022 -0.002951726 9.2094924e-05 -0.0015279067 -0.00084763777 0.0006968401 -0.00015835307 0.0011176346 0.0014266743 -0.0003431224 0.0013586294 0.002445834 -0.0008095687 0.0026992098 -0.0003900886 0.0035331463 -0.0031631712 0.0038072218 0.0034130285 -0.001992765 0.0028636951 -0.0014237277 0.0034579216 0.0020229376 0.0026930005 0.0035528617 0.00014920474 -0.0020092248 0.0007634145 -0.00046976688
19 0.00037126316 -0.0016032509 0.0009536059 -0.0026954995 0.0012442495 0.00086045754 -0.0017489903 -0.001078032 -0.0022092408 0.0015588467 4.1707808e-05 -0.0006884669 -0.0032272188 0.0038036208 -0.00339881 0.0011939375 0.0034890284 -7.637151e-05 0.0023370723 0.0029902067 -0.0024916118 -0.0033954766 -0.0038330234 0.0018615648 -0.00079446024 -0.0032564937 0.0006472753 -0.0033785426 0.0027855681 0.002690228 -0.0034455904 -0.002190546 -0.002269509 -0.0033035923 -0.0009934558 0.0015553196 -0.0024791977 -0.0035772566 -0.0010312019 -0.0026748974 -0.0011912509 0.002909326 -0.0027372867 0.00331766 0.0017019446 -0.0014958159 0.0018173906 -0.00022662978 -0.0014706068 -0.0015248124 0.0015162432 -0.0032336179 0.0019234042 -0.00015863763 -0.0033431083 -0.0033174176 0.002743519 0.0006129306 0.0029328603 -0.0011910055 0.00091551023 -0.00038705955 0.0007658498 0.0019822177 0.00206022 0.0027820833 0.0011449503 0.0027112155 -0.0034740258 -0.000392421 0.00091520033 0.0010456207 0.0020814622 -0.00057718426 -0.0032544667 0.001283099 0.0020048753 0.0029469002 -0.002163924 -0.0034202747 0.00055296026 0.0014640738 0.0005601508 -0.00042037325 0.0025998708 0.0033015772 -1.0331609e-05 0.003405001 0.0031093068 0.0012292955 0.0008358068 0.001998964 -0.0010724391 0.00091304217 0.002377011 -0.0032840578 -0.0011524884 -0.0028347773 -0.003845232 -0.000536286 -0.003128361 -0.0038386285 -0.0004779335 -0.0025262814 -0.0023493576 0.0028101911 -0.0036728275 0.0030823927 -0.0024652996 -0.0026079682 -0.0019018081 0.0020236536 -0.00066858437 -0.0030480386 -0.002007966 0.00054609455 0.002391351 0.0023695773 -0.0034346038 0.0006374838 0.0027279903 0.003522597 0.0035798377 -0.0032467619 -0.0030150344 -0.0010668831 -0.0012036305 -7.422973e-05
24 0.0030016406 -0.00012371324 0.0026539536 0.003805876 0.0028068589 0.0025745784 -0.0013100915 0.0027981945 -0.00031675654 0.003743572 -1.7332428e-05 -0.0026416064 -9.4850366e-05 -0.002166132 0.0022194383 1.9072835e-05 -0.0037412695 0.0035081664 -0.0035005247 -0.00029739176 -0.00382395 -0.0005090901 -0.0023811806 -0.0034899865 0.0030053554 0.0026531315 -0.0018436813 0.0028386388 -0.0008610908 -0.002267706 0.0036241547 -0.0017630322 -0.003511443 0.0008946926 0.0033063174 0.0038144859 0.0038135566 0.0021153567 0.00038067054 0.001552801 -5.305582e-05 -0.0025586702 0.0020855707 -0.001443666 -0.0026438702 0.001189246 0.0018625447 0.00051021244 0.0007685415 -0.000646835 0.002674108 -0.0008384449 -7.565428e-05 0.003658777 -0.0029932603 0.00079479284 2.3808552e-05 -0.0034520037 -0.0023587702 -0.00045334853 -0.0014616031 0.002098448 -1.780683e-05 -0.0024060237 0.001541187 0.0016746178 -0.0015940052 -0.0013167148 -0.00014277958 0.0021768736 0.0036735046 0.0035617677 0.0026398264 0.0016020428 0.002167885 0.0032177432 -0.0036767812 -0.00016042232 -0.00380892 -0.0032361543 -0.0031151387 0.0018140656 0.0022814944 -5.49588e-05 -0.0020664376 -0.0022826954 -0.00215042 0.0035241528 -0.0017340708 0.0035529071 -0.0009772367 -0.0038819818 -0.002501475 0.0015476904 0.0027719454 0.00082786364 -0.0004241983 -0.0035648257 -0.0037693714 -0.0010294515 -0.0032161162 -0.00036278213 0.00277307 0.0005171808 0.0015968224 0.002492942 0.0006936841 0.0021346516 -0.002133648 -2.3464327e-05 -0.0026945998 -0.0027387005 -0.003240297 -0.0024159534 0.00014486579 -0.0019117529 -0.0016263812 0.0031547088 0.0011719124 0.0015098132 0.00031123063 0.0016992537 0.000517536 -0.0015539314 0.0025623455 0.003743278 0.0020002371 0.003812475
25 0.0025810925 0.0016039964 -0.0008937019 -0.0012758299 -0.0015684587 0.0014465069 -0.0010917366 -0.002239454 0.00022927117 -0.0009631991 -0.0016476638 -0.00031922708 0.002726746 -0.003155947 0.0014971235 -0.0033875129 -0.00027324702 0.0032033916 -0.00034928665 0.0036734976 -0.0003530048 0.0009544822 0.00010272527 -0.00070269493 -0.0036496404 -0.002909904 0.0028879936 0.003163443 0.0036207335 0.0012559383 0.0024969266 -0.0024806166 -0.0033199042 -0.0019082681 0.0012881831 0.0030893611 0.00068672636 -0.0031864215 -0.0038221593 0.00068256323 6.0123108e-05 -0.0014704292 0.002557566 -0.0003048133 0.0022075388 0.0037165196 -0.0024473118 0.003583843 0.0030417582 -0.0010401257 0.00032498632 -0.00037772223 -3.8696053e-05 -0.002150548 -0.0036788823 -0.0011806065 -0.0030047735 0.0005269245 -0.0015628391 0.0039036688 0.00065231725 0.0011424116 0.0034302445 0.0030109196 0.0013932224 -9.956407e-05 -0.0014758091 0.0033979237 -0.0027947004 -0.0031287684 0.0016438041 -0.00082093175 0.0031120894 0.0010069072 -0.00037188633 0.001738778 -0.0036832972 0.002681614 -0.0027801176 -0.0021323157 -0.0033463694 -0.0025740238 0.0024287815 0.0014272822 -0.00056035205 0.0032240124 0.00318718 -0.0018950484 -0.0012384519 0.0034379978 -0.002224317 -0.0035463872 -0.0020747664 0.0023994197 -0.002791023 0.003139295 -0.0020392924 -0.0004564425 -0.0010917882 0.0030604124 0.003115459 -0.0019115384 0.00090362015 0.000730479 -0.00061017525 -0.0025889103 0.0033265876 -0.0012325338 -0.0011843122 0.0013122167 0.002697246 -0.00072874635 -0.0005385696 -0.003813695 -0.0014365556 -0.0027089645 0.0013671507 -0.0018327167 0.0015016185 0.00067828206 -0.00091209216 -0.0023325668 0.0013505996 -0.0021359548 -0.00037255455 -0.0008539706 -0.0028848208 -0.0026575238
28 0.0018598638 -0.001753646 -0.001192738 -0.0022537154 0.0010720681 -0.00305206 -0.0029070617 0.0036508234 -0.003730383 -0.0029538083 -0.0025751288 0.0027025503 0.0031229444 -3.4146226e-05 -0.0030940385 0.003716868 0.0009200811 0.0022902705 0.0028028938 -0.0025190024 -0.002315038 -0.0023663645 0.0016450459 0.0006895242 0.0019513731 0.0004717266 0.0013196253 -0.0037685747 0.0007624757 0.0011248126 0.0008614574 0.0003844123 0.002857914 -0.00030841056 0.00039477026 -0.0013412612 -0.00081874634 -0.0031223886 0.0028901515 -0.001421682 -3.757839e-05 -0.0031895912 -0.0037117966 -0.0007597419 0.001391101 -0.003310865 -0.0014021774 -0.00061657233 -0.0009224433 0.0014195247 0.00136928 -0.00145242 -0.0038387429 -0.0027990276 -0.0009761954 -0.0013910431 0.00088415993 -0.003515365 0.0033551098 -0.003775428 0.0029241624 -8.190855e-05 -0.00018183295 -0.0038918275 -0.0023998937 0.003377392 0.00108478 0.0021214348 0.00077091646 0.0031613496 -0.0023860827 -0.0013264024 0.003466239 0.0030400732 0.0012552001 0.0015474835 -0.0003823349 -0.003658538 -0.00024501362 0.0019426224 -0.0006773978 0.0018905723 -0.0018632464 -0.0024806021 -0.00028307544 -0.0029268123 -0.0036727996 0.0003617857 -0.0015359969 -0.0038546382 -0.0009996018 0.0022470695 0.0012957465 -0.0029748243 0.00035778468 0.002996361 0.0025138352 -0.0034497643 -0.001677092 -0.0036862297 0.0024142314 -0.0019477557 -0.003631601 -0.0024328122 0.001543575 0.00013975245 -0.0028293082 0.003040786 -0.0018033711 -0.002104632 8.2147504e-05 0.0023054502 0.0033695323 -0.0004195791 0.0026354534 0.0018367057 -0.0013319257 -0.0010356735 -0.0028419413 -0.001527084 -0.00092228653 -0.0020277184 -0.0016618873 -0.001983442 4.487808e-05 -0.0034063165 -0.0015416389 -0.0029628237
27 0.0032772445 -0.0006885945 0.0012783045 -0.0030423414 -0.0014148921 6.7826506e-05 -0.00028714834 0.0033423454 -0.002667362 0.0009553301 0.002999994 0.0035399147 0.0029989758 -0.0038853684 -0.0034915411 -0.002654792 -0.0021696032 -0.0012982235 0.00038341075 0.0010762597 -0.00047139503 -0.0021223805 -0.0036435754 -0.0035478252 0.0034254466 0.0028288919 0.0021986305 -0.0035503106 -0.0005659721 0.0024100991 0.0025969835 -0.0029917322 -0.0035756428 -0.0012548415 -0.0037380666 0.0010673406 0.0025932847 -0.0020341105 0.0003957745 0.00070952694 0.0015687534 0.0020561153 -0.003122458 -0.0010449665 -0.0026825797 0.0003527993 0.0035094793 -0.0037484828 -0.0016945231 0.00365092 0.00046475523 0.0017919192 -0.0024156196 -0.0014953119 0.0010085832 -0.0035133695 0.0020194093 -0.0011079313 0.0011463437 0.0012323874 -0.00049604685 0.0017710997 0.001637696 0.0011812678 -0.0032255277 0.00092950906 0.0019607672 -0.0028798115 0.00021201216 0.0032860395 0.0030629265 -0.0032140582 0.0035124796 0.003151109 -0.0023484875 0.0015169922 -0.0029381234 -0.0016244688 0.002806887 -0.0034264815 0.0032197884 -0.00029165117 -0.0023711289 -8.037506e-05 -4.0074923e-05 0.0029850549 0.0025144932 0.0024656104 -0.0021937892 0.0010574489 0.0004943484 0.0035430044 -0.0009718674 -0.0023450633 0.0038489085 -0.0029137903 -0.0023559195 0.00037293485 0.0017272378 -0.0017821273 0.0032890916 0.00028356863 -0.00056684914 0.0030113934 -0.0033407316 0.0018361015 -0.0007075748 0.0014301063 0.0005074049 -0.0012794498 0.0028415055 0.00019880656 0.0019672525 0.0014252061 -0.0018478096 0.00091375725 -0.002442137 0.0025674116 0.00013954216 0.0005353779 0.0007214206 0.00040664466 0.0014794988 -0.0016721673 -0.00088862336 -0.001084644 -0.0006023757 0.0033785866
52 -0.0014334813 0.0003706258 0.0004201328 -0.0009512711 -0.0034606087 -0.0013425741 -0.0006987126 -0.00018855222 0.001545367 -0.0031592452 -0.0038062998 -0.0010095643 -0.00156978 0.00073715055 -0.0030877946 0.000650825 0.0020114835 0.00023567531 5.7592406e-05 0.002282675 -0.003719152 0.00059537747 -0.0024400747 -0.0024235907 0.0021642118 -0.0012708076 0.0034512249 0.0013479028 -0.0026989025 0.0008042673 0.00229997 -0.00011156609 -0.0008424489 -0.001502289 0.0016300201 -0.0016189521 -0.0020013044 -0.0026197382 -0.0011354049 0.0025242106 -0.0033825708 0.0023409247 0.0015896014 -0.0019356452 -0.00039404858 -0.0032912714 0.0014301172 -0.0034545246 -0.0027999051 0.001062219 -0.0032254995 0.0026930722 -0.0024399455 -0.0022611741 0.0024293396 0.0017602025 -0.0018785624 0.0018370763 -0.0020814254 -0.0014944924 -0.00015706405 0.0015726049 0.0026197375 -0.0024850892 0.0036220334 0.0026924629 0.0015514471 0.0032039476 6.6415065e-05 0.0034022813 0.0031570538 -0.0034746414 -0.0035396277 0.00018436165 0.0036092906 0.0020513965 -0.0030091268 0.0024885861 -0.002976612 0.0027955673 0.0013439731 -0.00031611315 0.0024725862 0.003482001 0.00017843406 -0.002415263 8.2243925e-05 0.0036802408 -0.0014728415 -0.003398919 -0.00046775732 -0.0031546797 0.0006399495 0.0015326269 0.003464772 -0.0015944286 -0.00017475327 0.0010167896 0.001909187 -0.0035258983 0.0015030844 -0.0005558071 0.00085980626 0.003563544 0.0023676227 0.0008519881 -0.0018928001 -0.00080047874 0.0038702302 0.003760909 -0.00034761333 0.0009238297 0.0007546812 0.0031663463 -0.0010996314 0.0024698614 -0.00048334576 -0.0024537002 0.0030950839 0.0019033474 0.0008725023 -0.0010710888 0.0031918464 -9.104565e-05 -0.003859563 0.0038970027 0.0013843548 0.0006865793
44 -0.003864371 0.0019331477 -0.0037763163 0.0025830194 0.0012496419 0.00090180745 0.0017406682 -0.001155657 -0.0033082233 -0.0035059387 -0.0010514893 -0.001045905 -0.0013439457 0.0032229302 0.00033129373 -0.0023529872 -0.0037471957 -0.0025069132 -0.0018864545 0.002566964 0.001665364 0.0028817763 -0.0014062718 0.00082660135 0.0022984361 -0.0011838961 0.0034005935 0.00254852 0.002916563 0.0024782086 -0.002937442 -0.0038955002 0.0008773656 -0.0036821684 0.0014461541 0.00022088346 -0.00025975733 0.00014708555 0.00032403407 0.00020703312 0.0004238976 -0.00048491728 0.0024804452 0.0026243215 -0.0027202556 0.0032110966 0.0038243965 -0.0017859257 -0.0039001391 0.003187245 0.0008231512 -0.0038392763 0.0024073473 0.0025611832 -0.0034601481 -0.0025577901 -0.0035058472 -0.0013208365 -0.0016901914 -0.003240084 -0.0014876719 -0.0020053168 -0.001962744 -0.0017726956 -0.003298137 -0.0019823578 0.0020361387 0.0024130763 0.0015745303 0.000560572 -0.003450328 -0.0018172198 -0.0034296783 -0.0027750512 0.00207599 0.0007056304 -0.00059071183 0.0030483496 -0.0014499727 0.002111823 0.0031461623 0.0026561397 -0.00017765105 9.9222096e-05 -0.002050918 0.002979636 0.0009603352 0.0011539533 -0.0011344019 0.0013520839 0.0011231783 -0.0024269035 0.002898716 0.0016526182 -0.0011584762 -0.0026569224 -0.002769837 0.0034757168 -0.0013505156 -0.00074034627 0.0032865908 -0.0004717649 -0.0033885958 -0.0019359898 0.0014253282 -0.002841277 -0.0021723362 -0.0009842111 0.001040489 -0.0035544978 0.0026931118 -0.0020549467 0.0013226132 -0.0011385888 -0.0029795086 -0.0018653752 0.0021395937 0.0027776083 0.0007280915 0.0016056758 0.000681979 -0.003026446 -0.00053393265 -0.0009504384 -0.002066763 -0.0008766733 -0.0034072422 -0.0021542846
14 -0.00063101394 0.000874759 5.942352e-05 -0.0005757616 -0.002383362 0.0031413492 0.0025725772 0.0018570235 0.003321502 0.0031682616 0.0028556713 0.0002167688 0.0031483108 0.0010854624 0.00025157575 -0.0021340111 -0.0003226196 -0.0004956788 0.0015454007 -0.0023008322 -0.0020666195 -0.0020645969 0.002186141 -0.0004577262 0.00039989076 0.0001148772 -0.0017728774 -0.0002807272 -0.0037663628 -0.00049865147 -0.0010854561 0.003012747 0.00056791084 0.001830504 -0.0012203503 -0.0027852985 -0.0012859185 0.0030723952 0.00281903 -0.0011788758 0.0024446058 -0.0015078714 -0.003247446 0.0022681593 -0.003398018 -0.0011278163 0.0013939053 -0.00083348004 -0.00020274665 -0.0006969499 -0.0008374857 0.002256945 -0.0027683596 -0.0011560197 -0.0022413493 0.0022320931 -0.00044943337 -0.0009666839 -0.0018811707 -0.0016674409 9.03827e-05 -0.0014139723 -0.00036193503 0.0013423383 -0.002479039 -0.0026061365 -0.0033121794 -0.0007774973 0.0014156336 0.0011775405 -0.0016401907 0.0022839599 -0.0023893886 -0.001610049 0.0012075203 0.0024484633 0.0004935802 0.001127719 -0.00039815667 -0.00011878154 -0.00055505795 0.0036958207 0.002375595 0.0023765266 0.0021697397 -0.0026121428 0.00059522945 -0.0009817439 5.9140042e-05 0.0019701784 0.0023997824 -0.0033224092 0.0003202002 -0.00029483798 -0.0037145368 -0.0010369741 0.0029918365 0.000811334 -0.00032927308 0.0037448877 0.0024027757 -0.002118437 -0.001690088 -0.00017381737 -0.0038774256 0.00028588716 -0.0026506733 -0.0019283296 0.0028360575 0.0012311836 -0.0036398435 0.0030730227 0.003337147 6.395308e-06 0.0011390325 -0.003452331 0.001593184 -0.0009548782 0.0026721996 -0.0006659614 -0.0029068107 0.002420589 0.00042118473 0.0026852903 0.002829385 0.0028585454 0.0005943691 -0.00091972615
82 0.0029737905 -0.0018942594 0.0018372149 0.0038690867 0.0028833197 -0.003005267 0.0019350089 -0.0023846934 -0.0003710039 -0.0030336839 0.0023592915 0.0007470347 0.003182912 -0.002248376 0.0030815436 -0.003081304 -0.0015972238 -0.003003257 -0.003759741 -0.0023870997 -0.0021860588 -0.0017090054 0.0014806231 0.00049315067 0.0005638809 0.0030074217 0.001204048 -0.0026593884 -0.0028070172 0.00032331442 -0.0005144165 -0.0032884392 0.00064171647 0.0033852253 0.003437647 0.0028187847 0.0037625122 -0.0017167934 0.0018847882 -0.0005956672 -0.0028915023 0.0033488034 0.0028298616 -0.001249764 -0.0015914724 -0.0021524609 4.3095886e-05 0.001056563 0.0024821647 0.0011398048 0.0035513653 -0.001066227 -0.00081331434 -0.003034434 -0.0015773686 -0.0019944406 0.0017761842 -0.0035544888 -0.003501457 -0.003219165 0.0018703281 0.0021545808 -0.00063952664 0.00094303844 0.0038263272 0.0034709424 -0.001874935 -0.0035460063 0.0028574355 0.0033525056 -0.0009124826 -0.0033751642 0.002765132 -0.0035222138 -0.0018913302 0.0019745873 0.0037395998 0.002678864 0.00211888 -0.0009377977 -0.0016469564 -0.0019400365 -0.003339094 -0.0024526748 -0.0030881418 -0.002048433 0.0027440055 -0.0014751075 0.0005410885 -0.0017677713 -0.0010654085 -0.00048963475 -0.00090915995 -0.0013757532 0.003369894 0.00068077684 0.000799495 -0.0020763327 0.002886339 0.00046429117 0.0005585999 0.003181945 -0.0019170783 -0.0038444616 0.0019543471 -0.0026351311 -0.000892298 -0.0028680114 0.0013705523 -0.0011036086 0.0008067013 0.002578259 -0.00031572985 0.0026271818 0.0036055008 -0.0026240586 0.000425983 0.0005629212 -5.2722644e-05 -0.0017838214 0.0036136517 -0.002760394 0.0026311837 0.00063956913 0.0038574492 0.0035019713 0.001054546 0.0038180787
22 -0.0027475953 0.0012741343 -0.0026745137 -0.00029862268 0.0027856189 -0.0014634891 0.002718736 0.0022513645 -0.0004117518 0.0032506464 -0.002768712 -0.0020468885 -0.0016040338 -0.00052977214 0.0013773431 -0.0010235235 -0.0027840503 0.002418505 1.7570512e-05 0.002268665 0.0030706613 0.00031599376 -0.0014252169 0.0011235746 -0.0028119793 0.0034633086 -8.1953534e-05 0.0013820429 0.0009073297 -0.002081477 0.0027396248 0.003550134 -0.0014851438 0.00056414196 -0.0016379397 -0.002936136 0.0016683098 0.0002582284 0.002433323 -0.0021910514 0.0013623044 0.0022769147 0.0024783704 0.003436317 0.0027650977 -0.0026989938 -0.00024075476 -0.00069344434 0.002026275 -0.0030093163 -0.001815121 -0.00081858865 0.0028150908 0.0013262712 0.0029228881 -0.0035815518 3.302345e-06 0.0017288397 -0.0016413383 0.0015505976 -0.0020548075 0.00036046797 -0.0002823662 -0.0025172853 0.0026718916 0.00314881 -0.00088595547 0.0023127575 -0.0034777217 0.0010921148 -0.00020134027 -0.0023044294 0.0031614143 -0.0006988676 0.00065728003 0.0036037578 0.0025935248 -0.003113801 -0.0036722554 -0.0020775138 0.003244237 -0.0019552507 0.0017298193 -0.0037225047 -0.00013036805 0.0019706837 -0.0025496227 -0.0024883063 -0.00024801676 0.0027805471 0.0030084176 -0.0009568713 0.0011736234 -0.00043341052 0.0036969509 -0.0005699192 0.0016437169 0.0035105287 -0.0028405567 0.0031130917 -0.0006207965 -0.0010614211 -0.00078547705 0.0019735084 0.0007264001 6.804449e-05 -0.0011632264 0.0030070508 0.0019354748 -0.003718149 0.002905765 -0.00082992384 0.002084775 0.001314425 9.4294286e-05 -0.0003279173 0.002009786 0.0034748663 -0.0026358776 0.0011504455 0.0012325508 0.0036219219 -0.0029849038 -0.002264322 0.0012828384 -0.0026656673 0.0038212794 -0.0037504968
15 -0.002929388 -0.0034643998 0.0011368106 0.0011079961 0.003880874 0.0020123469 -0.00041700798 0.0029339972 0.0034940247 -0.0019324136 0.002775385 0.0023522102 -0.0019478842 -0.0012291932 0.0025472739 0.0036930218 -0.0002825606 0.0037456201 0.000272985 -0.00017391554 0.00014775286 -0.00039369604 -0.0023596948 -0.00034948642 0.0026277064 -2.0014042e-05 -0.0038706097 0.00055757794 0.00032039097 0.0028355138 0.00041001683 -0.0010639599 -0.0029816788 -0.0005916662 0.00087366614 -0.0030806458 0.003835232 -0.0026214528 0.0005185925 0.0034361347 0.0020221015 0.0025868372 -0.0006131522 0.0005719283 0.0028540026 -0.0035235677 0.0037894158 0.0028044777 1.7791548e-05 -0.0029406312 -0.00087549613 -0.000869654 -0.00090723846 -0.0033635905 0.0035158736 -0.002105644 -0.0021772238 -0.0025788413 -0.0016448786 -0.0036541405 0.003293672 -0.0026778448 -0.0011345432 -0.0024370325 -0.0024931692 -0.0027021023 0.0035940225 -0.0029364575 0.0010663567 0.0024159965 -0.003597418 0.0013991019 -0.0027438796 -0.0006623947 0.003779198 0.002552852 0.0031362248 -0.00078824407 -0.0010998173 -0.0035607205 0.0035039026 -0.0005039082 0.0021389907 0.0030531967 0.0038736647 -0.0038761965 -0.001337883 0.003416862 -0.0021479295 -0.0010244749 -0.0026475084 -7.0496266e-05 0.0033942298 0.0024314814 0.0020629514 -0.0008869296 -0.0014171309 -0.001255144 -0.0009566287 -0.0010992179 -0.0012245964 -0.0037463803 -0.0009903483 0.00079961255 0.00020538497 -0.0015422849 -0.00089611305 0.00269967 0.0010736753 0.0023304757 0.0014496237 -0.0017697401 0.0011302986 0.0015503899 0.0026255301 5.2857507e-05 0.0021654337 0.0024882364 -0.0032294684 -0.0004438829 -0.0034423345 -0.0021914288 0.00019136477 -0.002081874 -0.0024045014 0.003776514 -0.0031755285 0.00021896015
47 -0.0008246521 -0.0011579434 -0.00090520957 0.0017791609 -0.0031072432 -0.00322511 0.00040075765 0.000541649 -0.002896964 -0.0009705127 0.001427839 0.0027248955 0.0025581385 -0.0032055194 0.00015439859 0.0014018031 0.0028916611 0.0023225502 0.0026564673 -0.0014716442 0.0030276293 -0.0035850059 -0.0011196606 -0.0012066754 -0.002466285 0.0012530059 -0.0037435747 -0.0015246205 0.002558984 0.003490834 0.0007886469 -0.0010192165 0.0002552753 0.003583803 -0.0019539965 -0.0036008053 -0.0038233157 -0.0011983975 -0.0011725063 0.0023891907 -0.0019768982 0.0029034875 0.0017232804 0.0014492489 -0.003465212 0.0014351428 0.0034168032 0.001972157 0.002560544 0.0019603528 0.0016778926 0.0015438815 0.0029593748 -0.0026037148 0.0011865157 0.0008663771 -0.0036999825 0.00352223 0.0013333663 -0.0025775407 0.0018568343 0.0013592023 -0.0004228112 -0.0027620532 0.00018162641 -0.0012075537 -0.0025692277 -0.0003624586 -0.00065556465 -0.0008446366 -0.0006488674 0.0028302318 0.0011147752 7.0411515e-05 -0.00023095253 -0.0031179711 -0.0024551286 -0.00086755253 -0.001015847 -0.001162739 -0.0011307064 0.001890313 -0.0032569298 0.0011473638 0.0025257468 -5.2350948e-05 0.00064828 0.00038020915 0.0026304252 -0.0011383217 0.00067593425 -0.0014150523 -0.0009817476 -0.003296369 -0.0013580577 -0.0015811595 -0.0036128932 0.0013565127 -0.002339409 0.0030003344 -0.0029738278 -0.0029312533 -0.0024171988 -0.0023371275 0.00096593046 -0.0016911824 -0.0020507197 0.0020922094 0.0021934926 0.0020174736 -0.0024496543 -0.0019275164 0.003181219 0.0022823568 0.0034998227 0.001485609 0.00033210855 -0.0014553862 -0.0015170852 0.0019328947 0.0024589913 0.0027768204 -0.0014989004 0.00376438 -0.00014348651 -0.00130373 -0.0013867 -0.0005567525
39 -0.0014043299 2.745236e-05 -0.0020852122 0.0037815133 0.0016446772 -0.0037512127 0.0033455107 -0.0018429861 -0.0026529122 -0.0015285917 0.0016079113 0.0028259004 -0.0022491089 0.0027116893 -0.0020331247 -0.0036104098 -0.00034222673 -0.0011904674 0.0024517903 -0.00029385058 0.0034932583 0.0017431233 0.0012958242 -0.00042661148 0.0034822272 0.0018712996 -0.0032493991 -0.0024534673 0.0028598462 9.884607e-06 0.0033698136 -0.0028247798 -0.00045071245 0.0019382547 0.0035166587 -0.0020939058 -0.0037146285 -0.002696039 -0.00080530136 -0.0026019402 0.001768686 0.0031510594 0.002634353 -0.0035299002 -0.00093220023 -0.0018253584 -0.00263402 -0.002227331 0.0024382048 0.0031205644 0.0009968164 -0.00022873515 -0.0011694229 0.00079266453 -0.00018761189 -0.0018554042 0.00021418111 -0.00047032794 0.001177438 -0.0036206811 -0.00082728156 -0.0038772186 0.0002583757 -0.0031485136 -0.0022298712 0.0005124638 0.003595804 -0.0020687638 0.0018466818 -0.00072806614 -0.00208505 0.00028749264 0.0034771578 -0.0036902037 0.0033123451 0.0006069071 -0.0026740679 6.768338e-05 -0.002811727 0.002920429 -0.0033549608 -0.0008889301 0.0011089052 0.0016522397 -0.0015310625 0.00047924806 0.0029520148 0.0007993961 -0.0022909713 0.0026769375 -0.000583514 -0.0023824023 -0.0015226614 -0.0036976303 -0.0022281236 0.0002385222 0.0037493224 0.0023924303 -0.0022545792 0.0035879645 0.0031061673 -0.0033860668 -0.0038462959 -0.0036734527 -0.0018178996 -0.0021912972 0.0012356013 0.0028081876 0.00121992 -0.003602987 -0.0007203809 0.0019100126 -0.0016053583 0.0027639237 -0.0009826049 0.00318965 -0.00079855183 -0.003694308 -0.0017992373 0.0028029245 0.0024439571 0.0024081501 0.0029936233 0.0008242486 -6.350034e-05 -0.0018499551 -0.0003174223 0.0036410776
32 -0.0027107794 -0.002144626 -0.0034783236 -0.00025632296 0.0035720568 -0.00029340226 -0.001872362 0.0006255361 0.002242506 -0.003464591 -0.0037307744 0.0018098262 0.0020937484 -0.0030251031 -0.0031088225 -4.7098994e-05 0.0010711415 -0.0026360063 0.002204784 -0.0022946112 0.0031506147 0.001499101 0.003011172 -0.0025663355 0.0038130328 0.0017120404 -0.0018098884 -0.001815553 0.0005271648 0.0022803126 -0.00036392384 0.0012707076 -0.0020969498 -0.002571731 0.0010077097 -0.0029008314 -0.002190724 0.0030534628 -0.0006042542 0.0031850033 0.00040454807 -0.0007540555 -0.0004750186 -0.001561135 -0.0013364708 0.0026842984 5.3462236e-06 0.003293195 -0.0028143027 -0.0019189392 0.002574312 -0.002545498 0.0011534885 0.0012684895 -0.003409337 -0.00036848124 0.00065674935 -0.0031675298 0.00018222131 -0.0014011703 -9.5722506e-05 -0.0033944533 0.0017799496 0.0031700598 -0.0015617876 0.0034040294 0.0030961002 0.0037447892 -0.0016513476 0.0019069765 -0.0038884303 -0.00034999233 0.0036327755 -0.0013525934 -0.00076929387 0.0022565739 -0.00038059405 0.0011597759 -0.0033774339 -0.0026507454 0.0034308368 -0.0024802883 -0.001999936 -0.00010862506 0.0028683343 -0.0035264238 0.0013941835 0.0015091059 -0.00086453167 -7.4753414e-05 0.0013597338 0.0032995106 0.0029637222 -0.0032611012 -0.00018144383 0.003569805 0.0032711623 0.00053729094 0.00064898154 0.0014112218 0.0003606846 -0.0019078577 -0.0022307944 -0.0025928046 0.0036258486 -0.0030347707 -0.0011996467 -0.0018115075 0.0020967962 0.0038382565 -0.0027325714 0.0016344679 0.0028828275 -0.0027090395 -0.003268749 -0.0037538689 -0.00063362863 0.0026072823 0.0024942097 0.0038768146 -0.0029264542 0.0014741115 -0.0028450678 0.003432854 -0.0038831616 0.0033780981 -0.00057576055 0.0034911854
56 -0.0033778572 -7.708351e-05 0.0025139 -0.00027182754 -0.0012698361 -0.0026067973 0.0033350568 2.5634292e-05 -0.0035312183 -0.00170078 0.0007151732 -0.0027116118 -0.0019129182 -0.0032929028 0.0023639412 -0.0031337782 0.0028364146 -0.0020376355 -0.0028307035 -0.0027685845 0.0026001346 -0.0036744731 0.0007501273 0.0028862841 -0.0024627151 -0.00182288 -0.0010916465 -0.003703466 0.00035805147 -4.636093e-05 -0.0023605383 -0.00028697058 0.00025819236 -0.003765459 0.00055755686 0.003129241 0.0016080344 0.0015728037 -0.0034176072 0.0019956008 -0.003162733 -0.0015224364 -0.0007691253 -0.0038069165 -0.0016693 -0.0030096725 -0.0031225563 0.0022694124 -0.0014804498 0.0029106827 0.0026790656 0.0017098447 -0.0014686175 -0.0002863545 2.869113e-05 0.0034067833 -0.0029018843 -0.002720437 0.0015678483 0.00213847 0.0031917496 0.0014007026 0.0036752182 0.0005811692 0.0007806293 0.0015923985 -0.0009029293 -0.0031249963 -0.0030817352 0.0012479553 0.00011962178 -0.0033729274 -0.001811203 -0.00030576997 -0.0022683023 0.0005512662 0.0030563355 0.0025067762 -0.003102097 -0.0010640045 -0.0029288675 0.001800362 -0.0035358893 0.0005289729 0.0012971461 0.0016927856 0.00042972868 -0.0032282006 -0.0027378572 0.0024806894 -0.0007880316 0.0025342167 -0.002821326 -7.3712305e-05 -0.0027505152 -0.003167581 0.0004952378 0.00011422185 0.0038047952 0.002579138 -0.00019730213 -0.0032467563 -0.0019247244 -0.0024244997 -0.0025468138 -0.0037807252 0.002157983 0.003396256 -0.0012346479 -0.0031045228 -0.0012459873 -0.00021399662 -0.0038852703 0.000836764 -0.0023155145 -0.0015776162 0.0037538377 0.0024756184 -0.0026942487 0.00080369925 0.0034900643 -0.002819535 0.0004238817 0.0038252755 -0.0037021814 0.0033034114 0.0028365992 -0.0011137989
83 -0.0019036464 0.0026874808 0.0034686811 0.003544363 -0.0006893652 -0.0037270733 -0.0001675528 0.00013779936 0.0027781378 -0.00332412 -0.00028401808 -0.0011487479 0.000354975 0.0025084899 0.0008628085 0.0038024122 -0.002625398 -0.0033909574 0.002092187 -0.0032481975 -0.0038514978 -0.0030455617 -0.0019639055 0.0017865053 0.00018794302 -0.002665578 0.0030856782 -0.0033471556 -0.001594856 0.00014770715 0.0014905554 0.0019006534 0.0010744417 -0.0029976447 -0.0026986056 0.0003525002 0.0026749002 0.0017323642 0.0025709458 0.0016811573 -0.0003732141 -0.003147981 -0.0034465622 0.0006601144 -0.003256935 0.002537933 0.00077862025 0.0024626919 0.0023332785 -0.0013408132 -0.0028485598 -0.0019670567 -0.00022640829 -0.0031523223 0.0007844584 -0.0015868783 -0.0008200455 0.00031984103 -0.0035711261 0.0013929785 -0.00056025037 0.0036833088 -0.0019236024 0.0034007486 -0.003450502 -0.0006843942 0.0036988244 -0.003415594 0.00077284203 0.0019046327 0.0021645273 -0.0037675942 -0.0016971391 -0.0007914797 0.002141327 -0.0038194642 0.0027088528 0.00150386 0.0030924943 0.0031499215 0.002515476 0.0034854375 -0.0038865032 -0.002041328 0.0021412442 -0.00027618653 0.003151165 0.00038445805 0.0017479633 0.0002545052 -0.0010555341 0.00026183145 -0.0026915353 -0.003613494 0.0026361628 -0.0020127443 -0.0036307906 -0.0019072847 0.0005775426 -0.0038705957 -0.0002984291 -0.003868912 0.0021646484 0.0029834167 0.0024479697 0.0006600172 0.0022739067 -0.0009782102 0.0035672288 0.0034606294 -0.0020363794 -0.0018618614 0.0028132747 0.0020701399 -0.0030406804 -0.0002076044 0.0037998853 0.0013048645 -0.0020374467 0.0034577656 -0.003244011 0.0008057577 0.0029814434 0.0035319815 0.00039987118 -0.0006788559 0.0006044363 0.0014457579
75 -0.0034564044 0.00031471727 0.0036418166 -0.0026366906 -0.0008551206 -0.0006740081 0.00038887336 0.00248117 -0.0028911973 0.0011053906 0.0017708187 0.00068303134 0.0013098612 -0.0018161304 0.0032814764 0.0007915744 0.0019938585 -0.0015049564 -0.0011389062 0.00319023 0.0006255006 0.0011459534 -0.0013436015 -0.0005518249 0.0022539734 -0.00038739835 0.0008719159 -0.002339478 -0.0024574478 0.0010695227 0.0035038947 0.0037908547 0.001004182 0.0016802219 -0.0034570373 0.0028004288 0.0032593615 -0.0028825484 -0.0005574583 0.0034485585 -0.0038887733 0.0009562676 0.0034969146 0.003266387 -0.0036581634 -0.002280345 0.0009427038 0.0011465695 0.0010471083 -0.0032692775 0.0010063495 -0.0018253752 0.00019121193 -0.00063408155 0.0024338164 0.0008426669 -0.0031873437 0.0010937556 0.0028479432 -0.0002641663 -0.0010052936 0.0011850354 -0.0011254104 9.705627e-05 0.0029348198 -0.002558794 -0.0007072401 0.0037455773 0.0026346545 0.0027438141 -0.0022026775 -0.0006283669 -0.0023671587 0.0015564711 0.002992044 0.00059283414 -0.0002108925 0.0010143295 -0.0026444248 0.0023436244 0.002436809 0.0016576654 -0.0027423934 0.00030570605 0.0027420274 -0.0034688879 0.0014604187 -0.0017356426 -0.0033489699 -0.0005275928 -0.0034870834 0.002814781 0.0035534338 0.0014858713 -0.0031065003 -0.00048108626 -0.003091927 -0.0034335216 -0.00026815792 0.001333721 0.0007647128 0.00016876379 -0.0030262244 -0.003053284 -0.0016100322 -3.4830628e-05 -0.0024894748 -0.003225576 -0.0029092953 0.00038068448 -0.0015662563 0.00067104254 -0.0022320047 -0.0021371115 0.003467827 0.0009396745 0.0015188849 0.0013737425 -0.0030889674 0.0019439118 0.00080566446 0.002477228 0.0008190335 -0.0033762476 0.000958168 0.00044191218 -0.0015899796 -0.0016242786
77 -0.001428563 0.0021538245 0.00014841488 -0.0028827784 -0.0015105744 0.0023910576 0.0028750012 0.002388742 0.002884431 -0.0031505008 0.00025192817 0.0013830211 -0.00236424 0.0013079698 -0.0038335365 0.0012182606 -0.0007121985 0.0005182779 0.0011714402 0.001511688 0.0030722085 0.003121752 -0.0021144608 0.0016354307 0.0029857054 -0.0034926457 0.0034943342 -0.0032384738 -0.0034514563 -1.0284231e-05 0.00028188317 -0.0013148283 0.0037717386 -0.0037977842 -0.0023575579 0.003521806 0.003240352 -0.0006526353 0.002955462 0.0031817192 -0.00069813535 0.0006522479 -0.0011093307 -0.0026896729 0.0033675784 0.0007407517 -0.0021398065 -0.0037089933 0.00012752927 0.0021720168 0.00025759026 0.002200728 0.0009812594 -0.0007457102 0.0026911504 0.0035661836 -0.001246695 0.0009981844 0.0034979396 0.0027347496 -0.0014245255 -0.001519986 0.00013187349 0.0032557661 0.0015838072 0.0017644878 0.0037135335 0.0011649255 -0.003786473 0.00033555497 0.0027145029 0.0007892 9.200596e-05 -0.0008400435 0.00021670619 0.0016491415 -0.0005910788 0.0034888615 3.8200824e-06 0.00022121245 -0.0033495333 -0.00314383 -0.0030869127 -0.0023469052 0.0032262972 -0.0007488304 -0.0009446854 -0.0020762451 -0.0010799828 0.0030363607 0.0031051997 0.0039007328 -0.00048136592 0.0027517164 0.0031064362 -8.9587265e-05 0.0030266165 -0.00083897146 0.002393049 -0.0029552984 0.0006942658 -0.0032996878 -0.0016550676 0.0029740767 -0.003327881 0.0011595455 -0.00073188945 0.003374692 -0.0012995506 -0.0028763793 0.0029924335 -0.001810298 0.0024730905 0.0018874591 -0.0018149746 -0.001394117 0.001872772 0.0013240325 0.0019305092 -0.0014294089 0.0038751732 0.001641097 0.002317812 -0.0029289555 -0.0030900005 0.0017704624 5.9903516e-05 0.00018150048
65 0.00234559 -0.0011246643 0.0011578816 -0.002223713 -0.002435013 0.0016769601 -0.0031802403 0.002435529 -0.003342984 0.0027358986 0.0016843977 0.0031807446 0.0018608281 -0.00042074104 0.00139094 0.0005375674 0.0008786111 -0.0016802063 0.003121588 0.00066213834 0.0018054395 0.0035907337 -6.148244e-05 -0.0009576928 -0.0036618554 0.0025230348 4.672794e-05 -0.0018077273 0.00038552808 -0.0016172838 0.0038159776 0.0031412889 -0.001581576 -0.0022061712 -0.003683275 -0.0015014382 -0.0025743735 0.0039057597 0.0037611467 -0.003154111 -7.605368e-05 -0.0029728527 -0.0001633045 -0.00045565094 0.002637156 -0.0028491223 0.0010433133 -4.4860426e-05 0.00036138386 0.0022821298 0.001922176 0.002298804 -0.0016009926 -1.710541e-05 -0.00034780175 0.0018877074 0.00014192444 -0.0004074387 0.0034878314 -0.00041842944 -0.0014926604 0.002450474 0.0025121563 0.0024393804 0.0013144974 -0.0011665737 0.00023271139 -0.0030537155 -0.0035312527 0.002851752 -0.00040748474 -0.0033977283 -0.0018552607 0.0017260805 -0.0038171199 0.0030892552 -0.0034637435 0.0017841697 0.0013759073 0.00022741583 0.0030149224 0.0012782494 0.002189732 -0.0026641598 0.0012952288 0.0023689289 7.642528e-05 -0.0029886898 0.0015179403 0.0014896853 0.002536776 0.0030085046 -0.0032525368 -0.003623895 0.0024463532 -0.0009894128 0.00091705896 0.0004351127 -0.00056662457 0.0028784024 0.000291637 0.002315395 0.0014468164 -0.0035468196 0.0008032182 -0.0012881928 0.0035066784 0.0017701283 -0.0037231853 -0.000918057 0.00041358612 -0.0020330716 -0.00077600894 -0.00036647505 0.0017369414 -0.0014676505 0.00036870904 0.0033348997 0.0029293764 -0.0010502982 0.003108871 -0.0012143342 0.0004791946 -0.0027489017 0.0024820648 0.0031411794 -0.0017876298 -0.0032130568
59 0.003422232 -0.0033624072 0.002303547 0.002992126 -0.0018456355 -0.0011231139 0.002305979 0.0036381204 -0.0010183373 -0.0029142096 -0.00028607057 0.00063983176 -0.00037740727 -0.0026452832 0.0022607758 -0.0018594315 -0.00079697487 0.0024618949 0.0033519426 2.6646869e-05 0.0014316749 -0.0025417642 0.001910474 0.0008984912 0.0029826462 -0.0031140556 0.0012259369 -0.003202879 0.0023742332 -0.0010362702 0.0034011242 0.003233761 0.00091054384 0.0012411032 0.0038140784 -0.0028269652 -0.001654466 0.00020271173 0.0015872967 -0.002213705 0.00016725062 -0.0011319551 -0.0016707233 -0.0032217829 9.482104e-05 0.0027520324 -0.0011507942 0.00086698466 0.002028041 -0.00352489 0.0028523966 -0.0035157304 0.0025141728 0.00061793503 -0.000321959 0.0030226635 0.0032571321 0.0034819718 0.0013034662 -0.0038880252 -8.2469276e-05 -0.0017712014 0.0022371346 -0.0019600715 0.0036501682 -0.0012142949 0.0031464337 0.00027418695 -0.0004482411 0.0018731435 0.003160279 0.00081595493 -0.00078007515 -0.0028909862 -0.0018566125 0.0035661927 0.0008419116 -0.0010980763 0.0017614394 -0.0007929389 -0.0009172593 0.0013817137 -7.40686e-05 -0.0006982807 -0.0013577665 -0.0016616125 -0.0036201666 -0.0030013458 0.00029361763 -0.0008610826 -0.0004659646 -0.0027618029 -0.0033424997 0.0008056026 -0.00035369952 0.0014058533 0.00021657176 -0.0029085646 0.003231417 0.00029631244 -0.0019250007 -0.0019510757 0.00031646222 0.00017369463 -0.0028977084 0.00075951486 0.0010656542 -0.0018890222 0.0011499352 -0.00031975185 -0.001968239 0.0021762338 -0.003461014 -0.00028274118 -0.003840462 -0.0020794894 -0.00071300165 0.0023683743 -0.0007347468 0.0017691358 -0.0025379523 -0.0024291032 0.001239159 -0.0030015584 0.00059728825 -0.0020768696 -0.00086567923 0.00012747692
21 0.0012827982 0.0020722705 -0.0036666745 0.00020544748 0.0011151894 -0.0017873052 0.0008466691 -0.0022342827 0.0029117907 -0.00037026723 0.0021545056 0.0011756093 0.0031356923 0.0018464949 0.00093683903 -0.0009184321 -0.003765728 0.0031334455 -0.0023448842 0.002013384 -0.0011271053 0.0027482053 -0.0035788415 -0.0038621563 -0.0023854468 0.0021814327 0.003258902 0.0027312892 -0.0008594245 0.0016713694 0.0013216335 -0.003520077 -0.00070285914 -0.0012313842 -0.0035000378 0.0026423794 0.0002771893 0.0019500357 0.0036533743 0.00026227132 -0.0023108437 0.0015082675 0.0014006874 1.2556602e-05 0.00065875595 0.0020359992 0.001397867 0.0032605233 -0.0023063822 -0.0014362616 0.0030720662 -0.0022645025 -0.00065191794 -0.0029971506 -0.001487212 -0.0037280172 0.0023834805 0.0020897745 -0.002024373 -0.0009853718 0.00069989543 0.0027179974 0.0021990302 0.0019677214 0.0030640208 0.002866262 0.0004382468 -0.0028627529 -0.0010617562 -0.0038091112 0.001768514 -0.00035331878 -0.0029986722 -6.264682e-05 0.0032711788 0.0033585038 -0.0010343638 0.0013672028 0.0026027914 -0.00062217115 -0.0007243512 -0.0028975217 0.00012298512 -0.0033467836 0.0035857572 0.0023166027 -0.0018695444 -0.001044515 0.0013235528 -0.0015350219 -0.001612463 -0.0017701037 0.0015245288 -0.0016935734 0.00043362478 -0.00024314024 0.00022546007 0.0035874813 -0.0012026307 -0.0012978967 0.002096708 -0.00031606475 0.0018695839 -0.0011923388 -0.0013215753 -0.0012486316 0.00034403955 0.0027225495 -0.0036089078 -0.00072435435 0.0013932443 0.00310208 -0.00028511722 -0.0019083993 -0.0037735007 -0.0013503453 -0.0038281323 0.00057551486 -0.00029088437 0.003296422 -0.0026247844 0.0035643878 0.0022607355 -0.0029284447 -0.0026702536 0.0025706494 -0.0014271288 0.0013289885
29 -0.0005295983 -0.003220747 0.0027681421 0.00046817336 -0.0029472604 0.0039051275 0.003793046 -0.0016525079 -0.00333752 -0.0012542675 0.0016943758 -0.0034074886 -0.0024023245 -0.00053427013 -0.00065130735 0.0013654932 -0.00053631567 -0.0014227154 -0.0010059389 -0.0003138289 0.0021778543 0.002319897 -0.0034523346 -0.002205353 -0.0031334597 0.002998599 0.0028691683 0.0011827 0.0008637088 0.0036247866 0.0011392989 0.0011819716 0.0027787702 0.0027277318 0.0024913761 -0.0026999149 0.0015780649 0.00062782824 0.0012027989 0.0016234746 0.0032236995 0.0020182389 0.0024895207 0.00019161745 -0.0008668094 -0.00083846156 0.0027474503 0.0031683072 -0.0013650834 0.0036281794 0.0015924659 -0.00042941354 -0.0034167375 0.0022647898 -0.0018887048 0.002907336 -0.0004079408 -0.0025084878 -0.0036854334 -0.002544389 -0.001571516 -0.001419925 0.0025627478 0.0034815304 -0.00097502314 -0.0010134467 0.0028479544 -0.0030577583 -0.0019123363 0.0011782595 0.0012450749 -0.0025297755 0.000812349 -0.0019518359 0.0015087557 -0.0011930945 -0.0031299707 -0.0032449036 -0.0017728467 0.0006147159 -0.00085754844 0.0024799223 0.0029707192 -0.00044664321 0.0037747095 -0.0024066942 -0.0027735168 0.00053581456 -0.003536417 0.001872905 -0.00028265742 -0.0039004136 -0.003443173 -0.0029128906 0.0029583194 0.0018263367 0.00020406082 0.0034392609 0.00087505893 0.0007646079 -0.0008129685 0.0037512127 0.0013175592 -0.0022566873 -0.0028772284 -0.0038478188 -0.001770284 -0.0025130326 0.0034477795 0.00035401125 0.00045317103 -0.0019802623 -0.0038527595 -0.0030497236 -0.000655754 -0.0038324185 -0.0037582885 0.0035192 0.0036980296 -7.409936e-05 0.0024754666 0.001334982 0.0019452407 0.0036962866 0.0030811068 0.0030018585 -0.001318648 -0.00067458255
57 0.0023584012 0.001053432 -0.0004082531 -0.001846484 0.003375315 -0.00349929 0.0038637505 -0.00076139456 -0.0013841841 -0.0025081497 0.0010355398 0.0037278247 0.00282915 -0.003584644 -0.0030168872 0.0026503708 -0.00064884045 -0.0018402145 0.0029212236 0.00088377856 0.0018666511 -0.0018828029 -0.0007028645 -0.0025491603 -0.001312239 0.0032906982 0.001977563 -0.0023711515 -0.0018619907 -0.0010215417 0.0030477638 0.0023896906 -0.0039041697 -0.0022110625 -0.0034068068 0.0023010473 0.0031593407 -0.0005873685 0.0015640303 0.0038731575 0.0021445686 -0.00075420766 0.0035838261 0.001763666 0.0013084931 0.00033552924 -0.0034953912 0.00035546368 -0.00046279145 -5.6864206e-05 0.0011601956 0.0008964376 -0.0035183611 0.00018379612 -0.0016659992 0.0005961551 -0.0014610188 -0.0025440885 -0.0029729162 -0.0009286869 0.00077882624 -0.00024932838 0.0025530395 -0.001684748 0.0015519027 -0.00038983166 -6.464681e-05 -0.0014639302 0.001469483 -0.0006801219 0.00056124973 0.00024289903 0.0022777398 -0.002558699 0.0020432475 0.0018387876 0.0014722772 0.00020819445 0.0019536729 0.00220766 0.00019743401 -0.0037876766 -0.0004523023 -0.0035547977 0.00073807896 -0.003648086 0.00036848302 -0.00059641764 0.0016488191 0.0019493011 0.0015469159 -0.0009920249 -0.0031215998 0.0014371574 0.0038886105 -0.0024812312 -0.00043658706 -0.0036608877 -0.00077310344 -0.002352902 0.00050244294 -0.003190751 0.0037363088 -0.0032180736 0.0034317304 -0.0008768389 0.0016374089 -0.0031626918 0.003176225 -0.0003506577 0.00075778 -0.0009951737 0.00012156789 -0.00025523602 0.0017396798 0.00080833706 -0.0030230428 0.0026681724 -0.002979564 -0.0011166545 -0.0015374329 0.002523202 0.0034717917 0.0004477511 -0.0030359619 0.0019376798 0.0038110614 0.0028942928
55 -0.00046155354 -0.0026613174 0.00074675825 -0.0017637702 0.002029961 0.0038180244 0.0037088909 0.00022320298 -0.0028029277 -0.00076530216 -0.0031581323 -0.0016400416 0.0020408852 -0.0018131416 0.003810745 -0.0013342787 0.0021191179 0.003511703 0.00069391914 0.00088088773 -0.0023705955 -0.0005620215 -0.00174045 0.00048506891 0.0024245363 -0.0019287188 -0.0003866735 -9.277082e-05 -0.0019464709 -0.002318011 0.0020213325 0.0014582538 -0.0019843166 -0.0028954735 0.00079083396 0.0010363936 -0.00095151766 -0.002629643 0.0030390744 0.0007710037 0.00018070059 -0.0022566211 -0.003289515 0.0003706704 0.0022074967 0.0016061371 0.0037942913 0.0035976192 -0.0008131266 -0.0030024182 -0.0017859307 0.00023722458 0.00021254226 0.0032881126 -0.00054790097 0.0018423632 0.0020972576 0.0037636328 -0.0020751455 0.0009724893 0.0014211689 -0.003739279 0.0011973105 -0.0024730808 0.0006761906 0.0033859108 -0.0016067927 -0.0023151261 -0.003640562 0.0016337616 0.0010432262 -0.0017071853 -0.0023463874 0.0015287088 0.0033438234 -4.9807295e-05 0.0022837822 0.00036404657 -0.0035285386 0.0018372001 -0.0013099085 0.0030193105 -0.0012319047 -0.00076848123 -0.00080468896 -0.0023679424 0.0032896802 -0.0020018353 -0.001623693 -0.0011051208 0.002314238 0.0008585469 -0.0021229528 -0.0036093455 0.0010169862 -0.002865063 0.0023534903 0.0020304606 -0.0031184596 0.002434408 0.001548983 -0.003072808 4.3639153e-05 0.0022001828 -0.0012314984 -0.00068478956 -0.0027534082 0.003406432 -0.00016805262 0.0017556853 -0.0025711756 -0.00045055727 -0.0006866059 -0.001188813 0.0025079001 -0.0030545453 -0.0015524492 0.002260858 -0.0023453832 0.0026017136 0.0005099575 -0.0024909507 0.0007375233 0.0003969531 0.0034676965 -0.0007042033 -0.0037044047 -0.0008081987
58 0.0019618755 0.002992921 0.0014965505 -0.0013416184 0.0037860016 -0.0011648758 0.0023043323 -0.0024955766 0.00012775986 -0.001542119 0.003574032 -0.0012499214 -0.00023590232 0.002421938 -0.0019344407 -0.00031270317 0.00046012588 0.0034930217 0.0038635437 0.0018680943 -0.0035387187 -0.0025741553 0.0032987555 -0.0033937725 -0.00086593203 0.0010690168 -0.0011589779 0.0017752851 -0.0013058563 -0.00259853 -0.0021059539 0.00014502974 0.0035882164 0.0013960351 -0.0018297783 -0.00153371 0.00090534956 -0.00022168568 0.001140835 -0.0022700832 -0.0037008445 -0.003460515 0.0032796038 -0.0003335992 0.0019752942 0.0025890109 -0.0033231743 0.0019330366 0.00079822313 -0.0019056995 0.0007237432 4.673457e-06 -4.980689e-05 -0.0036753735 0.00022922966 -0.002309807 -0.0030068224 -0.0005328818 -0.0017108375 0.0030733508 0.0024514147 0.00087097 0.00062333536 0.0014680115 0.001279982 0.0011810574 -0.0028689317 -0.0005778056 0.0028729406 -0.0007952076 0.0030525937 0.0031827758 -0.0010543664 0.0011165559 0.0004635916 0.0016325444 -0.00013551103 -0.0010739142 0.0010448128 -0.002389012 -0.0006640163 0.003408614 0.003412045 0.0015083208 0.0020024318 -0.0010837078 -0.0012063354 -0.001392907 -0.0034754786 -0.00057290477 0.0010426557 -0.0029276186 -0.002636208 -0.0009668308 0.001583313 0.0007532155 0.0021476406 0.0030158286 -0.0013734912 -0.0007811176 0.000343322 -0.0013609235 0.002630898 0.0023640357 0.0003957666 0.0023194912 0.0023359433 0.0011898838 -0.0030449938 6.5313434e-05 -0.00040105556 0.002192296 -0.0011048841 -0.001753278 -0.0020186102 0.0034555262 0.00071655907 -0.0034601497 0.0038766237 -0.002824543 0.002023074 -0.0018939578 0.00013906875 -0.0022855722 0.0013088455 0.000639393 -0.0016893329 -0.0032849626
16 -0.0009092891 -0.0008028191 -0.00037840466 0.0026469666 -0.0032696556 0.0016080288 -0.001492352 -0.0022409651 -0.0031722852 0.0008122469 -0.001665855 -0.0032043813 -0.0036646342 0.002756182 -0.0019557134 0.0020916318 0.003333885 0.0016582231 -0.0014035741 0.00010828778 -0.0027237567 0.0033673812 -0.0034566408 0.000778102 -0.002941803 0.0029818355 -0.0020561547 0.0012795734 -0.0017660545 -0.00063152955 -0.0018196949 0.003465112 0.0022578335 0.0019782688 0.000149775 -0.0017544694 -0.0016064036 0.0013315403 0.0032139348 0.0009813751 -0.0014168378 0.0037593937 0.0017338918 -0.0007068335 -0.0035961275 0.0014664312 -0.00044239816 -4.457212e-05 -0.0017366055 0.0008187054 -0.0032518285 0.0018614089 -0.0021452948 -0.0034203676 -0.0037886924 0.0031168992 -0.0031794736 -0.00019964812 0.0037186989 0.0002593203 -0.0013728418 0.0022152856 -0.0012687088 -0.0038610613 -0.0009410605 -0.0031631375 0.0036097034 0.0022094108 -0.0006390227 -0.0023517462 0.0016068635 -0.0016547454 0.002442537 -0.0026137128 -0.0032600665 -0.0026504083 0.0023072872 0.0016479956 0.002731432 0.0003020594 -0.0012508498 0.0025438098 -0.0032944116 0.000653606 -0.0034247506 -0.0035582632 -0.0013990678 -0.0015958998 0.0037008938 0.0013029645 -0.0034709575 -0.0035174387 -0.0018893925 0.00032591147 0.0035752933 -0.00047210706 -0.0037918584 -0.0027663761 -0.0017587732 -0.0026172614 0.000111007386 0.0030314117 0.0016667984 -0.0010497606 -0.0014950092 -0.0010916848 0.0006804678 -0.0012342037 0.0004887973 -0.001652173 -0.0012819227 0.0019048362 -0.0015334164 -0.0026975316 -0.000633192 -0.0022681293 -0.002178847 -0.0022009967 0.0016984021 0.0017742584 -0.0036850204 0.0013242217 -0.00019618409 0.0021714335 0.002301617 -0.0011077566 8.179663e-05 0.003025796
53 0.0021180413 0.0005361807 -0.0011894775 0.00196324 0.0015756582 0.00015869482 0.0003685294 0.0028263866 0.0013637198 0.003435235 -0.0030199224 -0.0034634364 -0.0006264484 0.0017101499 -0.0013072664 0.0010434258 -0.0035952379 0.00023609851 0.0019083215 0.0025467207 0.0019535746 0.0016217392 0.0038721198 0.0015136881 -0.0011253495 -0.003399793 0.0021748836 -0.0026403267 -0.0012921917 0.0011244707 0.0016146337 -0.0029909315 -0.003340621 0.002072982 0.002601007 -0.0008560688 0.003590416 0.0013461612 0.0020186915 0.0015719341 -0.0008300475 -0.0005916723 0.0033124269 -0.0036759796 0.0023228829 -0.0009358131 -0.0012077111 -0.0017548869 0.001694241 0.002728675 -0.0018923727 0.0026733642 0.0010103042 -0.0018729233 -0.0017541418 -0.0034220181 0.0012193028 -0.0014211766 -0.0023900212 -0.0010109786 -0.0028735679 -0.0015373186 0.0019525771 0.0019086517 -0.0019288906 0.0009690971 -0.0020345277 0.00047963747 0.00093549327 -0.00093006867 0.002039346 -0.0019113596 0.0026644212 -0.0009022984 -0.0013711167 -0.0030061177 0.0018068949 0.0009732559 -0.0012410975 7.822319e-05 -0.00023253931 -0.0008485643 -0.002496772 -0.0030137026 0.0011415761 -0.002006983 0.00028702363 -0.0016501541 0.0029971905 -0.0010101614 0.0016698892 -0.0011680438 -0.0016747899 -0.0007208669 -0.0001304057 -0.00066946103 -0.002154647 0.00010089279 -0.00039267616 -0.0037077728 -0.002112106 0.0013447981 0.0013218032 0.0027792684 0.0032776382 0.00069721136 0.0019314922 0.0014158512 -0.0020028353 0.0029383206 -0.00067210593 0.0033173144 0.0014105105 0.00013477875 -0.0031994975 0.0024621463 0.0015420713 -0.0020736312 0.000925868 -0.0028180988 -0.0022193645 -0.0006434932 -0.003873197 0.0020658807 -0.001821813 -0.003462812 -0.00040642679 0.003783985
85 0.0035596855 0.0033179584 -0.00021815996 -0.00318517 0.0034544508 0.0024801143 -0.0033523107 -0.0024699597 -0.0013457785 0.003144253 -0.00014760882 -0.0034079053 2.5245696e-05 -0.0010352978 0.0006853043 0.00029347153 -0.0035212024 0.0010933846 -0.002956423 0.0021944747 0.0014091346 0.003756099 -0.0017661158 -0.0026107626 -0.0011617996 -0.0005499597 -0.00032554075 -0.0015193347 -0.0015562056 0.0008802381 -0.000839015 0.00017913336 -0.002203958 -0.00068556686 0.00015394155 -0.00023469687 -0.0030753613 -0.003606961 0.0028770631 -0.0023281204 -0.0031225353 0.0024297193 0.0020360574 -0.003714909 -0.0016629902 -0.0023180456 -0.0034411694 0.0026083572 -0.0018026211 -0.0006043769 0.0007450978 -0.0013128903 0.0017215769 0.002296819 -0.0005708893 -0.0018798177 0.003733984 0.0025629555 0.0025581948 -0.0021077446 0.0011866586 0.00086314406 0.0013809926 -0.0032464145 -0.0016085702 0.0014454215 0.002807168 0.0035525074 0.0023481967 0.0024068267 -0.0018988972 -0.0034015412 0.0034142209 0.0018072062 0.00029143394 -0.0029629362 0.0022488919 -0.0009983561 -0.000920037 0.0031878809 0.0030318669 -0.0020043117 -0.0012235653 -0.0019886068 0.0032939082 -0.0008222177 0.0037425049 -0.0034233388 -0.0028463588 0.0012171768 -0.00043409562 0.0018142819 0.0011773164 -0.0032805824 -0.00111397 0.0015735516 -0.0010690605 -0.003218046 -0.002251871 -0.002563604 -0.001933762 -0.0025194245 -0.0015489648 -0.0004924554 -0.0022025283 -0.0022763817 0.0019171915 -0.0008189415 -0.0023954385 -0.0006933903 -0.0019246377 0.0018837374 -0.0010852665 0.0032302486 -0.0021160191 -0.002553421 -0.0017464237 0.0026124867 -0.0037346976 -0.0012319632 -0.0027393587 -0.0038995617 -0.0014947171 9.551936e-05 0.00190055 -0.003369629 0.001110415 0.0018054654
18 0.0034719582 -0.003600961 -0.0012991303 -0.000995467 -2.3160223e-06 0.0024385487 -0.00033371782 -0.00013837652 -0.000757133 -0.0006928478 -0.0035290208 0.0011184331 -0.0031285984 -0.0024871703 0.0018666385 -0.0014313936 0.0010691455 -0.0014731694 0.001948683 -0.0027879467 0.0024702603 -0.0011281875 -0.002004755 -0.0034842787 0.0038497932 -0.0009646311 -0.0023655822 0.00010039381 -0.003240442 -0.00036106462 -0.00081330794 0.0014727562 0.00040512733 -0.0020769336 -0.0016997107 -0.0019234504 0.00045657394 0.0005518491 -0.0006058027 0.0037050953 -0.0014041282 0.0002263835 0.002490998 -0.0014847588 -0.0024018385 -0.0016503711 0.002272904 0.0025540926 0.0033472683 0.0024833493 -0.001572297 0.00063790573 0.0020293866 -0.00015162563 -0.003747918 0.00026969105 0.003383366 -0.0014206112 -0.0032605154 -0.00082266255 6.3438165e-05 0.0024983594 0.0032663876 -0.0003167865 -0.00044864276 0.0019662029 0.0022860183 0.00047584242 -0.0030952885 0.0029088745 0.0018348972 -0.0027403247 -0.00048033704 0.002317639 0.0019591332 -0.0037177533 0.0007780273 0.00016842771 -0.0016292825 -0.0027863763 0.002905283 -0.002449041 0.0033957667 -0.0008536578 0.0035603896 -0.0027405038 0.0033534076 0.0013918161 0.0006894165 0.0029946293 0.0010629205 0.0019881544 0.001815297 -0.0010070575 -0.0020628343 0.0021087478 -0.0036134084 -4.996229e-05 0.002123749 -0.0032712389 -0.0014719361 -0.0024468864 0.0034150023 0.002043377 -0.003710184 0.002393743 -0.00084248197 -0.00091756904 -0.0038418912 -0.0025690196 -0.0015910313 -0.002606199 0.0024615952 0.0013038362 -0.0014905608 -0.0033000682 -7.5413045e-05 0.0011492114 0.0012733802 0.0022287886 -0.0004794916 0.0032366917 0.0010228239 0.0033897115 -0.00045823358 3.4675184e-05 -0.0021403185 -0.0013738968
63 0.00014672086 -0.0037269266 0.001517358 0.002708449 -0.003600901 0.0023253995 -0.0027396595 0.00240096 0.0039005938 -0.0036258022 0.0017315666 0.0035323882 -0.0022988967 -0.0015550016 0.0009906989 -0.0017831445 0.0032804988 -0.0019709 -0.0035125872 0.0022617523 0.0031873467 -0.0003166114 -0.002736058 -0.0007170802 0.0017755794 -0.0032044868 0.00327854 -0.0036629802 -0.0013899945 0.0021714743 -0.00016149392 0.0026157612 -0.0030427033 -0.001055585 -2.1679502e-05 0.0026331395 0.0006981878 0.0024259249 0.001989154 0.00080868806 3.2639644e-05 0.0014342619 2.9593944e-05 0.00333879 0.00072444323 -0.001262944 -0.0009038476 -0.0012292159 0.0035254085 0.0036485093 0.0037113682 -0.0006676579 -0.0021522867 -0.0023433622 -0.000952474 0.0012831871 -0.0016752405 0.00041249575 0.00044984263 -0.0017264541 0.0012921847 0.0036917746 0.0029910493 0.0013723643 0.0034314427 0.0024077646 -0.0031946127 -0.0024398288 -0.0004622433 0.0015213256 0.002476663 0.0012684761 0.0037734401 -0.0018590855 0.0033025485 0.0025749984 0.0029622896 0.0035392346 -0.0024738973 -0.0024161944 -0.0028749364 -0.0033246104 0.0021706463 -0.0015086937 0.0037173466 0.0022908188 0.00053532235 0.0031440065 -0.0026944128 -0.00289701 -0.0020822843 0.0022979924 -0.0010471334 -0.0020012357 -0.00087767193 0.0026024757 0.0025833943 -0.0031197516 0.0026030121 0.0007851881 -0.001117676 0.0029621578 -0.0038493883 0.0012875814 0.0021361546 -0.0012475443 -0.002259602 0.0036584085 0.0018714202 0.002823702 -0.0010014039 0.0030992373 0.00024410416 0.0012485269 0.0016568471 -0.00061987503 0.0006808223 -0.0019693116 -0.0023418104 9.468291e-05 0.002486232 0.001109371 -0.00046484612 0.00010043151 0.003383766 -0.0005926618 0.0007006794 -0.002951216
30 -0.0014944228 -0.0025076887 0.0001760959 -0.0037774434 0.0021139723 0.0019184178 -0.0013950167 0.00082467624 -0.00028655614 0.002032859 -0.001295483 0.001027182 0.00257891 -0.002164417 -0.0023879416 0.0018371368 0.0020230454 0.002908654 0.00034489608 -0.0034660595 -0.0032919506 -0.0012551576 0.0010323351 0.0037215403 -0.0017159717 0.0020131236 -0.0010176307 0.00039270584 -0.0036303531 0.0013229747 0.003061505 0.0009350794 -0.0025905329 -0.00038182866 0.0024771835 0.001434551 -0.00012766867 0.001708278 0.002830473 0.0025816264 -0.0026428045 -0.0025412375 0.0023965875 -0.0012133722 0.0038752065 0.0031175793 -0.0034375032 0.00023026767 -0.0022780714 0.001189639 -0.0034463068 0.00043198676 0.0022245971 0.0037398287 0.0038661414 -0.0028403702 -0.0030162167 0.003865909 -0.0025154562 0.0034586126 0.002993289 -0.0018785212 0.0028079888 0.0027149145 -0.0024205241 -6.80082e-05 -0.0010973846 -0.00064702606 -0.0009493929 0.0030117647 -0.0009784554 0.0035709057 -0.0005831361 0.001957249 -0.00032329053 -0.0025977418 -0.003437885 -0.0011452598 0.0023051593 0.0036903305 0.003031329 0.0022300738 0.0018917405 0.0009443467 0.0005845516 0.003563293 0.0013768218 -0.0004866541 0.0034389298 -0.0012209398 -0.00095704023 0.0012507973 -0.0029050598 -0.0003716162 -7.2414055e-05 0.003133463 0.0022968964 -0.0017222007 0.0032251922 0.0035004155 0.0038036348 0.003740086 0.003713926 0.0011672515 0.0020922692 0.0024870445 0.0018585296 0.0033522449 -0.0021725895 -0.0008419469 -0.00028543788 0.0033109388 0.0014055985 0.0017528794 0.0014350842 0.0010137099 -0.002080208 0.0010927632 0.001492801 -0.0006258431 0.0010067737 -0.0010674222 -0.0017724611 -0.0017117342 0.0027551397 0.002512273 0.0023971994 -0.0002818398
67 0.00022204913 0.0011715452 -0.001403409 0.0029743288 0.0004160209 -0.0008970779 0.002751467 -0.0027564757 -0.003137722 0.0007755873 0.000790358 0.0025172338 0.0028306274 0.0017602798 -0.00037114802 -0.0022304188 0.0021606819 -0.0016419443 -0.0033115784 -0.0031936 -0.0011550164 0.0013211186 0.00054539065 -0.0005507233 0.003044151 0.0028439711 -0.00059784873 -0.0026784916 -0.00012389367 -0.0004665186 0.0029887815 0.00090242253 0.0025937443 -0.00021801225 -0.0018603747 -0.0017975233 0.0027333503 -0.0018116744 0.0014438569 -0.003141498 0.00096856063 -0.0005167741 -0.0024636642 -0.00029092873 -0.0020038672 -0.0038816559 -0.0017746803 -0.0036225435 0.0027748514 -8.482693e-05 -0.0011476481 -0.0008775862 0.001715905 -0.002117309 -0.0016989642 -0.002684041 -0.0028553403 0.0013227256 -0.0020761415 0.0012692348 0.0017727274 -0.00015765525 -0.0024637342 -0.0015244245 -0.0006328084 -0.0008753103 0.0012142641 0.0034993384 0.0028008968 -0.0029723512 -0.0002644658 0.002801422 0.002401116 0.0032218515 0.0009685376 -0.0007150668 -0.001185493 0.0016154576 0.0016007974 0.0037990666 -0.0008805952 -0.002610613 -0.0039031608 -0.0026452516 -0.002392436 -0.002251831 0.0021001038 0.002038995 0.00071629067 0.002891305 -0.0034956136 -0.0027349917 -0.001810836 -0.00011105408 0.0017693706 0.0011219379 0.0011264714 -0.0022822 0.00040787278 -0.0023378932 0.0005233292 -0.0013450292 0.0032331643 -0.0023495874 -0.0018310732 0.00033323723 0.00093266537 0.002534915 -0.002215301 0.0002550837 0.00036742 -0.00016732547 0.00349068 -0.0037936538 0.0029949343 0.0037884477 -0.00026238099 -0.0033879054 -0.002936952 -0.001524069 -0.00049866375 -0.00088097755 0.00049641344 0.0029763374 0.0032961324 0.0031872545 -0.001916114 -0.00039092297
20 -0.0029216611 0.0017529047 -0.0025464152 -0.0004846075 -0.0017743246 0.0022681328 3.7245794e-05 -0.0011016063 0.0012906996 -0.0026226295 -0.0033954284 0.0020304797 0.00014497366 -0.0003673669 -0.0016673738 -0.0036318381 0.0027983233 0.003413655 -0.0036823533 -0.0001276407 -0.0011003859 -0.0036636381 0.0016642002 -0.00096224714 0.0028099988 0.001393278 -0.0032566926 -0.0033018324 -0.0024735003 -0.0033676957 0.0031452524 0.00046276287 0.0024414351 -0.003878815 -0.0025612458 -0.0029048133 0.0030762213 -0.0016944915 0.00077269477 0.0009468654 0.002636855 0.002392075 0.00014376195 0.002630063 -0.0022673751 -0.0029882267 0.0020197225 -0.00043249366 0.0019313376 -1.2093745e-05 0.0011480522 -0.00095562654 0.00064620323 0.0023450677 0.0021586048 0.00044234347 -0.0028064016 0.0015966973 -0.0005801171 0.0008920932 5.2452338e-06 -0.0030242386 -0.0008709282 -0.0036311888 -0.0009614029 -0.0035799125 -0.0015792631 0.0012385683 -0.0017284824 0.0008363858 -0.0025580192 0.0033747114 -0.0015144277 -0.0015081849 0.0034519206 0.00048208341 0.0004922742 -0.0013520588 -0.0011414479 0.0015673275 0.0024615764 0.0020537823 0.001759208 -0.001583384 0.00253793 -0.0030757019 0.00015875969 0.0033736012 -0.003548695 2.1147018e-05 -0.0006682809 0.0009144532 0.0016273918 -0.0015663604 0.00073372445 0.0010761447 -0.0027907323 0.0035518003 -0.0027643137 -0.0017663776 -0.0034606222 -0.0012102096 -0.0036725397 -0.00030394236 0.00085636624 0.0020148952 -0.0006240695 0.0010644512 0.00023166493 0.0028292404 -0.003243943 -0.0030443205 -0.0010179363 0.001392899 -0.0035871558 0.0036164122 0.00018171778 -0.00065462216 0.0017553649 0.0021161118 -0.0028510906 -0.0025320526 0.001207391 -0.0029701565 0.00065984135 0.00048018133 0.0035356877 0.00045817246
66 -0.0033878798 0.00035634925 0.0011199436 -0.0031355263 0.00045103516 0.0014881643 -0.0011393077 0.0015148076 0.0019518175 0.0029597008 -0.0022918142 -0.002243971 0.0013189118 -0.00069411966 0.0014116146 -0.0023409047 -0.0036369136 -0.0024479933 0.003010743 0.00043874123 0.0015213257 -0.0014000979 -0.0017831692 -0.002655876 0.0014577368 0.0015209252 -0.0017677499 -0.0018138161 -0.00044291498 0.00070069754 0.0012815683 0.0027869034 -0.0007485979 0.0023217087 0.0018254515 -0.00043546048 -0.0029574567 -0.0028853964 0.0008427438 0.001599677 -0.0032515952 0.0019150592 0.0031928453 0.00068515434 -0.0017164067 0.0024625857 0.0004931528 -0.0018194815 -0.0034001395 -0.0031613982 -0.002966485 -0.0031030152 0.000290574 -0.003433384 -0.0025057103 0.0012336537 0.00013050222 0.0013955435 -0.0029694594 0.0008496205 0.00073728076 -0.0037239047 -0.00021919132 0.0023829837 0.0016349124 0.0012280184 -0.0021173444 0.002502429 0.0021344812 -0.00070002425 -0.0027178999 0.002508952 -0.0026916259 -0.0026044052 -0.001185091 -0.001668545 0.0027420316 -0.00086599047 0.0018115325 -3.290087e-05 -0.0026323823 -0.0023495934 0.0005620883 -0.0016161639 0.0028849891 -0.0035346888 -0.002252411 0.0017389947 0.0033699316 0.0006310637 0.0030348063 0.0021373455 -0.0025537005 -0.001063447 -0.00088084844 0.0020299528 0.0017325088 -0.0025344854 0.0022230514 6.248948e-05 0.0037791731 -0.0022487887 -0.0008802579 -0.0025431884 -0.003032237 -0.0018666023 0.0019569427 0.0017671164 0.0022864689 0.0011288658 0.0026412865 0.00063765625 -0.0027507616 -0.0038626017 -0.0011804882 0.0036880733 -0.0012000673 0.0030739652 -0.0031430717 0.0023037721 0.0036597895 -0.0023212351 0.0030982897 0.0018604898 -0.0029380994 -0.0018599558 -0.0008885195 0.0015571548
68 -0.0027457 -0.00070426293 0.0012027561 -0.0017533366 0.0029708964 -0.0022719596 -0.0014057964 0.0029034188 -0.0026599376 -0.0011923637 -0.003242468 0.0005938468 -0.0006381821 -0.0012305041 0.00012542012 -0.0027931018 -0.0015993073 0.0031506852 -0.0022318652 0.0033286333 -0.002606842 -0.0005754514 0.0021398775 0.0023630243 0.0026825045 0.0029179303 0.0012594165 0.00246521 0.0004047556 0.0004951037 0.0038471727 -0.0015402972 0.0023999102 0.002686963 -0.0038058474 -0.00023209128 -0.0027090947 -0.003082938 0.001035585 0.00072913227 -0.0019724013 0.0033687016 0.002978028 -0.0013025275 -0.0030204088 7.0441015e-06 -0.0009071015 0.0031517665 -0.0028916148 -0.0030200027 0.0025280064 -0.0021116298 0.0006758526 0.0012359661 0.0004628388 -0.00036878692 0.00075737503 -0.0013807178 -0.0030944224 -0.0003487322 0.001351394 -0.001324153 -0.00012899406 -0.0013365438 -0.0021960554 0.0025816502 0.0036655401 0.00038883073 -0.0025682403 0.0003379203 -0.00017696351 0.0030509217 0.00016947377 -0.0024632104 0.0014154369 -0.0013253285 0.0035863505 -0.0006892305 0.002594391 -0.0013519885 0.000112090835 0.002731462 0.0012526975 -0.0025062584 -0.0016700508 -0.002283626 -0.0023478803 0.0027164735 -0.0037673549 0.0030294629 -0.00076749246 0.00028025804 -0.001632529 0.0014241856 0.0025435148 0.003789714 0.0029623655 -0.0032709846 0.0032917147 -0.0031033838 0.003299307 -0.0013641337 0.0012230233 -0.0031274962 -0.00035096012 0.0005373537 -0.002559187 0.0027244724 0.0012053234 0.0020697245 -0.0038922112 -0.0022187254 0.0016427134 0.001287505 -0.0016277673 0.0012804354 -0.0003672845 -0.0030061016 -0.002339368 0.00028526783 -0.0014133601 -0.0034277542 0.0015599884 -0.00015858485 0.0029265685 -0.0035956926 -0.00027922614 -0.0012942856
84 0.0019440794 -0.0006469279 0.0015389 0.003047187 -0.0036730664 -0.00065404724 0.0026115207 0.0028382246 -0.0002773047 0.003085506 0.0037002326 0.0021020889 0.0027713776 0.001592044 -0.0009897089 0.0028874392 -0.000730888 0.0029249159 -0.002078975 0.002200967 0.0017027082 0.0020423234 0.00094235246 -0.0028528722 -0.0035272113 -0.0015097038 -0.0004099278 -0.00073050143 0.002552133 0.00027081431 0.0034536144 0.0030446905 0.0016271898 0.0013129046 0.0028652186 -0.00070201396 -6.402642e-05 -0.0031766829 -0.0026896023 0.002081844 -0.0005887403 0.0029439481 -0.0019081843 -0.0014864645 -0.0026512896 0.0013341588 -0.0013396986 -0.00057703507 -0.0008129502 0.0014052675 -0.0027726316 -0.0011267966 -0.00090129516 0.0033360175 -0.0013228357 0.0010499832 0.0037301613 -0.0015902977 0.0034485597 -0.0001835318 -0.0018427124 -0.0036941506 -0.0021030342 0.002226527 -0.0029914887 -0.0023397936 0.0028401841 -0.0026206314 0.0018484804 0.0010956625 0.002824517 -0.002752902 0.0021290784 -0.00026154245 0.00028309756 -0.00039820131 0.0003340039 -0.0002700954 -0.00031431144 -0.0017324667 0.003069733 -0.0024215023 0.0033330093 -0.0019433897 0.0015244989 -0.0038005891 -0.0033666063 0.0014649658 -0.0001118765 -0.0012986474 -0.000964264 -0.0035107895 0.00095062656 0.00011246487 -0.0027741431 -0.0024153662 -0.000847907 0.0015014642 0.0026353414 -0.0016585067 -0.00068693276 -0.0016170008 0.0003920802 0.003334176 -0.0029680415 0.0028109683 -0.0017646023 -0.0007623545 -0.0022491058 0.0018667082 -0.0021971404 0.003469336 0.00030624965 -0.0036789223 -4.5319593e-05 -0.0025276765 -0.00014831674 0.0022295166 0.0011946581 1.0241774e-05 -0.003890919 -0.00016413898 0.0035047815 0.0012428106 -0.0021969948 -0.002498744 0.0009843947 -0.002169799
81 0.0023718479 -0.0021208795 -0.0032102012 -0.00024494054 0.0019376671 0.0036074058 0.0031343102 0.0018200395 0.0013840356 0.0022788015 0.0010396908 -0.0034421708 0.00043782106 0.0009887492 -0.0032393103 0.0028805686 -0.0034070674 0.00017954709 -0.0011102271 8.6950706e-05 -0.0031474393 -0.0012676925 0.0013725478 -0.0021213302 0.0031513372 -0.003415998 -0.0014233302 -0.0012046901 0.002040008 0.002760416 0.003414451 -0.0034611092 -0.0028262266 0.0018100595 -0.0017335382 -0.0033350447 -0.0009427135 0.00046775845 0.0032968181 -0.0019817245 0.00049286545 0.0007283867 0.0022765743 -0.002567612 -0.00053541 0.0027613873 0.0006915564 0.00013662258 -0.00072265614 -0.0032539903 -0.0026642275 0.0030557925 -0.0017398844 0.00125594 0.0004968493 0.00084624963 -0.0010485561 0.0033863876 -0.0026220127 0.0009553047 -0.002071199 0.0032803148 -0.0018941343 -0.0017567483 0.0038862163 0.00077119813 -0.0025334316 0.0035345156 0.0013623036 0.0009560761 0.0013516016 0.0005527423 -0.003903696 -0.0037740758 -0.00027200038 0.0030837106 0.0038398209 0.002937295 -7.3966745e-05 -0.0015736033 -0.0023616413 0.002364808 -0.00047301015 0.0037197657 0.002144761 -0.0009773296 0.00017912844 -0.00038237582 -0.0008614056 0.0010858021 0.0016451603 0.0025570025 0.0010104136 -0.0014514419 0.0006833148 0.0006628407 -0.001022076 0.0006061214 4.7805235e-05 0.0025117397 -0.0029824208 -0.0021399793 0.0025936442 -7.467022e-05 0.00020726897 0.0010478902 0.00012939553 0.00020021627 0.00022549732 0.003196916 -0.003303859 -0.0008440252 0.003346887 0.0017695738 -1.5071399e-05 -0.0017044542 -0.0027149701 0.0016575984 0.0037456173 -0.0017586914 -0.0014391035 0.0031126281 -0.0013856153 0.0038518691 -0.0036818415 0.003134799 0.0034869183 -0.0038260436
64 0.0029575594 0.000522843 -0.000935555 0.0006377365 0.0011351004 0.0013644885 0.0035174082 -0.001855349 0.0031958732 -0.003257626 0.001222751 -0.0012956746 -0.001310287 -0.0025966729 -0.0006367019 0.00057896384 0.0032327403 0.002944899 -0.0016268613 0.0007512575 0.0035747557 -0.0012347986 -0.0013461855 -0.0027645808 0.002418955 -0.0024586678 0.0034679482 -0.00190202 0.0029830083 -0.00031101156 -0.0035387713 0.0005942637 0.0037239972 -0.0032669501 -0.00091687875 0.0013511886 0.0009831021 0.0005291567 0.0030606636 0.00036140875 0.0038913537 -0.0025490664 0.002148292 -0.00046161443 0.0008148102 0.00013389478 -0.0024682856 0.002565937 -0.0029751505 -3.7383e-05 -0.0012558427 0.0006659309 0.0018317961 -0.0020753946 -0.0016594221 -1.7964896e-05 0.002926822 -0.003052793 -0.0018023001 -0.0026302065 -0.0015061421 0.0033070024 0.0015533158 -0.0036113656 0.0027696337 0.0018091623 -0.00241745 -0.0011935576 0.0023389738 -0.0037187305 0.001066448 -0.0008881768 0.00013548539 0.0037859166 8.755955e-05 -0.0003520379 0.0029281403 0.0016816698 0.002376574 0.0027913137 -0.003305301 -0.0030876703 0.00089299656 0.0035824953 0.0030150446 -0.00024604297 0.0004618898 -0.0011829924 -0.0027210715 -0.0019622366 -0.0016358594 0.0013395483 -0.0001650663 0.002595342 0.00045211922 0.0029936996 0.0023364339 -0.0008483349 0.0028996624 -0.0020778812 0.0033323518 0.0032983765 0.00095416605 -0.0014808455 -0.003386581 -0.0012302834 0.0027157122 -0.0006604519 0.0038406644 -0.0014742843 0.0010577337 0.0025139283 -0.0021058724 0.0027745757 0.002736602 -0.0018592698 -0.0034199702 0.0020090425 0.000898567 0.00058367173 0.0010574507 0.0033832472 0.0026355428 -0.0011815906 -0.002874723 0.0025558022 0.0034013717 0.0026244107
26 0.000117426294 0.0019508478 0.00036722125 -0.0026108483 0.0024701883 0.00036910013 0.0014190173 0.0020939603 0.0014704531 -0.002617045 -0.0005960786 0.0014867416 -0.0016515458 -0.0013307703 6.492367e-05 0.0010955378 -0.002773227 -0.0014941117 0.002301893 0.00016233651 -0.0038215558 -0.00093092496 0.0031532308 0.0025960624 -0.0023895835 -0.0013796183 -0.0014305292 0.0037709933 0.0031853137 0.00056964986 0.0035262238 0.0020365857 0.0016565856 0.0033161042 0.0023656813 2.7717752e-07 0.0034576594 -0.00013519375 -0.0018899472 0.0023429838 0.0013695516 -0.00352358 -0.0022288118 0.0027093384 0.0023609083 -0.00058809837 -0.0005422763 -0.0034164637 -0.002065487 -0.00012780936 0.0013362153 0.0033965036 0.0024130195 -0.0021712256 -0.0017524536 0.0005391349 0.0018604206 -0.003664452 0.002543535 -0.0018898083 -0.0014575992 -0.0008265136 0.0034298273 0.00075234164 -0.0013455739 -0.00060492236 0.0018986939 -0.0017333046 -0.0010238028 -0.00038313505 -0.0033168695 0.00276728 -0.002672037 0.0005822248 -0.0037227746 0.0037199196 0.0029883601 -0.0022250582 -0.00012014808 -0.0031294962 0.0006229423 0.0005857334 -0.002181452 0.0022083756 -0.0014649463 0.0030991796 0.00030722033 -0.0009157874 -0.0025395039 0.00087590964 0.0005647801 0.0017041609 -0.0029032128 -0.002879017 0.0034089386 -0.0035063466 -0.0034606985 0.0028664274 -0.0019860778 -0.00041922618 0.0034754388 0.002665917 0.00083054515 0.0015709294 -0.0015873339 -0.0014560528 -0.0006380107 -0.00058735086 4.2946367e-06 0.003700363 0.0036829007 0.002594846 0.00022888546 -0.0010570183 0.00117158 0.0032871643 -0.002573889 -0.000904835 0.0018974022 -0.0038147138 0.0024722668 0.00047398105 -0.0011535909 -0.00087674265 0.0032114685 -0.0037417114 0.0030467294 0.0037977404
3 -0.0038531648 -0.0012437582 0.0010665024 0.0037248356 0.003436789 -0.002936984 -0.0012017802 -0.0010230369 -0.0026601374 -0.00076345855 -0.0016962719 -0.0018985162 7.0859733e-06 -0.0012383376 -0.0032818508 -0.0025151763 0.0005402444 0.0022178388 -0.002096092 0.001542982 0.0017048842 0.0004086885 0.0021921257 0.0038692642 0.0021541424 -0.0016909156 0.0027859346 -0.0010647567 0.0009328993 0.0037992334 -0.0035368633 -8.222218e-05 -0.0035454195 -0.0011744673 0.0034373782 -0.0006240351 -0.0005369518 -0.0035986477 0.0038267656 -0.0037109018 -0.0025972354 -0.0038161157 -0.0036408326 0.0018785242 0.00210727 0.0004856533 0.0030146975 -0.002270558 -0.0014174412 -0.0031740959 0.00056213996 0.0027891651 0.002803629 0.00032757176 -0.00031303024 0.00062513613 0.0012517043 -0.0038712374 -0.0008018242 -0.0020657 -0.00021810175 0.00062284805 0.0016552955 -0.0038454235 -0.0024434433 -0.003503508 -0.0035177805 -0.0039044889 0.0037453582 0.0017540737 -0.0035345657 0.0030305292 0.0005014263 -0.0028924977 0.00041246627 0.0008900189 -0.0020312872 -0.0016850467 -0.0007614819 -0.0014882102 -0.0013265066 0.0031142244 0.0015699008 -0.0009410793 -0.0010619612 -0.00015817922 -0.00347994 0.0006836256 -0.0019552915 0.0025170732 -0.0021968987 -0.0038586017 -0.002479755 0.0029469635 0.0031021787 0.0015284148 0.002692889 0.003554289 4.0725467e-05 -4.387686e-05 0.003384422 0.0033869871 0.00031219548 -0.0017684213 0.002715839 -0.0020449287 0.00012903663 0.0015886126 0.0013741003 -0.0015374471 0.0011276411 0.0034402772 0.002336799 -0.0034808493 0.0038499443 -0.0022345295 0.0017973755 0.0009882755 -0.0004331293 -0.0035029182 -0.0030367149 -0.0006738611 -0.0020896227 -0.0011859877 -0.0011178823 0.00218614 -0.0005495987 -0.0028092007
62 0.0027109426 -0.0015607956 -0.0035638048 0.0007192465 0.003098017 0.0019991319 -0.00069324306 -0.0035778151 0.0022195927 0.003505008 -0.0027926145 0.0037930303 0.0009955978 0.0027391168 -0.0031730388 0.0006484388 0.002723081 0.0037423943 -0.0027970516 0.00034855749 -0.002741565 -0.0037919946 0.0036326563 0.0034397384 -0.0035457145 0.0006841064 -0.0019343353 -0.0001227677 -0.0011735155 -0.00343359 -0.0036339348 -0.0016583265 0.00013178273 -0.0023136649 -2.7372396e-05 -0.0023928662 -0.0028971438 0.0029784546 -0.0016282136 0.0029094927 0.002186483 -0.0037116564 -0.003806566 -0.0011159069 0.00209457 -0.0038376763 -0.0036362621 0.0017012954 0.000495761 0.002028883 -0.00052752823 0.0010628136 -0.0022343714 -0.0028954258 0.0013223139 -0.0006053184 -0.0030063097 -0.0037421575 -0.0035676742 -0.0035717308 -0.0036081257 -0.00019067714 -0.000796515 -0.000999966 0.003273809 0.0028412354 -0.002442944 -0.0015109878 0.0036348626 0.002118151 -0.0029342498 -0.0006367051 0.0034207786 -0.0014377687 0.00046412818 -0.0011999212 0.0024474906 0.0037963626 0.0023934934 0.00011320368 0.0018856861 0.00084068725 -0.00088292244 0.0013591816 -0.003396048 0.0036563394 -0.0008725298 -0.0016525163 0.0033413214 0.00028862047 0.0030533257 0.00075987255 -0.0007374249 0.0014851976 0.0017527884 0.0032751658 -0.003343351 -0.00061454624 -0.003688899 -0.00020967425 0.003638962 -0.0018889414 0.0024978037 0.001418624 0.0018101737 0.0011850905 0.0027046958 0.0011946657 0.0035610385 0.0024580425 -0.0010442378 0.002364587 -0.00321407 -0.00089832913 0.0014476429 -0.00040241345 0.0024061936 0.0015453885 0.0027795692 0.0010631373 -0.0011207577 0.0013007798 -0.0002882273 -0.0011153728 -0.0010568887 -0.002034354 -0.0005917891 0.00048570157
91 -0.002190795 9.235664e-05 0.0010793452 0.00040052182 -0.0023321155 0.0009898617 0.00010798435 0.0007416072 0.00068022567 -0.0016364158 -0.0028168627 -0.0029033073 0.0031950532 -0.0018242715 -0.001509041 0.0034404253 -0.0003456237 -0.0022159223 -0.0008136487 0.0032503412 -0.0028249568 -0.0037415875 0.00017123698 -0.0028157197 0.0037210565 0.0017755664 0.0006198638 -0.0010125444 0.0019122182 -0.002586628 -0.0013697983 1.7626196e-05 -0.001478919 0.0031745094 -0.0005887475 0.0035841702 -0.0017337152 0.00082057423 -0.00014318283 0.0018912095 0.0033034175 -0.0022949083 0.0029215147 -0.00051821145 -0.0034408798 0.00040410014 0.00092497637 -0.0032501004 -0.0017540923 -0.0016231094 -0.000997564 0.00077522954 0.00057716353 -0.0011959523 -0.00065465353 -0.00044170138 -0.0007095696 -0.001553034 -0.0027631829 0.0001286485 0.0035843702 -0.002702985 0.0014392463 -0.003848491 -0.00307789 -0.0017120966 0.0026953963 -0.0016870551 0.00073779613 0.0007211129 0.0030833217 -0.0036334896 -0.00033033016 -0.0020621698 0.0037741696 -0.0015453484 0.0026147412 -0.0012258408 0.0010031802 0.000937636 0.0019935498 0.003042354 -0.0025082151 0.0028933655 6.591444e-06 0.0037723363 0.0005908636 0.0014334422 0.0019388765 0.0036323091 0.0016194449 -0.0029885257 0.00019574564 -0.0034052215 -0.0026836412 0.00013971979 0.0031274944 0.0007757373 0.001331376 0.0022191545 0.003770825 0.0030985486 -0.0014940464 -0.0002323477 5.7807803e-05 -0.002659557 -0.002300546 0.0011109776 0.001927152 0.001180075 2.4272888e-06 0.0023856873 0.002456724 0.00248643 -0.0033765074 1.47885385e-05 -0.0019207491 -0.00082955894 -0.003036321 0.0037936997 -0.0005165325 -0.0035878432 -0.0011527857 0.0011305548 -0.0012643107 -0.0015330312 0.0030731661 -0.0033024056
2 -0.00013424522 -0.0029908738 0.0014109892 -0.0016503234 0.00016606494 -0.001256003 0.00257201 0.0008703415 -0.0009688743 0.0006735745 0.0005689152 -0.002194348 0.0037663926 -0.0020807323 -0.0036266986 0.00018922369 0.0022625271 0.0036956482 -0.00095529744 0.0036169398 0.0017704477 0.0034509096 0.0011702502 0.0002535791 7.458309e-05 0.0037805103 -0.0009203947 -0.000852123 -8.3507e-06 -0.0010419453 0.00023555115 -0.000110653025 0.0015678974 -0.0021442764 0.002804048 -0.0034319446 -0.0022052724 0.0005141438 -0.00025620498 0.0012428904 0.0020756847 -0.0015136017 0.0037978292 0.0026216642 -0.001697587 -0.0013485187 -0.0026745044 -0.001854889 -0.002584051 0.0010493622 0.0023324846 -0.0017471731 0.0016480468 -0.0002813523 0.0030583658 0.0020684437 -0.0012963237 0.0022212781 0.0003386999 0.0006750849 -0.0033094878 -0.0015561245 0.0001468967 0.0033911907 0.00255762 -0.002068062 0.00056065654 -0.0025913238 0.0023026937 -0.0012078852 -0.0027049088 -0.0028290867 0.0015094706 0.003839119 0.0030403852 0.0038149336 0.0002096185 0.0025971641 -0.0037944291 0.0027541108 -0.0020823113 -0.0021253505 -0.00033321782 -0.0011714959 0.00026233352 -0.0017699838 0.0030383242 -0.0025660682 -0.0021479141 0.0036903895 -0.0014977339 2.6400978e-05 0.0018856938 -0.00348145 -0.0008610676 0.00085262704 -0.00040644937 -0.0038859562 -0.00083693815 -0.0036703243 0.0029341825 0.0015254337 -0.0016293847 -0.0003025711 0.0016586212 0.0020014364 -0.0027476412 -0.0034112206 0.0016969568 0.00088324415 -0.0016929916 -0.002817878 -0.0036658144 -0.0011692028 -0.00035137477 0.0036953255 0.0036904758 0.0017408942 -0.0012752555 0.0021580732 -0.0014249868 -0.0026557357 -0.0010522741 0.0001950507 0.0016229746 0.0029513608 0.00020920153 -0.0029901066
