92 128
37 -0.0026306128 -0.0020569793 0.0037677484 -0.0011217037 -0.001635762 -0.0013692275 0.0037095873 -0.002656507 -0.00048152092 0.0020662334 0.0007258906 -0.0034857795 -0.0018029626 -5.4854507e-05 0.0028629077 -0.0026713435 -0.0015824848 0.00070906803 0.0035782054 0.0022485424 0.0036563117 0.0023290669 0.0031279912 -0.0012512992 -0.0034909742 0.0015895233 0.0016805182 0.0014556551 0.00053129677 -0.0038180999 0.00090128474 0.0032164247 0.0026219308 -0.0033091307 0.0030621763 -0.0038697117 0.001507625 0.0028394568 0.00076304725 0.0026701647 0.0005608609 0.000615085 0.002493947 0.0029358892 0.0028340477 -0.0033176064 -0.0024236226 -0.0022184364 -0.00012573262 0.0015933543 -0.0024574972 -0.0007840699 -0.0023086744 0.0009338026 -0.00064933154 -0.0012329499 0.0036430291 0.0007788595 -0.0003640574 -0.003526901 -0.0035779413 0.003264322 0.0025387006 -0.002560224 0.0025804008 0.0024670907 0.0016062976 -0.0024725285 0.003099339 0.0027313845 -0.001369865 -0.0031985233 0.0037713943 0.0016793099 -0.0027964083 0.0023213716 0.00065544154 -0.002225463 0.0030720937 -0.0003737321 -0.00014840068 0.0027158072 -0.0035407299 0.0024225446 -0.0011005459 0.0010283323 -0.0010049773 -0.00070984964 0.001786373 0.0018468213 -0.000111232446 0.0007372261 0.0036312884 0.0023486554 0.0014485372 -0.00079570385 -0.001180922 0.0020171672 0.00044149824 0.0021338062 0.0028335017 -0.0027064497 0.00257681 0.003011727 -0.0014395564 0.0030767212 0.003653331 0.0011219237 -0.0038557937 -0.0019084068 -0.0024561079 -0.0021475158 0.0017198339 0.00013060658 0.0014578 0.0028386454 -0.003130827 0.0011732063 0.0026483082 0.00308863 0.0027651915 -0.0033669523 0.0020506873 -0.0037249788 0.0012942143 -0.0017351062 0.0024140014 0.0023797427
50 0.003593004 -0.00057361455 -0.0010794248 0.0022912154 0.0016799077 -0.00048249195 0.0021333522 -0.0019537164 7.934512e-05 0.0030321681 0.0018301737 -0.00059290236 -0.002527805 0.0017854539 0.0013886954 -0.0021692931 0.0016666378 0.0005445653 -0.0020798347 0.0020873211 0.0019527636 7.480515e-07 -0.0036412494 0.0015709994 -0.00082994794 0.0035642567 -0.00016122845 0.0017928386 0.003642223 0.0034366772 0.00061548536 0.0022388513 0.0016965519 0.00072551117 -0.0018246977 -0.0019317081 0.0026687717 -0.0036793998 -0.00047865967 0.003651379 0.0033524726 6.6139626e-05 0.00365726 -0.0019634322 -0.002821878 0.00092336664 -0.0016340298 -0.0009420675 -0.001213949 0.0005872471 -0.0032098768 0.0030667423 -0.0009160816 0.0038609602 -0.00024730642 -0.0018299659 0.0013162172 0.0019904394 0.0009259493 -0.0028448624 -0.0031653217 -0.0011737678 0.0027616245 0.0034613528 -0.0030042538 -0.0009063484 -0.0022047532 -0.0016179404 4.4389602e-05 0.0013084003 -0.00076354906 0.0036804134 -0.0008546533 6.81498e-05 0.000119716635 0.00089986797 0.0034938809 -0.0014490423 0.0022431978 -0.00027301864 0.00093684025 0.00057786755 0.002510329 0.000326623 0.001028493 0.00075667363 0.0032555358 -0.002368775 -0.0025355604 0.0026960273 -0.0016592687 -0.0019507156 0.0017408815 -0.0001779 -0.0020448738 -0.0013751114 -0.0004994899 0.0025335373 0.0018292428 0.0021475884 -0.0025249529 0.003200138 -0.00019077412 0.0035288986 -0.00018234021 -0.00379697 0.0035256576 -0.0001951653 -0.0034358513 0.0017868733 0.001758776 0.0027167904 -0.0036984805 -0.000844154 -0.0017534252 0.0032376251 -0.0036225044 -0.0018367915 -0.003111295 0.0012212321 -0.0021348102 0.0017091777 0.00038087033 -0.0033019239 0.0017565425 -0.0010090729 -0.0011918264 -0.002268914
34 -0.0022933704 -0.00097023975 -0.0018138877 0.001793042 -0.0025227559 -0.002152937 0.0012255475 0.0016332313 0.00028758575 0.0015124062 -0.002988667 0.0036832502 0.0020399576 0.0017327341 0.0012732951 0.0034074893 0.0023861069 0.0028991 0.0031918255 0.0027941323 0.0033992063 -0.0016514476 0.0018573992 -0.0024186955 0.00051621144 -0.0027684844 0.00288588 -0.0037769836 -0.0035386225 0.0030275974 -0.0010905708 -0.00325235 -0.003135619 0.0012291746 0.002885184 -0.0025907462 -0.0029436462 0.002277643 0.0033597418 -0.0016247344 -0.00095690816 -0.0038824568 0.000115490904 0.0020129918 0.0015606337 -0.0022321069 -0.0015716593 -0.0015801156 -0.0023299763 -0.00013331365 -0.0021560502 0.00096588954 -0.0020793113 0.00020551293 -0.0033429842 0.000543042 -0.0021232117 0.000109169836 0.0031877344 0.0014323224 -0.0032931992 -0.001095192 -0.001001547 0.0027566806 -0.0024439266 -0.0017152831 0.0039047892 0.0028586523 -0.002050707 -0.0034468845 -0.0010664405 -0.003053896 -0.0033390983 -0.0013143434 -0.00060244853 0.0031612273 0.0031241793 -0.000651764 -1.4673873e-05 -0.0012055804 0.0018701723 0.0034549339 -0.0031336343 -0.0012184541 -0.0009103691 -0.00096481515 -0.003587444 0.0023450963 0.0003689615 -0.0038726071 -0.00022213743 -0.0020704635 0.002848717 -0.0004331252 -0.00018435912 0.0024318874 -0.0034258463 0.0032023364 0.0027949172 0.0011215447 0.0013085586 0.0031826342 0.0019239169 -0.002946677 -0.0021864378 -0.0033961465 -0.003570172 -0.0023571232 -0.0027390316 -0.0011410665 0.0027712297 0.0015399873 0.0017778632 -0.0017738522 0.0033524719 0.0038432477 -0.0032325073 0.002179678 0.0013943453 0.0027299994 0.0031658458 0.0011473818 -0.0013378224 0.0010067851 -0.0019870785 0.0010238764 -0.001228504 -0.0018032652
49 -0.0038372765 -0.0034323682 0.0019499906 0.0036216849 -0.0031808834 -0.0016769603 0.0009955951 0.00282723 -0.00068382703 0.0012909649 -0.002933397 0.00182101 0.0025093073 0.0032216117 -0.00096266496 0.0018997553 0.001420184 0.0019165562 -0.00215952 -0.002582658 0.00046391555 0.0008897348 -0.0019589234 0.0020413508 -0.003817933 0.0014889543 0.0028912167 -0.0008005491 -0.0014257964 -0.0007239884 5.415018e-05 -0.003050539 -0.00064708735 0.0039020688 0.0025077185 0.0029137635 -0.002316411 -0.0036143123 -0.0033334033 0.0014753927 -0.00094215455 0.0030222111 0.00039325884 -0.0011237465 -0.0031956036 -0.001473367 -0.0017202368 0.0013817983 0.0014938252 0.0029104548 0.002944119 0.0036627303 0.0014839539 0.0020409035 0.003801553 -0.00026527597 -0.002394862 0.00037884893 0.0029327874 -0.0010795338 0.000755845 -0.0014553161 -0.002884126 -0.0022627637 0.0007696583 6.2563246e-05 -0.003734979 -0.0031776766 -0.0022931881 -0.00060474203 -0.0038219034 -0.0016133382 0.0014634958 0.00034696216 0.00036246137 0.0003368139 0.00043944854 -0.0015734198 -0.0022716227 -0.00041554152 0.0013936668 0.0024538562 -0.0016445849 -0.0011619151 0.0018799775 0.002607207 0.0020180098 -0.0024274352 7.838599e-06 -0.00043375982 0.0009185604 -0.0020603328 -0.002757892 0.002422508 -0.0020170764 -0.000520993 0.003406197 0.00094285974 -0.0019587683 -0.0022267385 -0.00255882 0.0011127894 0.0016876151 0.0038339428 -0.0026133463 -0.0036337853 0.0036978673 -0.0037415896 -0.001736941 -0.0026854922 -0.0004373285 -0.0022160106 0.0033522677 0.0014972524 -0.00049789314 0.00085767446 0.0032400475 -0.0015853647 0.0021273997 0.00018892204 0.00102066 -0.0035715662 0.0021675117 0.0015523189 -0.0019369213 0.0033558218 -0.00055087666 0.0019057484
33 -0.0015294107 -0.0031853302 -0.0007912192 -0.0004258229 -0.00047502655 -0.0036004486 -0.00030251782 0.0024622455 -0.0009217454 -0.0024459842 0.0019129349 -0.003863279 -0.0031176645 -0.0030292855 -0.0034666073 0.002447816 0.0028373415 -0.0019248314 0.003224249 0.0015434251 -0.0005102986 0.0022450734 -0.00345112 0.0005292555 -0.0037989893 -0.0014735409 -0.0013516239 -0.0037147165 -0.0034861795 -0.0024598204 -0.0014314355 -0.0030141638 0.0031231022 0.0020273353 -0.0028799481 -0.0016250494 -0.0017765256 0.0033815901 0.00046639916 0.00035867255 -0.0006977391 -0.0023646234 -0.00037211768 -0.0023609437 0.0010788935 -0.0011097614 0.0025997686 -0.00024078198 0.0030798954 -0.0016596596 0.0006585563 0.0037619073 0.0024556266 -0.0020521453 0.0035389957 -0.0006325856 -0.0037459333 0.0025291673 -3.7250316e-05 0.001292092 -1.7359982e-05 0.00047839782 0.00043939793 -0.0015349839 -0.002419169 -0.0014795299 0.0012908436 0.0014782177 0.002869943 0.0011587576 -0.0019493597 -0.0029246118 0.0006560677 -0.0038172558 0.0017438153 -0.0013353054 -0.001439471 0.0006516998 -0.0014627514 0.0005787759 -0.0010524135 0.0010092253 0.0005446072 0.0036448548 0.0031582688 0.0033513296 -0.0005370066 0.0030916529 0.0007150483 0.0004473539 -0.0006781965 -0.0019514784 0.0027525288 -0.0010670723 0.0024295305 -3.0222664e-05 0.0032145444 0.0009981621 0.002406307 -0.0033327136 3.442025e-05 -0.0023163809 0.002295289 -0.0032151118 -0.001130624 0.0038187641 0.0021812003 -0.0030033218 -0.0022948578 0.0021342668 -0.0018256715 -0.0014688736 0.0032253985 0.00026239263 0.00036722881 0.0038503567 -0.001261731 -0.0013185539 0.00285109 0.0014347456 0.0024177986 -0.00097483513 -0.0032442177 0.0026241315 0.00023842022 0.00068658777 -0.0034272966 0.0029423614
60 -0.002515016 0.0022949239 -0.001128432 0.002167229 0.003472351 -0.0023517741 -0.0026419698 0.0007429354 -7.877227e-05 0.002183093 0.0013306302 -0.0019440295 0.00032207553 -0.003797228 0.0011703294 0.002582599 0.00016873391 -0.0018992333 0.0017233656 0.0039037508 0.0035279712 0.0025594404 0.0018173304 -0.00016206499 -0.003832034 0.000181492 -0.0020527132 -0.0017159017 1.7884728e-05 -0.00076842925 -0.0029458276 0.0024906497 -0.0034593965 0.0003836537 0.0022784516 0.001843575 -0.0037912196 -0.0013953297 0.002060637 -0.000718073 -0.0031608173 -0.0038773553 -0.0006418636 -0.0005222656 0.00342853 -0.0029631546 -0.00032369205 -1.3785608e-05 -0.0033297855 -0.0024164421 0.003833868 -0.0015493098 0.00071323075 0.00046775377 -0.0013218191 -0.002225037 0.0033524912 -0.0003220756 -0.00070967386 -0.0019307516 0.0027909318 0.0036344053 0.0038298073 -0.00082231045 0.0020693433 0.0035449343 -0.0010872801 -0.0028173947 0.00076997397 0.0030357232 -0.0010566913 -0.00033938393 0.00053343095 -0.0016768724 0.0025449302 0.0017316148 -0.0032566406 0.0015677396 -0.00179688 -0.0031877628 0.0010958139 -0.00045375814 0.0029323453 -0.00048620658 -0.0018448647 0.00024787124 -0.00329658 0.0037043204 -8.872896e-05 -9.874095e-05 0.0032586937 0.0028901855 -0.0009697301 -0.0014615823 -0.0008072103 -0.0028561247 0.00024883854 -0.0035297885 -0.0016547221 0.00014911476 0.002085094 0.0015499832 0.0015588199 -0.0031485162 -0.0015835147 0.00088524754 0.0014495539 -0.0010526343 0.0003569095 -0.00043985058 -0.0022654585 0.0009931055 0.00031182883 0.0029273508 -0.0011978247 0.0004167771 0.0037980552 -0.00047597487 -5.7442394e-05 0.0022590915 -0.00040397 -0.00050397275 -0.0011899439 0.0038860412 0.00088308693 -0.003191793 0.0027374476 0.0032839868
42 0.002367312 0.0016620992 0.0026911863 -0.0038207024 -0.0012794348 -0.00037529366 0.0026686147 0.00033675108 0.0033529296 0.0014235937 -0.0037614298 -0.001342217 0.003739716 -0.0005562481 -0.0028602565 0.0023108472 -0.002948958 -0.0031767164 -0.0031915049 0.0036430475 0.0024985939 -0.00058550865 -0.0028780166 0.0022219317 -0.0010492501 0.0010474321 -0.0028461495 0.00029208238 -0.003165917 -0.0016016947 0.0036390524 0.0036657033 -0.0014617475 -0.00055247586 0.0007223018 -0.001998632 -0.0006314146 -0.0004431789 0.002933623 -0.00087699015 0.00041643193 -0.0035042576 -0.0015260361 -0.0022367658 -0.0022222458 -0.0013949272 -0.003483301 0.0021371266 0.0033826432 0.0028150296 0.002998466 0.0014931655 -0.0018470755 -0.0030235215 -0.00015811835 -0.003902171 0.0018582602 0.0019390606 -0.0024231116 0.0033902253 0.0029213624 -0.00053468376 -0.0029018018 0.0002045578 5.9379585e-05 0.0017940603 -0.0015767411 -0.0035975536 0.002725849 -0.003707501 -0.002181708 0.0028660735 0.0018005383 -0.001176503 0.003859608 0.0031965855 -0.0013341812 0.00083487155 -0.0032873573 -0.0014734208 -0.0035018923 -0.0008768979 -0.0035766517 0.0021359301 0.0037557709 0.0015619933 0.0038438188 0.0030883867 0.0037431228 0.002443039 0.003574995 0.00073503435 0.0034956357 -0.003859602 0.000504421 -0.0021633918 -0.002219206 -0.001395412 0.0035027221 -0.002239638 -0.003649976 0.0026628738 0.002647086 0.002037877 -0.0013325742 -0.0012097601 -0.0016335379 0.0017449772 0.0013551572 -0.00040959925 0.00061636756 0.0019473349 -0.0011477586 0.00041475735 0.00096072786 -0.00065419456 0.0005481669 -0.002192742 -0.0027773883 -0.002941242 0.0024475406 0.0020073066 0.0028643694 0.0028138605 -0.0019440913 -0.0008065041 0.0011782441 0.0005105143
69 0.0012116856 -0.0005397741 0.00036891465 -0.0014430541 -0.0034947903 -0.0014822655 0.00010035044 0.00023800776 -1.5183275e-05 -0.0001758548 -0.0006087249 -0.0016085138 -0.0034686564 -0.0027975035 0.003730658 0.0022990224 -0.0022770513 0.0038805134 -0.00045515283 -0.0037090585 0.0031573928 -0.0012544919 0.0026505473 0.0016952557 0.0009326826 -0.0020426183 -0.0023704157 6.9060865e-05 -0.002383713 0.0023980003 0.0031464584 0.0012202332 0.0026757405 -0.0032742526 0.0029554153 0.0020091024 -0.003465707 0.00088321295 0.0014045804 0.002791432 -0.001976922 0.0036975548 0.0032059392 0.0019053613 0.003511352 -0.0024935405 0.0016224748 0.0017106151 0.00310638 0.0017533675 -0.0016746676 0.0032081332 0.003139633 0.0008860459 0.00025886387 0.0029243834 -0.0012167996 -0.00081508845 0.00030008415 -3.349955e-05 0.00059425266 -0.0027766004 0.00094926264 -0.0016010153 0.00047636553 0.003613355 -0.0009168362 0.0038261432 -0.0035168978 -0.00043020412 -0.001442736 -2.7674334e-05 0.0028554401 -0.0012001864 -0.0033532432 0.0006946617 -0.003522313 0.00074786454 0.0010562468 -0.00040045893 0.0018839599 0.0018481056 0.002688267 -0.003128158 -0.00016709966 -0.002646416 0.0019418825 -0.0037341404 -0.0024642388 0.0023793878 0.0022673244 -0.0013225173 -0.0037912505 -0.0037828332 0.0016727595 0.000569017 0.0012491384 0.0027536643 -0.003796892 0.00051818526 -0.0034646285 -0.0012253503 -0.0013304659 -0.003107314 -0.0015010586 -0.0033289914 -0.001253975 -0.0027917763 -0.0038450367 0.0012391396 0.002990113 -0.0021243622 0.002483499 -4.2115093e-06 0.00030988353 -0.0025690955 -0.003734643 -0.0019298986 0.0025459316 -0.0015615193 -0.0026624557 0.00076664414 0.0034734504 -0.0013266684 0.00075828447 0.0021453428 -0.00087792287 -0.0023204514
48 0.003373879 0.0006129356 -0.0007224093 0.00018075878 0.00045985062 0.0037227375 0.0037751268 0.0037291418 0.0004169738 0.0007992983 -0.0029274074 0.0014239661 -0.0017456308 -0.0037687684 -0.00041671927 -0.002008967 0.0013598236 0.00040885282 0.00085131003 -0.0026313302 0.003466013 0.003422566 -0.0008806058 0.0021317292 0.0007828857 0.0011121561 -0.00073183706 0.000645461 0.0025794979 -0.0024746843 -0.0016799422 -0.0023072988 0.0027949864 0.0019355896 -0.0009592348 0.0035611133 0.002824099 -0.003243965 -0.001678563 -0.001274747 -0.0015069433 -2.4181377e-06 -0.0014701117 0.0033250833 -0.0024595 0.0011359494 -0.0033267678 -0.002107482 -0.0022597825 0.0032662451 -0.0012617881 0.002106587 -0.0015798926 -0.0029538143 -0.0024567996 -0.00050735683 -0.0027409 -0.0014423346 -0.00065618055 -0.00023530363 -0.0021802299 0.0019388202 0.002320091 -0.0010941183 0.0015731631 0.001604176 -0.0011188857 -0.0014919728 0.0017114901 -0.0029220006 0.00019630138 -0.0032176753 -0.0028585081 0.0030843324 0.0009982885 -0.002450952 0.0021782052 -0.0004047084 -0.002258663 -0.002606247 -0.0013482799 -0.0031533458 -0.00088972447 -0.0007934916 -0.0015738728 -0.0029112173 -0.0009888079 0.0032263182 -0.00041986225 -0.0033997688 0.0030119312 0.0012792181 -0.00028507056 0.0037250915 0.0005421505 0.0003661326 -0.003729049 0.0031331766 -0.0011418964 -0.003423102 0.00069634756 0.0026594305 0.0006343251 -0.0017737855 -0.0027292809 0.0023041072 -0.0014306038 0.0036027217 -0.0030017952 0.0028392521 -0.00042853237 -0.0014764731 0.0014201817 0.0011149081 -0.0016806525 -0.00012219467 -0.0032552197 0.0027987012 0.003455392 0.0014329839 -0.0034330264 0.00079093286 -0.0022460164 -0.00023685765 0.00095791457 -0.0028446822 0.0013281532 -0.0038236994
51 0.0015662163 0.0032640647 0.0020823465 0.001330311 0.001151621 0.0014338252 0.0005372332 -0.002765359 0.0032057492 0.0014012449 0.0023468274 0.00031447448 -0.001090404 -0.0025141516 0.0011190482 -0.00089456537 0.001625387 0.0019242605 0.0037326643 0.0023691065 0.0018591705 -0.00021196889 -4.267429e-05 0.00020188846 -0.00014362104 0.0023053351 0.00023231955 0.0014108474 0.0019741205 -0.0018165632 0.0034562182 0.00026381257 0.00094472803 -0.002046073 0.003840536 -0.0026380264 0.001195587 1.7047721e-05 -0.0015317489 0.0038191788 0.002167121 0.001368839 0.0033018247 0.0019443617 0.0003424417 -0.00022283636 -0.0032450121 0.0021603212 -0.0033454364 -0.002902893 0.0029098447 0.000868958 -0.0020145937 -0.00027986613 0.0007216211 -0.0031700165 -0.0029801656 -0.0017244561 0.0033924012 -0.003835678 0.0031872883 -0.00035758578 -0.0018674224 -0.0023311677 -0.0022048925 -0.00042963133 0.001444588 0.0013764899 -0.0013452185 0.0014480699 -0.0035597684 0.0028670758 0.0031411855 0.003001908 0.0021175263 -0.0036182685 0.002150177 -0.003121039 0.00026585668 -0.0014654162 -0.0014149362 0.0030235194 0.0019804568 -0.0029717162 5.1431944e-06 -0.002711257 -0.0020464894 -0.0031910168 0.0016801335 0.0012655103 0.0033800073 -0.002897635 -0.0005346749 0.0012016254 0.0021209014 -0.0026189315 -0.0029478946 0.0006843713 0.0013897055 0.00024558342 0.0035411718 -0.00033164496 0.0023710232 -0.002332884 -0.003070483 -0.00389763 0.0035318236 -0.0016378104 0.0038447422 -0.0024546646 0.0011560225 -0.0012933075 -0.0030200717 0.00034023428 -0.00282035 0.00011748088 -0.0023676085 -0.0012084012 -0.002440241 -0.0029740834 -0.0021066973 -0.00019938857 0.0023641533 -0.0021777148 -0.0006884425 0.002288372 0.001026029 -0.0003455088
86 0.00061000464 -0.0015963664 -0.0032112948 -0.0011305544 0.0015420079 -0.0038914084 0.0003112941 -0.0034781941 -0.0034349242 0.003881868 0.003287616 -0.0023923672 -0.0037601711 0.0015237231 0.0021872174 0.0027976835 -0.002746663 -1.6789667e-05 4.2862237e-05 -0.00085960154 -0.0033517615 -0.003008169 -0.00026750806 -0.0037605462 0.0025342368 -0.0032724915 -0.00037821304 0.00020219215 -0.00062817277 -0.0013107545 0.0015724464 -0.0006335948 0.0022113489 -0.00025507712 -0.0025031618 -0.0010303453 0.0007115319 0.0016604651 -0.0010924106 -0.0018493537 8.187433e-05 0.0029846053 -0.0029145875 -0.0020921847 0.0038169767 -0.0015546007 0.0014507159 0.0014106157 -0.0009150809 0.0018612549 0.0008311199 1.9939884e-05 0.0019880468 -0.0025358053 -3.6351164e-05 0.0025375027 -0.003384266 -0.003765754 0.0016581552 -0.0032555312 0.0012149675 0.0018281576 -0.0030200519 0.0027700025 -0.00222182 -0.0035684675 0.0018130075 0.0030332846 -0.0016837126 -0.0014012828 -0.0018402346 -0.0029371725 -0.0010933732 -0.0019685857 0.0013754523 0.0020422223 -0.00016580617 0.0013939091 0.0025458925 -0.0017965632 -0.0035108475 -0.003586083 -0.003402422 -0.0036494243 -0.002607966 -0.0031521711 0.0020312753 0.0030172274 0.00069487427 -0.0010877193 0.0019974862 -0.001507016 -0.0004611317 -0.00066321937 0.0033461691 -0.0038370746 0.003047842 0.002811721 0.0012091671 0.0018351068 -0.0011305275 0.003545984 0.003777044 0.0020435522 -0.0010508342 0.0027180393 0.0016510237 0.0035073622 -0.0007964274 -0.0009862193 0.0027486521 -0.0035911275 0.0014765752 0.0036433164 -1.0315262e-05 -0.0020244643 0.0027484524 -0.0036089148 -0.001187746 0.0017633499 -0.00086178444 0.0003350057 0.0022744138 0.0019030544 -0.0017698121 -0.003481475 0.0028878867 -0.002131248
17 0.0010510137 -0.0038127725 0.0029559294 -0.00014509176 0.0020911084 0.0010872725 -0.0037485773 0.0031815267 -0.0024015093 -0.0019977216 -0.0023960772 -0.0024867984 0.0019010006 0.00344408 -0.0009502718 0.00036609283 0.0021486247 -0.0011354621 -0.00028538905 0.0019200677 0.002840265 0.0034218975 0.0035994286 -2.2379405e-05 0.00028421715 0.0031586033 0.0030569087 -0.0006882826 -0.0010083702 5.6121586e-05 -0.0038293297 0.0019447278 -0.00014738129 -0.0022908885 -0.0032925955 0.00026172746 -0.0036699055 -0.0026982096 0.0038996688 -0.002807105 0.0006433965 -0.0021717025 -0.0020361294 0.0028371532 -6.2957765e-06 0.0008270274 -0.00042588092 -0.0010810922 -0.0024688523 0.001652777 -0.003007665 0.000939577 0.0016552991 0.0006502807 -0.0011452937 0.0004600718 -0.0017999274 0.0016698156 -0.00010164688 -0.0038191916 0.0019474598 0.0038212226 0.0032938702 0.0027545148 0.0007224715 -0.0036054393 0.0011794143 -0.00022427604 -0.0022318487 0.0034881283 0.00071801455 -0.0026707673 0.0016782512 -0.0030812065 0.0036313 -0.0011421376 -0.0026746325 -0.0012117528 -0.003701709 -0.00056759326 -0.0035747103 -0.00013047268 0.0019512019 0.0032472585 0.0008079938 0.0013141911 0.0016887586 0.0020009216 -0.0029599057 0.0008564197 0.002710575 0.0011399413 0.0036497856 -0.0031443238 -0.00057643803 -0.001912753 -0.0037187845 -0.0027904785 -0.0016166569 0.0010359761 0.001262811 0.0035249512 -0.002865636 0.0013606192 0.0013085027 0.0037142495 -0.0026596135 0.0035104344 -0.0036577252 -0.003240806 -0.0020834557 -0.0006929783 -0.0015724461 -0.0022561478 -0.000895143 0.001665678 -0.0013581313 -0.0020328225 0.0038353014 -0.0023701703 0.0028688808 -0.0023790598 0.002475147 0.0028557417 -0.002621089 -8.717778e-05 -0.003299505 -0.0014449803
61 0.0018989551 -0.0018336719 0.002370414 0.003466074 -0.002695437 -0.0033563196 -0.00047066953 -0.0036955972 -0.0024107527 0.00050482625 -0.0023360187 0.0007405148 -0.00043423352 -0.0028541076 -0.0019681612 -0.0008775858 -0.0020854515 2.0955491e-05 0.0025725693 3.336568e-05 0.0015850909 0.0036620975 -0.00064688775 0.00090166816 -0.0022786136 -0.0011671069 -0.0034676183 -0.0023945584 -0.0009996592 -0.003278936 0.0015103017 0.0007040048 -0.0015715999 -0.00052176684 -0.0017044216 0.0022228558 0.0014608792 -0.000576767 -0.0037101975 -0.0025850725 -0.0021188864 0.0027797357 0.00013352766 -0.0017310209 -3.6763493e-05 -0.0016938348 0.0033111686 0.0005135748 -0.0011783065 0.0026474048 0.0034131913 -0.0025335802 -0.0032004453 0.0005984155 -0.00079417345 0.00016716926 0.0027062546 0.0033517627 -0.0027025945 0.0006242504 0.0029690757 0.0013217602 -0.003566173 -0.00041601292 0.0002762271 0.0019498348 0.00018374325 -0.002858855 -0.0032952307 0.0030775447 0.001841696 -0.0019881183 -0.0020445893 0.0005664399 0.0035885242 -0.0034250943 0.00062186684 0.003482107 0.001500143 0.000815227 -0.0020809213 -0.0016995617 -0.00014626904 -0.0024560222 0.0014380402 0.0021899866 -0.0009884248 -0.00070944073 -0.00019756447 0.0019761003 0.0022130343 0.00035064828 0.0035246322 0.000817942 0.0017250993 8.0069265e-05 -0.003805335 0.0011950777 -0.0018340487 0.00014295398 0.0027324338 -9.021099e-06 0.0035834361 0.0018576276 0.00041915095 -0.001683356 -0.0022420713 0.0033243506 -0.0028433918 -0.0032153674 -0.00036479448 -0.0036738506 -0.0026036876 -0.001084486 0.0030171464 -0.0007909897 0.0014031394 -0.00029741545 0.0031274299 -0.0017504168 -0.002779953 -0.0011210914 -0.003833887 -0.0011830865 -0.0006162327 -0.0026797238 -0.0017729334 -0.0028547414
36 0.0016451369 0.0036087802 -2.2290524e-05 0.0015757 0.0015620046 -0.0037122204 0.0029653031 0.0020981587 0.0017061516 -0.00033482167 -0.0036175384 0.0034242494 -0.00128829 -0.0027392583 0.00052968104 0.0032519472 -0.00063068216 0.002306466 -0.0021201114 -0.0038546913 0.00048248522 -0.002136878 0.0024360516 -0.0006372347 0.0033446199 -0.002236415 -0.0014269694 0.00068092346 -0.0016373711 0.0031069797 0.0009937176 0.0016404589 0.00263709 -0.0035951007 0.0019406736 -0.0021723558 -0.0031956967 -0.00044243017 0.0026388846 0.001412229 0.0010560675 0.002508836 0.0025924281 0.0027739073 0.0037421933 -0.002373945 -0.0024707504 -0.0037987086 -0.00040109837 -0.00064141245 -0.0029792248 -0.00021456426 0.0021129018 0.0037003122 0.0024401008 0.0009914623 -0.0014030554 0.0006461229 -0.0026970725 0.0023985116 0.00053188566 -0.0033573557 0.0030636534 -0.0010886804 0.00292233 0.0027002143 -0.0037387304 0.00082405616 -0.0032513945 0.0026522947 0.0024976728 0.0030244268 -0.0020094002 0.003656109 0.0018855017 0.0036990538 -0.00343739 -0.002259348 -0.00153416 0.0012650512 0.0016340797 -0.0036987448 0.001684681 -0.003533506 -0.00018636949 -0.0012082561 0.0035448866 0.0029617047 0.002780057 -0.0013902036 -0.00096562336 -0.0008950894 -0.0038626408 0.002224153 -0.0010709264 -0.0011489564 -0.0032023552 -0.0031388076 -0.0007808804 -0.00092033815 -0.0022650177 0.003345913 -0.0025035515 -0.0029901552 0.0020264424 0.0032103318 0.003416363 0.0014908655 -0.0014607345 -0.0036055217 -0.00048369117 -0.002233902 -0.0031258145 -0.0024892956 -0.0020524021 0.0038384963 -0.00091873814 0.001161972 0.0011167331 0.0026193182 -0.0019084596 -0.00052530976 -0.0036026689 0.0007709258 0.0011323281 -0.0016170889 -0.0038101613 0.00036006945
25 0.0026017337 -0.0012075881 0.0038654576 -0.00090313976 -0.0008770475 0.0014824702 -0.002346465 -0.00067675987 -0.00020188506 -0.0016417487 -0.0034316522 0.00012194887 0.00043959753 -0.0019300855 -0.003114655 0.0021957303 0.0037913623 -0.00120389 0.0008197757 -0.0037402979 0.00013164133 -0.0014741478 0.0028326921 -0.0021416147 0.0037016133 -0.0016054234 -0.0022377393 -0.003788904 -0.0038643659 0.0028316125 -0.0016602946 0.0021925569 -0.0019664413 0.00034762532 -0.0028137893 -0.0029362193 0.0037168132 0.0006474069 -0.0008104293 -0.0025668102 0.0005790035 -0.0011258542 -0.0012725545 -0.0010606289 -0.00022123627 -0.00043810112 -0.0010313868 -0.0035691464 -0.0011591171 0.0015775729 0.0021740803 -4.9012317e-05 0.0025787386 0.0032192925 -0.003296459 0.0005908232 0.003527116 -0.003232188 -0.0016937 9.681725e-05 0.0038354595 -0.0034230936 -0.0011519665 0.0011663539 -0.001420131 -0.0029851506 -0.0028534648 0.0027552706 -0.0034227925 -0.0006515141 0.003769759 0.0037614533 -0.00010496852 0.00010822979 0.0018577545 -0.0006209698 0.0020161357 -0.0010626263 -0.0015474844 0.00057101244 0.0031166351 -0.0020047221 -0.0005333283 0.00027264148 -0.00027068928 0.002316813 0.0023421734 0.0037563022 -0.0015239819 -0.0011891276 -0.0031787849 -0.0035518534 0.00033990244 0.002379654 0.0013983031 2.5006386e-05 -0.00023951438 6.0106522e-05 0.0018834675 0.0025408652 0.001949696 -3.262866e-05 -0.0036674903 0.0020909102 0.0034599747 -0.002080212 -0.0006567382 0.0012119262 -0.00328264 -0.0007226608 -0.0033610936 -0.0022441752 0.0019085935 0.00036097807 -0.0013078504 0.0027071948 -0.0022012808 -0.0012978225 -0.00020531581 0.0034120297 0.0026067544 0.0019232101 -0.00013327546 -0.0026234912 0.0026968184 0.00088566897 -0.0011008283 0.00048053043
24 -0.0022361116 0.0003772629 0.00066209387 0.0029275552 -0.0019697947 0.00022974431 -0.0033489165 -0.002165967 0.0017837378 -0.0009834121 -0.0012769941 0.0010832285 0.0026002422 0.0031207516 0.0026051628 -0.0037218293 -0.001107411 0.00016939975 0.001200228 0.0012880816 5.957741e-06 0.0011671314 -0.0029846048 -0.000963545 -0.0026396152 0.0020804878 -0.0018811701 -0.003250352 -0.0031647696 0.0004199865 -0.0016001338 -0.0002841812 -0.0009652509 -0.0030174493 -0.0019511231 0.002928183 -0.00074000243 0.0034840452 0.0005877147 -0.0032559116 0.0033142867 0.0017935772 -0.0034090176 -0.0016283799 0.00040599302 -0.0013763142 -0.002496875 -0.0026539085 -0.00034773324 0.0013102746 -0.0016837197 0.00092957594 -0.0022428571 0.0028162682 0.0011353324 0.00019298057 -0.0011927015 0.0024667035 0.0005165823 -0.0016353962 0.00034793478 0.0032260362 -0.000258742 -0.0033050636 0.002428913 -0.0012168299 0.0019488618 0.0035230308 0.00027389644 0.0013589789 0.0023458817 -0.00013300785 0.0038053466 0.00090863334 -0.0022128893 0.0031661761 -0.0035065135 0.001190814 0.0012185477 -0.0038981722 0.0004896436 0.00034666908 -0.0005642333 0.003174121 0.0022250672 -0.0027018464 7.5426484e-05 -0.00018783465 -0.0011078048 0.00030808587 -0.0004737023 0.0017124051 -0.0026651933 -0.0021467458 0.003558468 -0.0009854849 0.00016131175 0.003208716 -0.0022554114 -0.002421769 -0.0006868572 0.0007843821 -0.00072127825 -0.0016707405 0.0003401343 -0.0038941212 -0.003344927 -0.0030764178 -0.0014637833 0.0039055527 -0.0022456506 -0.0030512798 0.0026291984 -0.0005827015 0.00019035242 0.0034804347 -0.003482391 0.001049088 0.0025667872 0.0019923465 -0.0035261884 0.0037857885 0.0038946583 -0.0006398403 0.0031281852 -0.0016151184 -0.002849792 0.0037808982
19 -0.00055739825 -0.000171495 -0.0010536334 0.00063204975 -0.0015646728 0.0022522986 -0.00010935243 -0.002498101 -0.0025717288 -0.00091174955 3.8598762e-05 0.00016110911 -0.00031374974 0.003533195 0.0013482717 0.0023294755 0.0035851875 0.001575113 -0.0021059893 0.0011106504 -0.0016693014 -0.00111172 0.0006031376 -0.001482154 0.0011821284 -0.0009931548 -0.002298817 0.0035243467 -0.0038649896 0.0026614603 -0.0009680902 0.0018218771 -0.0020870105 -0.0022029125 -0.00021409836 0.003573274 0.003793903 -0.0035167504 -0.0028010495 -0.00025367923 -0.0018988145 0.0021254274 -0.002143203 -0.0014790572 0.000922236 0.0030642 0.0019749834 0.002889042 0.00019964967 -0.0005025992 -0.0012714987 -0.0005737603 -0.00027180597 0.0014962292 0.0021718491 -0.0011191128 -0.002623093 -0.0014677808 -0.003073143 -0.0010888564 -0.0014532682 -0.00029680383 0.0037761207 0.002404135 -0.00073253206 0.0027778242 0.0028520992 -0.0010465488 0.0016787716 -0.0027434598 0.0020070188 0.0006452239 -0.0020527488 -0.0033220279 -0.0021140066 -0.0018490464 -0.003034905 -0.0016548774 0.0032728373 0.0029022302 -0.0017262686 0.0027444977 0.0036578958 0.001463193 0.0033969507 0.00047858246 0.0032130007 0.0024865149 0.0033384631 -0.0008690177 0.00040187297 -0.0029268763 0.0036619403 0.0009332158 0.0003859411 0.002578982 0.0038408835 -0.001821968 -0.0024942122 -0.0034535613 0.0017560872 0.0006776273 0.0029381777 0.0034025467 -0.0028070053 0.0009467899 -0.001005042 0.00065928046 -0.00034661192 0.0016881194 0.0011430067 0.003197761 0.0032362014 0.0006161766 -0.003849445 0.002744932 -0.00015045755 0.0020641545 -0.0009733118 0.00027767883 -0.002808099 -0.0014128162 0.0012086683 -0.0035672833 0.0033423083 -0.0032652153 0.00021045351 0.0018537779
28 0.00014091042 0.0015215789 0.00053286785 0.0012820571 0.0027449315 0.0026827268 -0.0006565357 0.0006518327 -0.0014849942 0.002697004 0.0029877732 0.0002483781 0.0014320563 0.0030422753 0.0014930033 -0.0014697192 0.002468609 0.002355938 -0.0001624564 -0.0027762684 0.0012427744 0.0013788805 0.003303664 0.0032155945 0.0018395687 0.0015469994 -0.0005785115 0.0012944732 -0.002302962 -0.0026468441 -0.0012955463 -0.0007383291 -0.0030830188 -0.0025290225 0.00091926736 0.0019638482 0.003752312 0.003842434 0.0010355391 -0.0022721426 -0.0015854524 -0.0020717885 0.0028249277 -6.568602e-05 0.0035330965 -0.0005331754 -0.0024562199 -0.00018410623 0.000796165 0.0024020553 -0.0009181145 -0.0015634439 0.0037422674 -0.00040846295 -0.0032937825 0.0025852188 0.00088796695 0.0032891978 -0.0024555065 0.0032842655 0.0024268762 0.0032862583 -0.0038988474 -0.000101184465 -0.0014482819 0.0011116595 -0.0024511456 -0.001117495 0.0024935708 -0.003406875 0.0019477702 -0.0021817342 0.0006754923 0.0031616346 -0.0034181525 0.0006714968 0.0004861848 0.0023734344 -0.003455249 -0.0013536568 -0.002558571 -0.0026597462 0.0028471905 0.001556362 0.00082195696 -0.00010478538 0.0015585971 -0.0012994241 -0.0013450906 0.00024799642 -0.0018250465 0.0015900118 -0.0018382666 -0.0035467716 -0.0012608272 -0.0006943776 -0.0029358538 -0.0030023104 0.0010299901 -0.003705715 0.0016760122 0.0037419389 -0.0016521972 -0.0036786313 0.0023091852 -0.0013093872 0.0027348306 -0.0014098085 -9.39623e-05 0.0020767676 0.0010493839 0.0022489924 0.0012455387 -0.0015867255 -0.00022641041 0.0024577505 -0.0020344856 0.0020821774 0.00055660383 0.0022177 0.00085598556 0.0035431008 0.0001079686 -0.00018598048 -0.0011683372 -0.001469751 -0.0019207469 0.0011130234
27 0.00016064517 0.0034507753 -0.0017253093 -0.000994343 4.5795194e-05 -0.0032351802 0.00019131997 -0.00064567063 0.00020192498 0.0005700458 -0.003548175 -0.0005422116 0.0026094047 0.0024206117 0.0012859436 -0.0030566414 -0.0017580747 -0.0007705304 0.0025271773 -0.0009615812 -0.0017879109 0.0020607912 -0.0008469937 0.0033858274 -0.0009282268 -0.0033669434 0.00059498276 -0.0019073505 0.001296944 -0.003820507 -2.0265487e-07 0.003403931 0.0029366517 -0.0031345433 -2.0193977e-05 0.0034196067 -0.0023457264 -0.00080172915 0.0022624803 -0.0016679878 -0.0014172798 -0.00091179006 -0.0035704619 3.5035464e-05 -0.0024837274 0.0013671694 0.0019153224 -0.003395271 -0.0006392039 0.0030500647 0.0002198955 0.003402546 -0.0035407178 -0.0008167632 0.002331195 -0.0025326628 0.002190638 0.0010881679 0.00029198208 0.001470535 -0.003252705 0.00020083081 0.0032976181 0.0012127612 -0.00086644985 0.0011547396 0.0020784028 -0.0003986256 -0.00095388264 0.0024205667 0.0016997411 -0.00076573965 0.0017059622 0.0027304369 0.0011531841 0.00022371867 -0.0010134297 0.0016509263 -0.00013394603 -0.001159784 0.0017467794 0.0020937044 -0.0006616514 0.0022003255 -0.0025214371 0.0007192535 -8.655705e-05 -0.0012311952 0.0031681913 0.0014277216 -0.0027414022 -0.00013400576 -0.0012339987 -0.0017772666 -0.001866121 -0.0002171088 0.0038306883 -0.0019630576 -0.0023672068 0.0022802346 0.00062981556 -0.0002803794 -0.0010905332 -0.003827787 0.00077854854 -0.0015454557 -0.0010399064 0.0013525295 -0.0035141394 0.0033098431 0.00031222586 0.0013724347 -0.0034373084 0.0029016272 -0.0038311833 0.0011183554 0.0021864118 0.0031576704 0.0016543769 0.0012442595 0.003858846 0.002432885 -0.0024514825 0.003296057 -0.0017344797 0.0022382382 -0.002995678 -0.0005243271
52 9.2899776e-05 0.0005298017 -0.0030790414 -0.0005721966 0.0025413083 -0.0037454702 0.0016997328 0.0012034627 -0.0029768243 0.0013798046 0.001973795 0.0013540006 0.0027889041 0.0033981374 0.00084494665 -0.0011827574 -0.00021739575 0.003332304 -0.003406872 0.00038001957 -0.0015606239 -0.0017403858 0.0014768799 0.0014647228 -0.0027712183 0.002026247 0.0015418121 0.0034622734 -0.0014550415 -0.0037645993 -0.0033350002 0.002519308 0.0008993439 0.002509647 -0.0025490276 -0.0019265519 -9.436805e-05 0.0023156106 -0.0002258329 -0.0025106918 -9.703954e-05 0.00062996644 0.0029597236 0.000683775 -0.0003527521 0.002453689 0.0020903798 0.00070599694 0.0006717942 -0.00014193256 0.0033766967 -0.003673988 0.0005894637 -3.9970488e-05 0.0012153009 0.000756279 -0.00070645765 0.0009970606 -0.00029142774 -0.001979185 0.002097638 0.0016212534 -0.0015855889 0.001840541 -0.002115401 0.00055219035 0.002139675 6.342417e-05 0.0032668556 -1.1698933e-05 0.00018698932 0.0031517933 -0.001261309 -0.0014274565 -0.002799234 0.00044445661 -0.0009887284 0.0004785604 0.0017318918 -0.0036529861 0.0011755103 -2.0504278e-05 0.00207054 0.0011959862 -0.0030909593 -0.0028582413 -0.002654617 0.0013406106 0.0012345031 0.0011926416 0.0032956689 -0.0020834443 -0.003145274 -0.0010677066 -4.656154e-05 0.0038847188 0.0010361029 -0.002239518 -0.0032767411 0.002193442 -0.00057863846 0.0027782833 -0.0018614464 0.00059816433 0.00044844986 0.0030569248 0.0028438196 0.00073477894 0.0037852786 0.0037197443 0.003045643 0.0033423468 -0.00087540376 -0.0005509463 0.00080913707 0.003347404 -0.003307034 -0.0021001582 -0.0010278922 0.0019952473 0.0021234206 -0.0028547398 0.0020666616 0.0029264474 -0.0016333467 -0.0016246388 0.00058566517 0.0033202146
44 0.0005629406 8.946657e-05 -0.0034045277 -0.0026054098 0.00033109865 -0.0038587179 -0.0028314195 0.00074520236 0.00151631 -0.0032742997 0.0013638492 0.0015332766 0.0009085534 0.00073398417 -0.0012572566 -0.0005561701 -0.0014945898 -0.0012662928 0.0024342423 -0.002331565 -0.0030657367 0.0005410847 0.00019271567 0.0030284047 0.002782102 -0.0038629414 0.0020099252 -0.0025406003 -0.0030694026 0.0025110669 -0.0037279518 -0.0034017274 0.0032683674 0.00041617584 0.0032216667 -0.003136197 -1.5100875e-05 0.0016204033 -0.00069234526 -0.0012876127 0.003867497 0.0020391056 -0.003888381 0.0008878447 -0.0028415602 0.00053088577 -0.0034317677 -0.0010869667 -0.0022459743 0.00024526496 0.0022367316 0.0031795602 -0.002679501 0.00082446466 0.0003138718 -0.0030734106 0.00078533945 -0.0022080198 0.002979205 -0.0032120245 0.0015169731 0.0014445884 -0.0018514381 -0.0038403848 -0.00027646497 0.00060676935 0.0034712285 0.0032973497 0.0012848845 -8.23365e-05 0.002275574 -0.000843357 0.0023140358 0.0012954286 2.8144792e-05 0.003855025 -0.0032826005 0.00044234065 -0.0007439701 2.1330156e-05 -0.0010175519 0.0030608794 -0.0032123425 0.0032289454 -0.0037767387 0.001778599 -0.0022682191 -0.0029211992 0.0024768077 -0.0027372711 0.00050658785 0.0011083982 0.001536272 -0.0012856417 0.0012764886 -0.0018006407 0.0027753483 0.00090934883 0.0029619227 0.0014253093 0.0003406488 0.0010326478 0.0012478726 -0.0020314225 -6.899627e-05 -0.0029467063 0.00019503683 0.0004247874 -0.0005647101 -0.0028704458 -0.0016690362 0.0007334455 0.00042742075 0.0028756578 0.0013430114 -0.0002500647 0.002711572 0.0015634132 0.0034272028 -0.0021192504 -0.0002402039 0.002841492 -0.0026895222 0.00174031 0.0022017662 0.002493997 0.0028961455 -0.0010953014
14 0.00012971208 0.00041101707 0.0014581209 -0.0021304816 0.0019935507 -0.0020003084 -0.0032608516 0.00022451174 0.00018053506 -0.0029497412 -0.0032990195 0.003864681 0.0017362996 0.0038245365 -0.0029561906 0.0006222337 -0.0032325396 0.0039059399 -0.0029159891 0.0021195621 0.0002271292 -0.0003897445 -0.0032337022 0.0014041478 -0.001277941 -0.00061846647 0.003142523 0.0020176254 0.0023413314 -0.0019335354 0.0031372814 -0.000863411 -0.0021892441 -0.0038601363 0.0031654986 0.0013627345 0.0020625175 -0.00029182053 0.0008106962 -0.0025954326 -0.00058178906 -0.0038314988 0.00078340864 0.001948737 -0.003692091 0.0024086838 0.0009301096 -0.0019935735 0.0025705392 0.0023599293 -0.0006600961 0.0027001682 -0.0005675893 0.0011331538 0.000993209 -0.0007188844 -0.001472052 -0.0029503126 0.003141457 -0.0026886463 -0.00035043445 0.001554001 0.00382222 -0.0036989946 -0.001083772 -0.0016399104 -0.0035011224 0.0012907425 0.00085456745 -0.0026188444 -0.0014399407 0.0017115878 0.003773017 0.003847235 0.0035253032 0.0016047723 0.0018832666 -0.0014370626 -0.0013030792 -0.0022724331 0.0013416646 -0.0008536519 -0.002886778 0.003704491 0.0029324135 0.0023883888 -0.0019687803 -0.0035577768 0.0017347948 -4.39419e-05 -0.0006186065 -0.003760862 -0.002840824 0.0027146142 0.002618953 -0.0025057904 0.003079974 0.002308664 0.00071102707 0.0011502011 0.002739767 -0.0014215428 -0.0026887564 0.00030829664 0.0008355011 -0.0033074857 0.0034343738 0.00240657 0.0021947625 -0.003272794 -0.00068852404 -0.0018564796 -0.0025507943 0.0013544247 -0.0023077754 -0.00262454 -0.00315329 0.0012064789 -0.0032842876 0.00023291144 0.00089668983 -0.0017780586 0.0006718492 -0.00071947905 0.001810953 0.00033133125 -0.0024853637 -0.0007693468
82 -0.0035847672 -0.00046066666 -0.0013689119 -0.0035059662 -0.0010036433 0.0010047588 0.0016657251 -0.0023424677 -0.0022024133 0.0010942316 0.0013521075 0.002975788 -0.001305959 -0.00292212 -0.0001954588 0.0034653745 -0.0006035885 0.00016802692 0.0010735578 -0.00014504374 -0.0032964079 -0.0013951174 0.0036026607 -0.0033018794 0.00011173525 0.003260656 0.0006498267 0.0015772564 0.0034122611 -0.000872776 -0.0016337062 0.0022180553 0.0024523987 -0.002313743 0.0019908703 0.0033455384 -0.0031430689 0.0032045706 -0.0036153581 -0.00084292353 0.002807447 0.0009233117 0.0024781816 -0.0009934477 0.002807438 -0.0031715771 -0.0010020098 -0.0023011337 -0.0003288562 0.00242983 -0.00022084606 0.0018972014 0.00013487363 -0.0017691251 0.000104951745 -0.001310763 0.0031797613 0.0016489929 -0.0015314453 0.0023352394 0.002163059 0.002378161 0.00054779684 -4.988758e-05 -0.003151991 -0.0024726023 -0.0028424598 0.003541849 -0.0021528907 -0.003582505 -0.0035574366 -0.0012032504 0.0004523253 0.0029793351 -0.0010045888 -0.0017910936 -0.0015417825 -0.0011494675 -0.0015286007 0.0020474754 0.0015566979 -0.0025197165 0.0009857743 -0.0034346615 -0.0026540724 -0.0011684389 -0.0009839372 0.0021814222 -0.0010796875 -0.0021731474 -0.00012013623 0.0038118889 0.0011350209 0.0021579782 0.00042570537 -0.003249481 -0.0022070128 -0.0015170283 -0.00097061973 0.002867573 -0.0005881319 -0.003232375 -0.0021893918 0.00017589606 0.0015341821 -0.0035222047 0.0006448357 -0.00061799114 -0.0008063432 -0.0024624562 -0.0023956608 0.0008394911 0.00031884885 -0.0009663432 0.0011200246 0.00251052 -0.0009521797 -0.0011623437 0.0021144832 0.0024690812 -0.003439212 0.0016597048 0.0012414824 -0.0032101755 0.00012418204 -0.0037812032 -0.00062409375 0.003062602
39 -0.0016280013 0.0008589046 -0.000647245 -0.00032486813 0.0032346786 -0.0022690461 -0.0030565807 0.00063834555 0.00053042435 0.0027905838 0.0011585405 -0.0003312188 -0.0030069586 -0.0030867283 0.00051684544 0.0015304727 0.0009942489 0.0023013407 0.0032128938 -0.002428993 0.0026613062 0.0016058903 6.648494e-06 0.0032258597 0.0028687718 0.0020330015 -0.0038066339 0.001557865 -6.8865374e-05 0.0005645166 0.0034179448 0.0026201978 0.0021260993 6.506462e-05 -0.00014009456 0.0006758017 -0.0009909422 -0.0031257567 -0.0005378362 -0.0022615031 -0.0007307424 -0.0029263797 0.00042291515 0.00052603026 0.00054627203 -0.0026793815 0.0038729294 0.0018709128 -0.003563039 0.0016947637 -0.0037555636 0.0008205593 -0.0028854187 -0.003175755 -0.0014181155 0.0033091966 -0.0024844604 0.0026540612 -0.00018418283 0.0038205169 -0.00046234962 -0.0026086166 0.0007570215 -0.0031921 -0.0017371748 0.0013261184 0.0022177878 -0.0009423379 -0.0038383233 -0.0035563768 -0.0032911792 0.0034521304 -0.0023724844 0.0031206089 -0.0028868772 -0.0019052029 0.0016972057 0.0035524087 0.0006642994 0.0031622818 -0.0012146163 0.0030152681 0.0010944867 -0.0025959457 0.0016552884 0.0034435494 -0.0028441485 0.0014046533 -0.0010514525 -0.0008679032 0.0035201006 0.000165307 -0.00337886 -0.0015166627 -0.0017620104 0.0013156846 0.0008971797 0.003406639 -0.0032510075 0.0009592589 0.002092353 -0.0011923723 0.003693263 0.0032582833 0.003754595 -0.0030534067 0.0022228383 0.0013723217 0.0025173852 0.0012037678 -0.0019465128 0.0016657305 -0.002619665 -0.0026523608 -0.0034778228 0.0009117622 -5.0102608e-05 0.000323889 -0.00039948654 0.00012861901 -0.0018006496 -0.0036607923 0.0036457353 -0.0027625563 -0.0024777078 -0.00029474372 0.00064872083 -0.0018115361
47 -0.0006317368 0.0016701776 -0.0026617178 0.0010419925 -0.0026062687 0.0027075948 0.00045416737 0.00038429187 -0.00062114804 0.0028396987 0.0031287752 -0.00025386765 0.0038742933 -0.0033046738 0.002749795 -0.0035533535 -0.00014909965 0.0020400577 -0.00022036186 -0.0008882653 -0.002242803 -0.0032537815 -0.0002327752 0.0024414936 -0.0009059305 -0.001548693 -0.0034869018 0.0038855504 0.00060365855 -0.0027083582 -0.0011705306 -0.00096008583 0.0012027712 0.002087648 0.0019093641 0.00064512255 0.003186271 0.0010100652 0.0019957707 -0.003757621 -0.002752252 -0.0028838771 -0.0010409333 0.0021889487 -6.5466564e-05 0.0023432677 -0.0024845432 0.0015830003 -0.0002024873 -0.003645194 0.00015886617 -0.0016694627 0.00022913978 0.0037083945 0.00130233 0.00035012848 0.00048797837 -0.0034694828 -0.0006933694 -0.0023022946 0.002312609 0.0032339897 0.0019991512 0.00037415934 -0.0026180132 -0.0027363363 0.00012185207 0.0012094171 -0.0006080856 -0.001012206 0.0013841497 -0.0017027739 -0.0016882549 0.0011160087 0.00094893214 -0.00037627688 0.0024120852 0.0033909313 0.00065846357 -0.00023906043 0.0012803876 -0.0014471549 -0.002202531 -0.0038026827 -0.0024199926 -0.0033063698 -0.0034415287 0.0035401767 0.0034433873 0.00016744889 0.00119419 -1.8881194e-05 0.0038511031 0.0018949681 0.0029621243 -0.0003686843 -0.0027080374 0.00033224447 0.0026141747 -0.0017990983 0.0005988825 -0.00075967313 0.003138724 0.0012211049 0.0014135982 0.0035579416 0.0024943086 0.0016426757 -0.0026389281 0.0010494281 0.0035861412 0.0038800796 0.0012493908 -0.0038652318 -0.0011340478 -0.0011529735 0.00037036237 -0.0023749475 -0.0023273514 -0.003157212 -0.0027966376 0.0016499554 -0.0035054781 0.00046815054 0.001461491 0.0013885031 -0.002113233 0.001961896
22 0.00242614 -0.001595214 -0.0037027248 0.0017725824 0.0026100425 -0.001516011 0.0027266638 0.00044930837 -0.0024361326 0.00060195394 -0.0025079323 -0.001949044 -0.0022559308 -0.0033449947 -0.00016426858 -0.0013941827 -0.00047980802 -0.0014427763 0.0017339975 -5.3601994e-05 0.00066817104 -0.0024098814 -0.0010970001 0.00035982765 -0.0021081776 -0.0010337009 0.0038978232 0.0020635277 0.0014956532 -0.0014628449 0.0021505533 0.0030637973 -0.0006661333 0.0015124714 0.0029266756 -0.00233436 0.0030044673 -0.002440065 0.0034785464 -0.00032142157 -0.00095319265 -0.00074903935 -0.0024825821 0.0012018932 -0.0011294128 -0.00024658485 -0.0017425056 0.0031290725 -0.0035747623 0.0014879609 0.0001746923 -0.00012678796 0.00057674554 0.0036980016 0.00369773 0.0010391258 0.0037926945 0.003444321 -0.0005264572 0.0016442675 -0.0034030888 -8.495574e-05 -0.0024571475 -0.0015392026 -0.0025636102 -0.0005001639 -0.0005772083 -0.0025236183 0.0032350013 -0.0029833268 -0.0037971835 -0.0004224631 0.0010274597 0.0018463845 0.0008396207 0.0024981787 0.001484656 0.0034940578 -0.00016719973 -0.002604274 0.0028176894 -0.0007886083 -0.0015381856 0.0005036329 -0.0031207704 -0.0019133603 -0.0012178438 -0.002183439 -0.0024070689 0.0010486846 0.0037443973 -0.0017453582 0.0035745478 0.0035142333 0.0015975393 0.002039001 0.0010416673 -0.0012333762 -9.4628616e-05 0.00093427056 -0.0016340589 0.0013752409 -0.00019057625 0.0022690217 0.0017970953 0.0010421673 0.0027116188 -0.0012094234 0.002470495 -0.0021852634 0.0022416755 0.0024063536 -0.0039010255 -0.0038739438 -0.003626438 0.00067242864 -4.6939815e-05 -0.0010549709 0.0028661971 0.001222335 0.00019113481 -0.00033531545 -0.0024229214 -0.0019697312 -0.0013508047 -0.0030810793 -0.0009394255 0.00036355
15 -0.0032223074 0.0031743827 0.0019700371 3.440039e-05 -0.0024353992 -0.0034715624 -0.00290333 -0.0008652997 -0.0022973423 0.003821487 -0.00034030256 0.0016515394 -0.001172372 -0.00045825331 0.00037143056 -0.00016336514 -0.0013921887 -0.0025043972 -0.003192326 -0.0022592621 -0.00033796288 -0.00067830086 0.0034639698 0.0016325768 0.0005864989 0.0018015235 0.0011964429 -0.003740721 0.00015141642 -6.2480576e-06 0.0026221704 -0.000823947 -0.0015379442 -0.002230445 -0.003647325 -0.0007247125 0.00095434993 -0.0020605691 0.0036098082 -0.0020591167 -0.0036335667 0.0017042148 -0.0010277362 0.00058721815 0.00071167294 0.0030482875 0.0018760527 0.0004575591 -0.00037446892 -0.0027041687 0.0035737695 0.002524227 0.0023541495 0.0004889345 0.002694979 -0.0011453776 1.6117154e-05 0.0036185228 0.00049183075 -0.00029940266 -0.0035776803 0.0030166502 0.00051742507 -0.003171839 0.0033763724 0.0012497632 -0.00311341 0.0019035123 -0.000729221 6.1034705e-05 -0.0033942815 0.0026559727 -0.0032049285 0.0014347427 0.00016727754 -0.0011483233 -0.00029878656 0.0024403627 0.0015631035 -0.0007134448 0.0033125174 0.0011411397 -0.0003413086 -0.002963625 -0.0030232293 0.0035879754 0.0025651997 -0.003321242 0.0023575765 -0.00015112589 -0.0033745044 0.0023291826 0.0013716221 0.000932808 -0.0032420105 -0.0016801159 -0.0015949382 -0.0038328227 0.0014877112 0.00013219015 -0.0010187166 0.0031699212 -0.0021582716 -0.002929371 0.0033850477 0.0022731598 -0.0025533638 -0.00022747295 0.00093722524 -0.0031946886 -0.003769307 -0.0008962661 -0.0013662521 -0.00027246965 -0.0026831084 0.001626899 0.0012449288 -0.0028957557 -0.002611775 -0.0027387533 -0.0031233898 -0.0023763818 0.0027984788 0.000108442764 -0.0010717643 0.0025742317 -0.0036728003 -0.0021044412
77 -0.003323228 -0.0031503232 0.0017572448 -0.001571857 0.00168885 -0.0030217485 0.00065587135 0.0034466211 0.0021357823 0.0025451672 -0.0018002073 0.003117362 0.00035643583 -0.00095465226 -0.0033310433 -0.0007605218 -0.0011821714 0.0028885219 0.0011785335 -0.0028278572 0.0029063642 -0.0014682129 0.0033845329 0.003790368 -0.0022304116 0.0030657626 -0.002399573 -0.0012679755 -0.002613762 -0.0012214076 -0.0012062984 -0.0016237549 0.003392565 0.0009394342 -0.0025896237 -0.0011408644 0.0007985631 -0.0010533689 0.0024697166 -0.0020594506 -0.0016468241 -0.0011694842 -0.0030731405 0.0022865513 -0.0028183393 0.0038048266 0.0008669895 0.0002816013 0.003138391 0.00092268677 0.0039039184 -0.003088011 0.0010838463 0.0017484525 0.0031844156 -0.0010673295 -0.0016879458 -0.00044384456 0.001805864 -0.003697569 0.003898808 -0.0020324676 0.0023157443 -0.0032397087 -0.001958916 -0.0033600766 -0.0032139602 0.0010715914 -0.0012137342 -0.0025206213 0.0017453326 -0.00043505317 0.0003630777 0.0005234751 -0.00097632024 0.0028484461 0.001949437 0.0015653463 -0.0022400902 0.00097253843 -0.0012086475 -0.0014828705 -0.0023737052 0.0027385605 -0.00041602846 -0.0006880319 0.00045238074 0.0011943127 -0.0018455695 0.003862826 -0.0020677284 0.0028534513 0.003027303 0.0033698906 -0.0004562442 -0.0024818573 0.0036293042 0.0017272715 -0.0029255121 0.0026970261 -0.0021160578 0.000701807 0.003435386 -0.0018916682 0.0024531751 0.0005055086 0.0014162018 4.419589e-05 0.0032120117 -0.0010881168 -0.002904764 0.000611825 0.0019517875 -0.0019094733 -0.00064253336 -0.003655991 -0.0013618626 0.0030416457 2.5852916e-05 0.0023016175 -0.0029006389 0.0008597513 0.0027499837 -0.0010171197 0.0010196065 0.00069895503 5.8500606e-05 -0.00059316814
65 -0.0033294728 -0.0033501384 0.0004576017 0.00011469996 0.0029506036 0.0034463175 -0.003903433 -0.0013128805 0.001480716 -0.0012815985 -0.0030831804 -0.0012683187 -0.001490883 0.0010421706 0.0038489643 -0.0026741924 0.00094603805 -0.0027563327 -0.000820502 -0.0018953271 0.0015837552 0.0029526518 0.0035571218 -0.0035944479 0.0023617493 -0.0012290623 -0.0029303974 -0.00039900548 0.0031900029 -0.00024099859 -0.0032948696 0.0030851779 -0.0013441418 0.0024472894 0.0014303687 0.0037254822 0.0016363272 -0.0013412008 0.00023252993 0.0022209568 0.00090559036 -0.0027696965 -0.0007271116 0.002444086 -0.0022480274 -0.0023384185 -0.00028922016 0.003334292 0.0032217645 0.002634597 0.00064704346 -0.00054780924 0.0009858861 0.0014973729 9.8384065e-05 0.0017982763 -0.0034466558 -0.00031477268 0.003148999 0.003889418 -0.0017363206 0.00020812034 0.003004596 -0.0034669903 0.0028844706 0.0009839741 0.0034888699 -0.0021172625 -0.0035097795 -0.0016825107 -0.0021567924 0.0033023735 -0.0008361056 0.0021850658 0.002945834 0.0031679661 -0.0021820744 -0.0023552075 -0.0016403443 0.00061563187 -0.0027872843 -0.0030155599 0.0020175804 -0.0012851526 -0.00071608013 -0.00052903395 -0.0016132392 -0.0038364842 -0.0024331186 0.0005810082 -0.0027002268 -0.0031884026 -0.0028566935 0.002578503 0.0035174168 0.0033350873 0.0038402404 0.0008207953 -0.003854208 0.0033912335 -0.0005504386 0.0032313913 0.002495763 -0.0020371983 -0.0023150623 0.0032824918 0.00083767815 -0.0014673126 -0.0013411822 0.0017174181 0.001040118 -0.0037709554 -0.0027636972 0.002396606 0.002674979 -0.00081519515 -0.0021241994 -0.0037765617 -0.0015432171 -0.0009047092 -0.0026873094 -0.0038976686 -0.0020189225 -0.000700469 -0.0015057306 0.00049157947 -0.0030361884 -0.002632668
32 -0.002744396 -0.0007812615 -0.001262414 -0.0007658781 -0.0013610173 -0.00042843 0.003791411 0.0018065054 -0.0031290387 0.0015449313 0.0021789619 -0.0037203303 -0.0013418542 -0.00035958376 0.0013015837 -0.0031774242 -0.003018073 0.0012846013 -0.001171561 -0.0024614655 -0.002589338 0.00022740805 -0.0014454592 0.0025863678 9.3831644e-05 -0.002962961 0.0029965094 -0.0012665739 0.00065719074 0.0029021704 -0.0012972128 -0.0021769535 -0.002840784 0.0033046412 -0.00088212785 0.002682848 -0.0021155956 0.00061570335 -0.0008246887 0.0005321021 0.0024636236 -0.0011214918 0.0028027266 0.0011296864 -0.0010555295 0.002597196 0.0024253416 0.0037454134 0.0027300948 -0.00056757807 0.0017548556 0.0036511908 -0.0031801073 -0.001787431 -0.0017399301 0.0032286667 0.00052819535 0.00022689636 -0.00067677733 0.00042808993 -0.0025229703 0.0011614508 0.0016630739 0.0005182623 0.0012072223 0.0024379354 -0.003164121 0.00020711937 0.00096865 -0.00033189857 0.0039057212 0.0023712537 -0.00014451415 0.0035750603 -0.003759352 -0.0022283234 -0.002548503 0.0036664424 0.0006060316 -0.0025780038 0.0022707244 -0.0038579367 -0.0035287852 0.0037535685 0.0034002203 -0.00011537847 0.0029186585 0.0020326388 0.0026173617 -0.0019325955 -0.0038398076 -0.0037858915 -0.003871145 0.0015380777 -0.002759637 0.002133464 0.0031134046 -0.003789498 -0.0004974175 0.0026523883 -0.00106365 0.0017404926 -0.003418945 -0.0006854075 0.0022837927 -0.0033821273 -0.0019609195 0.00287084 -0.0010880667 -7.69927e-05 0.001985625 0.0032932935 0.001415065 -0.0006724466 0.0013988696 0.0009794808 0.0018137296 0.00084371876 -0.0033906621 0.002925869 0.002354149 -0.0032647687 0.0013216595 0.0030184416 0.0001252357 0.001059836 0.003584033 -0.00048035287
59 0.0005109809 0.0001497909 -0.0011300973 -0.00014626357 -0.0013279719 -0.002254188 -0.0006189302 -0.002133685 0.0023977282 0.0024419278 -0.0028832364 -0.0017322804 -6.34644e-05 0.0027112858 -0.0020869507 0.0021428908 -0.0024661447 0.0015565843 -0.0033918137 0.0019894592 0.0028007387 0.0012691645 0.0021403742 -0.0031930343 -0.001670111 0.003314101 -0.00040577608 0.0007220916 0.0026458108 0.0027452756 0.0021771195 0.0010521775 0.0019366934 0.003770001 -0.0039035333 -0.003286908 -0.0035775136 -0.002656422 0.003738842 -0.0022469286 -0.00054125296 0.003446486 0.00058035797 -0.0006927495 0.0018450607 0.003485333 -0.0017245157 0.003402629 -0.0014293817 0.0008764142 -0.00079392607 0.0034727978 -0.0008551118 0.0022824144 0.0004744348 -0.0015356366 -0.0010074225 -0.0012903552 0.0015285348 0.0014838948 0.003368537 0.0019409128 -0.0034867977 0.0020371336 -0.0016183226 0.0002736265 -0.00223253 -0.0018772571 -0.0011325722 -0.00026833467 0.0011290807 -0.003641511 0.0004479326 0.0006071434 -0.00049572246 0.0011293505 -0.0017285245 -0.0015792229 -0.0026555639 -0.0028805658 0.0022794402 0.0016685331 0.0018100658 0.0010948882 -0.002569461 -0.00014484061 0.00023913114 0.003752223 0.001815101 -0.0029732555 0.0036837205 -0.0027648804 0.0014044696 0.0008258617 -0.0026125535 0.0022569983 -0.002816745 0.003296051 0.0025058442 -0.003773499 0.000480043 -0.00029197315 -0.0006599125 0.0028390947 -0.0027450258 0.0025503687 -0.0014954696 0.0004747162 -0.0011486298 0.00032565376 -0.0007899283 0.003560791 -0.00226496 0.0016638669 0.0006574666 0.0012347825 -0.00073147326 -0.0010369493 -0.0006257288 0.0019130736 -0.0036056684 0.0015312918 0.0007971843 0.003782473 0.0037681658 0.0032508918 -0.003779126 0.001960072
56 -0.0014606152 0.0012131268 -0.0015035273 0.0011997801 -0.0027190822 0.0015412332 0.0011515311 0.0015395301 6.311171e-05 -0.0013335791 0.002198977 0.0028928039 -0.0036616228 0.00015370818 -0.0010091875 0.0009082063 -0.00033336855 -0.002591103 -0.0028612297 0.0036140077 0.0028470017 -0.00040282766 -0.0019580782 -0.0026417833 0.00049975596 -0.0027074977 0.0011861945 0.002809595 0.0028756277 -0.0017321199 -0.002930451 -0.0014393327 0.002986758 -0.0009897209 0.003862681 -0.003241647 -0.0036174126 0.002100931 1.1097319e-05 0.0024325484 -0.0012322802 0.0021993467 -0.0036073187 0.00046396226 0.001345318 0.00021680786 0.003162453 0.0033678578 0.0035442847 0.0023520149 -0.0038238578 -0.0010382743 -0.002861094 0.003330688 0.0012103783 0.0008023168 -0.0021196404 -0.0036448755 -0.00016482748 -0.0015460151 0.0037111475 -0.0018913813 0.001682542 -0.0011158782 -0.0013843946 -0.0017980877 0.0038732756 -0.0015268719 0.0018347297 -2.8616167e-05 0.0036937855 0.0036989965 -0.0002061484 0.0016631953 0.0024022767 4.873102e-05 -0.0030895525 -0.003253744 -0.0013822085 0.0025751707 0.0001872597 0.0014488093 0.0027412043 -0.00053596176 -0.001479719 0.00080699904 -0.00048547226 0.0017762685 -0.00027526554 -0.0022540872 0.0004730601 0.0027237462 -0.0004999627 -0.0031575372 -0.0016412945 -0.0018783147 -0.00075650564 0.0017525414 -0.000427236 0.0013034568 -0.0019675707 -0.0008858317 -0.00045342624 -0.0027414097 0.0028056933 0.0023357223 0.0038569495 0.0025111951 0.0031908175 0.002452468 0.0012529858 0.003497614 0.0014588117 -0.0037217422 -0.0023403852 -0.0011839498 -0.00036616894 0.00040189916 0.0021181116 0.0018207978 -0.00015881653 0.00056135596 0.00051068026 0.0009587041 0.003353326 0.0020285998 -0.0010008825 0.001758373
83 0.0010850404 -0.00035679352 0.0013891568 -0.0037174851 -0.0003035795 -0.003437903 0.002487849 -6.8262605e-05 -8.718492e-05 -0.003102476 -0.0026786034 -0.001742094 -0.0033229156 0.0021173074 0.0025304519 -0.00036313414 -0.00079245085 -0.0018809588 0.00022472492 0.003141747 -0.0015497475 0.0014985928 0.003736092 0.001527123 0.0014315278 -0.0035759686 -0.0011224682 -0.0017006854 -0.0038874347 0.003474071 0.0012241589 0.0028563216 0.0017841578 0.00038120252 0.0019990178 0.00023355459 0.0029862963 -0.0037258863 -0.0009757428 2.0279016e-05 0.00044650302 -0.0038973938 0.0017931389 0.0025732443 0.0016777379 -0.00077757373 -0.0021838504 0.002744961 -0.0011011169 0.00087689003 0.0026529564 -0.002370591 0.0016801554 0.0025989853 -0.0034953614 0.000709581 7.055594e-05 -0.00032701026 -0.003089527 0.0037258528 -0.00020923562 -0.001923963 -0.0025534048 0.00045699166 -0.0024768244 0.0036320114 0.00072286185 0.00046139248 -0.002928546 -0.0014179627 -0.0033166679 0.002065727 0.0007571773 0.0034632694 0.0021196897 0.0034838454 -0.0026807436 1.564756e-05 -0.002014688 0.0017122056 -0.00073062757 0.002795529 -0.0011759399 0.00032476717 0.0014065438 0.0018910519 0.0032524038 -0.002580679 0.0005332564 -0.0013760631 0.0016626072 -0.0038101708 0.0029069383 0.00038307247 0.0028212185 -0.0016980135 -0.0010717481 0.00019169223 0.0035930842 0.0037577054 0.003149392 0.0021404151 -0.0020166584 0.001950844 0.0010104082 -0.0017421771 -0.0036268737 0.0025594323 -0.0033380028 0.0038905602 0.0038119387 -0.00080792047 0.0002740618 -0.0011560366 0.0038099608 0.0030505694 0.0031581786 0.0013404279 -0.002135229 -0.001261686 0.0012284392 -0.0015754065 -0.0036215433 0.001440873 -0.0015465188 0.0012429237 0.0021177186 0.0012341625
75 -0.002743657 0.0032400594 0.0019308327 0.003413277 0.0033156043 0.0021080775 0.0032804147 -0.0019331584 -0.002575646 -0.0025292195 -0.0035095364 0.00045878044 0.0011138686 -0.0028281019 0.0020381103 0.0034160437 0.00015382335 -0.003097467 0.0018281725 0.0033861846 -0.0013679094 0.0037939872 0.0032115986 -0.0017430536 -0.0025423784 -0.0016281076 0.0023585218 0.0031954718 -0.00071980146 -0.001162246 0.00031868034 0.0020825767 0.00018118513 0.0008493388 0.0036193307 0.0031691098 0.003212386 0.0005156869 -0.0024569668 0.00022652786 0.0011218685 -0.001580432 4.980554e-05 0.0025010551 0.0034944364 0.002635892 0.00070480444 -0.0010988439 0.00062062655 -0.00058604736 -0.0031823 0.0014634022 -0.002245582 0.003708354 0.003311254 -0.0016233915 0.0027661393 0.00057682925 0.00049310003 -0.0010788755 -0.003706652 0.0037238142 -0.0032428745 -0.0037292028 -0.0023906857 0.003445129 0.0021790813 0.0008128601 0.0026077407 0.0022861187 -0.0027803194 0.0011791703 0.0034540258 -0.0020805893 0.00045804915 -0.0038999224 0.003048831 -0.0037651712 0.0023684145 -0.0015470657 -0.0022317767 0.0014682153 0.0038253912 0.0035854355 -0.002721691 -0.0030413126 0.0036496301 -0.0012987879 -0.00070550805 -0.002710749 -0.0031570166 -0.00036245375 0.0027400618 0.0011529708 -0.0005380539 0.0031667212 -0.0021488008 -0.0029906954 -0.002766138 0.0016152998 -0.0017568102 -0.0031704782 0.0018653185 0.0032021513 -0.0020107536 0.0031622932 -0.0016416283 -0.00017768939 -0.002216965 -0.003792257 -0.0009943306 -0.00085591903 0.001186234 0.0022402985 -0.0027167376 -0.002018166 -0.0029523904 -0.0034390402 -0.0035770442 0.0022910465 -0.0036569727 -0.0028320365 -0.0026716564 -0.0034059642 0.00028912642 -0.0020551176 -0.0003006115 0.003326858
29 0.00065576803 0.0034646275 -0.0025173025 -0.0004609806 0.00347673 -0.0026998222 -0.0036435763 0.0018458423 -0.00062464003 -0.0030872978 0.0019313063 -0.0012624995 0.0031607924 0.0038023375 0.0022597162 -0.0031917423 -0.0024222294 -0.0038048674 0.0013274471 0.0033031723 0.0027577125 0.00028454687 -0.0037483606 -0.0004369551 -0.003399322 0.0010804316 -0.002280759 -0.001076276 -0.0007992733 -0.00291069 -0.0024843416 -0.00097627705 -0.0032562942 -0.0038579474 -0.00330989 0.0015332121 0.0023650038 0.0030398935 0.0010135007 -0.0033913434 0.0029634966 -0.0004129493 0.0037757966 0.0006754923 -0.0014116943 -0.0014504663 -0.0022526747 0.0014507318 0.0022804013 0.0033544877 0.0009822168 -0.0038985023 -0.001567431 -0.0017235973 -0.0011969715 -0.0030591872 -0.0012554463 -0.0010419904 0.0005316997 0.0024499698 0.0024530566 0.001281398 -0.0032721965 -0.0014203271 -0.0016596641 0.001325654 0.0026657574 -0.0029845494 -0.0011834325 0.00036069952 -0.0007954506 0.0006487375 -0.00073214667 0.00037599096 -0.0029115407 0.0009058386 7.9528756e-05 -0.00084007106 -0.0038574026 -0.00033905712 -0.00041238213 -0.0010241453 0.0007682536 -0.0026426073 -0.0021699828 0.0030092539 0.002302649 0.0004915688 -6.1985316e-05 -0.002086515 0.0010220796 -0.0012474136 -0.0014769064 -0.00083182845 0.0013726434 0.001961003 0.0017664754 0.0034957442 -0.0027542654 -0.0021839296 0.0011479245 0.0015808349 -0.0021840823 -0.0004585432 -0.0036369055 -0.0006513774 -0.00019916453 -0.0030597225 -0.0023130514 -0.0020181197 -0.0030974643 0.003861086 -0.0030828274 -0.0033361851 0.0023793646 -0.00268109 0.00044430202 0.0014580338 0.0014717878 -0.0008161192 0.003173211 -0.0024327568 0.0038565819 0.0017146469 -0.0038319323 0.0009276588 -0.0024093688 -0.0005597402
21 0.0016425428 -0.0031525958 0.000624255 -0.001128828 0.0012642265 0.0025429982 -0.00010557871 0.0016508084 -0.0024434158 0.0015204849 -0.0024076798 0.0018916276 0.0030939074 -0.0019990166 0.0014753693 4.012703e-05 0.0038552962 -0.000478724 0.002965902 -0.00087872054 -0.00040887453 0.0013423838 0.0029025793 -0.0026841054 -0.00033639252 -0.00019465966 -0.0015182903 -0.0021457197 0.0031539602 -0.00055343186 -0.0030250892 -0.0021195984 -0.00038150253 -0.0030228663 -0.0038627791 0.0014890968 -0.00026080295 -0.0031026676 0.0008202115 -0.0025990454 -0.00059473736 0.001810498 -0.0010838091 0.0011860499 -0.0031206221 -0.0007828461 -0.0026561439 0.0018252248 0.0003080726 -0.00011889162 -0.003558623 0.0023773764 0.0013388317 -0.00039229004 -0.0011720533 0.0003547322 0.0030367689 0.0038843313 0.000718428 -0.0003529202 0.0023276997 -0.00089877413 -0.00163588 -0.003396326 -0.0036984384 7.871951e-05 0.0032009915 -0.0022917767 0.0011325177 -1.2836297e-05 -0.0030882359 0.003415076 -0.0017888963 0.0021525663 0.00020767028 -0.0025208574 0.0016889421 -0.0027069042 -0.00028540127 -0.0015763658 -0.0035616434 -0.0020086174 0.00071960496 0.0032444445 0.0024318257 7.0412556e-05 0.001313983 0.0035200843 -0.0016890153 -0.002451659 0.002769726 -0.0009672955 -0.0038514694 0.003036703 -0.003402028 0.0036770832 0.0036013457 0.0016683697 -0.0031254306 0.0011976656 0.00037845422 -0.001995854 0.0032964677 -0.0036104892 -0.00022917234 -0.0012004193 0.0021649043 0.0034163487 0.00092972576 -0.0003021404 -0.0022952973 -8.330345e-05 -0.0023710208 -0.0004482104 -0.002759141 -0.0014251823 0.0023367137 0.00047457966 0.0021033627 0.0031765956 0.0035442857 -0.0011067829 -0.0036009774 -0.003294554 0.00039093156 0.00015188199 5.5792654e-05 0.0009477372
85 -0.0016521466 0.0007649082 -0.0038768137 0.0034539963 0.0037156697 -0.0015152679 0.0005549101 -0.0010425599 -0.002607228 0.0029609834 0.00143654 -0.0023019775 0.0029046277 0.002782566 7.0982765e-05 0.0005035643 0.0015439237 -0.002080991 0.0014936799 -0.00032366184 -0.0030075219 0.0035271267 -3.3929296e-05 0.0023793958 -0.0020955834 0.0027215232 -0.0022159745 -0.003022823 -0.0013342833 0.0014671857 0.0011823671 -0.001326345 0.0028440338 0.003437105 0.00046250972 0.003298351 -0.00072889193 -0.0035148251 0.00085149764 -0.0035619084 -0.0009671922 0.0003687181 -0.0023870843 0.0018391862 0.0021328423 -0.0006601191 -0.0011677797 0.0026939895 -0.0008563667 -0.002348298 0.0038519127 -0.0031457269 -0.0031993687 0.0030500765 -0.0017634045 -0.00060405635 -0.00074296154 0.0003539503 -0.0015850544 -0.00097052834 0.0016922731 -0.0035991368 0.0029469626 -0.0031838364 -0.002513566 -0.00058765034 0.0035326746 -0.0009976556 0.0016577641 -0.0013627653 0.0031168102 0.002110916 -0.0022658624 0.001005944 0.0021488154 -0.000676684 0.0032380596 -0.003482529 0.002121412 0.001953475 0.0012711415 -0.001291858 -0.002283827 -0.002424878 0.0016597132 0.0029167924 0.0037018673 0.0021859852 0.00067303976 0.0014316872 0.0012741187 0.00023893706 -0.0037979211 0.0022552926 0.0011750187 0.0027892618 -0.002356999 -0.0025847133 0.0016748689 -0.0030958075 -0.0011800478 -0.0033288328 -0.0029642729 -0.0031544955 0.00362583 0.0018942475 0.0018276664 -0.0016695104 -0.0015274632 0.001405987 -0.00024384768 -0.0029067835 0.002531512 -0.0001103657 0.00305476 0.0012032915 -0.002451034 -0.00017473631 -0.0011286912 -0.0014199374 -0.0027527642 -0.0011089843 0.0038622667 -0.002455833 -0.003575319 -0.0015358191 -0.0028361066 0.0018562154
53 0.0014523074 0.0014909545 -0.0028721574 -0.0031378886 0.0021448296 0.00038679448 -0.0025144336 -0.0038550496 0.0028373334 -0.003215934 0.0005901963 -0.0022390648 -0.0037625935 0.0024645342 0.0008327308 0.002032146 0.0006742877 0.0019859981 0.0011837141 0.0018982273 -0.0037974978 0.0011374751 0.00014647035 0.0020500384 0.0012590534 0.0023003723 0.000793047 -0.0017913417 -0.0002840768 0.00091942854 -0.0013759221 -0.0011395543 0.0012135993 -0.00094938895 -0.001268322 0.0027990171 0.00028929688 -0.00044822143 -0.0014846958 -0.0009896848 0.0012179209 -0.0026275422 -0.0037850172 -0.0019741065 -0.0007746696 -0.00095424085 0.002811108 -0.0020197788 0.0018053488 0.0025347876 0.001078727 0.0033527208 0.0026471224 0.003454529 0.00085269933 -0.00050571223 0.0014630696 -0.0038523953 0.003249631 -0.0009420968 -0.0038913696 -0.00053138164 0.002283926 -0.0019477602 0.003307546 0.0026294743 0.0006041475 -0.0010056058 -8.198969e-05 -0.0029965467 0.0018623708 -0.00037622688 0.0035986705 0.0012255805 -0.0001418644 0.0009907415 0.00022919741 -0.002874095 -0.0012935904 0.00276835 -0.0034597982 0.0024727092 0.0030390704 0.00087292684 -0.00031757102 0.00071010715 0.0022189561 -0.001838571 -0.0002735713 0.0024051114 -0.0016411238 -0.0014179463 -0.0030732015 0.001737821 -0.0026389593 0.0006584782 0.0019363117 0.002755048 0.0022333825 -0.0036134343 0.003820868 0.0012728872 0.003253315 0.0032382195 0.0027165394 0.0025668612 -0.0033927893 0.0034191157 -0.0019999587 -0.0021909024 0.0007179289 0.000988339 -0.0027987864 -0.00046612238 -0.0037407498 -0.003454327 -0.0036370615 0.00052969897 0.0014967993 0.0023521767 0.0032280823 0.0032979392 -0.0030856528 0.00040920055 3.9206083e-05 0.0007609056 -0.0007635006 0.0036663113
18 -0.00135992 -0.0033122879 0.002682 -0.002440414 0.0033962652 -0.0026204928 0.0035748568 -0.0021938945 -0.0015339513 0.003703325 0.0029304249 -0.0029519268 0.0026724767 0.00044120496 0.0021165672 -3.0748233e-05 -0.0024667468 -0.00228193 -0.0027873202 0.0017553411 -0.0037894812 0.003818506 0.0034533795 0.00016235585 0.003457681 -0.003267526 -0.0019027382 0.0009891919 0.00040862904 -0.0031632816 0.0013728866 -0.0019672157 0.0029476504 -0.0038091682 -0.00031866034 -0.00097318593 -0.00021902291 -0.0004028046 0.0008124251 0.00080875447 0.0034191369 -0.0025850558 0.0003085113 -0.0008843234 1.3958335e-05 -0.0018755983 0.0024847805 -0.00040374568 -0.00019323555 -0.00084976497 0.0023667722 0.001620935 -0.003185504 0.0023876887 -0.0011390351 -0.00047365014 -0.0003870694 0.0030699114 -0.0028875407 0.0031614767 0.0010065826 0.00027166907 0.0006844497 -0.0025640917 0.0016005543 -0.0011132903 -0.0016629639 -0.0024247041 -0.0022177463 0.0037188595 0.00019212655 -0.0007071273 0.0006928607 0.0037511496 -0.0034944357 -0.00016398946 -0.003579458 0.000832449 0.00088533247 -0.0021791928 0.00050644326 -0.0002641429 0.0034055987 0.002998668 -0.0004858454 -0.00090397743 0.0006597397 -0.0025429223 0.002293865 0.0033980093 -5.363054e-06 0.0032241778 -0.0015151997 -0.0010897372 5.549616e-05 0.0010654122 0.0028006933 0.0032779626 -0.0021872718 0.0023835509 -0.00072658993 -0.0027622676 0.0033130783 -0.002984019 -0.0016909684 -0.0004791332 0.0037935611 0.0019007599 0.0021479037 -0.001235568 0.0038053049 -0.003883208 -0.00052643905 0.003255606 -0.0006567981 -0.00306484 -0.003634997 5.224251e-05 -0.0009659042 -0.0013814255 0.0036860832 0.0012308416 0.003596413 -0.0033766965 -0.0007319081 0.003392808 -0.0011849488 0.00039594015
57 0.0028197584 -0.002464335 0.002037534 0.0032537626 -0.0038154381 0.0035923943 -0.0011067254 0.0022435312 -0.0029141514 0.0006161754 0.0027061205 0.0002668641 0.003686341 -0.0035358625 0.002864626 -0.0003685711 -0.0012963011 -0.00088999025 -0.002598831 0.0018273207 0.0031536173 -0.002030674 -0.0011801942 -0.00044626635 -0.003148238 0.001443125 0.002684072 0.00038434172 0.001731883 -0.0006235792 0.0019598398 0.0022313863 0.00042162943 -0.0005912367 0.0038845865 0.001270619 0.0033712746 -0.0010663839 -5.4715932e-05 0.0002516545 0.0031620741 0.0029282973 0.00320137 0.0004677011 0.0018238832 0.0027431922 0.0009065692 0.0026185184 -0.0007404622 0.002887815 0.003864225 -0.003599911 -0.0013970584 -0.0016913437 -0.0026488916 0.0021669406 -0.0009541655 -0.0007358314 -0.0025750317 0.002369891 0.00337967 0.00038431742 0.002746089 0.0024071939 0.001131428 0.0037916885 0.0031848664 0.0033217953 0.0016285089 0.00017036847 0.001266724 0.00018333102 -0.0030454686 0.0025795659 0.002224572 -0.00067168137 -0.0011782428 -0.003648848 -0.0030183913 -0.0030279309 -0.0038841313 0.0017129629 0.0023804514 0.002091254 -0.0032292705 0.0013042878 -0.003308706 0.0028271086 0.0037418606 -0.00062505313 0.0030851443 -0.0034753159 0.0015345971 0.0010716182 0.0018298372 0.0006757979 -0.002436471 -0.0035714637 -0.0015714243 -0.0029451028 -0.0020236433 -0.00051641586 -0.00084481307 0.002398085 0.0035982402 -0.00020685369 -0.0018064557 -0.0023998367 0.0015669469 0.003487377 -0.00042444165 0.0037003902 0.0018749479 0.0016851891 0.0029812874 -0.0013408298 -0.002524313 0.00053623895 0.003337747 0.0007005139 0.0013800297 0.0033885362 -0.00015650781 -0.0006320698 0.0025263368 0.0031585393 0.0016899798 -0.0030295115
30 0.0019592312 0.0037641197 0.001794982 -0.002857742 0.0039032022 0.0010923836 -0.0024008995 -0.0029561883 -0.0022704701 0.0008793775 -0.003347869 -0.0020478377 -0.0028501223 0.0035465 3.6170964e-05 0.00247419 0.0009806863 -0.0016320046 -0.0009777867 -0.0018841276 -0.0007906099 -0.00056806416 -0.0034549006 0.0035673983 0.0035225854 0.0026198823 0.00074034627 0.0032406894 0.0028081762 -0.0013461801 0.00048231764 0.00026445437 0.003417547 -0.0006804963 -0.00047244565 0.0029328342 -0.0019363771 -0.0037374778 0.00082812156 0.0026100944 -0.0016957395 0.0035993445 0.000691443 0.00015947822 -0.0031096353 0.0032307643 0.0016764321 -0.0023666427 0.0018080444 0.0013164568 -0.0006583942 0.0022026794 0.0005129226 0.0017981124 0.0026254004 0.0038835094 -0.00040266424 -0.002784123 0.0036779798 -0.00075604586 -0.0027140763 -0.0010973365 -0.0019175566 0.0024529465 -0.0014448536 0.001418312 0.001327292 -0.0029654694 -0.00062827783 0.0011861208 -0.0023042622 -0.0019976804 0.0037046738 -0.0014639494 0.00024428323 -0.0006817728 0.0034763964 -0.0029747167 0.0038753154 0.0020824734 0.0005398403 -0.0020179488 0.0011567224 -0.00023210014 -0.0032339334 -0.00023742658 -0.0020423855 -0.0013698993 0.0022459677 0.0031813227 0.002938484 -0.0016336287 -0.00301841 -0.0022207585 -0.0005644645 0.0019422218 0.0024594397 0.00070057483 -5.3546366e-05 -0.0028299585 -0.0015539292 -0.0018011729 0.0010963969 -0.0026511583 -0.0021406363 -0.0030834682 0.0037961053 0.0019441849 -0.0022166355 -0.0032922458 0.0038379892 0.002505943 -0.0026759594 -0.0038561951 -0.00040088868 0.0011462212 0.00029837462 -0.0035777676 0.0033200886 0.0015286474 0.0019658792 -0.0013486365 -0.0022069158 0.002431983 0.0005452177 0.002835641 0.00024900632 0.0028438275
67 0.00073227193 0.0037663938 -0.0012192031 0.0019781587 0.0030361707 0.002509893 0.002707842 -0.0008127421 -0.002714069 0.0014333122 0.003051373 -0.0017547974 0.0006316217 -0.0018285952 -8.621403e-05 0.0036727842 0.00033610035 -5.252079e-05 0.0009127141 0.0011192737 -0.002959351 0.0037671495 0.0016204846 0.00053222425 -0.0003002381 -0.0006549733 0.0020103683 -0.0025814476 -0.0029724468 0.0022700296 -0.002127396 0.0026065242 0.00096175954 -0.0015538192 0.0028764645 -0.0026867457 0.002196885 -0.0025726017 0.0010841171 0.0008757458 0.0015155019 0.0008739079 -0.0038953787 -0.0014728797 -0.0008320944 0.0012709334 -0.0008543829 0.0016127111 -5.0803625e-05 -0.0031445327 -0.0016134857 0.0021775167 0.00077507657 0.002754989 0.0027503963 0.0023206172 -0.0034259055 0.0037433808 -0.0024476738 0.00066297984 -0.0006581297 -0.0020392875 -0.00096072647 0.0021212199 -0.00029190554 -0.0003835881 0.0025657276 -0.0008827223 -0.0023338818 -0.0017718337 -0.0018441769 -0.0017457475 0.0037274258 -0.0034710558 0.0022907378 0.00028882764 0.0025167193 -0.0024962367 0.000104601255 0.0022760676 0.0008392775 -6.800199e-05 -0.0023415035 0.0016383803 0.00038058512 -0.00092266814 0.002567211 0.0006365505 0.0015353282 -0.0011052795 -0.00026635523 -0.002724788 -0.0014303894 0.0033234244 -0.00012810456 0.00084701885 -0.001820587 -0.0034096714 0.002664191 -0.00059248635 -0.0019558005 0.0013473151 -4.597543e-05 -0.0027432754 -0.0024869002 0.00076493755 -0.0007726633 0.0037043157 -0.0013865328 0.0010041881 0.0030485932 -8.154468e-06 -0.000730923 0.0028837211 -0.0019330714 -0.0021290528 0.0036545235 -0.0007981644 0.0017495067 0.0032172543 0.0010614529 0.0018862754 -0.0033071684 0.003829032 -0.0021282597 -0.0006068212 0.0022317374 -0.0036430184
16 0.0027313777 -0.001023277 0.0007422803 -0.003106874 0.0031822433 -0.0030327167 -0.002795898 -0.001327394 -0.0024573859 0.0038446884 -0.00081398094 0.00033481017 -6.839304e-05 -0.003224607 -0.0023149801 -0.0027524962 0.0005180151 0.0008846095 0.0006994298 0.0029662445 -0.00043039626 0.0031773078 0.0032249512 -0.001457343 0.002217954 -6.665888e-05 -0.0031361636 0.0013297288 0.0020470682 0.0007505527 -0.0031633945 0.0018288167 -0.00090842217 0.00023352692 0.0021597988 -0.0033031253 0.0008272451 -0.001220166 -0.0017459025 0.00025652614 -0.0010718079 0.0015418527 3.462872e-05 -0.0018628368 0.0024387236 0.0020445134 0.0010424759 -0.0014839972 -0.0011458994 -0.0018102054 -0.0023318203 -0.00040716305 -0.0014652027 0.003853082 -0.0019880112 0.0012577979 -0.0022148816 -0.0032259962 -0.0032140485 0.0010680228 -0.0003932684 0.0020566564 0.002687414 0.003591633 -0.00013765295 0.0037345758 0.0015953066 -0.0013423472 -0.0009522589 0.001851151 0.0028838592 0.002382123 0.00320731 0.0026739826 -3.2993594e-05 0.0032072 0.0008245058 0.0023962401 -0.0012794684 -0.0020915165 -0.0030254312 0.0030006568 -0.0016904228 0.002794461 0.0011255984 0.0018743143 7.073455e-05 -0.0038816254 -0.0010300033 0.0016093755 -0.003434486 -0.0036472804 0.00092709437 -0.0015159425 0.0031122495 -0.0036618616 0.0023482577 -0.0005926886 0.0024876639 -0.0034710183 0.0037706671 0.001785274 0.0008974547 -0.0021452203 -0.0038878075 -0.0026946927 -0.0014921027 -0.0015802708 -0.0021640556 -0.0010476932 -0.002386802 -0.0009040157 0.0019324202 -0.0002452703 3.835412e-05 -0.003224251 0.0024772175 0.0017098193 -0.0010992787 0.0024311678 -0.0018979587 -0.0019285912 0.0012940279 -0.00046734564 0.0027272196 -0.002799937 0.0009958565 0.003010592
63 0.0025565294 -0.0027214042 0.0025707225 -0.001678146 0.0027459094 -0.0030272221 -0.00032207588 -0.0009604546 -0.0022391237 -0.0025557182 0.0018478534 0.0026854733 -0.002534211 0.0028351757 -0.0012666499 -0.0014847654 0.0020311202 0.0005212935 -0.0022898216 -0.0021375366 -0.00022385581 0.0033586135 -0.0027898615 0.0010958917 -0.0026091083 0.00027070736 0.0012403551 -0.00096968573 0.0013356544 0.0017675724 -0.0014213783 0.0004901687 0.0010317243 -0.0034878573 0.00019188676 -0.0019556342 0.0010210496 0.0013288476 -0.00018708101 0.0026757533 0.0029519377 -0.0030541841 -0.0009980297 -0.002440054 0.0011558051 -0.0016508548 0.0007940974 -0.003765314 -0.0020270161 -0.0012347632 0.0031303882 0.00023377949 0.002676199 0.0013184226 -0.0026766136 -0.0027814165 -0.00024721495 0.00095479336 0.0017744921 0.0022001788 0.0037395253 -0.0021384151 -0.0010429594 0.0020995918 -0.0037752592 0.0035697771 -0.0018563741 -0.0022053057 0.003819743 -0.001552686 0.0005020171 -0.0005901177 0.00075791305 -0.00090837275 0.002354548 0.0030378536 0.0010081354 0.0024740598 -0.0018096922 -0.0036915466 -0.000111822046 -0.0010095214 -0.0017316868 0.0019834037 0.0035249891 -0.00013779062 -0.0012045077 0.0026511757 -0.0024597556 0.0026317767 0.00013465274 0.0033596808 -0.00021638472 0.0010981781 -0.0006502824 0.00022648525 0.003046214 0.0028795993 0.0038592038 0.0036036903 0.0036308884 0.0038484966 0.0036356081 -0.0019048811 -0.0037803063 0.0010802977 -0.002633646 0.00030989782 0.0035089292 0.0034522435 0.0009026267 -0.0012121446 -0.0032242136 -0.0022381158 -0.0012549746 -0.0022915364 0.0027161546 -0.0023864724 -0.0029254137 -0.0021206855 -0.0012353964 0.0019976923 -0.0018115392 -0.0034177124 -0.0025838115 -0.0018331858 0.0012427492 -0.003425254
55 0.0027463017 -0.0033085728 0.0015914922 0.0012176223 0.00024722988 0.003384475 -0.0029085027 -0.0036839333 0.0024127683 -0.002994758 0.001990301 0.002186516 0.0015547144 -0.0029650696 -0.00013080993 -0.0006268489 -0.0014389319 -0.0032954249 -0.0019359973 0.0019634187 -0.0023228736 -0.0025962193 -0.000973261 -0.002925118 0.00022062831 -0.00044695128 -0.00091157947 0.0028319198 -0.0021437963 0.0028729807 0.0013262713 0.0017881371 -0.0033413628 0.000498347 0.0038850207 -0.0015580114 0.0038386222 3.0500956e-05 0.001669745 0.0002300683 -0.0020190624 0.0038816028 0.0031257318 -0.00023951141 0.0029212176 -0.0009402914 3.4884015e-05 -0.0012954669 -0.0006840919 0.0036418964 0.0005102858 -0.0006993236 -0.0038076544 0.002018712 0.0009294771 -0.0034415086 -0.0007101133 0.00083765585 -0.0028692514 -0.0030212323 -5.3725555e-05 -0.0005134816 0.0026679537 7.785425e-05 0.0031438586 0.00083732296 -0.0020030811 -0.0019859758 -8.5350184e-05 -0.0013597007 -0.0013681735 0.003438332 -0.0028492038 0.00044812774 0.00061416376 -0.0030383482 -0.003769702 -0.003012439 0.0028640777 0.0013795665 -0.001845302 0.0016956379 -0.0025789416 -0.0004295423 -0.00017130634 0.0019007075 0.0037735656 0.003461712 0.0012258943 0.0014530085 -0.0013226983 -0.0005024714 -0.0037329898 0.002010166 0.0008647736 -0.0033971658 0.00085154595 0.0018201359 0.00024972658 -0.0015252795 -0.001527762 -0.00280583 0.0034096243 0.00097137666 0.0014093043 0.002116066 -0.00059610273 -0.002935945 0.0012545418 -0.0035488575 -0.0011076127 -0.00020686461 -0.0035359182 0.0027008408 0.0031947638 0.002784441 -0.00089271396 -0.0022676422 0.0022979388 0.002101095 0.0031186612 -0.002087027 -0.0024598136 0.0033423884 0.0015287581 -0.0025336635 -0.003596303 0.00061688345
58 0.0011946193 0.0037634177 0.0022441435 0.0016701533 -0.0029071756 0.0012643028 -0.00028090822 0.0027706197 -0.0022221874 -0.0019890256 0.0022762439 -0.0019635174 -0.0008990934 0.0004262141 -0.0033958268 0.0029599348 -0.0035963338 0.001156648 -0.00038762865 -0.00025254584 0.001725978 0.003769693 -0.002240951 0.0031404442 0.0034565446 -0.0024385473 -0.0008995437 0.0031526184 0.0025387502 -0.0028675757 0.00024550987 -0.0020735387 -0.0020030495 -0.0014638418 0.0026366906 0.0026084168 0.0018827426 -0.0017503075 0.00050838036 -0.0038576878 -0.0015761722 -0.003730072 -0.0010555151 0.0027697578 -0.0014215894 0.0037699584 0.0035398342 0.0004941454 0.0017125484 0.00066885655 0.00028510837 -0.00085462077 -0.0023326902 0.001999098 -0.0020890739 -0.002746905 -0.0013781394 0.0030219979 -0.0027222077 0.0038094223 -0.0019806288 -0.0018485903 0.002666046 0.0028166862 -0.00022582477 0.0015617801 -0.0019313073 0.001702944 -0.0034131764 0.0017970083 -0.0021575852 0.0030239401 0.0006902528 0.0009042576 0.00133447 -0.002470902 -0.0018726592 -0.0012515633 0.002358185 0.002854605 -0.00037514666 -0.0023562866 0.0032989362 0.0028393264 0.0023931502 -0.0001100043 -0.0034125354 0.0008213508 0.0026397929 -0.0032446992 0.0017925244 0.001285094 -0.00052343536 0.0031199593 -0.0026002682 0.0017637701 -0.00087874226 -0.0026458139 0.0036765833 0.0006700493 0.0011692127 0.0033596007 0.0010578474 0.0018816632 -0.0015711043 0.00024840538 -0.00017618388 -0.0004825371 0.0030777426 0.0005252997 0.00066235976 -0.002990237 0.0016475029 -0.00037979498 -0.00044119117 0.0014307349 0.0032247212 -0.0025957134 0.0018202983 -0.0024476652 -0.0026083863 0.00012405204 0.00034148648 0.0027465622 0.0006747884 0.0013396407 -0.003050358 -0.0015073649
20 -0.0027005689 0.0009889351 0.0023615882 0.0015151539 -0.0026078383 0.0019801175 0.00063353195 -0.00010724267 -0.0019374413 -0.0007664425 0.003322167 -0.0036757775 0.0024727054 -5.733548e-05 -0.0013713314 0.001088384 -0.00026077824 0.00087388704 -4.5293356e-05 0.0036746492 0.0012399842 -0.0017960187 -0.0006049927 0.00041531344 -0.002664903 0.0004606537 0.0008007961 0.0017906802 -0.0024815106 -0.001724752 -0.0013257313 -0.00107024 -0.0038202098 -0.0020095506 -0.00088031736 -0.0014706611 -0.002852281 0.0022767552 0.0016488152 -0.0015294149 0.00061469537 0.00035615533 -0.00068307976 0.0021074826 0.0037342643 0.003536491 0.0015309907 0.0019408142 0.0014140399 0.0019176255 0.0014531197 -9.9600446e-05 0.0023451191 -0.0035933936 0.0006212936 -0.0002687753 -0.0003451306 0.0010671063 0.003737335 0.0023377226 0.0032073648 -0.0010246992 -0.0038808123 -0.0033688354 0.0007582889 -0.0011293582 0.0027546408 -0.0021279478 0.0013580379 0.0012416643 -6.530347e-05 0.0005646313 -0.0028821144 -0.003782621 0.0031369885 0.0019119823 -0.00023646472 -0.0033701542 0.0015650007 0.003165616 0.0022978266 0.0020182543 0.0026140634 -0.00250634 0.00037349155 -0.0026721722 0.0012775651 0.0014365289 -0.0006034307 -0.001804786 -0.0019977388 -0.0014086652 -0.003180305 -0.0037588207 -0.00031131876 0.003198219 0.0029525787 0.0018031758 0.0010533243 -0.002309336 0.0022799734 0.00014607642 -0.0031753231 -0.00199343 -0.0026602682 -0.0006790787 -0.0036850863 0.0011031348 -0.0026462409 -0.0012771368 -0.0025748955 0.0022210565 -0.003846311 0.003369337 0.0032417893 -0.0026751223 0.0007188514 -0.00061226805 -0.0025715204 0.002629047 0.0008224883 -0.0006427708 0.0010362687 0.0003770463 0.00029994067 0.00084351253 0.00021426994 0.0028612842
68 -0.0021099611 -0.0022157189 0.0017055548 -0.00093215675 -0.0036271708 0.0020614502 0.0017478636 0.0034045328 0.0013971697 0.001524838 -0.00097502314 0.0032413793 0.0025484255 0.000591825 0.0008043658 -0.0026339716 0.00031959606 -0.003513806 -0.0017275723 -0.0019323012 0.001567293 -0.0033042945 0.0010507222 3.7234934e-06 -0.0029326817 0.00067601405 -0.0037332508 -0.0019621402 0.00090576935 0.0019878943 0.001788791 0.0035051485 0.0024493942 0.0015138381 -0.00049298 0.0023325102 -0.0034448467 0.0020378083 -0.0011500728 -0.000101181984 -0.0017987086 -0.00069200987 6.1033177e-05 -4.9097994e-06 -0.00076358445 -0.0021065043 -0.0027235653 4.2598263e-06 0.0012820654 -0.00025266956 0.0038074737 0.0038481918 0.0012080781 0.0021492154 0.00023451193 -0.0019193721 0.001006286 -0.0009154504 -0.0033753228 0.003364001 0.0002979114 -0.003212986 -0.0037075507 0.0018021574 0.003135211 -0.003463446 0.002551008 -0.0030532065 -0.0026834356 -0.0016544943 -0.0028842392 -0.0023950317 0.00047705704 -0.0032166047 0.003129071 -0.0029508073 -0.00092674035 0.0030488751 0.0001887827 0.0026893818 -0.00082641136 0.001857661 -0.0027451254 -0.00021549432 0.0017530815 6.0363573e-06 -0.0014961299 8.313197e-05 0.002173779 -0.0033686014 0.003024542 0.0034593022 -0.0019398213 0.00072796416 0.0025670158 0.0029351206 0.0038407696 -0.002512889 0.0012070659 -6.876504e-05 -0.0014430343 0.003473728 -0.00240286 -0.0032976416 0.002868626 -0.0015276317 -0.000301415 -0.001275649 -0.0037008289 0.0024540375 0.0016750244 0.00037802916 0.0018846765 -0.0006767654 -0.0026164367 -0.0028181258 -0.0032950633 0.0014448358 -0.00033414553 0.0015596129 -0.002984625 -0.0005150272 -0.0031825728 0.0024947894 -0.0020251034 0.003105993 -0.002190107 -0.003465019
81 0.0021301582 0.0019798523 -0.0024478477 0.0018381055 0.0019821262 0.0016527387 -0.0012639473 0.00043874234 -0.0021807996 0.003121673 -0.0016181383 0.00056567125 -0.0019659784 0.0034322932 -0.002979742 -0.0014792405 0.00025548143 -0.0009344343 -0.0006665256 -0.0014703574 0.0014674863 -0.0023549325 0.0031373566 0.0030185406 0.0030202386 0.0015735108 -0.00297617 0.003292049 -0.00048093902 -0.0024633803 0.0027704863 -0.00017023712 -0.003320007 0.0036229265 0.0025110177 -0.0033093002 -0.0029531575 -0.0012330909 0.00041699497 7.441218e-05 -0.0022197813 -0.0035410007 -0.0035860399 -8.261454e-05 -0.00045122026 0.0026982077 -0.0009385816 -0.0027336641 0.0037109794 0.0024611456 -0.0034563497 -0.002356962 0.0016187173 0.00034824453 0.0022198225 -0.0031310678 0.0031708179 0.0026277392 -0.0034620091 -0.0010199876 -0.0036496012 0.0002601921 -0.0014651588 -0.0036722764 0.0007686824 0.00072286563 0.0027325128 0.0026169256 0.0001313645 0.0023512559 0.0031908723 0.002453625 0.001816284 0.003460095 0.00047524556 0.0008219342 -0.0024525882 -0.0014723841 -0.00048325508 -0.003776981 0.0030668087 0.0010615973 -0.002717177 -0.0018427526 -0.0036927136 0.002718314 -0.0032037909 -0.003820064 -0.0010845737 0.0017239919 0.0011636454 0.0021332083 -0.0037439426 0.0017369689 0.0009462748 0.003664431 -0.0027926802 -0.003201473 0.003246457 -0.00011785323 -0.0038073189 0.002132476 0.0038324418 0.0022748506 -0.00062445755 0.0024815847 -0.0023327412 -0.002847589 -0.0015398228 -0.002230588 0.0023504265 0.00016140922 0.003078492 0.0030896913 -0.003484073 -0.00030887927 -0.003849953 0.0033195906 -0.003536805 -0.001045119 0.00036059553 -0.002269374 -0.0003526003 -0.0017082888 0.0015134406 0.0026333102 -0.002406255 0.0029448401
66 0.00109754 -0.0034192372 -0.003821703 -0.0021712275 -0.0003333633 0.003437429 -0.0036610998 -0.0032064468 -0.0006836954 0.0015229967 -0.0037152905 -0.0023896906 -0.002571097 -0.001472719 -0.0019486498 -0.00084573735 0.0031551549 0.0033102655 0.0021322456 0.0038371657 -0.0028369366 0.0031907393 0.0031954574 0.0025118438 -0.0012340745 0.0028563607 -0.0013613321 -0.0010516448 -0.0036318896 -0.0035711022 0.0030679358 -0.0019454367 0.000219349 0.0023417575 -0.0014334888 0.0008051372 0.0032283748 0.0015740995 -0.0025064761 -0.0034676087 0.0028312604 0.002052003 -0.0023882976 -0.00035751684 0.003094175 -0.001644376 0.0026274603 -0.0021310581 0.0016610214 -0.0021434228 -0.00044251114 -0.0008014693 0.0008725314 -0.0004711613 -2.9895897e-05 -0.0036197586 0.0036394824 0.00019061573 -0.00092683116 -0.0036304519 0.0024046449 0.002926129 -0.001554988 -0.00029625042 0.0013165823 -0.0037018426 -0.00091379695 0.00076197006 -0.002193521 0.0010244554 0.0005389509 0.00230984 0.0007966862 -0.0016025882 0.0013594446 0.003020942 0.00389985 -0.0009129836 -0.0035475926 -0.0024048379 0.00038311724 0.002776181 0.0005997375 -0.00027306704 -0.0010669446 0.00061003974 0.001781781 0.0027469234 -0.003535672 0.0008130731 -0.0006360222 -0.0008543676 0.0038450127 0.0022898528 -0.0039003107 -0.0014311362 0.0012862392 -0.002968644 0.00055175624 -0.003280367 -0.0021085483 0.0012946029 -0.0013038192 6.0446295e-05 0.0033861452 0.0022659195 0.0013808426 -0.0030954753 -0.0033002568 -0.0014602605 0.00027291416 0.000973596 -0.002330225 -0.0009862183 -0.0032271754 0.0005939544 0.0014954607 -0.0017452409 -0.0022969933 -0.0016878024 -0.0011961715 -0.0019484587 0.0027217132 0.001216149 -0.0009900696 -0.003492501 0.0013988953 -0.00044773053
84 0.0014639684 -0.00066106365 -0.0018208044 0.0028833202 0.002265668 -0.00078109774 0.0037093754 0.00077203533 -0.0037598438 0.003282288 0.0024252157 -0.0033134378 0.0029330861 0.0011935822 0.0015393093 -0.0023334124 0.0013656106 -0.0027936501 0.0029592286 0.0014822836 -0.0018964949 -0.0037044669 -0.00331253 -0.0003821274 0.0006737399 -0.0022548505 0.00020584065 0.00064813765 0.003798811 -0.0013371649 0.0014865035 -0.0034583353 0.00332052 0.0011173326 0.0028043361 0.0012893516 0.0029776094 0.0037039393 -0.001287386 -0.0033462564 0.0036800066 -0.0023158344 -0.0008029889 0.0015502432 -0.00067389355 -0.0019167507 -0.0006353109 0.0017663045 0.0019036846 0.0020275677 -0.0023777194 -0.0032904127 -0.0024358907 -0.0009902775 0.0023007193 -0.00012406852 0.0032091474 -9.866739e-05 0.0003469147 -0.001923481 -0.0028519006 0.0032728866 -0.0032021264 -0.0037995845 -0.00071059616 0.0033371188 0.0028974796 0.001704203 -0.0022904607 0.00050361705 0.0016461276 0.00016706542 -0.000699756 -3.1322114e-05 0.003747533 0.00042172926 -0.0016392021 -0.0030501229 0.0037676403 0.0016968001 -0.002502648 0.0011306942 -0.0004922008 0.0010848389 0.003038072 0.0005489187 6.3195585e-05 0.002569691 -0.0013690961 -0.0004322383 -0.00079914095 -0.0034919223 -0.0014313677 -0.0019027496 0.0035273347 -0.0029454362 0.0026248195 0.003453406 0.0020754167 0.0036661439 0.00029463027 0.0038536312 -0.00092621695 0.00096798094 -0.00019244508 -0.0019727668 0.000887492 0.0013043627 0.0031506189 0.0017129848 0.0006582475 0.0029762948 0.00063834275 0.0025399236 -0.0033089959 0.0019133182 0.00087477587 0.00067951507 -0.002532936 -0.0020170065 -0.003647706 -0.00028958073 -0.002879952 0.003075288 0.00067301496 0.00044510863 -0.0016487492 -0.0034850321
64 -0.0036809198 -0.0024858129 0.0022009176 -0.0020895943 -0.0016056463 -0.0026517627 0.0022131174 0.0025376922 -0.0008401631 -0.0031349277 -0.00031493208 0.0009495784 0.0011470903 -0.0010964131 -0.0024350712 0.001634961 -0.002080432 0.0010969568 0.0037795503 0.0031446991 -0.000627145 -0.0022653197 0.0017190829 -0.001965128 -0.0018174845 -0.0011720578 0.00231378 0.0023276254 0.000526801 0.0011918311 0.00024142677 0.0009906368 -0.0003582328 -0.00017367609 4.0598434e-06 0.0030778153 -0.001249032 0.003618513 -0.0029539294 -0.00020679216 -0.0010808314 0.0011131748 -0.00043191717 0.002055467 0.0027789094 0.0018840139 0.0029360538 -0.002813853 -0.0024283272 -0.0013867709 0.00021117646 -0.0001620383 0.0016310916 -0.002362465 -0.0017166695 -0.0024310842 -0.0009396129 -0.0029803673 -0.0019802516 0.0030574398 -0.0033635974 -0.0022911439 0.0020942509 -3.1212374e-05 0.0035394097 -0.0007267227 0.0005086235 -0.002109993 0.0032012023 -0.00084066717 0.0007742105 -0.0036054724 -0.0033319262 0.00361845 -0.003064059 -0.00046336517 -0.0029880733 0.0021297631 -0.0027861355 -0.0027117399 -0.001017561 0.0003517126 -0.0024430382 -0.0011331337 -0.00037631826 0.0012853972 -0.001384166 0.0027143285 0.0019933644 -0.00025126178 -0.002000919 -0.0013005794 -0.0013676594 0.0021318889 0.00064375624 0.0007646737 -0.003596844 -0.0011830851 0.0019546305 -0.0030643172 -0.002246719 -0.0022734562 -0.0010904883 0.0020412605 -0.0012565885 -0.0009389628 -0.0025952845 -0.00028145462 0.0019026212 -0.0029093921 -0.001087214 0.00080085156 0.00014355805 -0.0031587302 0.0012479409 -0.0006683761 -0.00022573207 0.0017191884 -0.0002463107 -0.0018611512 -0.00021479085 0.0017916721 0.002180691 0.0016508097 -0.00088937976 -0.000374843 -0.0035937037 0.0031028062
26 -0.0017675975 -0.0018289842 -0.0032797616 -0.0030025963 -0.00059749396 -0.0019473677 -0.0036547782 0.0035170398 0.0027543239 0.0019229695 9.706315e-05 -0.0021054528 -0.0015195248 -0.0016211346 -0.0020932304 0.00018481538 -0.0011314935 -0.00053420616 -0.002633608 -0.0037674573 0.00057953474 0.002425006 0.0025820143 0.0017529574 0.0030447606 0.0017800747 0.0019125706 0.0013448115 0.0034876065 0.0025703434 -0.00035588205 -0.0013659676 0.00016451061 -0.0030624126 -0.0019104101 -9.976489e-05 -0.00310015 -0.002757124 0.0024799656 0.0019730532 0.00074874377 -0.0034629258 0.0034064252 -0.0004623923 0.0013947143 0.003297799 -0.003381213 0.0020002043 -0.0029776455 -0.0036306093 0.0009553683 -0.0036568628 0.0033311383 -8.120266e-05 0.0028381476 -0.0016616053 -0.0027906175 0.0012023802 -0.0019763818 -0.0028061038 0.00051651726 0.0033226078 -0.0003938234 0.0017448707 0.0014363118 -0.0015058859 0.002269238 0.0028841705 0.00020899545 0.0026840912 0.0011043407 -0.0038283076 0.00338184 0.0008554755 0.0005857418 -0.00050447026 0.00072248303 -0.002835321 -0.0025028775 0.0027550564 0.0031898275 0.0028563037 -0.00011275934 -0.0010391019 0.0035802422 -0.0034710618 -0.0038878198 0.00040312912 -0.0029830015 0.0030063586 -0.0026969702 -0.0036785346 -0.0028799914 0.0016657179 -0.0027202598 0.0027431585 0.0027824258 -0.00063821 -8.792999e-05 -0.0028585945 -0.0018767474 -0.0004981215 0.0026171887 0.0023610254 0.0035726787 0.0011457651 8.078952e-05 0.0025812115 0.0014061135 -0.00021378914 0.0014314841 0.0007940868 -0.0013458667 0.0010423495 0.0008356877 0.002212968 -0.0032374812 0.0010180898 0.00076760666 0.0011651075 -0.00011389009 0.00036490973 -0.0019554724 0.0028218215 -0.0016025451 0.0031748868 0.0021775546 -0.0012145268
2 0.0009436613 0.0014259383 0.0024859002 -0.0035699862 0.0018713479 0.0027555677 0.003169299 -0.0023258217 0.0037375588 -0.002063387 0.0038146933 0.00037083076 0.00040626698 -0.002717233 -0.000927441 0.0038289828 -0.0038462179 0.002323538 -0.0026313476 -0.0015356333 -0.0035763911 8.923985e-05 0.0019802384 -0.0025583946 0.001146452 0.001679278 0.002902763 -0.0016470206 0.00368309 0.0037772253 -0.0013683158 -0.0018927937 -0.001090666 -0.00079664215 6.2738372e-06 0.0027776037 0.0029057811 0.003617984 0.0025973239 -0.0029887701 0.0014177426 0.0016563378 -0.0008387093 -0.00015230254 0.0016584557 -0.0017910368 -0.0036648107 -0.001990926 0.0013234166 0.0029516798 -0.0009732657 0.0035336122 0.0035390402 0.0018932126 -0.001716186 -0.00062762346 0.0014116449 -0.00375526 -0.002509778 0.0020193998 -0.0013868992 0.0026359272 -0.0017565874 0.0013153241 0.003053251 0.0006530742 0.00019348017 0.0033309404 0.0033953872 -0.0022398536 0.003472154 -0.0032872718 0.0022039663 -4.171122e-05 0.002526355 0.0012106615 -0.0024406174 -0.003087139 -0.0005589726 -0.0028418757 0.0024428598 1.41396995e-05 0.0024411222 0.0019517584 0.002080128 0.0004481635 -0.0020117038 0.003401966 0.0007299553 -0.0012198783 -0.0017764146 0.0013307475 0.0024273358 -0.00042765393 0.0025958277 -0.001652031 -0.002583211 -0.0027234112 0.0002973518 0.00247029 0.0026908163 1.4149028e-06 0.0020115608 0.00044741775 -0.0030750239 0.0034223155 -0.00032592766 0.0034662797 -0.0024907873 0.001076348 0.0037937 0.001126755 0.00022999187 -0.0010803272 0.0021115583 0.0010660172 0.0031088428 -0.003341479 -0.0026808346 -0.00036525866 -0.0027011377 -0.00020952706 -0.0012507016 0.0024001843 0.00021056629 0.0023293912 0.0025683208 0.0018150455
91 0.00047672293 0.0031319943 -0.001412091 -0.0014823452 -0.0017867878 -0.00050412474 -0.0034330671 0.0012526896 -0.0032031126 -0.00067992636 0.0022081176 -0.0028111665 0.0022964242 0.0028314944 -0.001996425 0.002256346 -0.00059397577 -0.0033692229 -0.0031785977 0.0034179403 0.0012131276 0.0020547411 0.0032695932 -0.0036106657 -0.0023353735 -0.002515349 -0.00086742255 0.0009023929 0.00128336 0.0024859116 0.001740593 -0.0030779114 -0.00015082251 0.0013364585 0.0018543531 0.0006717138 -0.0037561248 0.0021634565 0.0035081792 0.0002360546 0.0012163328 0.0011886546 6.496855e-05 -0.0012047116 0.0036366265 -0.003639706 0.00036206105 -6.810103e-06 0.0032846658 -0.0006611842 -0.002850692 0.0031038178 0.0024671513 0.001333221 0.00086064456 -0.0009341321 -0.00051737955 -0.0029166662 0.003314158 -0.0013942607 0.0002139277 -0.0013504246 0.0011640099 -0.003827302 0.0011864699 -0.0032971743 0.0028115837 0.0012204795 0.0018253006 0.0025838376 0.00021480586 -0.0025344084 0.0009613197 -0.002909008 -0.0020132472 0.0009505723 -0.0023759953 0.0023942702 -3.5997093e-06 0.0038656048 0.003466273 0.00088719866 0.0028231342 -0.0011823656 0.0009857371 -0.0038607656 -0.0016772395 -0.0019129879 -0.0033903932 0.0007004185 0.0012919112 -0.0022565129 0.0013396196 -0.0013919714 -0.0017688219 0.0038121447 1.3636733e-05 0.0033231261 0.0006662378 0.0022213939 0.0021430114 -0.0015642961 0.0037367935 -0.0010871809 -0.0029347914 0.0008769925 0.000841506 6.3129795e-05 -0.0010935827 0.0026158672 0.00070070045 -0.0012287536 -0.0013683176 -0.00066925905 -7.043014e-05 0.0003785632 -0.0015774526 0.0007683775 0.0010853331 -0.00019672376 0.003809725 -0.001208303 -0.002153633 0.0026543026 -0.0036355802 -0.0038549423 0.00356567 -0.0022867685
62 0.0030241066 0.0025046084 -0.0020341235 -0.0030739545 0.002656842 -0.0010931741 0.0014527092 -0.0003416552 0.0013613885 -0.00032565356 0.0032559517 -0.0036883487 0.0026972725 -0.0009397284 0.000604695 0.00054280827 0.0026368909 0.0005684044 0.0015106933 0.00032505862 0.0022549722 -0.0038129278 -0.003384472 0.0035851984 0.0005340583 -0.0038680076 0.0030653512 -0.0012390589 -0.0038765725 -0.0035960928 0.0022317127 0.0033475368 0.0019917332 0.0025405865 -0.0030321926 0.0038877781 -0.0030168493 -0.003139112 0.002068668 0.00074033067 0.0010977082 -0.003150534 0.0005491837 -0.0024073466 -0.0035304425 0.0022101775 -0.0006919229 0.00055815856 -0.001706901 0.0025983863 -0.0005084381 0.0031175755 -0.002920529 -0.0029921278 -0.0005376768 0.0027524186 -0.0022677763 0.0013794753 -0.00016311112 -0.0026437286 -0.0030141321 0.003066002 -0.0018985186 0.0025011173 0.002728624 -0.00043597622 -0.0033966694 -0.000886389 0.0002983852 -0.0034643542 -0.0033083668 -0.003595387 0.0018324979 0.003607086 -0.0032363082 0.002534497 0.0038157615 -0.0017029082 0.0010487898 0.0032138694 -0.0029261743 -0.00032418247 -0.0032630328 -0.0020215327 0.0025878795 -0.002161293 -0.00037210548 -0.0009894032 -0.002751068 0.0038980653 -0.0012776235 0.00063905615 0.0010273916 -0.002374367 -0.0031048069 0.0021157463 0.0017648112 -0.0024621445 0.0009401528 0.0022585047 0.0013589573 -0.00038889877 -0.0017724655 -0.0025141153 -0.0025988678 0.0013188869 0.0035075916 -0.0032839342 -0.0018055269 -0.0006370727 0.0027580569 -0.003780217 -0.0032682624 0.0010093321 0.0034465932 -0.0016441762 0.00064678915 -0.000742497 -0.0034327942 0.0037005362 0.0021390454 -0.0030120695 0.0016719353 -0.002444202 0.003644038 -0.0033524965 0.0038599619 -0.0010940144
3 -0.00011136458 9.544482e-06 0.0008128618 0.002927531 -0.002819718 -0.00051662925 -0.002641067 -0.0009160348 0.002851989 -0.0020708335 -0.0026999097 0.0015928092 -0.0029808243 0.0036336249 0.0023143778 -0.0034381563 0.0019746718 0.003437139 0.0003321839 -0.0028619587 0.0030375624 0.003457307 -0.002280236 -0.0019318819 0.00096112554 0.0026361735 -0.003496736 -0.002139128 0.0014528397 0.0033355707 -0.000114965056 0.003299925 -0.001708118 0.0035889887 -0.0014160709 -0.00054686185 -0.0026399822 -0.00246448 0.0031728316 0.0018850279 0.0026375004 -0.001642997 0.00048052793 -0.00052002637 -0.001706691 1.1816601e-05 -0.0027045473 -0.0038302639 0.0023683582 -0.000927038 0.0029788627 0.0032448794 -0.00037057375 -0.0008415106 -0.0027721177 -0.00076118845 0.0019009226 -7.99202e-06 0.0019488779 -0.0001904704 0.00057107006 -0.0015519272 -0.0005280684 -0.0023985733 0.0012714416 -0.0010326584 -0.0005215891 -0.00069686206 -0.0036014484 -0.00043780965 -0.0017443252 0.0011720225 0.0021126927 -0.003594925 0.0016606479 -0.00019955105 0.001658327 -0.002041849 -0.0013923061 0.0007246558 0.002020403 0.0005494183 0.003072095 -0.0036653737 0.0030317903 0.00082659186 0.002314912 -0.0036075683 0.0030177895 -0.0010537283 0.003447207 -0.002863441 -0.0017423045 0.0033716538 0.00082138216 -0.0017133473 -5.1957435e-05 0.0017435978 0.0027679435 0.0026973437 0.0036979076 -0.0037567895 0.0029184811 0.0016032608 0.0026959928 0.0037331355 0.0036928745 -0.0029933238 0.0034772179 -0.0015663812 0.001303261 -0.0021484361 -0.0038668036 0.003005758 0.0012011678 -0.001939367 -0.0019797827 -0.0017327431 0.0001314391 -0.0025897503 -0.0028805502 -0.00057460606 0.0011112757 0.002967479 -0.002248524 0.00046947075 -0.0038591723 -0.0028247174
