34 128
14 -0.040426333 -0.036252417 0.0023945791 -0.0328723 0.055899777 -0.11327268 -0.06104365 0.20524192 0.1100878 0.056826055 0.1939764 -0.04208767 0.022413129 -0.13088454 -0.054338615 -0.14734854 -0.035527013 0.22038056 -0.12587398 0.005517275 0.074945435 -0.07547523 0.07256898 -0.0913468 -0.19551305 0.038478076 -0.047506396 0.12918858 0.041138217 0.038203843 -0.30422843 0.038309835 -0.05991102 -0.015259789 -0.021233588 0.12381882 0.09510137 0.082009174 0.19822025 -0.10995511 -0.029270735 0.19953296 -0.2594839 -0.12812091 0.104301766 -0.00010105003 0.04026217 -0.19005466 -0.0743385 0.08177511 0.07902898 0.013647064 0.121839166 0.19832632 0.28848305 -0.019309146 0.1094216 -0.08025585 -0.09266444 0.041327756 0.01040305 -0.016649188 0.12650318 0.038866423 -0.010634677 0.05937028 0.068455115 0.15931523 -0.057434764 -0.04725159 0.00864942 0.026505543 -0.060069162 -0.04326451 -9.889069e-05 -0.09299832 0.1298383 0.04284751 -0.047332294 0.14383034 -0.029962992 -0.043405138 0.15094578 0.06879934 0.115260206 -0.06161412 0.31737605 -0.103391096 0.14393388 0.06369403 -0.043333713 -0.10826237 -0.13212529 -0.007058799 0.17846666 0.017381636 -0.24998172 -0.3210987 0.11687337 -0.11293056 -0.24452883 -0.008675112 0.06838717 0.0045937453 0.11782623 -0.031841695 -0.1019504 -0.21733215 -0.018245438 -0.076547965 0.007134843 0.08524966 0.0011639135 0.19184634 -0.0068693524 0.089098684 0.03533162 0.03822797 0.12437833 0.27533457 -0.00024150408 -0.03152426 0.13994397 0.04328741 0.11759139 -0.2008103 0.061329424 0.01730723
21 -0.016121166 -0.006458167 0.02413318 -0.053119693 0.060797323 -0.10656992 -0.035142586 0.15537895 0.10201131 0.070760496 0.16945538 -0.0474039 0.019242179 -0.1307419 -0.04378473 -0.117800154 -0.023583863 0.18429308 -0.08727962 0.029614162 0.089917116 -0.039451875 0.09583712 -0.06901223 -0.18272234 0.07300952 -0.052099265 0.11346149 0.10117366 0.023188818 -0.2833554 0.063388914 -0.10651368 -0.013932482 -0.049692087 0.095554456 0.10405052 0.10812367 0.20546003 -0.110163815 0.0012482284 0.19042838 -0.20592453 -0.13593137 0.10976525 0.030575935 0.020946115 -0.19584 -0.08339166 0.07808683 0.082771905 0.008549814 0.14211628 0.17841136 0.22759709 -0.0012800773 0.11097392 -0.040921155 -0.08164317 -0.017713957 0.027685063 -0.037579678 0.12103973 0.0459302 0.03442564 0.00174946 0.07501632 0.119490586 -0.025399825 -0.050242685 -0.003347655 0.034475204 -0.06882556 -0.0071851695 -0.036842793 -0.0909472 0.081477046 0.07070539 -0.049162757 0.19817382 -0.025879271 -0.064116895 0.08769339 0.069480024 0.13830782 -0.055422436 0.30102515 -0.10094954 0.164282 0.07636318 -0.05737316 -0.1384322 -0.13814217 -0.022700964 0.1351041 -0.02112163 -0.20805222 -0.2938541 0.08633585 -0.0943869 -0.23052907 0.0033564821 0.052004322 0.016531805 0.09846302 -0.040682863 -0.07855052 -0.22386833 -0.02249681 -0.063266635 0.0131098125 0.05465907 -0.0006515074 0.1444183 -0.030337125 0.07021065 0.0357675 0.07897989 0.15065283 0.24172138 -0.024475867 -0.029305164 0.09943097 0.058227733 0.072795205 -0.21651351 0.020537429 -0.008077646
23 0.0008855707 -0.0007899196 0.02096041 -0.062147703 0.071527705 -0.12499618 -0.017105138 0.15620136 0.09059829 0.08387684 0.18989886 -0.078052215 -0.00019803739 -0.13851413 -0.019286644 -0.11637049 -0.0032551242 0.16722983 -0.09528343 0.052429013 0.124418795 -0.014409724 0.11675818 -0.04046367 -0.1920281 0.09330678 -0.069577694 0.110622294 0.13470875 -0.0025717975 -0.32058063 0.06699347 -0.11321912 -0.027926939 -0.07147702 0.09148824 0.12663803 0.11570915 0.21886295 -0.10867706 0.0069782767 0.18865596 -0.17541878 -0.14424334 0.10131186 0.04752352 0.0039013457 -0.19261438 -0.06684239 0.09239686 0.07863942 0.014849016 0.18860312 0.17152713 0.20937406 0.024855811 0.12607457 -0.022634434 -0.08494858 -0.028415542 0.039067082 -0.050739672 0.11371414 0.050584853 0.066358276 -0.02299472 0.09857903 0.10475753 -0.02612306 -0.05134031 0.017339287 0.037505157 -0.08029813 -0.00031859442 -0.048050366 -0.09732281 0.044422068 0.06999555 -0.046802215 0.24437763 0.00021855744 -0.09591077 0.051858332 0.09975416 0.14142905 -0.043091808 0.2962036 -0.09693829 0.17880158 0.07568089 -0.05394007 -0.15770482 -0.13037531 -0.02200233 0.1318384 -0.028416824 -0.220358 -0.2894635 0.054064278 -0.093304545 -0.23281358 0.0070518805 0.04895796 0.04550281 0.10985835 -0.05132764 -0.036592994 -0.23104471 -0.024299257 -0.08093038 0.016851652 0.038235962 0.003685815 0.11628066 -0.034424525 0.050617762 0.032387014 0.1155072 0.16725197 0.22770263 -0.040554237 -0.028784698 0.08035225 0.06718515 0.05818825 -0.21928978 0.011743442 -0.0146644665
25 -0.005116178 -0.009853661 0.02955504 -0.048615005 0.064877056 -0.119369 -0.03865151 0.1508584 0.09822991 0.06973497 0.17907383 -0.06864651 0.014161873 -0.13963622 -0.03471072 -0.119021736 -0.021167386 0.16734004 -0.09727149 0.035175465 0.10317904 -0.02364902 0.10135384 -0.04960446 -0.1908825 0.087488 -0.06275209 0.10959774 0.099290185 0.012809573 -0.29556358 0.0572935 -0.11023793 -0.011960492 -0.050491825 0.089995086 0.11034981 0.10013204 0.21398187 -0.097917005 -0.002495581 0.1822368 -0.18736689 -0.12691315 0.09451131 0.030414334 0.024687832 -0.18504442 -0.076746576 0.07434614 0.08648519 0.0013351868 0.1552556 0.16976668 0.21087474 0.00888251 0.11938754 -0.037992455 -0.09350685 -0.009917266 0.033618808 -0.04392186 0.1190826 0.04609021 0.05070846 -0.014823169 0.0855248 0.11024799 -0.014939322 -0.0511137 0.008050622 0.030446164 -0.08106924 -0.012402853 -0.041727986 -0.09671803 0.06969912 0.0634639 -0.046317607 0.21039292 -0.01740483 -0.077132724 0.083807744 0.08400538 0.12860468 -0.041229453 0.286126 -0.08951931 0.16022196 0.07767658 -0.04806702 -0.13737494 -0.13441746 -0.015906135 0.14043604 -0.032225408 -0.2221149 -0.29584953 0.07205711 -0.09643322 -0.22901426 -0.0070739663 0.051015377 0.03254856 0.09752711 -0.051782247 -0.059998624 -0.22510035 -0.016246295 -0.07140269 0.01272404 0.038134396 0.010817389 0.13665448 -0.035665773 0.06418543 0.020930555 0.09514624 0.15635456 0.22889955 -0.035369195 -0.03237258 0.09176257 0.06700676 0.06775374 -0.21776098 0.013790138 -0.006724886
15 -0.025369015 -0.027497215 0.0045728725 -0.045161597 0.056547508 -0.10148436 -0.04625076 0.16465743 0.08964046 0.057761565 0.16718616 -0.046026763 0.01062374 -0.12751538 -0.035774734 -0.13066567 -0.02111454 0.1847999 -0.09564003 0.010558723 0.07368902 -0.05518143 0.07718831 -0.061166428 -0.17316945 0.058704257 -0.040090207 0.104281634 0.07686292 0.019213062 -0.27806622 0.044072784 -0.08216861 -0.017278008 -0.04020813 0.10516569 0.08950668 0.08960308 0.19121407 -0.108897895 -0.0053428817 0.18233514 -0.22192372 -0.1170116 0.105973795 0.007788458 0.023344683 -0.18683273 -0.07003076 0.074143894 0.078682505 0.0023674234 0.13889985 0.18060721 0.23488654 -0.006597809 0.098935075 -0.059384756 -0.081622116 0.012799673 0.026562031 -0.020378374 0.11743965 0.05042364 0.0072400277 0.024417497 0.066433154 0.13023917 -0.03434349 -0.052408643 0.010496096 0.02256734 -0.062470082 -0.024585748 -0.023853349 -0.077926554 0.08386408 0.05516427 -0.039090097 0.17261226 -0.029251715 -0.05852369 0.113878824 0.06814871 0.11704694 -0.060441487 0.28656927 -0.095341876 0.15269625 0.05898657 -0.04612733 -0.11624135 -0.12506628 -0.011495288 0.14608218 -0.0026789058 -0.21029848 -0.27940705 0.09035789 -0.09704839 -0.21161792 -0.00046662393 0.045568734 0.0120075 0.10672434 -0.031638104 -0.07759568 -0.21071452 -0.015171181 -0.06408222 0.016091568 0.06380087 0.00639325 0.1562468 -0.0234021 0.06763449 0.029594667 0.055111095 0.1378533 0.2462679 -0.012637846 -0.02650491 0.10389312 0.055336755 0.08304439 -0.20289184 0.037322506 -0.0012523972
13 0.011380375 -0.0013234183 0.030259728 -0.061578512 0.07199367 -0.112697676 -0.02509074 0.14675224 0.08770568 0.072701395 0.17546707 -0.08888475 -0.0028056393 -0.14100358 -0.02453074 -0.12653187 -0.0046061906 0.15355277 -0.095689364 0.034745596 0.117890015 -0.015977219 0.12662165 -0.03757274 -0.18886203 0.1047264 -0.062478278 0.10911294 0.13283503 -0.0055945027 -0.3158638 0.075659685 -0.12292576 -0.026279759 -0.07079555 0.07808579 0.12180258 0.12490556 0.21330374 -0.10937538 0.010107032 0.18037143 -0.19144502 -0.13496064 0.1110261 0.04014984 0.01051712 -0.19416659 -0.07762679 0.09787517 0.06671558 0.011299576 0.1861825 0.18017142 0.20236766 0.02077081 0.12906452 -0.022216456 -0.09211793 -0.024808826 0.042074475 -0.048944402 0.13046801 0.057071723 0.06315497 -0.026676627 0.09419467 0.09551259 -0.022843005 -0.059738863 0.014005205 0.038925402 -0.07766804 -0.0007199713 -0.05090812 -0.09012906 0.046654094 0.073677845 -0.05344782 0.23163821 -0.0073866267 -0.08706078 0.054643672 0.08727042 0.13388482 -0.040432278 0.28827515 -0.08998314 0.17227346 0.079095475 -0.060949147 -0.15595873 -0.12490351 -0.024485083 0.12070593 -0.028344039 -0.21253842 -0.2823879 0.050534826 -0.08804874 -0.22492032 -0.0003893274 0.04420469 0.053037357 0.11343722 -0.063423984 -0.046574365 -0.23399219 -0.019336818 -0.072144665 0.008442867 0.027057335 0.010362973 0.11900303 -0.048561435 0.06307905 0.029508753 0.11447404 0.17202993 0.23519322 -0.03381938 -0.036304984 0.08165129 0.075212024 0.060827117 -0.22333704 0.0005997897 -0.009678926
0 -0.010931916 -0.011586489 0.025048694 -0.055532247 0.07269593 -0.11987274 -0.037591234 0.1682823 0.11138699 0.07268134 0.18653885 -0.080351844 0.00688382 -0.14358708 -0.043996986 -0.12396793 -0.014661734 0.18227991 -0.096920565 0.047588542 0.1123302 -0.033830103 0.10694876 -0.060268566 -0.20925292 0.088615604 -0.063999176 0.11408139 0.10937373 0.010299043 -0.31152716 0.0625337 -0.12273883 -0.013864137 -0.05158887 0.10896488 0.12111471 0.11434533 0.22491609 -0.11729189 -0.006475737 0.19891557 -0.20064107 -0.14351927 0.115495615 0.029654162 0.02651827 -0.20087104 -0.086171314 0.08461261 0.08030246 0.008055287 0.17076696 0.1901749 0.23876156 0.0018116774 0.12712938 -0.031189665 -0.09403394 -0.023599634 0.029802144 -0.049092866 0.13210137 0.04440726 0.05179949 0.002880623 0.085075475 0.12045935 -0.028314313 -0.04731498 0.012090755 0.028021375 -0.08355351 -0.0025708482 -0.03967185 -0.101239845 0.07295566 0.06638579 -0.05059435 0.22601435 -0.016903669 -0.08268396 0.086964995 0.08450267 0.14313917 -0.05558015 0.3158752 -0.10178378 0.17593014 0.0778366 -0.049126275 -0.15563942 -0.14526641 -0.0232057 0.15441725 -0.023169732 -0.2405567 -0.30950007 0.072298534 -0.0979777 -0.25041124 0.0013359467 0.042242173 0.035674904 0.120206654 -0.042718485 -0.07356653 -0.2432587 -0.028355155 -0.08295107 0.007878052 0.04788803 0.005780456 0.14108914 -0.028555457 0.06844369 0.041146446 0.09649298 0.16681305 0.24984597 -0.028576367 -0.02892029 0.09638584 0.067627355 0.082999155 -0.23143448 0.0308381 9.146112e-06
16 -0.00089985714 0.0038437587 0.027403448 -0.056800485 0.061756063 -0.1213563 -0.034385316 0.16357052 0.09072923 0.0670607 0.17036426 -0.070257075 0.0049304604 -0.14235286 -0.025019055 -0.12436842 -0.011601982 0.1670169 -0.09449307 0.044993345 0.10901224 -0.034297578 0.11066662 -0.05109468 -0.18564686 0.08893188 -0.06148107 0.11052887 0.121752515 0.0035360593 -0.30528894 0.07339198 -0.111024074 -0.028142381 -0.052608132 0.09069832 0.112648815 0.11782163 0.19725712 -0.101198964 0.0013445324 0.18460566 -0.18837494 -0.12502742 0.107935496 0.040282458 0.010188632 -0.18664806 -0.073915504 0.09169102 0.06866539 0.013304774 0.1717356 0.1799492 0.20965791 0.020035503 0.11283178 -0.020562325 -0.08495499 -0.022047501 0.026596889 -0.040970214 0.12386115 0.045159776 0.04913855 -0.0059402906 0.08993191 0.101454444 -0.026499527 -0.056427624 0.005638416 0.025568375 -0.0747865 -0.009663876 -0.03903746 -0.08748155 0.054966643 0.056723632 -0.045145415 0.2110863 -0.010393569 -0.08460276 0.07570988 0.08415472 0.13544966 -0.049288966 0.28648072 -0.08571668 0.16864847 0.063798524 -0.057958994 -0.14470534 -0.118326254 -0.01117147 0.12129209 -0.01495108 -0.20679827 -0.27497485 0.07300183 -0.09781986 -0.2362792 0.0033900025 0.054207116 0.041623607 0.10892383 -0.052447177 -0.045703247 -0.23198025 -0.030396268 -0.07600384 0.008608569 0.03979463 0.003119607 0.122809954 -0.029797759 0.05492673 0.041924436 0.09241082 0.16030309 0.23447716 -0.029515775 -0.035172403 0.09133482 0.05687062 0.06278199 -0.2167339 0.023347352 -0.013276926
32 -0.036512792 -0.024107033 0.004515744 -0.044450436 0.0665307 -0.10394043 -0.06128069 0.18126827 0.11560822 0.0693932 0.18584739 -0.042154036 0.027134214 -0.13446243 -0.05077523 -0.13307764 -0.034874868 0.19828463 -0.11352731 0.02569107 0.064693674 -0.07133509 0.06572986 -0.08105493 -0.19878279 0.048471924 -0.05439993 0.11247632 0.050274324 0.038048908 -0.28328764 0.044184458 -0.07662096 -0.010014712 -0.014624543 0.11678719 0.08069212 0.08158715 0.18852016 -0.096080884 -0.022822797 0.18402638 -0.22771727 -0.12201716 0.09712288 0.0008929422 0.04035447 -0.17752136 -0.07597482 0.076040864 0.08771772 0.014951989 0.12379562 0.16528489 0.24389213 -0.006258406 0.1059978 -0.054056924 -0.07746145 0.029108083 0.0027749152 -0.016955446 0.11307451 0.041908555 0.0055460287 0.0436448 0.07257275 0.13476196 -0.044188417 -0.041513674 -0.0011842052 0.020719687 -0.052054636 -0.032200385 -0.0070302994 -0.09565139 0.115929574 0.04821489 -0.0407611 0.15402472 -0.024685161 -0.053870272 0.12493943 0.066361316 0.11061989 -0.05913448 0.29257417 -0.087099254 0.13841143 0.056931023 -0.037093088 -0.11074181 -0.1287841 -0.013716946 0.1498894 -0.0022719945 -0.22766018 -0.29990804 0.103658564 -0.11515144 -0.22733073 -0.01647385 0.051176332 0.009550693 0.10644511 -0.029390607 -0.09099532 -0.21280435 -0.015518055 -0.06442168 0.009900298 0.07963218 0.008224409 0.16443571 -0.0211571 0.06897214 0.019570488 0.04158205 0.12683669 0.25947112 -0.0069706487 -0.030252533 0.12352156 0.049969506 0.0974083 -0.18589516 0.05292101 0.0060341703
20 -0.008040668 -0.0094410535 0.010398516 -0.047671232 0.06448419 -0.10167923 -0.038902517 0.15550512 0.10179065 0.06568858 0.1736554 -0.0628151 0.010392268 -0.12689853 -0.02870962 -0.11343899 -0.025238445 0.17183311 -0.09682429 0.035459068 0.08918043 -0.032227658 0.09108053 -0.054036513 -0.18379876 0.075652674 -0.053175204 0.10199185 0.08635318 0.025434768 -0.28394404 0.05126405 -0.087417364 -0.015421974 -0.04916336 0.08933938 0.10584629 0.101402506 0.19650523 -0.102952026 -0.012304816 0.17590794 -0.1859832 -0.12770122 0.09101564 0.020319099 0.019496685 -0.1813543 -0.07259366 0.07172022 0.08219712 0.0014282203 0.14614818 0.17267166 0.21445872 0.0088834455 0.11576064 -0.04244862 -0.08754719 -0.010454703 0.016865714 -0.036084585 0.10958877 0.036146637 0.03266089 0.009761333 0.07968662 0.10969198 -0.03418129 -0.04437588 0.008040006 0.0346449 -0.06590781 -0.004756668 -0.034613 -0.07962016 0.073491886 0.06374491 -0.05054377 0.18355826 -0.013925179 -0.063550144 0.08150108 0.064308174 0.11524886 -0.052385427 0.27556482 -0.087962925 0.14556395 0.07085856 -0.049140215 -0.12480812 -0.12918457 -0.024077563 0.14059749 -0.017352184 -0.21087998 -0.26922017 0.08012818 -0.0996467 -0.21187061 -0.010058418 0.049549665 0.021536384 0.09712125 -0.03954792 -0.058739375 -0.20161302 -0.025700273 -0.07062359 0.017442903 0.054536056 0.0017658072 0.13869865 -0.01841313 0.06225817 0.019815344 0.07274282 0.14386828 0.23360108 -0.017069653 -0.03211779 0.09609325 0.056594428 0.080841646 -0.20523345 0.021999542 -0.0017628467
22 -0.020429874 -0.007713071 0.021112693 -0.051030457 0.06661384 -0.12495664 -0.034075867 0.17379756 0.10448979 0.08145956 0.20019688 -0.07509816 0.016460858 -0.15758878 -0.03501195 -0.13698846 -0.010851087 0.19980326 -0.1029532 0.044512685 0.09902174 -0.03302473 0.099796616 -0.060699165 -0.21577397 0.08204278 -0.071389705 0.11550895 0.10783193 0.012955097 -0.33500472 0.072074935 -0.118866585 -0.026032636 -0.04410114 0.115084015 0.124819115 0.11567571 0.22302476 -0.11922645 0.0011630533 0.20504633 -0.2116672 -0.1372462 0.11834132 0.034778867 0.014120049 -0.2113248 -0.079196565 0.09421812 0.09471668 0.015174505 0.1776095 0.18220226 0.24444455 0.005167191 0.11735765 -0.030804314 -0.09198619 -0.009091707 0.026145041 -0.043907978 0.13274328 0.05441917 0.040481932 -0.001665461 0.08471112 0.12177301 -0.027456973 -0.058813196 0.01086181 0.030823475 -0.08418948 -0.010010492 -0.036171675 -0.099130124 0.08334079 0.06253998 -0.049252864 0.22512393 -0.011519806 -0.07585855 0.0963892 0.093021505 0.14399435 -0.05333998 0.32203233 -0.09685088 0.17868656 0.07432796 -0.054459747 -0.14766523 -0.14191014 -0.01492123 0.15761188 -0.010302763 -0.24194366 -0.31143045 0.08515702 -0.11062477 -0.2471219 -0.00630867 0.057991024 0.036972214 0.120945334 -0.044645686 -0.06327436 -0.2360443 -0.02285076 -0.08335462 0.02169888 0.059605174 0.009594711 0.14973131 -0.03681662 0.06259642 0.041441157 0.08860308 0.1580723 0.2696071 -0.018858641 -0.02793722 0.10448383 0.059527393 0.08729323 -0.23177294 0.032338046 -0.002807996
28 -0.0015868715 -0.016489241 0.023061344 -0.058910787 0.053993665 -0.11783561 -0.039578985 0.16289745 0.098366216 0.06289963 0.17509481 -0.06691085 0.015810346 -0.12389318 -0.026853142 -0.12412884 -0.018187806 0.17083167 -0.0927675 0.02576523 0.102507696 -0.03649685 0.090800025 -0.0524596 -0.17754078 0.07021145 -0.056133177 0.10118773 0.106898434 0.015120335 -0.28906998 0.06013316 -0.08659875 -0.023070075 -0.045051333 0.089931615 0.09974659 0.103690684 0.18320772 -0.10266528 -0.0054066987 0.17237028 -0.18661584 -0.11634928 0.10339754 0.017973175 0.012794066 -0.17761739 -0.055744547 0.08992549 0.06306009 0.01439668 0.14509764 0.16318767 0.20547968 0.016195359 0.10634529 -0.026507834 -0.08369761 -0.0025893555 0.025095807 -0.032293927 0.10609529 0.036776885 0.045158938 0.0023351612 0.07302142 0.09611726 -0.019791404 -0.049360268 0.01217135 0.027160408 -0.0718263 -0.0140425945 -0.027238589 -0.09286398 0.06615905 0.058339693 -0.036155246 0.19473504 -0.015463227 -0.076307505 0.0839252 0.08212899 0.12133899 -0.04061849 0.2668236 -0.09354597 0.1491825 0.064041235 -0.054857343 -0.121552385 -0.11930022 -0.0077328966 0.12635398 -0.0052585253 -0.2014574 -0.264764 0.060712468 -0.08618554 -0.21873848 0.00326424 0.042021576 0.027973074 0.09319824 -0.038180023 -0.057854485 -0.21191281 -0.028330302 -0.06277366 0.01242938 0.044956088 0.0035049843 0.13724172 -0.03683766 0.05626195 0.023861146 0.07510922 0.14075188 0.22693011 -0.026894353 -0.037587497 0.08560883 0.052106775 0.06988359 -0.19024058 0.01802864 -0.0022876067
3 -0.0016881727 -0.014699293 0.011723326 -0.042157874 0.074613966 -0.11737923 -0.04053271 0.17653535 0.10409525 0.07348609 0.16728522 -0.07500232 0.015534563 -0.14711149 -0.03748011 -0.13279745 -0.011108408 0.19339381 -0.10319507 0.033820085 0.11097261 -0.038595263 0.11242494 -0.057790123 -0.19272858 0.077155195 -0.05513431 0.11632494 0.11549949 0.01130359 -0.31339383 0.069515154 -0.10553751 -0.017165223 -0.06713347 0.09711253 0.11120051 0.11218897 0.22026747 -0.11044678 -0.005125001 0.1943698 -0.22102875 -0.13951176 0.10983111 0.030455505 0.016919706 -0.19785123 -0.088244006 0.09693951 0.06817719 0.0053367284 0.17523496 0.2034046 0.23497838 0.006829923 0.11594787 -0.047621094 -0.09758538 -0.007833629 0.035343207 -0.028404346 0.13772005 0.054954946 0.04063623 -0.008818209 0.08493808 0.12397762 -0.023904774 -0.05253521 0.004809914 0.044671826 -0.07638572 -0.009885488 -0.041260205 -0.100438416 0.067296974 0.07758441 -0.058855806 0.22322223 -0.027635118 -0.076430574 0.09228578 0.07515014 0.14758317 -0.053237297 0.31565663 -0.09966768 0.17549585 0.0781237 -0.050586067 -0.1571236 -0.14259675 -0.017678523 0.14465731 -0.018751021 -0.22098345 -0.30858696 0.08086907 -0.09777318 -0.2367049 -0.003923489 0.04559983 0.022515984 0.10746392 -0.05409496 -0.07487287 -0.23310842 -0.01829716 -0.067117654 0.005061031 0.046168458 0.008895485 0.15726568 -0.040973857 0.065955356 0.03825255 0.08934934 0.16613495 0.25830448 -0.031218128 -0.040043853 0.10149952 0.06587926 0.084692866 -0.22590147 0.027296752 -0.00052899035
2 -0.016380413 -0.01312601 0.007512874 -0.04396427 0.0731606 -0.11494284 -0.039179303 0.1885487 0.10904361 0.069805816 0.18833767 -0.0705997 0.023870511 -0.14908108 -0.031503394 -0.1403104 -0.020983996 0.19192742 -0.115514 0.02316163 0.09186366 -0.047199514 0.09064818 -0.073490664 -0.20564632 0.06837366 -0.05121066 0.12368062 0.10326751 0.02767934 -0.31991577 0.06589399 -0.10638907 -0.021379715 -0.055227738 0.11083973 0.108383425 0.113207206 0.2161504 -0.11931768 -0.0036845692 0.19420299 -0.21897423 -0.13423528 0.108094625 0.018578043 0.02023615 -0.2068339 -0.07308 0.088678405 0.08797312 0.0025025299 0.16207094 0.19304663 0.25408813 -0.005132912 0.123497516 -0.0521972 -0.09827141 -0.0030694522 0.022465039 -0.034269266 0.12621102 0.041796494 0.030735955 0.011278819 0.08040503 0.13415037 -0.040652014 -0.05529662 0.0110595375 0.040482152 -0.08199529 -0.012464117 -0.024751736 -0.101356186 0.093642935 0.0568248 -0.0449736 0.2092373 -0.020631377 -0.0764076 0.10299083 0.077758804 0.13813214 -0.056706686 0.32099265 -0.09397757 0.17562918 0.067573704 -0.045541894 -0.1407807 -0.13626054 -0.012736293 0.15243295 -0.006419566 -0.23553188 -0.31547177 0.08279607 -0.10630917 -0.23747833 -0.0044437265 0.056191064 0.02526249 0.117458016 -0.05039204 -0.0738352 -0.24010935 -0.019061284 -0.0648256 0.018010698 0.06675008 0.0121342 0.16690929 -0.024943525 0.07793805 0.02889938 0.08289224 0.15954992 0.26078063 -0.01464063 -0.029123645 0.11962105 0.06285559 0.09708378 -0.21979323 0.04249828 0.0024965971
27 0.017431134 0.005533156 0.036483917 -0.054955177 0.06237356 -0.11570089 -0.00924983 0.12461576 0.090563245 0.06570093 0.16247427 -0.08073484 0.0038287851 -0.13532317 -0.012809864 -0.09991693 -0.0040429565 0.13600075 -0.08183941 0.03987219 0.12142672 0.008480678 0.13009487 -0.026777811 -0.1714307 0.11460414 -0.05204494 0.10532039 0.14933768 -0.015757827 -0.3009052 0.06789023 -0.11969345 -0.030667277 -0.084257744 0.07669116 0.12392603 0.11721966 0.21228948 -0.10918021 0.006371746 0.17238343 -0.1603579 -0.13618988 0.10856854 0.053072568 0.0011874553 -0.18575771 -0.06808223 0.09145693 0.06948595 0.015941728 0.18217967 0.16757873 0.16956472 0.026516981 0.12548609 -0.007828281 -0.08975713 -0.044205517 0.03849922 -0.051450454 0.11652798 0.055348642 0.07650902 -0.038239434 0.09730381 0.08290814 -0.008634128 -0.046151202 0.021183085 0.04289652 -0.08557331 0.013798547 -0.052706666 -0.081044786 0.026073564 0.08100457 -0.04384419 0.2403075 0.0014240715 -0.09390429 0.042786572 0.09461428 0.13507065 -0.036108077 0.26783252 -0.099280305 0.16768257 0.07466823 -0.061401546 -0.15495642 -0.11483124 -0.02370688 0.11346005 -0.034920286 -0.1973938 -0.27143228 0.047812503 -0.08505247 -0.21991661 0.009779328 0.041434146 0.060373157 0.10435863 -0.06261104 -0.027820034 -0.22433013 -0.022648865 -0.068078645 0.017210558 0.020177873 -0.0022409905 0.112457484 -0.04288649 0.046563264 0.032775808 0.117851645 0.173877 0.2152099 -0.03921378 -0.032790363 0.072174124 0.07158595 0.052774433 -0.22841741 -0.011911628 -0.02500939
26 0.06668659 0.062365733 0.05547156 -0.08449514 0.05093165 -0.12824735 0.048506144 0.065357834 0.04447616 0.093707085 0.1491262 -0.13942465 -0.03358529 -0.13159193 0.024175214 -0.07015754 0.04505097 0.05253627 -0.037746713 0.060981218 0.18562888 0.095935315 0.20269322 0.059848644 -0.13561292 0.17967862 -0.0676676 0.08110721 0.26454207 -0.07403095 -0.31749144 0.10213406 -0.1889347 -0.07225173 -0.14737684 0.014248605 0.15333755 0.16045251 0.2212125 -0.119973384 0.039964642 0.14135025 -0.07550697 -0.14593036 0.1201801 0.11362899 -0.07338264 -0.15496922 -0.04601305 0.13299234 0.01334248 0.019083394 0.2670026 0.14135829 0.05474976 0.08110156 0.12626848 0.0785368 -0.087773725 -0.10531979 0.06783986 -0.080632485 0.10140309 0.055754248 0.18554994 -0.14295001 0.1091782 -0.006993019 0.036640365 -0.0717888 0.031084906 0.05114859 -0.11151804 0.052263457 -0.12104406 -0.09241628 -0.095452845 0.11883857 -0.042025965 0.36091357 0.02969483 -0.15588322 -0.08992881 0.15712006 0.15944701 -0.009305414 0.23233347 -0.09119788 0.21390057 0.08001281 -0.07759598 -0.22242925 -0.08595788 -0.024612555 0.047121774 -0.085336134 -0.14461693 -0.19627441 -0.049082946 -0.034577724 -0.22426365 0.027063217 0.0058776415 0.14490055 0.088858776 -0.10513827 0.06392885 -0.23451027 -0.053290717 -0.08542398 0.022322707 -0.085568346 -0.0010399364 0.02912978 -0.09740377 0.011150659 0.048814517 0.22817305 0.22286958 0.14174978 -0.09817885 -0.04558525 -0.0040500057 0.09626923 -0.033921316 -0.25894117 -0.0868893 -0.07613645
7 -0.01342813 -0.011037209 0.015900357 -0.050905697 0.06533343 -0.11068791 -0.045773793 0.18065326 0.10403757 0.062019687 0.16862643 -0.06552186 0.013094656 -0.12970853 -0.03229904 -0.13753806 -0.028195532 0.19349961 -0.10447562 0.024277216 0.09661563 -0.05074153 0.0976246 -0.06653978 -0.1948232 0.066368535 -0.045374945 0.12515049 0.09104389 0.025124762 -0.29986817 0.05356068 -0.09827231 -0.019761318 -0.048644576 0.09605784 0.09482119 0.11085591 0.2048206 -0.11130669 -0.013343655 0.19263282 -0.22338414 -0.12677519 0.110799626 0.028298516 0.03118871 -0.19173354 -0.07510736 0.08598337 0.06274433 0.009245867 0.15591364 0.19649756 0.24940385 0.008581435 0.106392264 -0.04056786 -0.09343776 0.0011801841 0.023368355 -0.026114384 0.13052866 0.050378375 0.035521407 0.01669583 0.07180953 0.12104741 -0.032593902 -0.05465026 0.0056621134 0.033311065 -0.070591934 -0.01987934 -0.028494794 -0.09257043 0.0848289 0.06452815 -0.05108086 0.19664246 -0.01414172 -0.06555989 0.103960946 0.07271359 0.1346836 -0.06009452 0.30527192 -0.103201516 0.16108239 0.0587406 -0.05198662 -0.13977839 -0.13331042 -0.012725417 0.14755383 -0.0072361557 -0.22815554 -0.29823643 0.084776156 -0.10357544 -0.24354906 -0.005021879 0.05746707 0.029843526 0.098791055 -0.0383462 -0.077958226 -0.23411833 -0.025065161 -0.07266054 0.00455567 0.05310757 0.00085959473 0.16280034 -0.031669952 0.07631592 0.03687797 0.07101434 0.15621653 0.25480354 -0.024283621 -0.028578764 0.11249215 0.06414848 0.08611609 -0.21877868 0.038192846 -0.00543948
18 0.06891464 0.060612537 0.06283413 -0.073375955 0.049127523 -0.13271181 0.050747074 0.071256 0.036215287 0.084054105 0.14889078 -0.13140972 -0.03704402 -0.12544209 0.03701863 -0.08009187 0.04904364 0.051975463 -0.038114104 0.05953879 0.17404257 0.0917972 0.19019192 0.05426823 -0.1273509 0.17612733 -0.06138512 0.09113988 0.25544375 -0.07667907 -0.29831827 0.10476984 -0.1789607 -0.07111729 -0.15114611 0.00057343795 0.1493597 0.15783054 0.21464153 -0.11015615 0.035190616 0.14276303 -0.06710806 -0.13836052 0.11930274 0.10776156 -0.07270869 -0.1403582 -0.035761006 0.14031285 0.007037749 0.018714285 0.2607122 0.14321561 0.05261785 0.082378335 0.113173306 0.06584187 -0.08227547 -0.09226223 0.07707729 -0.07864259 0.09042616 0.059125468 0.17969176 -0.14080001 0.101008326 -0.006638527 0.035103843 -0.066886485 0.029904645 0.049524944 -0.10334654 0.038570397 -0.105127 -0.08590596 -0.091814406 0.118554056 -0.043440927 0.34985694 0.020182941 -0.15534067 -0.08504078 0.14277834 0.14547984 -0.011496542 0.22450222 -0.08306759 0.20592548 0.08042291 -0.08215865 -0.21685182 -0.090342544 -0.022225164 0.036959562 -0.07755595 -0.1333138 -0.19484492 -0.0477055 -0.027265057 -0.22195877 0.022561394 0.01330186 0.13837248 0.07933605 -0.09769913 0.06618617 -0.23099315 -0.04971744 -0.07478143 0.024298077 -0.07636706 0.005176859 0.028656844 -0.09157703 0.0076953433 0.036661692 0.2152127 0.21611552 0.12828642 -0.098804 -0.044042785 0.001297127 0.09299388 -0.033720963 -0.2472519 -0.075455606 -0.076256104
1 -0.024419582 -0.021297177 0.0029332268 -0.044710577 0.061339516 -0.11156437 -0.047090013 0.1707973 0.09743708 0.063955866 0.18425728 -0.053435583 0.019018648 -0.13918306 -0.026861785 -0.13169312 -0.013296597 0.18449625 -0.09878893 0.010416848 0.08192676 -0.0366494 0.08979125 -0.059873223 -0.17620747 0.066088825 -0.03956112 0.1145956 0.07728878 0.01262305 -0.29376385 0.0406297 -0.08096045 -0.018322682 -0.053354174 0.10655748 0.10621208 0.10207096 0.2065819 -0.11606221 -0.010741475 0.1758017 -0.22123836 -0.12730977 0.107524954 0.020505227 0.026673121 -0.18365698 -0.066819854 0.092074044 0.063715786 0.016002703 0.15519033 0.19607292 0.24171023 -0.0016832383 0.1058652 -0.048959494 -0.091189474 0.01668489 0.025186252 -0.025246624 0.12512566 0.040320814 0.030935215 0.024708532 0.073436506 0.12647507 -0.042784497 -0.055994317 0.01810233 0.024467492 -0.06133226 -0.019480925 -0.02620525 -0.08694198 0.07790057 0.056473438 -0.043779485 0.18887293 -0.020065118 -0.064214915 0.094204836 0.086856864 0.116316386 -0.046127405 0.2945078 -0.10283067 0.15158886 0.05715791 -0.05447317 -0.12184537 -0.116346315 -0.009591053 0.14675699 0.0031493912 -0.22278677 -0.288664 0.08615121 -0.10354855 -0.23712614 -0.012451284 0.05984183 0.030467782 0.10106797 -0.048256557 -0.069282696 -0.21586657 -0.022593686 -0.07173908 0.0065386244 0.060426053 0.0043566287 0.16285414 -0.03315128 0.06566793 0.024843602 0.06659501 0.13611837 0.24746229 -0.025790235 -0.03532016 0.11033199 0.05190328 0.084895544 -0.21503805 0.04305368 0.0041053225
19 0.045324452 0.03993671 0.04702938 -0.0738968 0.06442855 -0.12457704 0.029991208 0.09518059 0.05144113 0.07109111 0.15653001 -0.111127585 -0.015254911 -0.13085136 0.020813655 -0.08545159 0.037020784 0.08400924 -0.04545881 0.060820833 0.1538491 0.04887171 0.16640998 0.026486432 -0.13305858 0.14882766 -0.054067586 0.09405264 0.21315427 -0.04707226 -0.28882855 0.08927872 -0.14809212 -0.050638396 -0.12370001 0.022671202 0.12921843 0.14343712 0.19693041 -0.11564754 0.03186664 0.15155321 -0.10355532 -0.13076824 0.11200693 0.08370653 -0.0392313 -0.15465587 -0.039954424 0.1163425 0.029006014 0.016734967 0.22969894 0.15647933 0.103053555 0.060477264 0.12075163 0.044078734 -0.082948275 -0.0806321 0.05746832 -0.06540602 0.10483125 0.041714597 0.13916557 -0.09811648 0.104377665 0.024511456 0.0235421 -0.05297162 0.025085574 0.038248 -0.089856654 0.029070117 -0.09196953 -0.074955136 -0.03821077 0.09590395 -0.04982602 0.30104986 0.014952825 -0.1262017 -0.044511523 0.12550655 0.14849159 -0.015223131 0.23138183 -0.09324843 0.1808755 0.07307695 -0.07560029 -0.19315602 -0.097754076 -0.023093171 0.06224219 -0.061705325 -0.15187949 -0.20379128 -0.006098845 -0.05064911 -0.21832581 0.0098013505 0.022829005 0.10484066 0.09494496 -0.08151255 0.02553637 -0.22521718 -0.03893722 -0.08114943 0.024711862 -0.03987245 -0.0045051887 0.049020365 -0.06861235 0.01696441 0.038455006 0.1657392 0.18917033 0.15689257 -0.08154176 -0.0391331 0.030814376 0.07151653 -0.008294707 -0.23021533 -0.054440923 -0.052327964
6 0.005860372 -0.004033917 0.023072176 -0.045621306 0.07139162 -0.10558875 -0.01635062 0.14690039 0.08339744 0.06094476 0.15606526 -0.07949003 0.00080628024 -0.13495964 -0.02344471 -0.12366295 -0.015518919 0.17046438 -0.08781368 0.035937905 0.11648213 -0.016858837 0.11309805 -0.044964403 -0.18073416 0.0883513 -0.04733038 0.11959081 0.122003384 0.0062238756 -0.30253068 0.065892406 -0.10104021 -0.031357806 -0.068190716 0.07212201 0.09662034 0.1211442 0.19503741 -0.10656376 -0.0061250944 0.17875983 -0.2023314 -0.12387714 0.11748251 0.043726 0.01282048 -0.18354884 -0.08066163 0.105218835 0.05447926 0.020232625 0.1773993 0.18358387 0.20064947 0.013707653 0.11683677 -0.030040301 -0.08645443 -0.026969776 0.04015057 -0.039904732 0.1325386 0.045284532 0.045924313 -0.022754878 0.080098756 0.10886908 -0.020010896 -0.044421796 0.010162579 0.042662773 -0.072950624 0.0027548813 -0.045685507 -0.083613954 0.043881048 0.07785579 -0.051757567 0.22371927 -0.008392584 -0.085126944 0.066275604 0.08709915 0.14083435 -0.05451909 0.30095893 -0.10415116 0.1794609 0.06965851 -0.055344053 -0.15257345 -0.12916218 -0.01643771 0.12415196 -0.016838972 -0.20511806 -0.28528738 0.056033272 -0.0981575 -0.23380733 -0.00317293 0.045648392 0.038604114 0.097142965 -0.05254281 -0.048296314 -0.23320663 -0.032574933 -0.06747086 0.011215448 0.028535577 -0.0006184192 0.13547435 -0.046099544 0.054012537 0.046925332 0.10104588 0.16409801 0.24417819 -0.03499177 -0.027683541 0.09245091 0.07103696 0.06668787 -0.22879851 0.009384058 -0.005078336
29 0.06123692 0.052485332 0.062761925 -0.08566642 0.056930866 -0.13583696 0.03215472 0.07420397 0.05296505 0.085928604 0.1577784 -0.12329603 -0.027651345 -0.1263324 0.022372937 -0.076430686 0.04703348 0.0686292 -0.036383655 0.059087176 0.17951849 0.075606085 0.19058873 0.03143076 -0.1429645 0.17098138 -0.07035734 0.083793096 0.24709648 -0.06824186 -0.30991393 0.10545286 -0.18059698 -0.0532261 -0.13715355 0.022767186 0.14198151 0.15187089 0.20912609 -0.11757196 0.030448075 0.15209666 -0.08459888 -0.14988402 0.114869505 0.09501329 -0.059991945 -0.16638218 -0.050114922 0.13815676 0.031299565 0.009992804 0.24850935 0.15164423 0.07521666 0.06939702 0.120313264 0.06377726 -0.094637744 -0.09358217 0.06812832 -0.071688995 0.10303577 0.045298606 0.17143682 -0.12911126 0.11478257 0.014727326 0.036302436 -0.06576934 0.0256921 0.05239985 -0.10927534 0.03154112 -0.10453642 -0.09080216 -0.070346594 0.10923057 -0.05719573 0.3446006 0.020650437 -0.15245855 -0.06330355 0.1475429 0.16561446 -0.026020214 0.24627978 -0.1032446 0.20343885 0.07856176 -0.081566185 -0.2262641 -0.10594954 -0.028997175 0.0656013 -0.07462602 -0.15142547 -0.22701511 -0.029150529 -0.04823062 -0.22846936 0.01970298 0.020686125 0.12632221 0.09611296 -0.1040407 0.04619671 -0.23829247 -0.04266848 -0.08109097 0.013248586 -0.06455021 0.00686042 0.04293708 -0.09552584 0.022049934 0.03922967 0.2124235 0.22517382 0.15638644 -0.091210626 -0.039383046 0.01207554 0.0891152 -0.011664838 -0.24874909 -0.07636213 -0.060318332
5 0.008329079 -0.003075362 0.023324963 -0.05357609 0.068463586 -0.10832223 -0.02207264 0.15577002 0.09053622 0.05802445 0.15799168 -0.066939436 0.0081536155 -0.12706593 -0.014865621 -0.112020046 -8.090986e-05 0.15240826 -0.09033343 0.032368053 0.10583294 -0.02303174 0.10362397 -0.049226936 -0.17959912 0.09365914 -0.0461037 0.100695565 0.11986876 0.007857746 -0.29295835 0.058225352 -0.108682506 -0.018230664 -0.07368007 0.08220234 0.09950687 0.11263726 0.20222695 -0.11426642 -0.0012637796 0.17917487 -0.19631082 -0.12204399 0.11374755 0.029349495 0.00760715 -0.18074688 -0.07920693 0.08820026 0.056611247 0.006494407 0.17765003 0.18579549 0.20827189 0.006853758 0.11802918 -0.020445127 -0.08645665 -0.027560942 0.030543426 -0.037142627 0.11518333 0.048195943 0.05450688 -0.020279262 0.07601496 0.107629694 -0.027860789 -0.058088142 0.014532038 0.03547041 -0.07638585 -0.00969558 -0.045186643 -0.08341581 0.04809209 0.06687753 -0.053616583 0.21464795 -0.019827805 -0.089995176 0.07375593 0.09241887 0.13287775 -0.057458103 0.28927675 -0.099574365 0.17681588 0.071676254 -0.062546246 -0.15315844 -0.13331437 -0.016430933 0.12170846 -0.0220179 -0.19980925 -0.2728371 0.0684953 -0.09708977 -0.22446415 -0.008392591 0.041912097 0.035484035 0.10132871 -0.053839907 -0.05566097 -0.22605152 -0.01962412 -0.063579164 0.010483039 0.04225894 0.0030693947 0.13261032 -0.04783888 0.066534966 0.028278785 0.09422939 0.1701811 0.23162252 -0.034111883 -0.03970307 0.09515221 0.06907044 0.05811086 -0.22470944 0.020068992 -0.009896236
31 0.0004245115 -0.001984246 0.017310893 -0.0496387 0.06394279 -0.12223165 -0.02507617 0.15610072 0.089660995 0.07652969 0.17597014 -0.08107419 0.013047563 -0.13444997 -0.015541445 -0.121213585 -0.008986369 0.15865617 -0.08948266 0.04485752 0.10886013 -0.022859069 0.107958674 -0.04355872 -0.19375479 0.09762846 -0.056218904 0.11841529 0.11903517 0.0004868278 -0.31326097 0.061479185 -0.11064771 -0.021892948 -0.06288525 0.09171352 0.10737406 0.11503451 0.2030918 -0.107723095 -0.0010821536 0.19082181 -0.19208044 -0.1267647 0.11211838 0.03747275 0.009557277 -0.18291841 -0.06884314 0.098993264 0.0744713 0.01507187 0.17973751 0.17139678 0.20184185 0.018495787 0.11876489 -0.02067902 -0.08906488 -0.013832695 0.028100109 -0.04243566 0.12626845 0.04882106 0.06173401 -0.011306366 0.085268185 0.09422545 -0.020178685 -0.06274612 0.011493579 0.025064977 -0.079863876 -0.010605962 -0.037557658 -0.0971352 0.062117737 0.060108483 -0.04959719 0.22749308 -0.012385725 -0.086556174 0.064883 0.090292834 0.13038 -0.054051217 0.29662386 -0.095709 0.17708755 0.065529615 -0.054062165 -0.15637974 -0.11875165 -0.011510811 0.12470232 -0.015552815 -0.21931481 -0.29187065 0.0646817 -0.09253247 -0.24091628 -0.007856778 0.054085888 0.04598011 0.10699489 -0.05174434 -0.051808707 -0.22992605 -0.024380365 -0.06477041 0.010133493 0.038309857 0.01073834 0.12590617 -0.046837166 0.06424614 0.037696846 0.097439975 0.16863121 0.23550843 -0.037716348 -0.036552995 0.08467852 0.071371384 0.06546189 -0.22974707 0.013306219 -0.015058642
33 0.057304177 0.039864298 0.05546035 -0.07356712 0.056413416 -0.12166619 0.030133266 0.09155359 0.050451618 0.077128194 0.1533443 -0.11513728 -0.031562634 -0.13746834 0.021573678 -0.08710608 0.04111853 0.080779724 -0.04978758 0.057626877 0.16894722 0.058621306 0.18214491 0.030385075 -0.15043566 0.15317264 -0.0683552 0.08825183 0.22240235 -0.062024932 -0.29738677 0.095156066 -0.1611646 -0.060625385 -0.13664821 0.020558814 0.14660808 0.14590564 0.21727113 -0.12111697 0.037773564 0.1596174 -0.10718528 -0.14452262 0.11737991 0.08541996 -0.040066987 -0.15909481 -0.049056485 0.12891363 0.031689726 0.007965983 0.24949199 0.1616904 0.09787471 0.069432236 0.12148416 0.05218157 -0.090997465 -0.07429448 0.065231085 -0.07155933 0.103012994 0.058028392 0.148855 -0.11187789 0.105179176 0.026029611 0.022049183 -0.06910805 0.03291293 0.046965342 -0.091664284 0.0341464 -0.09946439 -0.08373716 -0.052226856 0.09501324 -0.042365905 0.32871062 0.023120537 -0.14190868 -0.051887743 0.13732754 0.14806646 -0.013734648 0.25078002 -0.09105995 0.20316997 0.07865316 -0.07848222 -0.20273249 -0.093755566 -0.029366704 0.067207806 -0.06682707 -0.15523203 -0.21723858 -0.016962498 -0.04856371 -0.23113674 0.01865572 0.02810202 0.11326366 0.09071731 -0.09298425 0.036683645 -0.22587392 -0.0368473 -0.083681785 0.017477911 -0.05168836 -0.0026955116 0.05946249 -0.08384952 0.017023642 0.046788123 0.19442204 0.21270272 0.1671842 -0.090546794 -0.04891546 0.027339619 0.07513068 -0.011880791 -0.24207681 -0.056516245 -0.063268654
4 -0.015263252 -0.028507505 -0.0015596298 -0.044499114 0.063852936 -0.10844725 -0.05204264 0.18473954 0.108843155 0.054191794 0.1870278 -0.051888507 0.011832739 -0.13515952 -0.03129737 -0.1285874 -0.026052807 0.18208934 -0.103502035 0.008500515 0.07992437 -0.051211502 0.090863466 -0.07266949 -0.18076521 0.059498303 -0.04307593 0.12250467 0.077008 0.030237563 -0.29191542 0.037583545 -0.07319976 -0.023397684 -0.03919328 0.096323915 0.08613996 0.089064516 0.19832923 -0.107582964 -0.013068668 0.17124298 -0.2256303 -0.12741427 0.11033443 0.0068725576 0.033864398 -0.18336235 -0.06919954 0.09019669 0.0644521 0.004545201 0.14380324 0.19469398 0.24956924 -0.004485851 0.109748624 -0.048654057 -0.09385597 0.021663215 0.014472091 -0.02217017 0.12446479 0.047496084 0.016966505 0.028330075 0.07846722 0.13440748 -0.048880238 -0.0460998 0.014163725 0.025624333 -0.05666051 -0.025812231 -0.020316217 -0.09510658 0.08629324 0.054309573 -0.04715837 0.17178659 -0.014990659 -0.064222306 0.10217723 0.0809252 0.1276768 -0.04768273 0.2907734 -0.09446402 0.15015419 0.064702235 -0.05433892 -0.122568496 -0.120523356 -0.010935792 0.14816222 0.0032788226 -0.21302095 -0.2869122 0.094415866 -0.106147535 -0.22610597 -0.012657427 0.05196415 0.023957323 0.100601055 -0.04496469 -0.07273349 -0.21223693 -0.026213722 -0.078256406 0.006997041 0.0689273 -0.0032350079 0.172636 -0.023408482 0.07563859 0.027057534 0.054028936 0.14234996 0.25401387 -0.023926679 -0.0324996 0.115715414 0.060236756 0.09649799 -0.21078704 0.047466896 -0.0036502187
24 0.008876243 0.013872713 0.035347555 -0.06619656 0.060558166 -0.1215323 -0.016514275 0.13882746 0.07878106 0.07605658 0.17080739 -0.08258969 -0.0065030875 -0.13267373 -0.018742738 -0.10481945 0.006702493 0.14414202 -0.080367625 0.042175062 0.11147833 -0.0048040445 0.11963344 -0.02186961 -0.17680265 0.096134946 -0.055297352 0.104558095 0.13312574 -0.011656834 -0.29315293 0.067380734 -0.1281519 -0.03215363 -0.07772172 0.077626705 0.11651681 0.11919112 0.2052081 -0.11102968 0.009286617 0.17305519 -0.16143672 -0.13347411 0.100344256 0.046675593 0.0071189897 -0.18218237 -0.07123971 0.09463689 0.06794961 0.009836232 0.18921196 0.16219376 0.1860682 0.017348524 0.12300244 -0.0061087296 -0.0851043 -0.03699307 0.044608116 -0.04247386 0.1098125 0.039912432 0.08189068 -0.039158575 0.079870455 0.085945204 -0.015405721 -0.060343802 0.021696793 0.034794956 -0.08185934 0.00050574495 -0.057689864 -0.09490842 0.027804868 0.07189074 -0.05363478 0.24901435 -0.0006703028 -0.09777301 0.044242598 0.09100249 0.14351901 -0.033988956 0.27861595 -0.10104609 0.17121418 0.07716281 -0.062858805 -0.15681735 -0.11369555 -0.016849292 0.11086073 -0.029150538 -0.19969599 -0.2728225 0.051244028 -0.08964935 -0.22917965 0.0022117228 0.033102244 0.055206735 0.10395052 -0.06367928 -0.039914798 -0.2211659 -0.030524412 -0.078271806 0.013716036 0.018013636 0.010044563 0.11379039 -0.042523608 0.0426971 0.03624461 0.1221551 0.1707873 0.21249971 -0.043598004 -0.036127206 0.066601984 0.06385423 0.04908351 -0.22357993 0.0048539583 -0.02246618
17 0.009355094 0.0016501277 0.030790707 -0.06421377 0.06653882 -0.11514518 -0.020170877 0.14625712 0.08419501 0.078087024 0.16879497 -0.07605331 -0.00078355137 -0.1306763 -0.012682928 -0.11662205 -0.0004077295 0.15485951 -0.080640085 0.046007536 0.11177447 -0.01667573 0.10620117 -0.030767538 -0.18076268 0.095819205 -0.05838868 0.11219659 0.13513762 0.0011302992 -0.29590634 0.0722985 -0.11022192 -0.022154903 -0.06692055 0.07807109 0.11433586 0.110203296 0.19846457 -0.10009172 -0.004242026 0.1735813 -0.17996211 -0.12607378 0.11195627 0.03345253 0.0093678115 -0.18157881 -0.074460775 0.09089634 0.065116 0.007958395 0.17414784 0.16620733 0.19604419 0.02732612 0.11475795 -0.01433047 -0.086689465 -0.02503936 0.028339772 -0.04232484 0.118859395 0.05180396 0.06785013 -0.018959008 0.08989435 0.08808129 -0.01910192 -0.057061195 0.018052805 0.040136635 -0.08060455 6.1026745e-05 -0.041692246 -0.089116454 0.045149494 0.06456021 -0.038982566 0.22088152 -0.012204328 -0.09298404 0.050930236 0.08792501 0.12683277 -0.04289014 0.2771915 -0.09548164 0.17290597 0.07359383 -0.05450769 -0.1508862 -0.113637276 -0.017902924 0.12491052 -0.01826956 -0.2097705 -0.27927628 0.061833583 -0.08582945 -0.2264487 0.0044399877 0.03890417 0.041677818 0.09633026 -0.048488073 -0.04461997 -0.22940828 -0.030462243 -0.06600709 0.01266592 0.024271475 0.0033159999 0.12060566 -0.04426873 0.052390996 0.03600175 0.1050846 0.1609569 0.22542354 -0.03318702 -0.040934864 0.07558619 0.07082925 0.05104239 -0.21652061 -0.00045822829 -0.009209255
8 -0.017077725 -0.018978035 0.012080878 -0.04953465 0.06975276 -0.10384391 -0.03908488 0.17223038 0.10403195 0.0659976 0.17464007 -0.063991554 0.015502522 -0.13031773 -0.035974074 -0.13737005 -0.013133657 0.19170548 -0.1074583 0.026066773 0.09189468 -0.036370866 0.10358685 -0.06315206 -0.18584523 0.078338146 -0.05002871 0.10838679 0.10004646 0.01698506 -0.30345362 0.061966065 -0.097785614 -0.013944054 -0.05098455 0.09834733 0.101891376 0.09784162 0.19572856 -0.10653482 -0.011085094 0.18905751 -0.20937587 -0.13563728 0.104571834 0.01844457 0.013117235 -0.19048549 -0.065203436 0.08047166 0.07003642 0.015748357 0.16259857 0.1927038 0.22357942 0.0072282017 0.107049 -0.036532715 -0.08407684 -0.0038314227 0.030429937 -0.039589394 0.12450273 0.04880031 0.037010062 0.01409756 0.07548112 0.122929364 -0.039047927 -0.05679734 0.010274798 0.021906285 -0.07081239 -0.01336063 -0.02270546 -0.096992575 0.075731784 0.05681958 -0.050940067 0.19496606 -0.014815694 -0.07411352 0.091963544 0.08555308 0.12838857 -0.054801762 0.30103877 -0.09393769 0.1609894 0.07431788 -0.046418063 -0.1311174 -0.12702802 -0.015508506 0.1480886 -0.0063181394 -0.22136903 -0.29325813 0.07798188 -0.10454918 -0.22776952 -0.011948123 0.050826576 0.029800458 0.10985427 -0.041829064 -0.0747598 -0.22104871 -0.017604649 -0.06860153 0.019087555 0.056254268 0.009899199 0.15721184 -0.02862884 0.06840285 0.03334584 0.06923806 0.15397558 0.24145247 -0.024992898 -0.033339296 0.11155943 0.061372645 0.08038008 -0.21598804 0.03019495 -0.0050254427
11 -0.03101528 -0.02682723 0.0078458255 -0.039788123 0.06320214 -0.104861446 -0.053097185 0.18324876 0.10277743 0.067213625 0.18837932 -0.05681871 0.02588689 -0.12685682 -0.047865603 -0.14035705 -0.03624955 0.20448439 -0.11460683 0.021446008 0.088640586 -0.06748406 0.0720458 -0.07767806 -0.20213293 0.04751782 -0.057581123 0.11995763 0.06730168 0.032748863 -0.29810798 0.055120233 -0.07416037 -0.019490771 -0.024989057 0.1033773 0.09202738 0.09633669 0.19670565 -0.10797854 -0.01761524 0.1896634 -0.23729946 -0.1288168 0.09842944 0.013506685 0.032825317 -0.19516775 -0.07040331 0.081003144 0.078113936 0.01472366 0.13258022 0.19525316 0.248748 -0.008905787 0.10019587 -0.05686712 -0.09471451 0.026954861 0.020211535 -0.029213695 0.12768586 0.047269423 0.0060068658 0.03901044 0.06332841 0.14279608 -0.04139558 -0.05097723 -0.0020439317 0.022490032 -0.064827256 -0.027231844 -0.0058184406 -0.097127885 0.09688358 0.042130716 -0.046295315 0.1698026 -0.024250958 -0.05832116 0.12958717 0.07090353 0.12625521 -0.054428373 0.29542363 -0.09746979 0.14547648 0.055337593 -0.04993685 -0.11387524 -0.13136248 -0.0008343426 0.15355764 -0.0002443841 -0.22665554 -0.29936665 0.097034305 -0.11034443 -0.24088538 -0.00722006 0.053092875 0.006662702 0.09847097 -0.027968856 -0.08298576 -0.21583508 -0.012609802 -0.0755951 0.011496561 0.075449325 0.011749182 0.1681923 -0.011722264 0.072275 0.03602552 0.056948815 0.13620283 0.2625537 -0.0065724403 -0.029699875 0.12651193 0.05674036 0.09620607 -0.20019667 0.054054648 0.0031587523
10 -0.012290854 -0.013583464 0.020692892 -0.056522656 0.06404143 -0.12208857 -0.03736607 0.1757852 0.110042445 0.06830964 0.19642109 -0.067642696 0.018565396 -0.14830613 -0.036118027 -0.13590217 -0.019320369 0.19752245 -0.112865694 0.032296464 0.1041411 -0.041972347 0.10651162 -0.06421475 -0.2046333 0.07348328 -0.055646654 0.126667 0.100070834 0.022304974 -0.31914204 0.05743951 -0.103985555 -0.020510275 -0.05951001 0.10471451 0.11649857 0.11655682 0.2201683 -0.11351807 -0.009990775 0.19361432 -0.21657415 -0.1435083 0.1128983 0.024181243 0.02576749 -0.20502931 -0.07336151 0.09605566 0.07304197 0.0056141117 0.16421464 0.2012803 0.23780653 0.011205301 0.11811506 -0.04899942 -0.10014911 0.005136439 0.026751477 -0.032218687 0.123666085 0.041710693 0.035275143 0.009870478 0.078571334 0.118716955 -0.042071022 -0.057689194 0.016938865 0.023538325 -0.080827974 -0.015578448 -0.02852594 -0.104784906 0.086219974 0.055876877 -0.045738302 0.22021395 -0.013309081 -0.07296502 0.10417554 0.09107672 0.13092242 -0.04939792 0.3076115 -0.1066027 0.17719044 0.0641851 -0.060725585 -0.14711966 -0.13190031 -0.008987229 0.15237036 -0.0063350257 -0.23627236 -0.30460912 0.07743972 -0.10634008 -0.25611264 -0.00470668 0.05968086 0.036988143 0.11025083 -0.04653084 -0.06261937 -0.24349512 -0.027062925 -0.07860264 0.00905109 0.06177791 0.011791258 0.16536567 -0.02365239 0.06440114 0.035387494 0.07813262 0.1574449 0.25323802 -0.02345297 -0.035190884 0.105434924 0.069729306 0.084493734 -0.22905135 0.029383797 -0.007864361
9 -0.013911183 -0.0027507383 0.019521227 -0.054518875 0.0680538 -0.117169075 -0.038751267 0.17779271 0.096163504 0.07514185 0.180853 -0.07472239 0.009305651 -0.1427349 -0.032148026 -0.13256115 -0.010549881 0.1860681 -0.1038841 0.03138726 0.10012157 -0.035597727 0.1024863 -0.059911884 -0.1953356 0.07515514 -0.05525319 0.11942711 0.09667143 0.018053876 -0.31106594 0.058773648 -0.107098274 -0.02780188 -0.05825698 0.089164056 0.1076579 0.102678865 0.20475878 -0.118461944 0.0011521372 0.18825236 -0.21721514 -0.12953022 0.102745384 0.027428713 0.019199498 -0.19687217 -0.07922943 0.08758515 0.077476285 0.018134942 0.16769445 0.18978584 0.23424026 0.0038540354 0.12269198 -0.031416196 -0.08968403 0.004515251 0.02010681 -0.034251753 0.13141395 0.044691242 0.03666534 0.0018994764 0.07861389 0.115104064 -0.032367636 -0.04871475 0.009599842 0.03465204 -0.07743763 -0.009036025 -0.037389286 -0.102212146 0.070672855 0.05615501 -0.052568186 0.20747119 -0.013747545 -0.07405161 0.0927428 0.08500047 0.13480332 -0.0503191 0.3055446 -0.09137463 0.16362815 0.06800656 -0.05858762 -0.14571975 -0.13361818 -0.012957675 0.13791263 -0.015969751 -0.22036517 -0.29143935 0.06934735 -0.09752772 -0.2351429 -0.0013751738 0.05077398 0.04360915 0.11615827 -0.049681697 -0.062049657 -0.23615536 -0.027298085 -0.07510214 0.014944025 0.04807935 -0.0010801833 0.15337501 -0.037941046 0.07427855 0.038397092 0.07958195 0.15743035 0.25108805 -0.03129795 -0.038289152 0.11166945 0.062222783 0.08611867 -0.22642 0.026729202 -0.0015292508
12 -0.010698474 -0.010415273 0.010083571 -0.054490365 0.058231354 -0.10677715 -0.03654343 0.16122712 0.1019778 0.06564508 0.1777201 -0.06988871 0.013254555 -0.14028245 -0.02944057 -0.130368 -0.0078089773 0.18108352 -0.10002525 0.02446872 0.10303414 -0.034786094 0.096324764 -0.059834875 -0.19218946 0.07884158 -0.060739808 0.11178886 0.10993395 0.009034257 -0.29777652 0.05864946 -0.10544571 -0.029152906 -0.05473175 0.09645374 0.099377215 0.1025848 0.19794337 -0.10409225 -0.0068524308 0.18562646 -0.20597102 -0.13448331 0.10624779 0.028381577 0.020767635 -0.1930725 -0.07580301 0.08538385 0.07078111 0.00811313 0.16415122 0.1861382 0.2269117 0.010617383 0.11092502 -0.0346675 -0.09396384 -0.007483478 0.033920027 -0.037645277 0.113751054 0.050364677 0.048230633 0.0025207521 0.08064972 0.11051064 -0.034362394 -0.061412554 0.0049172807 0.022730604 -0.07753933 -0.0070171524 -0.024337297 -0.094741136 0.06916242 0.06602737 -0.044500764 0.20210125 -0.011952766 -0.07415835 0.08270972 0.08066271 0.13684995 -0.042408478 0.28459913 -0.0983587 0.16548257 0.06469708 -0.05973509 -0.13241242 -0.1280441 -0.008062765 0.14273094 -0.011207266 -0.21248522 -0.28733155 0.06428507 -0.09561317 -0.2345438 -0.011212683 0.05573495 0.030454237 0.10933012 -0.05082905 -0.066396825 -0.23294917 -0.018614123 -0.07716536 0.015478289 0.046162806 0.013943648 0.15111174 -0.02430453 0.071899556 0.027839327 0.076727614 0.15084268 0.24015658 -0.023351269 -0.029894482 0.09879402 0.06668971 0.07288564 -0.22174618 0.031411532 -0.01640202
30 0.003373124 -0.005111146 0.030547798 -0.058654908 0.06639911 -0.120611064 -0.017336387 0.1445253 0.09440444 0.074046016 0.18029743 -0.082005955 0.0019013404 -0.1407842 -0.017524567 -0.121334575 -0.0038590657 0.15783791 -0.08385775 0.034798376 0.11077519 -0.018592024 0.10423399 -0.03328734 -0.18485448 0.09675246 -0.059082165 0.11182534 0.12544456 0.007991007 -0.30644983 0.07337977 -0.103534766 -0.025440985 -0.058847506 0.0866472 0.11447044 0.11007626 0.20399903 -0.10326361 0.0042207018 0.18306203 -0.18497567 -0.12933838 0.09806739 0.036828805 0.0016589891 -0.17824337 -0.07005878 0.09207687 0.07209077 0.00502554 0.17324866 0.16767855 0.1929218 0.014170165 0.108482204 -0.013091995 -0.09301276 -0.016771788 0.02942589 -0.043224875 0.11854191 0.040202733 0.055638466 -0.023688413 0.07796307 0.09035428 -0.022318797 -0.05210823 0.01174718 0.026121244 -0.079409406 -0.0050156326 -0.047398143 -0.09586026 0.046971492 0.061432634 -0.051880687 0.21578012 -0.0046339068 -0.091462456 0.057279553 0.093301184 0.1373088 -0.047740977 0.2841437 -0.09823369 0.16605696 0.0742041 -0.05671357 -0.1392494 -0.120672226 -0.012900858 0.12893714 -0.029563645 -0.2104402 -0.27933666 0.055685595 -0.0947478 -0.22609697 -0.0069090393 0.044632282 0.044724207 0.10706384 -0.059505336 -0.046927143 -0.21776073 -0.01796404 -0.07299368 0.012911433 0.026713647 0.007079949 0.11595388 -0.0451029 0.05445054 0.031912077 0.10493527 0.15118639 0.22536415 -0.032742124 -0.03717745 0.08152928 0.069939315 0.05505546 -0.21320471 0.013914865 -0.01237272
