34 128
14 -0.0020591337 -0.0035599887 0.0029398934 -0.0007050912 0.0034580012 -0.0006070813 -0.001567497 0.0029628894 -0.0007746194 0.0026578067 0.0012980262 -0.0034440563 0.0007881878 0.00090312725 -0.0028887826 -0.0035110652 -0.0012301649 0.003087729 -0.0035286632 0.00053437904 -0.0026011742 -0.002522618 -0.003355951 0.002571012 -0.0022702676 -0.0037430138 -0.0028338858 -0.0014055396 -0.0021134005 -0.0001308808 0.0009566293 -0.0035887612 0.0032117704 0.003810852 0.00016718433 -0.0030865443 -0.0010716427 -0.0017092702 -0.002684444 0.00018375728 0.0002459443 -0.0033425323 -0.0030776942 0.0021186501 -0.001282091 -0.002834063 0.0036748154 -0.00082305504 0.003131167 0.0020733331 -0.003789882 -0.0004792143 -0.00017190106 -0.00018897302 2.5667523e-05 -0.0028354232 0.000760488 -0.00038487828 0.0024057007 -0.0036945846 -0.0006482412 0.0021924877 0.0003398939 -0.001916691 0.002676374 -0.0009383656 0.0015561308 -0.0019141353 -0.0036047443 -3.3322798e-05 0.0032740033 0.0014827886 0.0004482995 -0.002044426 0.0009976745 -0.0022289834 -0.002902459 -0.001168478 -0.0033115991 -0.00021307699 -0.0010135999 0.0037828144 -0.002428796 -0.00082933716 -0.0030764265 0.0019827047 0.0037151512 -0.0012838097 -0.0007516979 -0.0032725504 0.0019539935 -0.0029670398 0.0026756031 -0.003042607 -0.00057552085 0.0015843684 -0.0008409173 -0.0014013425 -0.0027597982 0.0036608237 -0.0013134379 -0.00075261574 0.0030842787 -0.0016303178 0.0022122895 0.0030649377 0.00072339654 0.00089867366 -0.0006410855 -0.0007351889 -0.0036534509 -0.0034629114 -0.0019100175 -0.0015055245 -0.0036009075 0.00040977105 0.0019555038 0.0012307059 -0.0017408064 -0.0034642213 -0.0014370934 0.003679819 -7.211727e-05 -0.0038491627 -0.0023838787 0.00035288182 -0.0036538541 -0.0006571293
21 -0.003157644 0.00034150097 -0.0016553868 -0.00045799892 -0.00052683236 0.001479821 0.003161836 0.0023844566 -0.000742402 -0.0026353477 -0.0038574333 -0.001024232 -0.002586351 0.000449582 0.0029515284 -0.0009529452 -0.002750386 0.002241057 -0.001032491 0.00046031203 0.0023975007 -0.00036672698 -0.00039749927 -0.0022120615 -0.0027410695 -0.0025821675 0.0032230215 -0.0009801354 0.0032517712 -0.0008800203 -0.0025953723 0.0038311135 -0.000109748034 0.0011309546 0.0016093834 -0.0031232422 0.0019347321 -0.003291251 -0.0002171588 -0.0037281346 -0.00082776684 0.0011446757 -0.0022632 -0.003636652 -0.0031811215 8.0110556e-05 -0.0035266625 0.0018776234 0.0009775462 0.0027971312 -0.0021355203 5.3558273e-05 -0.001992724 0.0009999437 0.002667698 -0.00067646406 -0.0022277546 0.0029720967 -0.002328415 0.0010020408 0.0013005378 -0.003133698 0.0034636424 -0.0038907947 0.0027820193 -0.0008580453 -0.00041859728 -0.0018525883 0.0034297102 0.00025217963 0.0021642675 -0.00074779784 -0.0007441777 -0.0019245384 0.002645693 0.003180276 0.0031799038 0.0034895018 -0.00066418946 -0.0012666722 -0.00012744348 0.0010266101 -0.00060298335 -0.000436834 4.2923013e-05 0.0003414014 -0.0016523014 -0.00026763295 0.002728605 0.0035163146 0.0008524904 0.0005533256 0.0017697004 -0.0004803026 -0.0003058965 -0.0028711471 0.0015474083 -0.00011848574 0.0028567219 0.0007909036 -0.0004081299 0.0008712091 0.0021368703 0.00038976656 0.0014642782 -0.00053578935 0.0034693787 -0.0032593273 -0.0025791924 -0.0037829606 -0.00029947064 -0.0027589798 0.00024650386 -0.0029109477 0.00022214605 -0.0020717224 0.0017725189 0.0003459134 -0.00070890796 0.0011400853 -0.0029958223 0.0026072313 -0.0038797315 0.0024410342 -0.003416841 -0.0029973132 0.0021859359 0.00035639657
23 0.0008491586 0.0019929188 -0.0027665624 0.0018475733 -0.0010812446 0.0007292983 -0.00321668 -0.00021582386 0.0008504833 -0.0038877884 -0.0019005036 -4.1807354e-05 -0.003069587 -0.0032302907 0.0008508684 -0.0035151823 0.00032744659 -0.00047646943 0.0035884369 0.0010970641 0.00037967227 -0.0015874534 0.0034205585 0.0016458667 0.00062760623 0.003647579 -0.0011593484 0.003755101 -0.0011510536 0.00033380167 0.0009952127 -0.0027587044 -0.0019437851 -0.0014471662 -0.0021685218 0.0003882666 0.0022275604 0.00048297783 0.0018024315 0.0006053202 0.001322625 0.0033747859 -0.00021665536 0.002319044 0.0022578423 0.0022180926 0.002465548 0.0017962997 -0.0015657158 0.0018015984 -0.0036238339 -0.0015386612 -0.002236 0.0013193199 0.0011180503 -0.0011243002 -0.0005740698 0.0001336649 -0.001976018 0.0021790483 -0.0015821202 0.002610461 -0.0015921375 -0.0014248694 -0.0032731402 0.0013418469 -0.003681241 -0.00080439216 -0.00043908984 0.0030853145 -0.0032953045 -0.0004979789 -0.0023286117 0.0023333854 0.0013307703 -0.00024098369 0.0008405658 -0.0028270353 0.00305886 -0.0021121118 0.001856048 -0.0011677698 0.0022405996 0.002357073 -0.000851454 -0.0017602454 0.0015041063 -0.002316945 -0.003018563 -0.0026126395 -0.000596589 -0.0014726268 0.000106042906 -0.0031941384 0.0026721582 -0.0019532489 0.0022651106 -0.0003215891 -0.0023874019 0.0028888911 0.0017295091 0.0028160666 0.0022886023 -0.0037746914 -0.001012991 0.0011872245 0.0030867786 0.0006352288 0.0021121467 0.00074689556 0.0038674225 -0.0012916838 -0.0020823472 0.0011084027 -0.002134504 0.0008572903 -0.0021397672 -0.0007789734 0.0013653258 -0.0015722011 0.0024139928 0.0007328629 0.0006433303 0.0018092726 -0.0030475901 -0.001443157 0.002606338 -0.0030045696
25 -0.0034572103 -0.0038563677 -0.0012123599 0.0035496661 0.0033772842 -0.0031409368 -0.0008790861 -0.0007116844 -4.2280906e-05 0.0031640576 0.003757772 0.0030456344 -0.0010586205 -0.003209108 -0.003699544 -0.0025817668 0.0012430875 0.003127709 -0.003457967 -0.0021334046 0.0037174495 0.00035552043 0.0022463817 0.0014359835 0.0011543669 0.0014277851 -0.0038808004 0.0014895119 -0.002711632 -0.0028972607 -0.0015708861 9.4165145e-05 0.0017245872 -0.0029124822 -0.0030970997 -0.002805268 0.0021274136 0.00027391606 -0.0026540984 0.0011569838 -0.0011463854 0.0029795214 -0.0016455386 0.0032340307 -0.0006877531 0.0017085187 6.013153e-05 0.0038935263 -0.0005600912 0.0015068251 -0.0038300091 0.0015431712 0.0029860118 -0.0029255557 0.00026757887 0.0031559253 0.00094841584 -0.002882787 -0.0034737056 -0.0016716556 0.0005819482 -0.0034622713 0.003211471 0.0011010267 -0.0028580935 0.0010303011 0.0005303083 0.0024239398 0.0003544504 -0.0004951332 0.003777989 -0.00050983805 -0.00076725753 -0.0020654127 0.00018883537 0.00044049832 -0.0013918887 -0.0013831065 0.0023599437 -0.00036185997 -0.002984677 0.0030458567 7.609386e-05 0.0024738216 -0.0017704548 0.0033798316 -0.001160852 0.00012593628 -0.0025184094 0.0014816602 -0.00027712804 -0.0013628851 0.0003267749 0.0030809175 0.001129477 -0.0021123576 0.0025450252 0.0017673776 -0.00045263293 -0.0035060723 0.0026619418 -8.011448e-05 -0.0036802788 0.0028104638 -0.0022069218 -0.0038828028 0.0025711232 -3.3645993e-05 0.0007196407 0.0015259014 0.0027338483 -0.0016230565 0.0025542614 -0.003295701 -0.0018810108 -0.0014494398 0.00060001813 0.0024056332 -0.0008089953 0.00020111586 0.0013912071 -0.0010569898 -0.0033490055 -0.0017994497 0.0019954664 0.002073692 -0.002325195 0.0016914916
15 -0.0009843532 0.0033691737 0.0023551383 -0.0016235785 0.0013792606 0.0013159894 -0.0026152516 0.0038443354 -0.0012172147 -0.0006209985 -0.0024871177 -0.003038834 0.0016171918 -0.0013038592 -0.0026930717 -0.0023735003 0.0037733733 0.0037903339 0.0011097877 0.00138392 0.0008064936 -0.001199595 -0.0025420007 -0.00077626295 -0.0032769684 0.0033052606 0.0013127812 -0.0015693953 0.0009067556 0.0011003488 -0.00078070967 0.0012827951 0.0009415054 -0.00047330747 -0.0037330964 -0.003702811 0.00039765815 0.0037582275 6.510669e-05 0.0019526086 0.0025057076 0.003729613 -0.00079734845 0.0022730373 -0.0027811977 -0.0005245746 -0.0020191781 0.0033063544 -0.0012579652 -0.0035891598 0.0021589238 0.00085184415 0.0018146074 -0.0017494855 0.00096829125 -0.0032529214 0.0033256742 -0.0031677107 -0.0033021758 0.0025590183 -0.0037892174 0.0014468322 0.002119462 -0.00380841 -2.805335e-05 0.0034802016 -0.0024049394 -0.0009159629 0.0010839662 -0.003638736 -0.0028860637 -0.0012796993 0.0005447455 -0.002051805 -0.0005675854 0.0018873995 -0.001188682 -0.0035157097 -0.00060577784 -0.002510457 -0.0015869503 0.0025057243 -0.003372284 0.003716295 0.0015643011 0.0010099956 -0.0017936432 -0.0012558184 0.0016278635 -0.0015517734 0.0007523064 -0.00046415319 0.0017965188 0.00047864363 0.0019449237 -0.0025716394 0.0036141633 -0.002780291 0.0010960017 0.0037215098 0.0018561563 -0.0033991332 -0.002287456 0.0025248358 0.0014210668 0.00033236586 -0.0014184586 -0.0037971775 0.0024893028 -5.5947276e-05 0.0011084514 0.0016643923 -0.000599696 -0.0025172979 -0.0038547649 -0.0013121038 -0.0031807323 0.0018269093 -0.0011650311 -0.0036151286 -0.0024647182 0.0008380608 0.0028214175 8.655867e-05 -0.002110108 -0.0028516282 -0.0031192838 0.0022763852
13 0.0010486663 -0.0009291172 0.001449424 0.00079134403 -0.0020594765 0.0029145307 -0.00066911953 -0.0019359773 -0.0026477587 -0.0026165019 -0.0017944792 -0.0006090659 -0.0021307727 -0.0025003804 -0.0039014593 0.002663782 -0.0029591992 -0.0027359587 -0.0002791977 0.0020111979 0.0035034327 -0.0023058744 0.0006701943 -0.0020531823 0.0011545122 0.0015734868 0.0010807808 0.0024998335 -0.0035091618 -0.00030652742 0.0023679244 0.0011029496 0.0025577995 -0.002100879 -0.00092260126 -0.003554521 0.0012924757 0.001593402 -0.0002919351 -0.0017680951 0.0011717201 0.0028716864 -0.00088825985 0.0015034463 -0.0026579008 0.0038862263 0.0028429062 -0.003304773 -0.0009407045 0.0012643272 -0.002444201 0.0013056205 0.0022947914 0.00084112573 0.001306464 0.0018568262 -0.0019461849 -0.002188988 -0.00039570275 0.0017228366 -0.0035978567 0.003338862 0.0006267564 0.002782196 -0.0019477832 0.0005050955 0.0034094274 -0.00052172254 0.0014142887 -0.002175712 0.0012136628 0.002860196 0.0006058296 -0.003777856 0.0006744017 0.0036938272 -0.0019809308 0.0038966585 0.0032509859 -0.001332245 -0.0025740978 -0.0026376257 0.0019046525 0.00075089437 -0.0011302646 0.0021393062 0.0037394066 0.003682844 -0.0019589164 0.00019788084 0.0028784056 -0.0035514708 -0.0027210705 -0.0014282906 -0.00096695527 -0.0031531248 0.00030261494 0.00011594297 -0.00076625356 -0.0017248855 -0.0026660787 -0.0038675931 0.0029782525 -0.0026326517 -0.0022501166 -0.002660912 0.00095538294 0.0034828652 0.0013779079 0.00066008413 -0.0025529426 0.0028142831 -0.00020934064 0.00085257646 -0.003167719 0.00085697765 -0.0027615845 -0.0017632749 -0.0018782265 -0.0013391983 -0.0035227537 0.001530724 -0.00096512446 0.00024335609 0.0033810234 0.001819389 -0.0030018138 -0.0013020086
0 -0.002163683 -0.0028611126 -0.0015415497 -0.00227616 -6.6010034e-05 -0.0033328985 -5.3306172e-05 0.001285887 -0.0032950398 -0.0037680932 -0.0034532805 -0.0011127169 -0.00023277543 0.0026048028 0.0009656421 0.0038016175 0.0033280873 -0.00024473967 0.0005417141 -0.0015912795 0.0030149145 -0.0015143901 0.0024641901 -0.0029192353 0.002824158 0.00032468315 -0.0009793625 0.00204106 0.0008518097 0.0029033748 -0.0029879252 0.00021906971 -0.0022005886 0.0015318086 0.003221494 -0.0023780777 -0.0013797989 0.0033396063 -0.0037674257 0.0022537063 -0.0014029392 0.0038290033 -0.0019584897 0.0029575643 -0.0006187137 -0.0025531747 -0.002939348 0.0026346762 -0.000380664 0.002854665 0.0019183694 0.0016774769 -0.0008939374 -0.0021741686 0.0025445367 -0.003675122 -0.0003445502 -0.0023622895 0.002970855 -0.0025838302 -0.0020161355 -0.001997013 -0.0035311654 0.0012151002 0.002939978 -0.0029436282 0.0030670024 -0.003894798 0.0026307828 0.0027088688 0.0017467662 0.002435106 -0.003217226 -0.0013364741 0.0009992024 -0.00022102153 0.002205635 -0.0028141595 -0.0021695844 0.0015098788 0.0012767188 -0.0022144841 -0.0023121913 0.00088259444 -0.0019775012 -0.0038820612 -0.0015271797 -0.001745111 0.0013443471 0.0035909072 0.0013295573 -0.0019383774 -0.0036412862 -0.0007336884 0.0024710225 -0.00029320305 -8.7174725e-05 -0.0031402428 0.0038401203 0.0013381256 -0.0007120548 -0.0033497666 0.0010498409 0.0009219607 0.0033366764 0.001228705 -0.0012453374 0.001189462 0.0005063687 0.0037191552 0.0034204996 -0.0024329955 -0.0036081264 -0.00040963077 0.0012297138 -0.0025727865 0.00013946595 -0.0006606288 -0.003293475 -0.00025210556 -0.0026868938 0.00020727814 -0.001457393 0.0010276488 0.0019102672 -7.0942966e-05 -0.0023685526 0.0028418063
16 -0.0013047351 0.0003936712 0.0031177471 -0.0032283992 0.0018472412 -0.0006275498 0.0028015962 -0.0018433704 -0.0030840917 0.0038718318 0.0028898807 -0.0013359853 -0.0031244638 -0.0010133783 -0.0023777515 0.0018067578 0.0020176994 -0.00061882025 0.0006538458 0.00078330183 0.0018381268 0.0034259306 1.8448904e-05 0.003619631 -0.0038746824 -0.0016093425 0.003863781 -0.0012963944 -0.0016757582 -0.002194458 -0.0025802017 0.0020124258 -0.0034218552 -0.0025095907 0.0025394992 0.0022698778 -0.0020359918 -0.003862155 0.0005701782 0.0011457809 -0.001223211 0.0030886868 0.0020455266 0.001978033 0.003224739 -0.0032155602 -0.00059198146 0.0012254922 0.0021347415 0.0021666687 -0.0038150733 -0.00035515658 0.0019445278 -0.0037170032 -0.0035676702 0.00095354154 0.0012226674 0.0021398442 0.0022378184 0.0034119608 0.0029275722 -0.0032877764 0.0033449281 0.0004604248 0.00044650905 -0.00327683 -0.00082361244 0.0023097366 -0.003774936 0.00070734177 0.0012282595 0.0010877332 -0.0011659538 -0.0022527538 0.0014127559 -0.0034519902 0.0030007104 0.0022139112 -0.0036318917 0.0006838109 -0.00026795463 -0.0009307465 0.0032903303 -0.0007477196 -0.0002127168 0.00042326914 0.001894256 -0.00030310595 0.0020503474 1.8686222e-05 -0.0014567773 -0.0002915649 -0.0020285912 -0.0019086198 -0.0021913536 0.0026129298 -0.0013767462 0.0031562098 0.00039151407 0.00040665132 0.0007839502 0.0024729103 -0.0008986803 -0.002733115 -0.0035303708 -0.0014022192 0.0023853816 0.001263131 0.0022634102 -0.0011561135 -0.0033544877 -0.0037323604 0.0037196768 0.0011519382 -0.0014784916 0.0030685463 0.0035249847 -0.0023631337 0.0031178107 0.0021022835 -0.0022902298 -0.0025277673 -0.0013866997 -0.0008040155 -0.0006659826 0.0028260136 0.0022123554 -0.0011306304
32 -6.3455955e-05 0.0034633335 -0.0004135755 -0.0013786516 0.0007828251 0.0031591032 0.0037347195 0.0019114023 -0.0011805211 0.00067431765 -0.0019368937 0.0037383584 0.0033201738 0.002373062 -0.001865836 -0.0019817553 2.2615539e-05 0.0030497522 -0.0009812814 0.0026174341 0.003192994 -0.00025333068 0.002239273 -0.00080891885 -0.0017379018 0.0031498445 0.0023141284 -0.003788741 0.0006157427 -0.0038173408 0.0031875332 -0.0003252628 -0.0022415787 0.0016119401 0.0032092598 0.0018061659 -0.00030177934 0.0035426859 -0.00055016787 -0.0016123649 -0.0028376349 0.0020789464 0.0024487078 -0.0023077587 0.00352823 0.0021502383 0.0014879033 0.0028008237 -0.00170427 0.000108520566 0.0006682639 0.00035954267 -0.0033637937 -0.0008430381 0.0028546213 0.002620678 -0.0037640461 0.0035930183 0.0027853844 0.002104588 0.0027904934 0.0032667497 0.0027713904 0.0035393883 -0.001199253 0.0018353936 -0.0010415798 -0.0028411783 -0.0034502842 -0.0022908035 0.0002873003 0.001810853 -0.0021292786 0.002206858 -0.0005278327 -0.0013453418 0.0003135217 0.0024907286 0.0017173665 -0.0031601412 -0.0016050087 -0.000938993 0.0011916173 -0.0026056808 -0.0022365367 0.00028881 0.0028584197 0.0024197227 -0.00073011336 -0.0031374833 -0.0023971912 -0.0036663096 -0.0037763668 0.0025139737 -0.0007461221 -0.0018694303 -0.0017764225 -0.0038001752 -0.0006552012 0.0030459485 0.0010990145 -0.0031089317 0.0024562483 -0.00040672152 0.002773677 -0.0019484297 0.0028005207 0.0012952999 0.00036407163 0.0013093558 0.0013816177 0.00141676 -0.0019120841 -0.0015593544 0.002656873 -0.0031455883 -0.002102076 -0.000176227 -0.0019893087 -0.0028113837 0.0037362592 -0.0011923473 -0.0032205302 0.0025817275 -0.0009672404 -0.0020539372 -0.0002056141 0.00081678113
20 0.0010826105 -0.0038760314 0.0016057431 -0.0014625225 -0.0038135664 -0.0036926735 0.002842549 0.002379246 -0.0006150359 -0.0019206405 -0.003315501 -0.0021429933 -0.0035430351 0.0015592972 0.00073385914 0.0020689138 -0.0005092744 -0.000108894346 0.0009913952 -0.002949365 -0.001334189 0.00015118334 0.0017479055 -0.00310021 -0.0013450414 -0.0015846319 0.0009948412 -0.002706489 -0.0013865031 0.0011847 0.0034398169 -0.00053515955 0.0017658235 0.0017127763 -0.002174682 -0.0027264538 -0.0038636196 0.0020445173 0.0012593804 -0.003570638 -0.003480249 -0.0010525051 0.0013475706 -0.0014539744 -0.00079351425 -0.0021729427 -0.0006200409 -0.0029331327 0.003183819 -5.2813368e-05 0.00040942972 0.0020495455 -0.0027267719 -0.003884318 0.0033779868 -0.0027706441 0.0003015397 -0.0030471222 0.0032839645 0.003587327 0.0005276258 0.003680102 0.003207393 0.0026449969 -0.003547949 0.0006160383 0.0014489851 0.002383552 0.0037860253 0.003350581 0.0014580676 -0.0008095838 0.0037443608 -0.0025694817 -0.0021343671 0.0032096927 -0.0022840549 -0.0023306455 -0.002265183 0.0018938094 -0.0039022558 0.0023879528 0.0019971118 -0.00063903024 0.00057626725 -0.0030828437 -0.0017062826 0.0015802021 0.0016448537 0.00074993336 0.0023300368 -0.0024697257 -0.00015243901 0.0011844953 0.00053603656 -0.00018840889 -0.0033972028 6.443282e-05 -0.0038213397 -0.00096306263 0.0029806409 -0.0030123417 -0.003627697 -0.000940556 0.0013833609 0.0024868636 0.0024492424 -0.002358359 -1.9925517e-05 -1.7124587e-06 -0.00295682 -0.0006598226 0.003489731 0.00219986 0.00096758263 -0.0034353721 0.0022826614 -0.00026594946 -0.0009002402 9.903104e-05 9.109729e-05 -0.0038771122 6.3170715e-05 0.0010567132 0.00088840676 -0.0021955168 0.0021041234 0.0024663913
28 -0.0037202365 -0.0034398842 0.0014109025 -0.0006065065 -0.0026847443 -0.0024902667 0.00020164366 -0.0005804573 0.0036729474 0.0017603824 0.0009130472 0.0019005483 -0.0036881096 -0.00030175838 0.0020954928 0.003584099 0.001944147 -0.0009959856 -0.0016561063 0.00373168 -0.001466888 -0.0010752148 -0.0030800244 -0.0032342044 0.0008814671 -0.0017026927 0.0012574837 0.003803743 0.0018500409 0.0006182857 0.00097322214 -0.0034945367 0.0016204322 0.0033356075 -0.0024590807 -0.0037251832 -0.0005112396 0.0024333808 0.0015182523 0.002472715 -0.0014211411 0.0020706528 0.0036555848 -0.0025758045 0.0034842186 -0.00034726082 0.0023802563 0.0032311713 0.0017322651 -0.00048968993 -0.0008856647 -0.003762334 0.0023118912 -0.0004175019 0.0024880397 -0.0019030054 -0.0011334241 0.00271791 -0.0033339304 0.0023394749 -0.0030974732 0.0030550766 0.00020413191 0.0016961364 0.0038878927 0.003227677 -0.0019950075 0.0033219876 0.0036851754 -0.0017328621 0.0006708129 -0.00048506315 -0.0014880232 0.0003124191 0.0006641102 0.0015522756 -0.0030458195 -0.0023762546 -0.0038163366 -0.0015821854 -0.0011961318 0.002262367 -0.00067862903 -0.0030565113 -0.0002449542 -0.0030711135 0.0014984801 0.0033233648 -0.0013143313 0.00055373897 -0.00026272633 -0.003293855 -0.0025224024 -0.0028664288 0.0029211382 0.0021938637 -0.0036436094 0.0029959092 0.0023774481 0.001568764 -0.00096128247 0.0011275046 0.0016134551 0.0017667823 0.0026876065 0.0037859688 0.0012200408 -0.0013984059 -0.0013644968 0.0035781309 -0.0037676846 0.0009517035 0.0021379245 0.0038259353 -0.0031041768 -0.002128786 -0.002108149 -9.221416e-05 0.0027600778 0.0021588728 0.0029922852 -0.0028527097 0.002320967 -0.0019409669 -0.0024506354 -7.04093e-05 0.0031522985 -0.0008147718
22 0.0013344783 0.0021596055 -0.0038236405 -0.0010750566 -0.003845935 -0.0014240053 0.0020975391 0.002572406 -0.0028984845 -0.0037452134 -0.00057523756 0.0018759315 -0.0033336345 -0.002146133 -0.0034421766 0.0019096723 0.0027200663 -0.0024104137 0.00085794146 -0.003552704 0.0011256681 0.002470662 0.0028638153 -0.0030319886 0.0026873702 -0.00023238106 0.0025464203 -0.00076420506 -0.0009224184 0.000545205 -0.0011664407 -0.00013040916 0.0026912072 0.0022130865 0.0016724946 -0.00027008657 -0.00342577 -0.0024189895 0.0018502352 0.0026222258 0.00012029925 0.0005855028 0.00016552472 -0.00043069862 -0.0007657555 -0.0026633653 0.003566631 -0.0020854236 -0.0018094789 -0.0012637282 0.0030354296 0.0034216063 0.0011897149 -0.00069923553 -0.0014093667 -0.001992388 -0.0015239972 0.0035312306 -0.0025780387 -0.0029569564 0.00055380934 -0.00087779766 -0.0033693758 -0.0027204657 0.0027054527 -0.0027382765 -0.0029670435 -0.0013771028 0.00033223684 0.0012484029 -0.0008497735 0.0034998155 0.0031215078 -0.0033947963 0.00088693446 -0.00070097594 0.0032527377 0.0030841415 0.002448461 -0.0020963436 0.0004040311 -0.0022345483 0.00012487349 -0.0031649082 0.0012689014 -0.00070927246 0.0018060182 -0.0015135398 -0.003508706 -0.0035697906 0.0021762396 0.0037645448 -0.003450512 0.0022951174 0.0030287418 0.0021652873 -0.00072978187 0.00025766177 -0.0007276729 -0.0023344278 0.0024049336 0.0028884304 -0.0014588693 -0.0023765222 0.0020309496 -0.0033499545 -0.0030737477 0.0024644353 -0.0030197958 -0.0026004494 0.0038774782 0.0012932492 0.0011811903 -0.00043795473 -0.0032959636 0.0025813966 0.0002184169 0.0005773314 0.0013488472 0.0025575298 -0.0020553605 0.0032818378 -0.0012302418 0.00037800122 0.0038731988 -0.0016837902 0.0010173107 0.003148874
3 -0.000909249 -0.0010427955 -0.0011572691 -0.0017733263 -0.0017981505 0.0021249473 0.0023217285 -0.0035501348 0.0035378616 -0.0032243375 -0.0032520336 0.0030976364 -0.0028466615 0.0025089192 -0.0016624149 -0.0020563258 -0.0031364267 -0.0020740016 0.0037339355 0.0005277236 0.0006451627 0.0017883236 0.0028046286 -0.0025300237 -0.001952651 -0.0006600486 -0.0036653904 -0.0026013833 -4.7790676e-05 0.001617642 -0.000983033 0.00029569239 0.0018702875 0.0036073676 0.00056821696 -0.002319556 0.002598916 0.0014582222 -0.0022996292 0.0033549068 -0.0029885548 -0.0016612182 -0.0037012193 0.0019775892 -0.00068443635 -0.002038014 0.0027905288 -0.0016236948 0.0018549236 0.0033929925 -0.0017359012 -0.0013979117 0.00051140547 -0.00058376155 0.0018769975 -0.00088508707 0.0026038017 -0.003631497 -0.0021346493 0.002292591 0.0029027397 -0.002374778 0.0008792698 0.001539857 0.003646391 -0.0005029478 0.0032033855 -0.0033397817 0.0028150475 0.000118985896 -0.00087505864 -0.00044902824 0.0032299105 0.0007035375 0.0032994938 -0.0002896139 -0.0037032282 0.0004190792 -0.003533785 0.0035041994 0.0022519275 0.001903333 -0.0027260252 -0.0026460637 -0.0016308501 0.0017096038 0.0016684759 0.0016479007 -0.0023358515 -0.0037703637 -0.0019731484 -0.0016895047 -0.00054344564 -0.0038285814 -0.0002869384 0.00037498196 -0.0038344727 0.0024154647 -0.003514275 -0.0034410288 -0.001764832 -0.0008588185 -0.003173692 0.0001868152 0.0019963132 0.0014561785 -0.00015112053 -0.0029553166 -0.0026972508 0.0009522859 -0.0005836201 0.0016095414 -0.0034615714 0.0003199801 0.0030965675 0.00042871071 0.00041875438 0.00033776803 0.0017940648 -0.0021070454 -0.00024252685 0.002617475 0.002533529 -0.0026447526 -0.0033178779 0.0018900129 -0.0037168113 -0.0012686311
2 -0.00061153085 -0.0026105186 0.0010878297 -3.2348747e-05 -0.002079503 -9.488259e-05 -0.00208 -0.00074484653 -0.0012619956 0.0017519324 -0.00059112586 0.003700228 -0.0036239899 0.0035654665 -0.0031957745 0.0017930943 -0.0025453663 -0.0028406703 0.003113359 -0.0027336439 -0.0030318128 0.0008584191 0.002894547 0.002739112 -0.0036154396 0.00257078 0.00013629379 0.0014403778 -4.396639e-05 -0.0013291271 0.0023356962 0.0029644242 0.000579997 -9.1438385e-05 0.0012582022 -0.0014645123 0.0016557642 -0.0022957542 0.0012286776 0.0020218038 -0.0035142228 0.0009650422 0.0007572552 0.0016677536 -0.00037245266 -0.0033354005 0.001630197 -0.0032182827 0.0008274507 -7.324119e-05 -0.0023173585 -0.0012089985 -0.0007945248 0.0023910867 -0.0007651077 -0.0022112916 -0.0036644782 -0.0030391274 -0.0028738943 -0.0021287736 0.0030303374 -0.0028641645 0.0007228888 -0.0036589503 -0.0019137574 -0.003018309 0.0020614187 -0.002706228 0.00050394866 -0.0026364059 -0.0025543012 -0.0024034742 0.0014059676 0.003367687 -0.00047055134 -0.0019812316 -0.0022880589 -0.0031981238 -0.0007073459 0.0033845704 0.0033227003 -0.003827763 -0.0029472325 -0.0037034033 0.002853169 0.00057948014 0.0029891627 -0.0013837841 -0.00230969 0.0003252823 -0.001273623 -0.0016477271 0.0006546054 -0.002891076 -0.0034916163 -0.00060795544 0.0017987383 -0.0025078352 0.0034911907 -0.00054930156 -0.000114689006 0.0013234386 0.0036809577 0.0003660938 -0.0031774791 0.00014400895 -0.0023319789 -0.0017368767 -0.0012346862 0.0002220071 0.0028859258 -0.0035828948 0.0017984179 -0.00016155838 -0.00025058634 -0.00020463298 0.002378951 -0.0013424925 -0.0021013555 0.0033631453 -0.0023169073 0.0019668632 -0.0031245258 -0.003414475 -0.0013382165 0.003178756 -0.0020745767 -0.001996189
27 -0.0013862491 -4.5105746e-05 0.0028018523 0.00013703272 -0.0011110714 0.00019168018 -0.00067696424 -0.003015933 -0.0035352027 -0.0021152317 -0.003833059 -0.0010972999 -0.0020895153 -0.0023340047 0.0027846878 0.00033692297 -0.001054698 0.0015026343 -0.0020066611 -5.24414e-05 -0.0027761518 0.002794979 0.0035884257 -0.002606356 -0.0021019618 0.0027359717 -0.0023247716 0.00036129088 -0.0034353521 -0.0031964558 -0.0011167005 -0.0036352668 0.0026139866 -0.0034901896 -0.0011845619 -0.0006245461 -0.0007522856 -0.003413028 -0.0029043802 0.0035577607 0.0037193499 0.0030068334 0.0023050366 -0.0011168395 -0.003460377 -0.0038716407 0.0015385298 -0.0034339768 -0.0031241013 -0.00022295506 -0.0013391804 0.00127982 -0.0022773698 -0.0039045808 0.0020023698 -0.0037961495 -0.0024102097 -0.000102996295 0.0025282598 -0.0010038743 0.0009040128 0.000862513 -0.0012064353 0.002779523 0.001833926 -0.00063164317 0.0029667332 -0.00065863 -0.0024808452 -0.00062896666 0.0012869737 -0.002089592 -9.5216594e-05 0.0017998769 -0.000462746 0.0017017535 -0.00061843754 0.0037468327 0.0033341388 0.0034835455 0.0031986523 0.0027295738 0.0028433737 -0.0010899543 0.0015824051 -0.00068890356 0.0022831536 0.00031122626 0.00087577273 0.0016243522 0.002303659 -0.0027328788 0.0020740533 -0.0010276109 0.00049688766 -0.00027795386 0.00018952021 0.000108022556 -0.00056461827 0.0028497418 -0.00053732895 -0.0028640493 0.0031483956 -0.0015984875 0.0036712594 0.0012077446 0.0010220134 -0.00243405 0.0003428919 0.0033399782 0.0013703371 -0.0035880553 0.0010501575 0.0022502656 0.0009900497 0.001579523 -0.0027686118 -0.0016972513 0.0012252617 -0.0014163762 0.0031358688 0.0032311925 0.0006520927 0.0014446275 0.0030759824 -0.002922994 0.0033825499 0.0019267272
7 -0.0034680823 0.0018741905 0.0038682376 -0.0020023196 0.0026032776 -0.0010173452 -0.0013688499 0.0007554909 -0.0033964703 -0.003843379 -0.0036796867 0.0025779088 -0.003228528 0.0007161974 -0.00207317 -0.0022799112 0.0032015776 0.002715076 -0.0024454019 -0.0021026083 0.0036425092 -0.0036962712 0.000754684 -0.0012646449 -0.0039001359 -0.0027818885 0.0018731041 0.002709834 -0.0027522172 -0.00044510636 -0.0038334723 -0.001037427 -0.0020481516 -0.000730994 -0.0005448659 0.0022339672 -0.0009407332 -0.002886474 -0.002367833 0.0007118418 9.846494e-05 0.0014949539 0.00021305778 -0.0018840019 -0.002418608 0.0031074989 0.0009824962 0.0029148487 0.0033950615 -0.0022557823 0.0034218219 0.0014962939 0.0014250426 0.0022281588 -0.00035561578 -0.0017435185 -0.0036361797 0.0008085914 -0.0033110725 -0.0014062488 -0.003517306 0.0014883537 0.0018018935 0.0004402569 0.0014039304 0.0010257021 0.00038270376 0.0033312012 0.00332164 0.003388788 0.0032524979 0.0013464951 0.0027571956 0.0011560391 0.0032956253 -0.0029907895 -0.003439773 0.0015200096 0.002508678 -0.0029837422 0.0014316997 -0.0025576302 0.0022924761 0.003177466 0.0029278367 -0.0022052056 0.003097264 0.0028832676 0.0016662407 0.0015806427 0.0016358121 0.0027859511 0.0024399043 0.0017599887 -0.0016790722 0.00071275653 -0.0010719143 0.00045577393 0.0025850285 0.0032095439 0.0028385825 -0.0015105355 -0.0030354592 -0.0028243817 0.0031924022 -0.0012141198 0.0026769284 -0.00070435565 -0.0016261934 0.0024529442 -0.0014737692 0.002881923 -0.002852765 -0.0038457992 -0.00036240637 0.0034001244 -0.0026771345 -0.0010497466 -0.0025480962 0.0015639435 0.0007531374 0.0029482937 -0.002654423 -0.0013875844 -0.00081500673 0.002292896 0.0015806722 -0.0027119701
18 0.0033038934 -0.0026910552 0.0023125417 0.003413036 0.0030055502 -0.0009947681 0.0017008707 0.0020723632 -0.002189341 -0.002728965 -8.8847184e-05 0.0007214861 0.0029140087 -0.002865448 0.00012499413 -0.0025827268 -0.002893219 0.0017033818 -0.0004049356 -0.0018249688 -0.002537012 -0.002597275 0.003459195 -9.719814e-05 -0.0033343057 0.001988389 -0.0030563374 -0.0035499665 -0.0016487335 0.0001336732 0.000893232 0.0034546081 0.0026724038 -0.0009110789 -0.0027205902 -0.00087830186 0.0029049031 -0.00054349407 0.0007162531 0.0006620513 0.0002309188 -0.0005122918 0.003138293 -0.0025313916 0.0024399548 0.0015256915 -0.00070294493 -0.0006755131 -0.0038498582 -0.000113908645 0.002439261 0.0016602972 0.00035430398 0.00039878418 0.003212751 0.00060777616 -0.002491535 0.0036243934 0.0017528092 0.00057533727 0.0027691517 -0.0038384264 -0.0027775608 -0.0008756551 0.0024278997 0.0010276262 -0.0034780763 0.0017183638 9.413096e-05 -0.0018452776 0.0021258409 0.002650306 -0.0009538887 0.0009903857 -0.0036346933 -0.0010279093 0.0038018974 -0.0015161113 0.0036772753 -0.0016593415 -0.00024778012 -0.0006443559 0.0010748922 0.0024843472 0.003418751 -6.50159e-05 0.0013333195 -0.00066715735 0.0032811556 0.003381718 -0.0005905499 -0.0020658036 0.0008957198 -0.0005448465 0.0016387522 0.002272594 0.0015849433 -0.0029115158 -0.0023837227 -0.001626136 -0.0019188019 -0.0015124923 0.003455863 -0.0004654484 0.0035784298 -0.0008753719 0.0037040326 0.00077140884 -0.00047734892 -0.0034123291 0.0039058635 -0.0024470568 -0.0029821754 -0.0016155406 -0.003425577 0.001414894 -0.00078632875 -0.0010577777 0.0003973612 0.001990472 0.0024755495 0.00081217923 -0.00055038964 -0.0038856508 -0.0009253742 0.0027365736 0.0028396063 -0.0016306066
26 -0.0028298309 0.00058639166 -0.001158081 0.0032807374 -0.003822163 0.0011253224 -0.0032340137 -0.0038117801 0.0021942474 0.0027018094 -0.002070427 0.0006867917 0.0021867482 -0.0022429477 0.0037665355 0.0018539355 -0.0014796105 0.0028887216 0.002172354 -0.0009658971 0.003650333 -0.0018504482 -0.00088376 0.0020395257 0.003583849 0.0034253558 -0.0034295286 -0.0033948165 0.0033646764 0.0021925305 0.0033360084 -8.906868e-05 -0.0038188063 0.00011723206 0.00010641995 0.003721554 -0.0014846921 0.0033903455 -0.0028127776 -0.003674918 0.0009782825 -0.002009356 0.0035919563 0.0011271754 -0.0033672375 0.0016818517 -0.0005910829 -0.0006598623 0.00056161755 0.001186429 -0.0001782824 4.6690166e-05 0.0033204595 0.00065056636 -0.0029428715 -0.0015844895 0.0003968964 0.0008314064 0.0018116311 0.0031403948 -0.00026720908 -5.52921e-05 -0.0020527418 0.000567537 -0.0013421861 0.0003697802 -0.0030702867 -0.003672023 -0.0019467216 0.0031223628 -0.0033668538 -0.0025674058 0.00048103594 0.0038826226 0.0015490002 -0.0011258546 -0.0005886671 0.0019361248 0.003521154 0.0011502387 -0.0017050563 0.0026984718 -0.0031609172 0.00021822707 0.002724399 -0.0007742911 0.0027938585 0.000595955 -0.0011217365 0.0031492156 -0.0032727201 -0.0034324196 0.0020969 -0.0013978212 -0.0032902944 0.0018888882 -0.0021329205 -0.0026925711 -0.0021354728 -0.0020850175 -0.0019129858 -0.0032832387 -0.0020372334 0.002120527 0.0012099281 0.0012710365 0.0007883386 0.0018872463 0.0011216945 0.0026355833 -0.0018630362 0.0037626717 -0.002724407 -0.0034383126 0.0038151664 0.0011256973 0.000283901 0.0004010573 0.003462106 -0.0020721026 0.0038781012 0.0030765967 0.0036277194 -0.00018253626 0.0018736683 -0.0022964487 0.001259517 -0.002166259
1 -0.0038716896 -0.0014641818 0.0021913992 -0.0029086631 0.0007915701 -0.00034973244 -0.00053246325 0.0038304315 0.0034508982 0.0029405702 0.0011519438 -0.0030089933 -0.0025880584 -0.0015638378 0.003527849 0.0006663505 0.0004928506 -0.0038817893 -0.0006364512 -0.0019973004 -0.0036089886 -0.0004472926 -0.0027905202 -0.002528339 -0.0011141854 -0.0036753628 -0.0014879328 0.00027864258 0.0034061733 -0.00016451314 0.0036977543 0.0005711927 0.00039801138 -0.00026188817 -0.0019460802 -0.0032057778 -0.00086498645 0.0006065006 0.0015447544 -0.0007422719 1.162361e-05 -0.001390911 -0.0018649816 -0.003141197 0.002687782 0.0023532396 0.0014006497 -0.0016561628 -0.0025890493 0.0013337691 -0.0027487406 -0.0007965723 -0.00028940756 -0.0018203589 -0.0023205674 -0.0011717787 -0.002648096 0.0027082402 0.0014020299 0.0020491902 0.00010159725 -0.00031367133 0.0013975337 0.00098229 0.0025667641 -0.00012742719 -0.0025504627 -0.0025805829 0.0020090293 -0.0026428811 -0.00044379753 -0.0026562624 0.002285398 0.0010006662 -0.003398407 0.0021068777 -0.002057577 -0.0011076753 -0.000827358 0.0026433421 0.003621643 0.00072292256 0.001847801 0.0037920447 -0.0039001266 -0.0029319231 0.0025696317 -0.0028213582 0.0022071684 -0.00022140652 0.0038868266 -0.0010914166 -0.00247844 0.0018212344 -0.0023176207 -0.0009096645 0.0022602447 -0.0029971635 -0.0008884239 -0.0019591714 -0.0003480226 0.00071480975 -0.0021246127 -0.001679779 0.0028350956 -0.0022293027 -0.0034062157 -0.0034454889 0.0015959112 0.0021153137 0.0027951782 -0.0007231737 0.0023794707 -0.0026545965 0.002582439 0.0007252625 -0.0011137197 0.0024412188 -0.0018911948 -0.00013118185 -0.0025704259 -0.003753951 -0.0010997936 -0.0016514435 0.0005522779 -0.00033542857 -0.0028738284 0.001054288
6 0.0018918084 -0.0019304055 0.00069389056 -0.00352 -0.0009875004 0.001367763 0.002997304 -0.003299274 -0.0021620889 0.0037907378 -0.00031456733 -0.0016523156 0.00012071435 -0.002012705 -0.001890042 -0.0030484623 0.0005949043 0.0010525432 -0.001812859 0.0015669668 -0.0011401917 0.0009135674 -0.002457055 -0.0022217778 -0.0012970042 0.0010448713 0.0019961793 -0.0006887022 0.0024715732 0.00033301787 0.0034324497 -0.0010532436 -0.00264042 0.00010304714 0.0029182166 -0.003483986 -0.0035620816 0.0025354223 0.0037244356 0.0007067094 -0.002985718 -0.002157482 -0.0031302685 0.0006302281 -0.001549122 0.00034833894 -0.0034471063 -0.0030605628 0.0030889497 -0.003597718 0.0008982707 0.00016736526 -0.0017405782 -0.0024309675 -0.0036158173 0.0026340792 0.002917282 0.0016680455 -0.0010801597 -0.00042585016 -0.0016026979 0.0007500823 -0.0025604689 -0.0005040453 -0.00029542358 -0.0038120388 -0.0028825891 0.0010190522 -0.0018554569 0.0025319126 2.5007315e-05 0.0020559663 0.0024175039 0.0022462294 0.0010887166 0.0022128983 0.00040655344 -0.0020177157 0.0014033449 -0.0019952692 0.0038822847 -0.0035177637 0.0014106919 0.0034152875 -0.0005994854 -0.0035393115 0.0013993895 -0.0005633731 -0.0012982676 0.00049489556 -0.0004968013 -0.0017450141 0.002531503 -0.0027523083 0.0010282827 -0.002263253 -0.0014105851 -0.0023265595 -0.0028382381 -0.00067571964 0.002828444 -0.00059736555 0.0029013131 -0.0038627873 -0.0020542608 -0.0025429393 0.0003556438 0.0023973589 -0.002477469 -0.0010211506 0.003809485 0.0015476549 -0.00097397243 0.0006856178 -0.0011526602 0.0030729142 -0.0013570812 0.00046514018 0.00028839067 -0.000116370036 0.0023325111 -0.0036271128 -0.0030549206 0.0031923933 -0.0004657905 -0.0033742697 -0.0038743764 -0.0028673634
5 -0.00037506304 0.0017699364 0.0037163792 0.0034503131 0.0023406227 -0.00029102355 0.0007109643 -0.0033908605 -0.0013979377 0.0012039524 -0.0025944684 -0.002211938 0.0011309207 -0.00071918423 -0.0018676383 0.0022148255 0.0036428676 -0.0008128382 0.00076954335 -0.0012689342 -0.0026185017 0.0014849543 0.003765828 0.0013583688 -0.00030449717 -0.00077305594 0.0021203882 -0.0012327413 -0.0009990698 0.003478841 -0.002739501 0.0033501994 0.0004099635 0.0017826414 0.0003759503 -0.00079538726 -0.0027291472 -0.0025227175 0.0026203867 0.0033461144 -0.0030044292 -0.0005897477 0.00033838232 -0.002993503 0.0031895242 -0.0016023198 0.00035386984 0.0012681367 -0.0014379664 0.0031861085 -0.0025902889 -0.002781565 0.0020590578 -0.0015308791 0.000691053 -0.00042608273 0.002131561 0.0032233084 -0.0010079773 -0.0028434622 -0.0021152184 0.00021113805 -0.00033307663 -0.0012524708 -0.0015706471 -0.001070307 -0.0034259895 0.0010612332 -0.002894928 -0.00302535 -0.00068257086 0.0005360318 0.00093697594 0.003425542 0.0031566555 0.0031248266 -0.0031856664 -0.0009922453 0.00062056514 -0.0013099886 0.0030189229 -0.0007354892 -0.001311594 -0.0030858607 0.0034025572 -0.0014074969 -0.0036369981 0.0025546646 0.0020503395 0.0032611983 -0.0014348398 -0.0038820268 -0.0030599823 0.00028319462 0.0030379994 -0.001227485 -0.0028418137 -0.0018750189 -0.00094974565 0.002767212 0.0035380893 -0.00084365567 -0.0036322253 0.0025136503 -0.00124181 0.0015322146 -0.0001705373 0.0010975203 0.0027014592 0.00049667386 0.0020519374 0.0013193039 -0.002456265 -0.0017964903 -0.00059975963 -0.00074413116 0.0019313602 0.0038001928 0.0009412742 0.0033918386 -0.001744311 0.0036779048 0.0022342124 0.0025232933 -0.0029239666 -0.0016735357 -0.0038438588 -0.003347785
29 -0.0017237138 -0.0029464469 -0.0031259714 -0.0016632896 0.0016111056 0.0020920346 0.0038372595 0.0024519137 -0.003736053 -0.0021274802 0.00300984 0.0027483471 0.0007763916 0.003217972 -0.002450394 0.0014664776 0.0035466843 -0.0017634674 0.0035868718 -0.003680685 0.0015261828 0.0015463989 0.0016225042 -0.0035258308 -0.0030174968 0.00026714386 -0.0020494296 0.002806572 0.0028776384 -0.0014334741 0.00063572044 -0.0028650106 -0.0019352604 -0.0016099828 -0.0021255205 -0.0013018281 -0.00064725935 -0.0037194674 0.0034999915 0.0027749878 -0.0032816322 0.0016127244 0.0012306428 -0.0023322855 -0.0029829293 0.0013371183 -0.00014175248 -0.001411616 4.328409e-05 -0.0011905413 0.0024240254 -0.0007807013 -0.0008295448 0.0026347295 -0.0038660145 -0.0029858497 -0.001345559 -0.0034048224 0.0038795911 -0.0022889061 0.00020466097 -0.0006464504 -0.002135961 -0.0026347444 0.0006486348 -0.00032766588 -0.0026397186 0.001940813 0.0010666632 -0.0025814474 -0.0015103568 0.0019680357 -0.0020094034 0.0034822046 0.0021651492 -0.0036477358 0.0032888611 -0.002100086 -0.002905612 0.002833977 -0.0030252996 -0.002236767 0.0002948189 8.567523e-05 0.0025680345 -0.0033055048 -0.002016111 -0.002372926 -0.0033063178 -0.0016870755 -0.00027588455 0.00034765992 -0.002677525 0.002386206 -0.003418444 -0.0013531678 -0.0038836657 0.0015472639 0.0005843087 0.0028577505 -0.0010649181 0.0027179974 -0.00023561023 0.002856365 0.0015338354 -0.0035306532 -0.0010269446 -0.0030393866 -0.002977528 -0.0007498988 0.00169565 0.0007434428 0.00080121745 -0.0013746553 -0.0022169861 -0.00017012592 -0.00015702368 -0.0009683222 -0.002635683 0.0027951815 -0.002158955 0.0030190418 -0.0010674288 -0.0037087495 0.0030620603 -0.0016762967 -0.0032180168 -0.0018944605
19 -0.0017681413 -0.0010005547 0.000755288 -0.0022662058 0.00013189104 0.0012620713 -0.00014205041 0.003168042 0.0031073939 -0.0025176406 6.371038e-05 0.0020486629 0.0008924194 0.0017830157 0.0005389572 -0.0032686617 -0.00083614077 -0.0036471046 0.00035691878 -0.002544817 -0.0029372647 0.0028113867 0.0021772298 -0.001173318 0.002220335 0.00324359 -0.0020746803 -0.002794617 -0.0030343735 -0.002987913 0.0016337533 0.0030300377 -0.0016151826 0.0026489482 0.0038612129 -0.0023781932 -0.00042705567 -0.0008878015 0.0026420108 0.000346361 0.0028291373 -0.002610382 0.00027491048 -0.0025492788 -0.00019601859 -0.0037677232 -0.0026244433 -0.0006393463 -0.00021820574 0.0036370566 0.0020676344 0.0014048205 -0.0026673516 0.001206637 -0.0013014626 -0.0035993487 0.00255148 0.0022981015 0.0010011077 -0.002281785 0.0028449756 -0.0025426694 0.0035491602 -0.00075981836 -0.0035794543 -0.002517739 0.003349391 0.0015895353 -0.0002269336 -0.0005488666 0.0032163465 0.00062458037 -0.00096802996 -0.00011832196 -0.0030559064 0.00052028964 0.0027287425 0.0011601001 -0.0013034913 0.0015970502 0.002709332 0.003872512 0.0024069236 -0.0036170357 0.0017973195 -0.00024134121 -0.0021493062 -0.0022924077 0.00020324015 -0.003326369 -0.001831114 -0.003101482 -0.0034015777 0.0016578127 0.0011918027 -0.0036429174 0.0033920875 -0.0021174634 -0.0008211139 -0.000115697374 -0.0038875863 0.0015603954 -1.6261628e-06 0.0012041576 -0.0019572424 -0.0009953553 -0.00033529862 0.0011973619 -0.0029609299 0.00048252795 -0.0035534797 0.0030989898 0.0008390052 -0.0013626363 -0.0011966423 -0.0007791876 0.0004114692 -0.0025419784 0.0014073355 0.0025358943 0.0025642093 -0.0029156434 0.0011477289 -0.0018095502 -0.0030723743 0.0028331797 -0.00016713425 -0.0012355561
31 -0.00358967 0.0035903056 0.00041237095 -0.001030013 0.002191812 0.0010818674 -0.00058773014 -0.00010762123 0.00017668748 -0.001303158 0.0020095152 0.0038458835 -0.0024703431 0.0024595633 0.0021456955 0.001553868 0.003354537 -0.0006429331 -0.0019139783 -0.003138782 -0.003797744 0.0017576197 -0.002905387 -0.0024091976 0.0009617265 -0.0035614977 0.0035663927 0.0008415752 -0.0033435912 -0.0028019217 7.7884426e-05 -0.003340531 -0.0018228989 0.0016083849 0.001949844 0.00035404757 0.0007554809 0.00091913866 -0.0031329745 -0.0036159405 -0.003575007 0.0033908184 -0.00095358724 -0.0013445998 0.0008095795 -0.0012051624 -0.0025300793 -0.0014174882 0.0027962385 0.0031657217 0.0027603183 0.0029103986 -0.0025054193 -0.002548608 -0.0020281335 0.0016122368 0.0037168164 0.0024931498 0.0028995357 0.0019609372 -0.001530185 -0.0037553522 -0.0014616163 -0.0038515984 -0.0016174439 -0.003822861 0.0031933992 0.0016232539 0.0018361338 0.00042577172 0.0038920315 0.00045348465 -0.0015182527 0.0034903067 0.0027384816 -0.0021721735 0.0033071456 -0.0014525085 -0.0029089802 0.003372087 -0.0004892016 0.003008726 0.0038311514 -0.0037196411 0.001834889 0.00036224886 -0.0009661056 -0.0027492407 0.0018531237 0.0010759737 -0.0020327498 0.0010895613 -0.0024004602 0.0025461344 0.0028210536 -0.0010908142 0.0005024052 0.0018318305 -0.0004347807 -0.0014054395 -0.0036808562 0.0034334094 0.0013771283 0.0019310793 -0.0010682566 0.00074049237 -0.0036763109 -0.002848429 -0.0016885037 -0.003767013 -0.0030142567 0.0036566542 0.0009142056 3.1088748e-05 0.0021202045 0.0027254494 -0.002932872 0.0010270701 -0.000200026 0.000401139 0.0016675732 0.0016234549 0.00084691163 -0.00063771853 -0.00068297115 -0.0031548012 -0.0016423088 0.0018313016
9 -0.003194422 0.0037943614 -0.0034996974 -0.00067912927 0.0011496826 0.0029888235 -0.00067955547 -0.0006014655 0.0011667019 0.00038792047 -0.0032761407 0.000699938 0.0031333144 -0.0015845412 0.0010078691 0.0028565319 -1.5987987e-05 -0.002079443 0.0030254927 0.0015408832 -0.0007543182 -0.0024581896 0.0017901742 0.0018603714 0.0032546911 -0.0032949394 0.0014676076 -0.0014948758 -0.0018650935 -0.0022290803 -0.0032876343 0.00020643178 0.00052945106 -0.0005626894 -0.002855203 -0.0002748083 -0.0033378156 -0.0024428577 -0.00020685564 -0.00081779034 -0.0009618183 0.0016185711 0.0021029394 0.0027239982 -5.2127158e-05 0.0022754867 -0.0018271117 0.0034988 -0.0030819953 0.00031608308 -0.0032150024 0.00033166792 -0.0033385663 -0.0006119995 -0.0032486916 -0.000752515 -0.0022230092 0.0022886624 0.0032794718 -0.0017528825 0.0015664072 -0.0030321153 -0.0036236814 0.00087348215 0.0038835262 -0.00069896196 0.003569076 0.0017116314 -0.0027873346 -0.0015982569 0.0035830294 -0.0013021274 -0.0020550943 0.00024932701 0.0012500242 0.0021465444 -0.0018234472 0.0027685885 0.0038051931 0.0026955167 0.0026051458 0.0016139664 0.0003900926 -0.0029010691 0.0022496406 -0.0012455948 0.0026941344 -0.003299468 -0.0007295532 -0.00010095882 -0.0035561444 0.0004436101 0.0014643362 -0.002216601 0.00092038466 0.0008178139 -0.0027984697 -0.0010757949 -0.001233741 -0.00048643406 -2.6765614e-05 0.003617422 -0.00018350841 -0.0022333732 0.0011740653 -0.0010543831 -1.2595286e-05 -0.0024298509 -0.0035194631 0.0037191205 0.0037252905 0.0033926659 -0.0033351998 -0.0028520708 0.0011407017 0.0018608342 0.0035465043 -0.00058042206 -0.0006952518 0.0037117389 0.0015541248 -0.0018372951 -0.0011262827 0.0011310299 0.0022689924 0.0025454075 0.0025274495 0.0033413698
17 0.0032077446 -0.0017721766 0.0006579738 0.0023914042 0.0023919595 0.0015890718 -0.0006718828 0.003217962 -0.0015042818 0.0003928122 0.0025395616 0.0036603282 -0.0033244572 -0.0024414705 0.00028522735 0.0038685012 -0.002913247 -0.00020970003 0.00014427396 0.0031491786 -0.0002325632 -0.0028103022 0.0032488431 0.00012298876 0.0004839902 -0.0012319426 0.0015941953 -0.0030981004 0.0033464932 -0.002676159 -0.0018285947 -0.0010813919 -0.002084784 -0.0029390114 -0.00046257197 0.00090121565 0.0032311862 0.00025031116 0.0038036297 0.0023154041 0.00034338958 -0.0013518002 0.0031119813 0.0026501156 -0.0032041993 0.0011625533 -0.0037616976 -0.002845812 0.0033270067 0.0012593998 -0.0002222222 -0.0018831042 0.0008618765 0.0038767944 -0.0011235876 0.002894592 0.0006886827 0.002368829 0.00034546255 0.0021565654 -0.003708401 -0.0034187445 0.0018863179 -0.0027706122 -0.00088435726 -0.0036507745 0.0032228774 -0.0002951786 -0.00314234 0.0031952467 -0.0032419988 0.0037316347 -0.0019412042 -0.0019703484 -0.0013552408 -0.0012085631 0.00015783048 -0.0022857261 0.00025011 -0.0018080474 0.0037525024 0.00021841167 0.00043058186 -0.0025784962 0.0036014118 0.0007353185 -0.0032919215 -0.0024504946 -0.003118227 -0.0021429348 0.0022019532 -0.003429996 -0.0015201995 -0.0030168162 0.0016722921 0.002365724 -0.00061586295 -1.205917e-05 0.0028042307 -0.0009112354 0.0026874372 0.0022724152 0.0028127485 0.0028526508 0.0020857754 -0.0018147323 -0.002482534 0.0007549013 0.00055620325 -0.0032134806 -0.0023572783 -0.0037667358 0.0020298555 -0.0002660824 -0.0007287524 -0.0018481791 0.0015910391 0.000815618 0.002479005 0.000715091 -0.0036934793 0.0039025776 -0.001501981 -0.0037968487 2.7000244e-05 0.0025648894 -0.0017014161 -0.0023576806
24 0.0018095417 0.0008777582 0.0025144545 -0.0007897003 0.0013099218 -0.0037235331 0.00010084161 -0.0015044978 -0.0023539197 0.0014298016 -0.0036443903 0.00041574897 -0.003627395 -0.00086624915 -0.001768653 0.0027011333 -0.0012518557 -0.0019773715 0.001826524 -0.0016343577 -0.003619578 0.0033621755 -0.0013501573 -0.0027335812 -0.00079601223 -0.002345103 0.0032194506 -0.0025466536 -0.0015109626 -0.0032203482 3.083517e-05 -0.0008325524 -0.0016291362 -0.0007512658 -0.001420078 -0.003121772 -0.001787019 0.0010089597 -0.002609381 -0.00040417063 0.0022647318 -0.0012238667 0.0021401488 -0.00182696 0.00042317086 -0.0018575653 -0.0031586157 -0.0021963017 -0.00066606794 -0.0002720628 0.00020811829 -0.0014549994 0.0013043677 -0.002525218 0.0022121614 0.0012305378 0.0021064796 -0.003360259 -0.000558792 -0.0011381353 -0.0011638057 -0.00079566956 -0.0021367858 -0.0011062232 0.0001679402 -0.0012533865 -0.0022381416 -0.0025735358 -0.0010068269 0.0021627594 0.003186132 -0.0022404436 0.001778847 0.0020372863 -0.0024027235 -0.00026770125 0.00044263006 0.00094033487 -0.0008545724 0.00016081921 -0.0005621902 0.00050868775 0.0024268962 0.0036800965 -0.0002924989 0.00044275384 -0.002845848 -0.0022590759 -0.0031957931 -0.0008493188 -0.0032644686 -0.002244964 0.00014893722 -0.000850659 -0.0026976375 -0.0037933136 -0.0035122165 -0.00170178 0.0003330322 0.003401871 -0.0015486449 -0.0031615552 -0.0016442244 0.0018392091 -0.0034054487 0.0023450945 -0.0019933744 -0.002972311 0.0012968922 -0.00020888964 -0.0013334219 0.0020498643 0.0007884013 0.0016933831 0.0010722729 0.0026339898 0.001002239 -0.002083703 0.00084310514 -0.0010477765 -0.0027923824 0.0012997454 0.0010513046 0.00084817497 -0.0020520599 -0.0010482146 0.0012824552 0.003052434
4 0.00085238117 0.0032713304 0.00090691674 0.0010794543 -0.002615692 0.0030879846 0.00024574524 9.104462e-05 0.0024910276 0.00063605397 0.0031380977 -0.0010078013 0.0035080644 0.0007022559 0.003643165 -0.0012716254 0.00066463323 -0.0012520342 0.0030131424 -0.00047568307 0.0014478181 0.003180155 -0.001725707 0.003647466 0.0010050945 -0.00069483486 0.0017761881 0.0016940234 0.00356494 0.0025461495 0.0005311547 -0.0014991548 -0.00028368147 0.0017443222 0.0029295774 -0.002510583 -0.003719659 -0.003044937 -0.0020727916 0.0011754343 -0.0038974483 -0.0038394586 0.0008427762 0.0006378297 -0.0031446095 -0.00042749583 -0.00295097 -0.00096158567 -0.00070988503 -0.0007659739 0.0023911202 0.002260547 -0.0037373423 -0.0016327143 -0.0037404266 0.0020481783 0.0039018614 -0.002557301 -0.003554157 -0.0010076383 -0.0005090688 -0.00062475365 -0.0022640503 -0.0034074965 0.0013908482 0.003075124 -0.0017847173 0.0037613057 0.002743215 -0.0036500029 0.0034050304 0.0018502786 -0.0004777279 0.00074888876 -0.0036843058 0.0011667274 -0.0013485907 0.0032475982 -0.003827516 -0.0008422285 0.0032622365 -0.0015855428 0.002609544 0.0020826103 0.0005483524 0.00056859833 0.0017621769 -0.0019146879 0.0018693109 0.00041804984 0.0015103128 -0.0036383185 2.3654398e-05 0.0017178253 -0.00023710592 -1.4148551e-05 -0.0009391833 -0.003209423 -4.824347e-05 -0.0024747967 -0.002492698 -0.0027422833 -0.0035400947 0.0033349672 -0.0036639296 -0.000493609 0.00025530954 0.0024980586 -0.0006227823 0.0003271974 0.0024009598 -0.0036748399 0.0032654316 0.00095589814 0.002868677 -0.0026365472 0.0023069358 0.0003130811 -0.00012336373 -0.0013879042 -0.00031255215 0.0011609475 0.0017585595 -0.0017070379 -0.0023077938 -0.002236941 0.0001215396 -0.0003284501
33 -0.0021923014 -0.0016126006 -0.00070223736 0.0034166193 -0.0008669059 -0.0008013309 -0.0021907547 -0.0032403558 -0.00048062878 -0.0034063344 0.0012096757 -0.0015648445 0.001928802 -0.0020260161 -0.0009637981 0.000257131 0.0024167735 -0.0027485243 -0.0008144331 -0.0007663474 -0.0036386878 0.0036618807 0.002269889 -0.000632954 0.00016653976 0.0016382826 0.0011501414 -0.0021905908 -0.0028838778 -0.0012555639 -0.0012122837 -0.0030950932 -0.0002227295 -0.00030947872 -0.0025621587 -0.0031232012 0.0016391864 -0.00012299862 0.002987963 -0.00122835 0.0012516845 0.0013075207 0.0037793806 -0.001985082 0.0027469767 0.0014561482 0.0038650748 0.0037107489 0.0014275616 -0.0011088407 0.00015724656 -0.0024001794 -0.00050282467 -0.0032137402 0.0031741404 -0.00041586754 0.0014886413 -0.00088767434 -0.00050307106 -0.0008306092 0.003592672 -0.003111708 0.0020876687 -0.0035237155 -0.0029811533 -0.00033723575 -0.00308776 -0.00023771741 0.0010382077 -0.0020639028 -0.00030249974 -0.0030688115 0.0035997403 -0.001489584 -0.00011271721 -0.0025362053 0.0027108015 -0.0018479323 -0.0033165358 0.0032765416 -0.0017372387 0.0021234842 0.0011876866 0.0032743588 3.5332825e-05 0.0006082539 0.00029046263 0.001318191 -0.0014795517 -0.0038641396 0.003180212 0.003447078 -0.002671441 0.002261903 -0.0026346345 0.001823724 0.003768775 -0.001263538 0.0027012874 0.0013391281 -8.3050734e-05 0.00228076 0.0036875873 -0.0030073177 -0.00191322 0.00044226105 -0.00040227958 0.0016301759 -0.0016119926 0.0036527363 0.0037334783 -0.001430713 -0.0022157675 0.0007061295 -0.0009709418 0.0023122574 -5.164622e-05 0.0021779772 -0.0013477601 -0.0004650555 0.0017941445 -0.0018770549 -0.0013048581 -0.0005839216 -7.684845e-05 -0.0033888463 -0.002298067 -0.0029316102
8 0.0019733184 -0.00020008384 0.0030564656 0.0014026852 0.0011118622 -0.0027200857 0.0038767876 0.0032814776 -0.0024188051 -0.00010210527 -0.0011556884 0.00063210726 0.0017726467 -0.00014245191 0.001679168 -0.0020453208 -0.0033998797 -0.002306812 0.00045841993 -0.0012531742 -0.0012387532 0.0022042438 0.0030920287 0.0018209706 -0.0023833744 0.0018915336 0.003461854 -4.463999e-05 0.0022370506 -0.0033089553 0.0001696214 0.0015995885 -0.0012077544 0.0029353905 0.0022065588 0.0036351865 -0.002355197 -0.0007580721 -0.003376232 -0.0033855406 0.00087564037 -0.0029270886 -0.0023120146 -0.0027475655 -0.001657947 0.0014816637 0.0006071911 -0.0006214127 0.0012010296 0.00036323772 0.0021161395 0.00033750013 0.0036008945 -0.0002909777 -0.00056797947 0.0030639747 0.0006898712 0.0030065745 0.003672496 -0.0010141162 0.001855465 -0.002893202 0.00023225039 -0.002126147 -0.003491031 0.0025649972 -0.0016348858 -0.00015885077 0.0011297498 -0.0016746119 0.0035685252 0.0031957845 -0.001232937 -0.0004148376 -0.0017052235 0.003138205 0.0025347804 -0.0035451916 -0.0026526563 0.00243384 -0.002794897 0.0011753326 -0.0018604877 0.0023647603 0.00014206751 0.0010448933 0.0020484433 -0.002885092 0.0027176084 0.0012784951 0.0016893648 0.0028878755 -0.0008274596 -0.00031803243 -0.00011972147 -0.00058641424 -0.0035853297 -0.0025666126 0.0025809184 0.00026599108 -0.00031055513 -0.0031978034 0.001295873 -0.0032010844 -0.0039039734 0.0031373114 -0.0012320161 -0.002637678 6.99134e-05 0.0036054028 0.00014474573 0.0037091612 0.0027558845 -0.0021692617 -0.0014197043 0.0032813435 0.00073285936 0.0027547728 -0.0015465171 -0.0017485634 0.002101821 0.0014482902 0.0023033752 -0.003723665 -0.0037799445 -0.001656712 -0.0010072315 -0.0033867047
11 -0.0011899315 -0.0024594401 0.00037448137 0.00028028255 0.0013263476 0.0010648594 -0.002648959 -0.0008981135 -0.0023484884 -0.002173397 0.002851304 -0.0009892654 0.0023339537 -0.0012668673 0.0034243055 0.00056352513 -0.0022163326 -0.0017152474 -0.0021338149 -0.0014765098 -0.00084943074 -0.000356901 -0.00058689987 -0.0013342419 0.0022312594 -0.0013993622 0.0014880801 0.00011968729 0.0012403376 0.003735894 0.00023339913 0.0029064002 -0.0015228454 -0.00048814336 0.00018240219 -0.00035982655 -0.0036809251 -0.00149931 -0.00073842355 -0.002787458 0.002675022 -0.0030604478 -0.0016082154 0.0025449938 0.0009750354 -0.0031148905 -0.0017612646 -0.0014985736 0.0031299565 0.00089046464 -0.0016183855 -0.003702513 0.001241119 -0.003561672 -0.00079794787 0.0027815164 -0.0018869347 0.002522344 -0.0007429653 0.0002754618 -0.0016178428 0.0018975013 -0.00093263795 0.0011952547 -0.00087080454 0.003116195 0.00046879795 -0.00091163476 0.0014698675 -0.0013348279 -0.00031335306 -0.0027522135 0.0026099703 0.0036870409 -0.0011381182 -0.0020803064 0.00040394536 0.0029452478 0.0013794634 0.0031350492 0.00050710957 -0.0033857161 0.0032188683 -0.00141446 0.001546467 -0.00280402 -0.00033575826 -0.0006571477 -0.0022242665 0.0021130424 -0.003767284 0.0011154367 -0.0014918835 0.0032866632 -0.0019366374 0.0029646917 0.0007191128 -0.00056641136 0.0020229346 -0.00012513794 -0.0013030493 -0.00022757723 0.002266578 -0.00083871867 0.0018148539 -0.0007742096 -0.0016100068 -0.0035675825 -0.0023828761 -0.0028337978 0.0022587015 -0.0020532345 -0.0037199224 0.0030803576 0.0018720356 0.0007514482 0.0036212215 -0.0015080802 -0.0015279588 -0.003267335 0.00070264674 0.0028014965 0.0007079215 5.037492e-05 0.0025419341 -0.002283421 0.0018561146 -0.0020408693
10 0.0031688449 0.0007168919 -0.0004898836 -0.0030653717 -0.0034947481 0.0037036734 -0.00042437113 -0.0005222727 0.0008902701 0.0010636767 0.0007410596 -0.0039033073 0.0038317186 -0.0016435074 0.0030359582 0.003223429 0.0030549308 6.6950466e-05 0.003658716 -0.0028020418 -0.0023904343 -0.0023268706 0.0025279645 0.0037365162 -0.0012735957 -0.00054733845 -0.0016838473 -0.0016746832 0.00087027985 0.003579051 1.1469822e-05 -0.0034220188 -0.00041834058 0.003501251 0.001945507 -0.0028066551 -0.002417321 -0.0016712174 0.0033658487 -0.00015517425 -0.00058998575 -0.0025589012 0.00022232765 0.00064822956 -0.0016323641 -0.0015759238 0.002552773 -0.0020346914 -0.0010999531 0.0027559025 0.0016895782 0.0023019533 0.0006713511 0.0007714561 -0.00029256454 0.0014905963 0.0026630214 -0.00016180212 0.003838956 -0.0037814628 -0.0009206074 -0.0028113483 -0.002034501 0.00067441264 -0.0033982433 -0.00090658903 -0.0008529449 0.0028579142 -0.001801818 0.00097238534 0.0028561219 -0.00043552922 -0.00090980664 -0.0031005028 0.0014971872 -0.0023185574 -0.003438596 0.0021627732 0.0015009575 -0.0023938462 -0.0028369583 0.003727789 0.0013875435 0.002956113 -0.0020267013 0.00068528537 -0.0015247292 0.0026759922 0.0027989459 -0.0026459931 -0.00010940992 -0.0023169438 -0.0011454918 -0.0010505173 -0.0026041549 0.0035629487 -0.00093489507 0.0023273148 0.0014283254 -0.00021519075 -0.001941537 0.00027845765 -0.00033479708 0.0009799105 0.0011288632 0.0005466218 0.0010469786 0.002519181 -0.00055025885 0.0019120983 0.0025668922 -0.0032404969 0.0011532137 -0.0009027708 0.0031167883 0.0038940553 0.00091379666 -0.00022788196 -0.0027038488 0.0036865894 -0.0015673657 0.0004374432 0.00043347388 0.0026421142 0.0016793128 -0.0018394461 0.0027638802 0.0008353299
12 -0.002958205 -0.0014066397 -0.00021028741 -0.00028376517 -0.0015044411 0.00018609542 -0.0017409734 -0.002024737 0.0020141113 -0.0012143684 0.0037247296 -0.0031597614 -0.0009207366 -0.0024375515 0.0027369848 0.0008652801 -0.0020966092 0.0017688104 -0.0036695737 0.0022923907 -0.0010553406 0.00028169918 -0.003570561 0.002008831 -0.0033080624 -0.002035967 0.002785109 0.00070079864 0.0031709764 -0.00021132875 -0.0038854042 0.0025574146 -0.0023625074 0.0013252231 -0.0006811288 0.0026660496 0.00020835664 0.0038644806 -0.0034493867 0.001273591 -0.00011503452 0.0023846736 -0.0038341964 0.0009730489 0.00026530505 -0.0032163137 0.0011205649 0.0010027268 -0.003123727 6.808592e-05 0.0019075517 0.0027881754 -0.001754556 -0.0031748975 -0.0034036303 -0.0013429385 0.003269323 -0.0015368266 0.0009202977 0.0029673656 -0.00075503974 0.003558031 0.0014568795 0.00078482216 -0.002011888 0.0027332334 0.0018366115 0.0030708755 0.0014230408 -0.0021975236 -0.0018311817 0.0036030952 -0.001288314 -0.0023418604 0.00088614697 0.00049244665 -0.0036229282 -0.0025371225 0.0010152172 -0.0038786794 0.0038674383 0.0021861496 0.0030591432 0.0013207973 0.0019491981 0.0005808426 -0.0038967372 -0.0028248865 0.001177959 0.0016767473 0.00016174049 0.00074934174 0.00241453 0.0023743461 0.0021985099 -0.0024598315 -0.00089276215 -0.0030869753 -0.0009921375 0.0006372228 0.0018519267 -0.0035009054 0.0017550236 0.0020102763 0.003809029 0.0013804305 0.00017318498 0.0009710728 0.0011426926 -0.0028119737 -0.0008011168 0.0001917012 -0.0020500747 -9.572238e-05 0.0029079467 0.0020148482 -0.0016862351 0.00354361 -0.0031940045 -0.0012889476 -0.00181946 -0.0021295415 0.0010338491 -0.001615388 0.0034877872 0.0034017751 8.1881706e-05 0.0021311385
30 0.0017026886 -0.0015349055 -0.0038768444 0.00068647513 0.0010166503 0.0029246274 0.0034415934 3.8318474e-05 -3.4706427e-05 0.0038854151 0.0023817967 -0.0025170315 -0.0013334904 0.0026901383 0.001007368 0.002408062 0.0018333605 0.0019871865 -0.001405951 0.001951496 -0.0037073228 0.0011857271 -0.0024698286 -0.0020680025 0.00026081796 -0.00045165324 0.0017115703 0.0016689833 -0.00027347094 0.00014264887 -0.0002669592 -0.0012322692 -0.0014239348 0.0012016547 0.003734869 0.0017481241 -0.001557002 -0.002680298 -0.0026577616 -0.0006081786 -9.212318e-05 -0.001468384 0.00040579736 0.0019109056 0.00095773494 0.00067292835 -0.0013174945 -0.0030119196 0.0022567625 -0.00047735512 -0.0018086435 0.0020656786 0.0011890032 -8.234383e-05 -0.0032479553 -0.0023883942 0.0026949872 0.0015180855 0.0021412687 0.0005530578 -0.0014405057 -0.00094177324 0.0011414895 -0.0018256464 -0.0032290192 0.00091008004 -0.0019336378 -0.0028135309 -0.0021618544 -0.00085709646 0.0008544627 -0.0012073138 0.00040184084 0.002493951 -0.0036130974 -0.0029723807 -0.0016863171 0.0029112708 -0.00022241585 -0.00040826364 0.0032196154 0.00066717324 0.0014750806 0.003671036 0.003042227 -0.0019071532 -0.0009877932 0.0025138739 0.000991586 -0.00092769496 -0.00023991078 0.001238151 -0.00041397143 -9.108369e-05 -0.003413491 0.00074166 -0.0029089272 0.0018469472 -0.002833809 0.0020005465 0.0006519844 0.0017909497 -0.003485006 -0.0006755797 -0.001349005 0.0011811678 -0.003011876 -0.0034289684 -0.0021305073 -0.00094423787 -0.0033582107 -0.0024455532 -0.00096935057 -0.003476658 0.002954537 -0.002870505 -0.0030256764 0.0028073248 -0.0020065936 -0.002211318 0.0033646876 -0.0015125963 -0.003650751 -0.0035643193 0.0022747463 0.0025844818 0.0018294739 -0.0013736609
