34 128
14 0.0017682037 -0.0035944728 -0.0018044241 -0.0020252834 0.0036977772 0.003074614 -0.0038943354 0.0031523043 0.0010218302 0.0018383879 -0.0021087811 -2.1058037e-05 0.00057902833 0.0034595972 0.00018276926 0.0017944308 0.002550924 0.0016547225 0.0020309684 -0.0026560533 -0.00026461546 0.0035888643 0.0018241088 -0.0005784234 -0.00039308204 -0.0020972753 0.001795706 -0.0032460568 -0.002693132 -0.0005022516 -0.0012227524 0.0036736645 -0.00052763295 0.00058114564 -0.00047243442 0.00018083051 -0.0007194121 -0.0014094845 0.0009041587 -0.001968756 -0.0026403537 -0.0014806035 0.0034222445 0.0017515462 -0.0009176309 -0.002342522 0.00074405683 -0.0014956759 0.0012873946 -0.0035127008 -0.00353948 0.002604116 -0.0031689974 0.0018950017 0.0022243105 0.0025892893 -0.003845253 -0.00048994547 -0.0023771578 0.0014898374 -0.0016008856 0.0025156457 0.0023015742 -2.4415142e-05 -0.002814956 -0.00027954983 -0.00025763913 0.0024329147 -0.0016178602 0.0029301094 0.0037659165 -0.002548028 0.0006106829 0.0022309457 0.0011473448 0.00016688068 0.0014109962 0.0019218337 0.00016588329 1.9724803e-05 0.0026392795 0.000628239 -0.00016570752 -0.0031351817 -0.0031349484 -0.0015381492 0.0019757694 0.0015957213 0.0029562996 0.0022098313 0.001410604 -0.0038173029 -0.0022719528 0.00049032044 -0.001314367 -0.0022798954 -0.00056781154 -0.0028236094 0.003063414 0.001700634 0.0018254148 0.0023547222 -0.0029263531 -0.00021754374 -0.00070614053 0.000890045 -0.0025113295 0.003880554 -0.0010867983 -0.00044961457 -0.0014790758 0.0027777487 0.0012385176 0.0027168978 -0.0010360292 -0.00299002 -0.0005398005 0.0003926266 -0.0033354692 -0.0015585014 0.0035158899 0.00094006816 0.0017147153 -0.002534914 -0.00082032237 -0.00020036135 0.0014170159 0.0004620721
21 0.00019424674 0.0020232592 -0.0020623805 0.0031048453 2.3800045e-05 0.0025724412 -0.0009725985 -0.0011846079 0.0024637727 0.0028199854 0.002916114 0.0014909934 0.0009883879 -0.0035168699 0.0028147746 -0.0029671218 0.0012837105 -0.0016236759 0.00042612437 -0.0019151391 -0.0011674511 0.0030775876 0.0016861454 -0.00025499388 -0.002117824 0.0013333377 -0.0033875972 0.0024159998 -0.00017118227 -0.0007203755 -9.661357e-05 -0.0015687974 -0.0031326872 -0.0004171286 0.0018672217 0.0025358244 0.00055180385 0.00042568424 -0.0020351377 0.0008862446 -0.00041827996 0.0025607804 0.0007061612 -0.0021173668 0.001812793 -0.0023636818 -0.0030096623 0.00018492692 -0.0029273445 0.003700909 -0.00059657625 6.33303e-05 0.0020665675 0.0005294472 0.0026337868 0.0007302107 -0.001119303 0.0039034053 0.0018844508 -0.0037875904 0.003140275 -0.0011240072 0.0012740137 0.0010344568 -0.003431213 0.0011898701 -0.00022839235 -0.00049609644 0.0029884235 -0.0038567318 -0.0036445134 0.001563446 0.0022911306 -0.0024075315 -0.002729136 -0.001197041 0.0031633608 -0.00030003997 -0.0022727095 -0.0024032164 0.0018462248 -0.0029775396 0.00088332855 0.003874033 -0.0009898369 0.0030492349 -0.0017878258 -0.00026817064 -0.0024121318 0.0037669172 -0.0030835695 0.0038904254 0.0022695996 -0.0015994674 -0.0033995572 -0.0023753978 0.001831332 0.0006173708 -0.0018163825 0.0020679662 1.5638969e-05 -0.0022449838 -0.0024985513 0.0011217133 -0.001418115 -0.00093334087 -0.0032670936 -0.0033415256 -0.0004184361 -0.001997489 0.0018665782 0.0034779257 0.0033194686 -0.0016112301 0.0030038443 0.0032450769 0.0035703476 -0.0037011649 -0.00091513887 0.0038084604 0.001784533 -0.00043090072 -0.0025813829 -6.884391e-05 -0.0023176009 0.0020243789 0.0032089846 0.0035256664
23 0.002167651 0.0014873482 0.0018133732 -0.003512587 -0.0005956235 -0.002438012 -0.0016540901 -0.0014424806 0.00075542246 -0.0007723819 -0.0033622687 -0.0020545642 -0.0013154212 0.0038784058 0.0031666164 -0.0016540694 -0.0011946714 0.0015843735 -0.00032047243 -0.0031642294 -0.0038582275 0.0009735671 -0.0030266687 -0.0036514709 -0.0017934091 0.0012778074 -0.000526069 -0.0035191681 0.0027427822 -0.0009935991 -0.0037856363 -0.0014058193 -0.0028110852 -0.00087062 0.0022819748 0.0011700385 -0.0036964538 -0.0005139697 -0.0035717413 0.0008446397 0.0033320452 -0.0020906855 -0.0012975546 0.0014263778 -0.0003873723 -0.0029345928 -0.0025507866 0.001611738 -4.3113312e-05 -0.0014326074 0.001524833 0.0029929024 0.00038782886 -0.0037547438 -0.0037159305 -0.0026888044 0.003871263 -0.0034838931 0.003199707 -0.002728101 -0.00078293425 0.00072918023 0.0024503404 0.0014854404 0.0019702022 -0.003402496 0.00015101043 0.0032313226 0.0030905823 0.00046185538 0.0035893207 0.0014263645 -0.0017376936 0.00014580609 -0.002886499 -0.0020462368 0.0028333142 -0.0033539808 0.00051464967 0.002645114 -0.0005272573 -0.0037839904 -0.001802299 0.0013239301 -0.0005652934 -0.0029891068 -0.0015979407 -0.00023948848 0.0028209817 -0.0020378688 -0.0011032881 0.0016489313 0.0033946615 0.0022496914 -0.0023149739 0.0011491395 0.0020618164 -0.0026820186 0.0009189185 -0.0030514535 0.0023456065 -0.002906286 0.0037861895 0.0030136527 -0.0025985998 -0.0014452172 -0.0015159262 0.001969186 0.0010464252 0.002142987 0.003451024 -0.0006999139 0.0004563272 0.001122231 -0.0010084667 -0.0005308699 -0.0021769686 0.0012200982 -0.0006228843 0.0022537662 0.0028068768 0.0036391634 0.0014227256 -0.0019402002 0.00017723146 -0.0036531342 0.0036129414 -0.0031887311
25 -0.003731478 -0.0008638852 0.001870535 0.0018367864 -0.0036444904 -0.00091379235 0.003691999 0.0016393502 0.0018621776 -0.0037141375 -0.0008862452 -0.00021558025 -0.00096401153 0.00097639574 0.0015461381 -0.003411875 -0.00016187753 -0.00090580265 0.0038948914 0.00029941293 -0.0007272843 0.0018545386 0.0016380636 -0.00044000195 -0.002534556 0.0016365276 0.0013766325 -0.0021916877 -0.0003132533 0.0032075224 -0.0005872895 0.0035850129 -0.0008993641 0.0003008199 -0.0018451756 -0.0035886848 0.0029665357 0.0018247386 -0.0008376614 -0.0017140771 -0.00029603444 -0.00029682086 -0.003288488 0.0029350882 -0.0010714348 -0.0028977469 -0.00091376633 0.00044993343 -0.002391675 0.0002383342 -0.0032606258 -0.00021173597 0.0024109392 0.00074427493 0.0015575037 0.0009221239 4.906725e-05 0.0021409974 -0.0030853956 0.00012774538 -0.00309092 -0.00094338425 -0.0011929744 0.002206579 0.0013845467 -0.0019317612 0.0019158236 5.514995e-05 0.001309899 0.0035198836 0.0014114156 -0.0012727537 0.0017773429 -0.003338071 -0.0028414223 -0.0033350668 -0.0007207282 -0.0006521462 -0.00080406945 0.003796168 -0.002692324 -0.0013501367 -0.0012894521 0.0011112959 0.0022303017 0.0009923157 -0.0012253929 2.7279377e-05 -0.0021923447 -0.003316978 0.0035735653 -0.00064084446 -0.002609927 -0.0009864044 -0.0034990318 -0.0021313198 -0.003180157 0.0029798206 -0.0033725689 -0.0023450758 0.00078728684 0.0038246408 -0.0032073932 -0.001962424 0.003521711 -0.00030769064 0.00055472116 -0.0014311521 -0.0028819395 -0.0008680067 -0.001599735 0.0008161967 0.0036451218 -0.0035647391 -0.0035578522 0.0022086513 -0.003073659 0.0036551978 0.000118078686 0.0009453361 0.00039241268 -0.003316112 -0.0021130187 0.0027885726 -0.002152556 -0.002097441 0.0013968042 -0.0032451125
15 -0.001463775 0.0022804816 -0.00233188 -0.001252303 -0.0035427252 0.0029775763 -0.0034112541 0.0023593637 -0.00165958 -0.0024738612 -0.0030188274 -0.0017846014 0.00069830206 -0.002707613 -0.0005363472 -0.0014587184 0.0004162917 -0.00015027967 -0.0025225522 0.00036221292 -0.0028877608 0.0029566304 0.0027395443 0.0023311991 0.0019245859 -0.0035996104 0.0012275525 -0.0024032034 -0.0032722212 0.0032958938 -0.001361599 -0.0030294673 -0.00052221847 0.0013677523 0.0035599263 -0.0029776236 -0.00061852066 -0.0025215507 -0.0015399085 0.0025373192 0.00065631384 -0.0014989722 -0.00024874555 -0.0020235658 0.0025123854 0.0018183781 0.0007259661 0.003244474 -0.0028458105 0.0022044075 -0.002251259 0.0026739775 -0.0017502106 0.0006080831 0.002923133 3.6095786e-05 -0.000495653 -0.0017149942 -0.0031990223 -9.433714e-05 -0.00029021114 0.00027408716 0.0027546089 -0.0038699112 -0.0028176713 -0.0006961318 -0.0024499893 -0.0019532973 -0.0038131608 0.0029652498 -0.002806594 0.00052095484 0.002655105 -0.0036756538 0.0037861657 0.0008701629 0.0019807685 -0.0014117691 -0.0032026737 -0.0017409159 0.0035332048 0.00026283925 0.00069716515 -0.0031211514 0.0009910371 0.0017098931 -0.003812015 0.00059135 -0.0017243618 0.0029879655 0.0028559424 0.0004934344 -0.0016950266 -0.0033722164 -0.0016255482 -0.0038709089 1.9804524e-05 0.0009449181 0.001105285 -0.0032504965 0.0036545752 0.0011878071 0.0034325998 -0.0031949321 -0.0012686597 0.002787973 -0.00195563 0.00058635283 0.00077754376 -0.0009930467 -0.0039044982 0.0010553999 -0.0026176802 0.0035915552 -0.0006458312 -0.0011217213 -0.003808325 0.0022595553 0.003373106 0.0014273354 -0.0010369263 -0.0013937408 -0.0032988025 -0.0026667342 0.0011836422 2.6426254e-05 0.0016686196 1.7307011e-05
13 -0.0034226791 -0.00028475127 -0.0035068416 0.0028241856 0.0026217292 -0.00276758 -0.0015113899 0.0017438856 0.0029293834 -0.0019954653 0.0007700425 -0.002109348 0.0011779974 -0.0021951154 0.0023794123 -0.00027980248 -0.0008467696 0.0029759717 0.003630846 0.003876176 0.0031210463 0.0028491025 0.0022192067 -0.0037999146 -0.00024372296 0.0029440278 0.00054711185 0.00081313995 -0.0012785095 0.003284558 -0.0010868721 -0.00041740283 0.0037711838 -0.0023597297 0.002452559 -0.0012354762 -0.0011311009 0.002649057 -0.0036631688 0.0036283818 0.003340192 -0.00020453914 -0.0008591188 -0.0022297984 0.00062727055 -0.0028691874 -0.0031721534 0.0033851634 0.0027876447 0.0035641654 0.00016690887 0.00030623327 0.0013545956 -0.00044624732 0.0021350465 -0.00097631395 -0.0023990008 0.0013210623 0.0031031885 -0.003739294 -0.0022281185 -0.00011807629 0.0032286756 -0.0004116967 0.0001589065 -0.0031694476 0.0038559283 0.0029776134 -0.0031633088 -0.0038151818 -0.00031258113 0.0013140433 -0.003030201 -0.001212691 0.0013238826 0.00031010614 0.0033487184 0.0018321972 0.0020084893 0.0028481104 -0.0034497636 0.002924111 -0.0007255111 -0.00131238 -0.0014045639 -0.0026236444 0.00033443782 -0.0025632957 0.00289017 -0.0037903273 0.0031793592 -0.0001980317 -0.003066617 -0.0023641053 0.0012310003 -0.0007880179 -0.0038278124 -0.00057910464 0.0017845826 0.0020002807 0.00035882858 -0.0027927805 0.0030752926 0.0023429042 0.0037197103 0.0009814547 -0.0021806129 -0.0037794576 -0.0001498635 -0.0032037303 0.0009305723 0.0030544787 -0.003299112 0.003862108 -0.0037308508 -0.0032325913 -0.0034525734 -0.0036693842 0.0008687905 -0.001595287 0.0007085174 -0.0014564492 -0.0010581872 -0.0018800135 7.477857e-05 0.0006596788 0.0004442223 0.002978864
0 -0.0024225505 -0.001686796 -0.002394576 0.0025071735 -0.0031616257 0.0022437645 -0.0019990455 -6.518249e-05 0.0035659345 -0.0022143102 -0.001907078 0.0021345501 0.0036315364 -0.0020030914 -0.00027738692 0.003431883 0.0037845238 -0.002851805 -0.0016336547 -0.0022948135 0.0019508192 0.00032927273 0.0029863082 0.0006693979 0.0027146775 0.0016592365 0.0013035543 -0.0036228076 0.003106899 0.0028629159 -0.0023169846 -0.0010881278 0.00028994115 -0.0008893819 0.000954631 -0.0004312525 0.00031537787 -0.0006601772 -0.0028334353 0.0012779622 -0.0007101747 0.0027118842 0.003721882 0.0009966156 0.0011199963 -0.0028773607 -0.0030313046 -0.0025457076 -0.0026859643 -0.0029538737 -0.00037572268 0.0033952834 0.0015957141 0.0011678855 -0.0038867705 -0.0031906136 0.00229179 -0.0008210983 -1.3813456e-05 -0.0023832952 0.00063304725 -0.0026761855 0.0015690669 0.0014838283 -0.0012260178 -0.00010478829 0.002220114 0.0034813357 0.002329413 -0.0001120025 -0.0017501866 -0.0038875265 -0.001824215 -0.0033172574 -0.00040623688 -0.00014213692 0.0012791078 -0.0026847678 0.0014570496 0.0021739746 0.0016386604 -0.001965253 -0.0030804882 0.0033793894 0.0019472024 -0.0008862813 -0.0029155258 -0.0009733775 -0.0032449984 0.0004735831 0.0033120662 0.0024520268 -0.0034392693 -0.0035120754 -0.00026527242 -0.002896699 0.0018161483 -0.00047653556 0.0022632915 -0.001198478 -0.00045135562 0.0009097408 0.0026037511 0.002050241 0.001890091 0.0018360845 0.0028179795 -0.003523076 -0.00221333 0.0038038194 -0.002553999 -0.0013199033 0.0026533746 0.0016936223 -0.00024724245 0.0012443135 0.0012439769 0.0010803186 0.000927628 -0.0032457425 -0.0006282005 -0.0037408671 -0.0023890445 0.00359021 -0.00097373856 0.0032234802 -0.002462943 0.0025104054
16 -0.0035601591 -0.003457487 -0.000108836015 -0.0033067283 0.0033330815 -0.0030620336 0.001126168 -0.0027217793 0.0036867936 -0.002570227 -0.0028319934 -0.0003256333 -0.0028450587 -0.0035127767 0.0032632896 0.000856928 0.0011032324 0.0020562697 -0.0020642027 -0.0025208301 -0.0028480354 0.0012479237 -0.0004688005 -0.0007356179 -0.00020523134 -0.00026406127 0.0008076446 0.0018001139 -0.0005954835 0.0034548321 0.0020745033 0.0031249481 -0.0023853532 -0.0020635114 -0.0037017167 -0.0015824016 -0.0017644675 -0.0019767357 -0.0005401179 0.00072135695 -0.0028439267 -0.00359221 -0.0030040832 -0.0019481439 0.0019326698 -0.0020406807 0.0011365239 -0.0020834033 0.0038058518 -0.0005646779 0.00035390374 0.0017291534 0.0035415108 0.0022319846 -0.0038580294 -0.0025698121 -0.0011296946 0.003622279 -0.0036633022 0.0025377567 -0.0024812722 0.0023424483 0.00042553226 -0.003085244 1.1703662e-05 2.5840143e-05 -0.0017335414 0.0034307663 0.002131778 0.0024656123 0.0025444117 0.0013951256 0.002558842 -8.933221e-06 0.0019937237 -0.0013683912 -0.0036220693 0.0016320186 0.003403323 0.0011192401 -0.0035512305 0.0012476572 -0.002430765 0.0021815489 0.0003714404 -0.00021177653 0.0025998007 0.0028497572 -0.0029602682 0.0030137291 -0.0008056385 -0.0009534645 -0.00253405 -0.001295474 -0.0023617912 -0.0019881541 0.0005257545 0.003586238 -0.0016359739 0.001502997 -0.003620436 0.0023390418 -0.0010735823 0.00027057182 -0.000113494636 -0.0009637826 0.0024660674 0.0017859659 -0.0013271713 -0.0024848436 -0.00013746163 0.0028979152 0.0020196722 -0.00094266003 -0.0026991058 -0.0031440677 -0.0033798025 0.0037542211 -0.0035978933 -0.0038199727 -0.0018384375 0.0018038448 0.00090137846 0.00040771454 -0.003445176 -0.0035955242 -0.003014948 0.0012254013
32 -0.0036963657 -0.0030686771 0.0011312827 0.00067688513 -0.0011558166 -0.0016207858 -0.00389628 -0.0027617952 -0.002604351 -0.001950936 0.00040252466 0.0011255498 -0.0017569361 -0.0028181535 0.0011151853 0.0026601297 -0.0025463486 -0.0022137845 -0.0020800866 0.0011434673 0.00278896 0.0007732256 -0.0033593164 0.003400615 -0.0036959336 0.0037843096 0.0015154905 -0.003738588 0.0015314416 0.0028800783 -0.00034306865 -0.0035412505 0.001296722 -0.0028408593 -8.304295e-05 0.0028618858 0.00020707269 0.0024712903 -0.002242834 7.992113e-05 0.00097427523 0.0033846367 -8.017526e-05 -0.0029109088 -0.0034897963 0.0021263661 -0.003099226 0.0016900861 0.0014134746 -0.0027579858 -0.0035430414 0.0024737641 0.00061005255 -0.0030939472 0.0032270143 0.0025925392 -0.0035540564 0.0038072302 0.0028910858 0.0029901187 0.0005696144 0.0015538401 -0.0018996595 0.002282414 -0.003320285 0.0013779717 -0.003481721 0.00377335 0.0026373838 -0.00083431386 -0.00079505285 -0.003546533 -0.0018336335 0.0020070786 -0.0013118815 -0.003148968 -0.0030037062 0.0029195168 0.0030510603 -0.0038022439 0.0032850073 -0.0025123272 -0.0007577552 0.0013437374 -0.0023765343 -0.0016632117 0.001415818 -0.00063609675 0.0037471375 0.0032581682 0.002201881 0.0014188398 0.0003668217 0.0030594282 0.0018681377 0.0029580358 -0.0025034423 -0.0030276377 -0.0015288212 -0.003329452 -0.0029331625 -0.0027041088 -0.0016247767 0.000109960674 -0.0021935538 5.612917e-05 0.0026625898 -0.0011241477 0.0033567208 0.0023947095 -0.00043799967 0.00021447575 0.002243334 -0.00081418786 -0.0005934551 -0.00056348013 0.0001136964 -0.0013286151 -0.0015385366 -0.003122412 0.0035892513 0.0018904472 -0.00020588038 -0.0035816585 -0.0029905203 0.0029554272 0.0037163408 0.0025753186
20 -0.0026205562 0.0015493965 0.0030674965 -0.00047097701 -0.00059663 -0.0021810888 -4.1601088e-05 0.00033669034 -0.0024901505 -0.0011191515 0.0014416543 0.003782171 0.00020865552 0.002390345 0.0012219873 0.002914348 0.003366142 0.00014083344 -0.0029074303 -0.00038916426 -0.0018746865 -0.0021147695 0.0020200228 -0.0033070259 0.0024497288 0.0032640195 -0.0028542588 -0.00065856596 0.0035015554 0.001697275 0.0034523483 0.00037827418 -0.00069257896 0.0016787599 0.0016572041 -0.00045077046 -0.0024840466 -0.0027796635 0.00084320834 0.0022614 -0.0002465067 0.0035105953 -0.00079879095 -0.0023691594 0.0013254875 0.0034461587 0.0029383367 0.0018441204 -0.0009932067 -0.0015873186 0.0019777562 -0.0012198992 0.0016721262 0.0037603201 0.0021202415 -0.0031725834 -0.002298056 0.0032813752 0.003169226 0.0026626242 0.0012860016 -0.0036564039 0.002877863 0.0037383668 0.001955954 0.0022844172 -0.002782056 0.003243055 0.0027257635 0.0021900372 0.0013073825 -0.0014209731 -0.00058471126 0.0028753874 -0.0018017557 0.000851325 0.0019025984 -0.00273754 0.0005345639 2.7939273e-05 -0.00075846753 -0.001967899 -0.0031279633 0.0023604594 -0.00093519175 0.00070627907 0.0011672428 0.00044264915 -0.0022451095 -0.0027657002 -0.0018371758 -0.0023213618 -0.003187293 -0.0012061947 0.0005041429 0.00035729722 0.00044563334 0.0011657889 -0.0010838207 -0.0015406209 0.0012610274 0.002762997 -0.0004729095 0.0020838312 -0.0026838162 0.0033693595 0.0024114156 -0.002348974 0.0004929086 0.0017185475 0.0036653425 -0.00090591324 -0.0020479271 -0.003223873 -0.0018610288 -0.00040444313 -0.0025104128 0.0011708855 0.0012201209 0.00021709963 -0.0023405568 0.002242908 -0.0010635619 0.0013709402 -0.0035646074 0.0021072906 0.003564465 0.0027676832
28 0.002859899 0.0031391366 0.0003196256 -0.0036895326 -0.00043121979 -0.0013388464 -0.0016744882 0.0014275487 -0.0031876022 0.002912845 -0.0020847986 0.0030169438 -0.0021835114 0.0029564635 0.0025682694 -0.0008366366 -0.00059939607 -0.002653155 -0.0021521423 0.0023273425 0.002190297 -0.0026754749 -0.0036366985 -0.0023044907 0.0029206893 0.0004921946 -0.0020154924 -0.0033942205 -0.0003498101 0.0006959231 0.00054983085 -0.0021901315 0.003141053 0.0032951056 0.0023805378 -0.0002841764 0.0034139797 -0.0023841043 -0.00083904376 0.0029860167 0.00015959586 0.003143661 0.0033192472 0.001901637 -0.0008847689 0.0038344883 0.0028575913 0.0037059854 0.0028951229 -0.0006271499 -0.002322881 -0.0014530906 -0.0009046474 -0.003041319 0.00029088452 0.0036448534 -0.0007603797 -0.0035570154 -0.002389811 0.00070688623 -0.0025075334 0.0014255649 0.0033951805 0.0012797987 0.0029914132 -0.0033398038 -0.003211906 0.001653766 0.0038248142 0.0038387144 4.1063788e-05 -0.0027362495 0.0036442396 -0.00061630766 0.002507857 -0.0038404046 0.0037362666 -0.0032062172 -0.00095622323 -0.00015765442 0.000684197 0.002245538 -0.00080913265 0.0018569125 0.0019545073 -0.0030567467 -0.0015468968 9.500238e-05 -0.0005134324 -0.0004761638 0.002445853 -0.0010165334 -0.0012804328 -0.00040654984 0.0009953154 -0.003841259 0.00058801717 0.0038414176 0.003090197 -0.003139053 -0.0009939331 0.0022544519 0.00091555086 0.003464466 0.0029374803 0.0016422032 0.0035810424 -0.0023621658 0.002708727 0.0012622975 -0.0010741604 0.0025442268 0.0022443503 -0.0029446532 -0.0035739108 -0.0038290666 -0.00054013316 0.0013615476 -0.0014336853 -0.0018972515 0.0015225045 -0.0030030718 -0.0027123552 -2.7605678e-05 0.00096334884 -0.0018053632 0.003029227 0.0007051611
3 -0.0010669315 0.003004147 0.0017449501 0.0029539578 -0.0015287709 0.0037124127 0.0010915224 0.0008743592 0.0020543223 0.0016822432 0.00035750266 0.0004025758 0.0018796002 0.00056469307 -0.003421322 0.0022843322 0.00091186573 0.0007478158 0.0037275935 -0.0020014346 0.0026652408 0.00020927815 -0.0033121346 -0.00053983706 0.000987052 -0.0019187792 0.0012479407 -0.00023589029 0.00040118757 -0.0022282016 0.001210075 -0.0014152771 5.519705e-05 0.00082351407 0.0005433148 0.0030411999 -0.00047218206 -0.0017399506 0.001260952 0.0021288202 3.315658e-05 -0.0019629248 0.0034429461 0.0007458199 0.0035800205 0.0033282582 -0.0008041741 -0.0026641309 -0.0011393207 0.003345961 0.0014912502 0.0026191734 -0.00039022006 -0.0011678993 0.002054947 0.0029568921 0.0009634217 0.00044856907 0.00056187273 -0.0031123029 0.003053762 0.001932101 -0.0006712894 -0.0019724132 -0.0006722997 -0.0012195376 -0.003280621 0.0017060809 -0.001252578 -0.0006017647 0.0018814973 0.003518048 0.00033636048 0.00031125202 0.0022787238 -0.0010903005 0.00012181124 0.0023032343 0.0015283002 -0.0011449499 -0.0025456839 -0.0029335963 0.0010052007 0.0034193431 0.0024821716 0.002853855 -0.003567864 -0.0011913712 -0.0012734436 0.0031137054 0.0026407177 0.00023936479 -0.0029403209 0.0027906783 0.0018979604 0.0014258724 0.0010646817 -0.002808646 -0.0024303691 0.0017576491 0.00089631736 -0.002753847 0.0038225232 0.0012702248 0.0030685838 -0.0036102491 0.0028817381 0.00066845096 -0.0020789737 0.003549564 -0.0015316124 -0.0002504802 0.003217606 0.0036254507 0.0034277842 0.0013181333 -0.0020400675 0.0027053675 -0.003462937 0.00074702606 -0.0027624588 0.0026882156 -0.0036804455 -0.0030153883 -0.001824461 0.0021352558 0.0020123757 -0.003842051
22 -0.0036731593 -0.0033516649 -0.0026412625 -0.0025354156 -0.0019493764 -0.0014811296 0.0013994506 -0.0011292853 0.0032661983 -0.002911381 -0.0022607292 0.0037145722 0.0030705067 -0.0014100862 0.0017222959 0.00021542661 0.0019603458 -0.0024333629 0.0032380107 0.0031554722 -0.00073584757 -0.0011923743 -0.0032720931 -0.0034275106 -0.00092369353 0.0029593098 -0.0017279359 0.00076677476 0.0017640174 0.0010331076 -0.00087878504 0.0013733159 -0.0027966455 -0.00024902727 0.003782995 0.0013111416 -0.0012955994 -9.8141645e-05 -0.0016804137 0.0018792782 0.0020391908 0.0008190366 0.00063938845 0.0002310802 0.0017641231 0.0019104022 0.0019678692 0.0024293861 -0.0031897665 0.0025848036 -0.0026760013 -0.0028285056 -0.003570515 0.001307371 -0.00096254284 0.0020485236 -0.0027097126 0.0032543866 -0.002291716 -0.002343449 0.0033203466 -0.0019555872 -0.00068350474 0.003630766 -0.0004458646 -0.0020006825 0.0014185479 0.0027763897 0.00071080006 -0.00034213625 0.002365776 -0.0013607522 -0.0027424193 0.0027188067 0.0023247544 -0.0022028375 0.0012098666 -0.0018342094 -0.0036673378 -0.002001775 0.00067267916 -0.0010643143 -0.00387207 -0.0010016613 3.6633417e-05 0.000804956 0.0012525566 -0.0037720532 -0.0034788686 -0.0012058585 0.0033373886 -0.0033339295 0.0026008622 -0.0037460485 -0.0020498498 0.0013692842 -0.00068315 0.0033185182 0.001195518 -0.002610947 -0.00070394715 -0.003023515 0.0032148082 0.00284355 -0.0026670469 -0.0006821613 -0.0034440504 0.0007375739 4.4855668e-05 0.002602006 0.0020246047 -0.0033553534 -0.00089095224 0.0031255016 0.00011410132 0.0028669112 -0.0032725285 0.00033896416 -0.00038322227 -0.0017169345 -3.5138404e-05 0.0009933899 0.0004377862 0.00228079 -0.0005623809 -0.00086510647 -0.0011476738 0.00042932935
2 -0.00051623245 0.0036091767 0.003467252 0.0016536576 -0.002343967 -0.0027095447 -0.0009910496 -0.0031998479 -0.00052590977 -0.0023349323 -0.0028690896 0.0028982216 -0.0016479357 0.0032554073 0.0024466934 -0.0023028187 -0.0015488858 0.00038427376 0.0016157716 0.0031058497 -0.0012429944 0.00270861 0.002820983 0.0004936073 -0.0036273212 0.0011590632 0.0038320776 -0.0019685116 0.00019881765 -0.0021236658 0.0015102515 0.00034075166 0.00080473453 7.80863e-05 -0.0036381707 0.002267166 -0.0030135314 -0.00020917758 0.00020626477 -0.0012269208 -0.0024861612 -0.00049684156 0.0016444726 0.00049982267 0.0013772526 -0.0018678297 0.0036052526 0.0026838097 -0.00017012443 0.0038640462 -0.0006418289 -0.0016792235 0.00038402338 0.0035681617 -0.0031846776 0.0038219488 -0.0037445915 0.0007561226 -0.0020993408 0.002790574 0.003797788 0.0035154992 -0.000527498 -0.00043443724 -0.0010797253 -0.003181587 0.0002868331 0.003051096 0.0024901165 0.00022812138 0.0032847282 -0.00093639205 -0.002759808 0.00027829543 -0.0014293247 -0.0018845986 -0.0001490701 -0.0026094688 0.0026187643 -0.0012266906 0.003053127 -0.0038767362 0.00021500152 -0.0016056467 0.0016789206 0.0003251392 0.00086713536 0.0006063564 0.0016560905 3.4916728e-05 -0.0006080045 0.0029862954 -0.0027191788 -0.0018424733 -0.0006878039 -0.00022005232 0.0018366566 0.0025313653 -0.0017981903 0.0010532624 0.0011910258 -0.0021687092 -0.0030815376 -0.0036346512 -0.0016315378 0.0026602715 0.002168162 0.0015107422 -0.0010077311 -0.0010908538 -0.0034830302 0.00052202167 -0.003197669 0.0030133035 0.0023859483 -0.00090537715 -0.001133611 0.0037913378 0.0038259632 -0.0025927052 0.0011053247 -5.970953e-05 0.003157682 0.000118852906 -6.7807145e-05 -0.0035340406 0.0024548497 -0.0028799397
27 -0.0037449817 -0.001541733 0.00023617815 -0.00064506714 0.0035257873 0.0015129918 -0.003788716 -0.003518091 -0.00021631146 -0.0035865153 -0.0026762045 0.002996762 -0.0029980475 0.0021633916 -0.00087403576 -0.002057832 -0.0020796328 -0.0022263732 -0.0038829753 -0.0019115752 -0.003052697 0.00041045249 0.0007818754 0.00016156418 0.0026020757 0.0038188237 0.00069267704 0.0014592682 -0.0035495805 0.0027600094 0.0026831331 0.0013316399 0.0038687112 0.0031697333 -0.00023674444 -8.26212e-06 -0.0006303827 -0.0023510794 -0.0020812976 -0.0034146034 0.00019708407 0.00023545368 0.0012684795 0.0010198817 -0.0005925161 0.0002599883 0.00037971296 -0.0018821339 -0.0002059661 0.002134825 7.8020275e-05 0.0011582227 -0.0008962508 -0.0026243373 0.0033745856 0.0004738936 -0.002936501 0.0028179828 0.0036204278 -0.0019966112 0.0027896794 -0.0011293088 0.0032469966 -0.003426053 0.0025018551 0.0031466442 0.0018663546 0.00013494478 0.0025067267 -0.0034552587 0.003140298 0.00059466815 0.0036676484 0.0030048194 -0.0031904087 0.0038363193 0.0025071925 -0.0036663876 0.0022978517 0.0014503531 0.0008798434 -0.0032053138 0.0023290752 0.0003418306 -0.00046972145 -0.0021820085 0.003127602 0.00045661698 0.00010104566 -0.00022363239 0.0018790427 -0.0009260457 0.0011662861 -0.0012406274 -0.0021344721 -0.0032270418 -0.0027951247 -0.0015003792 -0.0018179541 -0.0034569453 -0.0023824663 -0.0024164114 0.0030747387 -0.0034088215 0.0009927873 -0.000656433 0.0025407465 0.0023350227 -0.0023823478 0.0038607537 -0.0014174078 -0.000330885 0.0004874939 0.0026086092 0.0035550692 -0.0015570661 -0.003399424 -5.1029845e-05 0.0033917816 -0.0030750849 0.0029007655 0.00029340855 0.0033101195 -0.00070505904 0.003391418 -0.0034919584 0.00042909806 0.0012012466
7 0.002741858 0.001753775 -0.0027564939 -0.0005822846 0.0006089493 -0.001569646 0.0023755506 -0.002284698 0.0032037892 0.00046188242 -0.0029203526 -0.0029382652 0.0023521609 0.0007960018 0.00095284625 0.00035969962 -0.0032681653 0.0011816493 0.00012831947 -0.0032547084 0.001399213 -0.00072674605 -5.0798328e-05 -0.0031252408 -0.0020770708 -7.863843e-05 0.0038014306 -0.0034762612 -0.00019623118 -0.0018632427 -0.00081518147 0.0016860104 -0.0034970664 0.001881713 0.0031297512 0.001265391 0.00086630316 0.0035029878 0.00059306785 0.0031108204 0.0015398279 0.0037367379 -0.0010193811 -0.0021215354 -0.00092173886 0.003634263 0.003361098 -0.0037238447 0.0016261919 -0.0028023135 -0.0014448165 0.0003566989 -0.002238019 0.0034877048 0.0033749004 -0.0010579687 -0.0004579154 0.0019276132 0.0010964328 0.001803326 -0.003654932 -0.0016315794 -0.0037758944 -0.0031566834 -0.0008672975 -0.0035248783 -0.00033072778 -0.0013096348 -0.0012032624 0.0015977812 0.0015380194 0.0010699118 -0.0013020177 0.0031421413 0.00025741244 -0.003227329 -0.0024814256 0.0032922518 -0.0024552625 0.0017567438 -0.0011886738 -0.0016603522 0.00010565816 0.00034867955 -0.00031241195 -0.0021991066 0.002367088 0.0032964563 -5.4378386e-05 0.0029911 0.0035627119 0.0021157668 -0.0001460834 -0.003045216 -0.0036551051 -0.0035726507 -0.0012946198 0.002801646 -0.0032659234 -0.0038061028 -0.002420902 -0.0015980843 -0.0029566633 0.0038134216 0.0013732357 -0.001799334 -0.0011701727 0.002838219 0.0012603067 -0.0003041017 -0.0005445408 0.00087825744 0.0009793253 0.00032937137 -0.0031366171 -0.0027779078 0.003239436 -0.0006450912 0.00022171199 -0.0024888825 0.0033512246 0.0011994578 -0.0030430516 0.00170571 0.0030305635 -0.0011239798 0.0034016327 0.0036151512
26 -0.0022293786 -0.0034593618 0.0013747835 0.00035994613 -0.0019702192 8.099238e-05 0.0015928773 -0.0023056662 -0.0014959548 0.0030705882 -0.0016213735 -0.0015285556 0.0032136934 0.0030823601 -0.0035939852 0.0022267867 -0.001935934 0.0031159404 -0.0019192426 -0.0038872354 0.0034554722 0.0015115896 -0.0025593233 0.002766281 0.0020282234 0.0020237037 0.00041312128 0.00063195016 -0.003317439 0.0019534687 -0.0009104968 0.0026647558 0.0020228315 -0.0038948967 -0.0031405154 0.0009770194 -0.0035666013 0.00038412432 -0.0020113727 -0.0011561154 -0.0005724582 0.0028660705 0.0018203625 -0.0023968357 -0.0004613266 0.0016098105 -0.0037202176 0.0035871514 -0.0014868288 -0.0007247797 0.0005093196 0.00022942267 0.00012467125 -0.00043656747 -2.7946598e-07 -0.00042559812 -0.0032357392 0.001197184 -0.0036049895 -0.0033627525 -0.0025943925 0.0008263679 0.00040431766 -1.2992091e-05 -0.0024759343 0.0032175984 0.0026592857 -0.00031212773 -0.0020021182 -0.0015231593 0.0019174933 -0.0023235246 0.00314845 0.002308829 -0.0034071417 -0.0012910363 -0.002118569 -0.000764304 -0.0007248988 0.00030971272 -0.0019536975 -0.001405568 0.0030177245 0.0037507964 -0.0012745225 -0.0024739709 -0.0034910135 -0.0026118758 -0.0019526756 0.00020535784 -0.0007431708 0.0029499389 -0.00025503014 -0.0032477714 0.0039014851 0.0026433745 0.0019453515 0.0035471118 0.0035744633 -6.760386e-05 0.0023206137 0.0025410126 0.0005179798 0.0013072648 0.003009474 0.0014176004 0.0018447535 0.0028002237 0.0021514688 0.0009967684 -0.0013875443 0.0031512228 -0.0009549405 -0.0017799985 0.0028556245 -3.1015337e-05 -0.0006469674 -0.0018123012 0.0034838724 -0.0028488024 0.0030993547 0.0016973278 -0.0004881672 -0.00028821608 -0.0014575422 0.0015463372 -0.0018579807 0.0023864221
18 0.0013232209 0.0009856143 -3.159406e-05 -0.0037009127 -0.00011858033 0.003379377 0.00077794434 -0.002339434 0.0013451419 -0.002528247 -0.001133462 -0.0015891378 0.0025957713 -0.00028167365 0.003240625 0.0014297819 0.0021591822 0.0018829999 0.0022229194 0.0015137098 0.0009861587 0.00044902164 -0.00049928133 -0.00083134585 -0.0016541319 -0.0011144786 0.0007213719 0.0034842133 0.0011067871 -0.00204925 0.003864344 0.00045218205 -0.001253992 0.0037567501 0.00090829475 -0.0024332663 0.0037293797 -0.00056340435 0.0023483671 0.0014060116 -0.002976862 -0.0031642907 0.00021708086 -0.0024135907 -0.0005031218 0.00361796 -0.0012157608 -0.0022385824 0.00055641006 0.0010616226 0.0030972657 -0.00125731 0.0037611276 0.002443495 -0.0037172297 -0.0019053419 -0.0027715622 -0.0018138969 0.00055300724 0.0012539368 -0.00045768477 0.0031767183 0.003833559 -0.0012086491 -0.002066086 0.001241537 -0.0015324847 0.0035675694 0.0025275087 -0.0017452589 -0.00255483 0.0036747635 -0.0031435678 0.0005016174 0.0031702819 0.00081567635 -0.0009739577 -0.0030526666 -0.0029200516 0.002348718 -0.00053833035 -0.0036747102 0.0018150753 -0.0013777086 0.0029434136 -0.0016491181 0.0009821221 -0.0006286781 -2.5542506e-05 -0.0034075517 0.0009348134 -0.0024385443 0.0036271552 0.0038636846 0.002438187 -0.002258385 -0.00353693 -0.0013507043 0.003753771 0.000104222985 -0.0020492466 -0.00065449235 -0.003190467 -0.002720584 0.0033160006 0.0017328982 -0.0034003698 0.0025954517 -0.0034993778 -0.0009985638 0.0006382265 0.0010193688 -0.003730025 -0.0006709763 -0.0010038599 -0.0002066697 -0.0011356454 -9.381779e-05 -0.0035681012 0.00038755304 -0.003598495 -0.0028131302 0.002810207 -0.0033528744 0.0020196186 0.00040528327 -0.0030024133 -0.00073763815
5 0.0013291897 0.00077477866 -0.00044618847 0.0020120123 0.0030121685 -0.0012001195 0.0037536798 0.001035501 0.0032207724 0.0018461049 0.0021519568 -0.0018166654 -0.0011988248 0.0011415093 0.0016125153 -0.0029258274 0.0028971322 -0.0011187078 -0.0006829418 0.0013107468 0.003377935 0.0032390598 -0.00019080304 -0.00026504401 -0.0012427033 0.00382773 0.002259135 0.0017056608 -0.0016746771 0.0022038084 0.0033907276 0.0012585397 0.0020207735 -0.002204434 -0.002517488 0.0020859658 -0.002497004 -0.0021716356 0.00024791659 -0.0007561171 -0.002534054 0.001886619 0.0009455196 0.00031104076 -0.0014292168 -0.00041909757 0.003213889 -0.001421489 -0.0036777959 -0.0020487492 -0.0023716646 -0.0018204121 -0.0013276881 0.00088565476 -0.00041700658 -0.0018935157 0.0010505781 -0.00096875714 -0.0027807588 0.0003599238 0.0014857545 0.002573733 -0.00387338 5.0716128e-05 0.002175691 0.0030952482 -0.000269216 -0.0004152432 0.0010934687 0.0032666463 0.0033210902 -0.001277284 0.0015802421 2.3751352e-05 0.00013563821 0.0032452284 -0.002421109 -0.0036677665 -0.0014126407 0.0009473667 0.0021631494 -0.0013044851 -0.0016424888 0.0004824285 0.0032011347 -0.0034825508 -0.0033442709 -0.0033830751 -0.003295773 -0.0038939943 -0.003002969 0.00049673463 0.0015321794 6.115411e-05 0.0008765589 0.0022179456 -0.0018893889 -9.063594e-05 -0.0031397576 0.0015223116 0.0026993982 0.00024331015 -0.0027343053 0.0016852038 -1.597246e-05 -0.0019323032 -0.000793495 0.0029075074 0.0026205424 0.0038795029 0.0023436027 -0.0017220618 0.0033138003 0.0015187812 -0.0031204838 0.002442334 0.0008922619 -0.0007252003 -0.0007966646 0.0017175068 0.0035461788 -0.0006072698 -0.002999324 0.00055890507 0.0022638787 0.0024035962 -0.0031696 -0.0036559734
6 -0.0017699681 0.0020638455 -0.0032796762 0.0010602829 0.0022242363 -0.0007201874 -0.001419411 0.0019824463 0.0037065546 -0.0022828479 -0.002396937 0.0005714418 0.0015842798 0.0028441395 0.0015825295 0.002842371 -0.0028347343 -0.0024806533 0.00062846614 -0.0011820962 -0.0020844785 -0.0011318574 -0.00196542 0.0032530122 0.000633772 -0.0030555816 -0.0031431983 -0.0019197225 -0.001068089 -0.00070627313 0.00084300555 0.0003191919 -0.0012073404 0.003605285 -0.0016421373 -0.0016310652 -0.0017119824 0.0012864401 0.00054693705 0.00066362845 -0.0023858342 0.001187344 0.0019332084 -0.0027540429 -0.0007471767 -0.003269768 -0.0012701013 0.0015664187 0.0009735481 -0.0011871962 0.0015176401 -0.0017764713 -0.0025952153 -0.0020703503 -0.0029774557 -0.0009799324 -0.001060922 -0.0010371398 -0.001399131 0.0012052993 0.003794786 -0.0009021031 0.0008966355 0.0029597646 0.002928678 0.0008901445 -0.0025683297 0.0022245676 0.0011272944 -0.00047255025 0.002646722 -0.003122075 -0.00050165906 0.00023405105 0.00018715125 0.003205009 0.0029858234 -0.002862839 -0.00092479755 -0.001978226 0.0038035274 -0.0031596648 0.00035964994 0.0029207515 -0.0031848906 -0.0029079884 0.0018137327 -0.0006670836 0.00064991147 0.0028684768 0.00063221547 0.0021620656 0.0026399249 0.0035003084 -1.1772217e-05 0.0019148828 0.0021339902 -0.0022790015 0.0018320206 -0.0023812156 0.0033155119 0.0023710518 -0.0011444759 -0.0021734268 0.0010716126 0.0024926444 0.0035413154 -0.00205189 0.0013515131 -0.0023963114 0.001356964 0.0011219347 0.003010821 0.00011237992 -0.0034617377 -0.001974957 -0.000439331 -0.0031702751 0.001679021 -0.0023026215 0.0021759456 0.0036948328 0.0031788498 0.0037539902 -1.6446653e-05 -0.001787408 0.0024519379 -0.0009527024
1 0.00065264053 0.0028201852 -0.0032710754 0.0024489223 -0.0024083434 0.0037648336 0.0028839435 -0.0033594612 0.0014153974 -0.0011164629 -0.0009741184 -0.0027852221 -0.00013341288 0.0022089127 -0.0022697984 -0.0017458879 -0.0021122256 0.0029421956 0.0019887076 0.0017535794 -0.00013222649 -0.0010883857 -0.0024794892 0.00080468686 -0.0020157797 -0.0015523556 0.0007036398 9.673671e-05 0.000662468 0.0017357515 -0.001706702 -0.0034735696 -0.0019017592 -0.0010466018 -0.0026399952 -0.001509444 -0.0004460557 0.0018272632 0.00088395074 -0.0024286408 -0.0009871735 0.0032714573 0.0037104576 0.0034883462 -0.0026864298 0.00044496547 -0.00080099487 -0.0011923297 -0.0032771553 -0.00077853346 0.0007041082 0.003754661 0.0013442872 0.0009786171 -0.0003663482 0.0012602244 0.0010529635 -0.0016751833 -0.0014712376 0.0007685708 -0.0023285493 0.0026117049 0.0025056473 -0.0007933804 -0.0036605159 0.0019275018 0.0020746917 -0.0013768413 -0.00069119944 -0.001803325 0.003346554 -0.00072382577 0.0020213667 -0.0009528287 -0.002747927 0.0007990464 -0.0016760383 0.0011823062 -0.00022427051 0.002673738 0.003554807 -0.0018836809 -0.001815174 -0.0008400001 -0.0031477953 -0.00031346397 0.0011277469 -0.0027536028 0.002251267 -0.00079627085 -0.001589234 -0.0003487177 -0.0025464038 0.0016802253 0.0026238498 -0.0016801286 0.003723051 0.002672644 0.001881623 0.0037682967 0.0007826507 -0.0038633388 -0.0007501088 0.000174448 0.0026318973 0.002488026 0.0024416663 -0.0012166083 -0.00086574623 -0.0022687241 -0.0007340133 -0.0033547904 -0.0029384652 -5.179149e-05 -0.0031265712 -0.0026553357 -0.003214195 0.0027387426 -0.00081471854 -0.0011408601 -8.452231e-05 -0.0030734236 -0.003800455 -0.00015716578 0.0032708822 0.00017081662 -0.00016194838 -0.0033816826
29 -0.00054276857 -0.001048167 0.00028888806 0.0008386603 -0.002793468 0.00057386456 -0.0017821837 -0.0030111815 -0.002887349 0.00034688352 0.0036010384 -0.0026534135 0.0036147658 0.0031813958 0.0032602977 0.00090722606 -0.0012727722 -0.0029332812 -0.0017792004 0.0039032113 -0.0017768237 0.0033274041 -0.0013064679 -0.00038523856 0.0007300663 -0.0025141533 0.0023162204 -0.0024944504 -0.00010125441 0.0019581674 0.0012969679 0.0016951474 -8.177012e-05 -0.0028838727 -0.002592114 -0.0020382828 0.0034181965 0.00022996773 -0.0009279841 -0.0007467113 0.002604931 -0.0030132295 0.0011472024 0.0009918272 -0.0025837221 -0.0029373958 -0.00316499 0.0037413563 0.003801236 -0.0016651609 0.0020899195 -0.00257554 0.0013120059 0.003468059 0.002566747 0.002542946 -0.0013426165 -0.0020161483 -0.0005079493 0.0005559492 0.0022700308 0.0023519068 -0.0013556649 0.0038940168 0.0023742225 -0.00055988925 -0.0011723852 0.0037503978 -0.00026506934 0.0024451618 0.002991104 0.0030870496 -0.0005622917 0.0036465926 -0.003407499 0.001980379 -0.00046275122 0.0007024301 0.0022300072 0.003414571 -0.0013373677 -0.0014186174 0.003813875 0.00035500914 0.003036422 -0.00107751 -0.0008525063 -0.0022390888 -0.0004165908 0.00086714333 -0.0010617985 -0.002330447 -0.0005049384 -0.002148174 0.0032247847 0.0032692563 0.0018061514 0.0028752636 0.0005679166 0.0022703027 0.0033824807 -0.0025593254 -0.0016929068 -0.001504846 0.0034090115 0.00261467 -0.00046766267 0.0021784145 -0.0036138287 -0.0021765742 -0.0031996812 0.002269622 0.0009880858 0.0031284674 -0.0010514879 -0.0012314207 0.0019411807 -0.0036311483 -0.0009593887 -0.00040669102 -0.0028886395 -0.00070858054 -0.0028400572 -0.0017174401 -0.003718298 -0.0016977441 0.00013571091 0.0012785831
19 -0.0012229001 0.001680997 -0.00084319204 -0.0021038288 0.0035459867 -0.0024589119 -0.0020750475 0.0015752236 0.0027625272 -0.0037986124 0.0008002966 -0.0015487527 0.0030801455 0.0016009866 -0.002788012 -0.0015463631 -0.0005183393 -0.003806831 0.0014672582 0.0024128803 -0.00075694604 0.001463993 0.0032187402 0.0037367109 -0.002530475 -0.00295361 0.0013360275 -0.0016558451 -0.003073883 0.0037395346 0.0001347234 -0.0026019826 0.0023257192 -0.00040434216 0.0009217141 -0.0037195925 0.0012020622 0.0003979597 -0.0020860047 0.00012529294 -0.0021159893 -0.00245359 0.0022275297 -0.0017771826 0.0007250367 0.0014084316 -0.0029911534 -0.00044353568 0.0037616615 0.0034249895 0.0031540783 -0.0016956902 0.0036456538 -0.0008223427 -0.0020700109 -0.0030301407 -0.0025978715 -0.0015139616 -0.0032556304 -0.0010334724 -0.00030985818 -0.00064951926 -0.0027875514 -0.0021834858 0.0005692338 0.001500269 0.00071944227 -0.0029868863 -0.00087627297 -0.00068986067 -0.0014921414 0.0004766352 -0.0012209057 -0.0014963342 0.00026782052 -0.0009730631 0.0015339482 -0.0034606357 -0.0023417284 -0.0032356367 -0.0006247277 -0.0007083069 -0.0018116318 0.0018273757 -0.000702796 -0.0012383254 0.0005457567 0.0030293702 -0.00051697745 0.00060235057 -0.0024761863 0.0016511827 -0.00301064 -0.0013675931 -0.0012192824 -0.0010694347 0.0015094822 0.0015361779 -0.0029773694 -0.0028186291 -0.0002849709 -0.001968633 0.0025234162 -0.003189898 -0.0033631371 -0.0009990989 -0.0018192938 -0.0036128203 -0.00096910476 0.003418729 -0.0013361435 0.00081035454 0.0022783054 -0.0017326765 0.00102997 0.0031383284 -0.0002352936 -0.0020448945 -0.00030799862 0.0019866908 -0.0012834236 0.0025609913 -0.0027779387 0.003797487 0.0024462917 0.002247903 -0.00047189472 0.0014752756
33 -0.00064884487 -0.0037407218 -0.0037699004 -0.0024417795 0.003619672 0.0020218652 -0.0016488115 0.00321022 -0.0026389854 0.0006122621 -0.0021856443 0.0017964267 0.0022874475 0.0016113522 0.0022639795 0.0025224355 0.0029410159 0.0038065491 0.003421167 -0.0018510713 0.0014052058 0.0034624531 -0.0015820696 0.0011366598 -0.0037815077 -0.0011695083 0.00079070276 0.0029655558 0.0024002444 0.0028242343 0.002366808 -0.001863485 0.0008322231 -0.001971076 0.0037729167 0.00046586443 -0.00016249086 -0.003174058 -0.0033480462 0.00020346128 -0.00077774626 -0.0004213272 0.0026429375 0.001285584 -0.002652505 -0.00032747994 0.0021399348 0.0035335417 -0.0020197676 0.0001399567 0.0017448592 -0.0027229912 -0.0029147514 0.00069893256 -0.0019088369 -0.003588831 -1.005202e-05 -0.0006554076 0.00084512297 0.0019779848 -0.0024701743 -0.0010325501 0.0006700846 0.0023984641 0.0036077697 0.0026342603 -0.0036242262 -0.0026058417 0.0026991006 -0.0007864542 0.0011447546 -0.0010137708 -0.0010735475 0.0015378318 -0.0037618822 -0.0010825534 -0.0024035196 0.0035258164 -0.0026060187 -0.0036258686 0.00077484787 0.001594139 -0.003501709 -0.0017509427 -0.0018488782 0.0026695807 -0.0032299059 0.00082377566 0.0023074537 -0.0018780755 0.0014348488 -0.0012535101 -0.0036748168 -0.00050813233 -0.0010669455 -0.0022139978 0.0028242795 -0.0010930143 0.0011167476 -6.037034e-05 -0.003893873 -0.0003457767 0.0005354428 -0.0013853775 -0.003710441 -0.0031559954 -0.002916985 0.0019888293 -0.0010904064 -3.2535467e-05 -0.002795801 -0.0026948105 -0.0025834944 0.003264977 0.0028032067 -0.0017192176 0.00055882573 0.0006307633 0.0038810025 7.110182e-05 0.0018411502 -0.0028960996 -0.00263088 -0.00110613 -0.0023470598 -9.37042e-05 0.00036631274 -0.0016484263
31 0.00030855826 0.00034649824 -0.0020717485 -0.0026779028 0.0009789733 0.0021852697 0.0034971302 -0.0037502989 0.0011303363 -0.0008178453 -0.001804088 -0.0017829944 0.0018149405 0.0007875278 -0.0016694526 -0.002671205 -0.0029136052 -0.0009278613 0.0033544688 -0.0016435146 0.0026282475 0.0034673742 0.0024958474 0.0008730128 0.0030952618 0.0025953304 -0.001859014 -0.00015092446 0.000112965055 0.0019772977 -6.282325e-05 0.0016828299 -0.00058811565 -0.0030635225 0.003669968 -0.000643388 0.0022791366 -0.0020712411 0.0021409239 -0.0036631995 -0.0027356881 0.000109421955 -0.000331723 -0.0032080545 -0.0022460208 -0.0028750352 0.0006797643 0.0014902443 0.0009141562 -0.0028842422 -0.0031409473 0.00055562804 -0.00093272503 -0.0014656434 0.0008044661 0.0010204893 0.0011501765 0.003403943 -0.0014300061 0.0010161182 -0.0013396551 -0.0036337087 0.0029195517 -0.0015094916 -0.0027684874 0.00014716874 -0.0038389226 0.0038198682 0.00024629894 0.0030269944 0.0031444875 0.0034205767 -0.003830668 -0.0017331348 0.0007114957 0.000110640976 -0.00018444716 0.0009102592 0.0011462405 -0.002242419 -0.0026849294 0.0030729803 -0.0027908073 0.0023465708 -0.0037725063 0.0004028094 -0.0014708029 -0.0025160206 0.0035938988 -0.0036975304 -0.0037761824 -0.0033867718 0.0026012405 -0.0030775645 -0.0021491267 0.0034402672 0.0015629202 0.0014458962 0.001499333 0.0016347548 0.0021674095 0.0032056302 0.0021183835 -0.0025678715 -0.0031192082 -0.001636209 0.00070618687 -1.3504142e-05 0.0032545016 -0.0031090104 -0.0007748414 -0.0019331233 0.0004459916 0.00015505821 0.003766181 0.0009644948 -0.0016798915 -0.0007561825 0.0028228755 0.002954476 0.0021002593 -0.0011500358 0.00048084452 0.0036280486 0.003150833 -0.00075370446 0.0024350272 0.0012553632
17 0.0014731678 -0.0009003261 0.0009847626 -0.003503013 -0.003267408 -0.0038049277 0.00033201653 0.0028799481 -0.0023914233 -0.0029537324 0.0014497738 0.0008440266 0.0028560893 -0.0038183038 0.0023196973 0.0013280872 0.00064348703 -0.0021991935 0.003597611 0.0027714882 0.0030713377 0.001095763 -0.0005995638 -0.0038278594 0.0015207747 0.0002610218 0.002619505 -0.0005848652 -0.0016980014 0.0022815599 0.0018795662 0.0037025493 0.0013587591 0.0022083984 -0.002945298 0.00041304925 -0.003189018 0.00085435173 0.0015313309 -0.0013991848 -0.0025775766 -0.0025025574 0.0038204216 0.00082288985 0.0035361475 0.0035298045 0.0022802155 -0.0036219351 0.0030809124 6.357749e-05 0.0003183848 0.0008974954 -0.0036018728 0.00066469883 0.0013427428 0.0024666267 -0.0008632969 -0.0028679539 0.00025075913 -0.0017609386 0.003344259 -0.0030947332 -0.0028202008 -0.0015799216 0.00062646915 -0.0005880298 0.002238008 3.701752e-05 -0.00039739258 0.0006849512 0.003341347 0.002066028 -0.0033767293 -0.0017222721 -0.003288084 0.0023619442 -0.0038993254 -0.0018190478 0.0037380308 -0.0016643024 -0.0020079452 -0.0016164805 0.0026660666 -0.0025820914 0.0028178473 0.0038250724 -8.901068e-05 -0.0018305277 -0.003750079 0.0037488018 -0.001825019 -0.003296408 0.002199542 0.0026391991 0.0018695152 0.0008744016 -0.0028673972 0.003085607 0.0011264152 -0.0017351924 0.0033618032 -0.0007301405 -0.0020119112 -0.0016189293 0.00074291247 0.00047417308 -0.0038963093 0.00044754008 -0.002569422 0.003695959 -0.0018777801 0.0021465297 0.001534641 -0.0014554334 -0.00015405324 -0.0025989173 0.0001977889 0.0019038739 0.0018904278 -0.00036117708 0.00079650304 0.0012653394 0.0030650084 -0.0022039798 0.0018012329 -0.0032147751 0.0015698262 0.0008447402
11 0.00068283634 0.0032071632 -0.0029085611 -0.001786468 0.0027795439 -0.00076665735 -0.0030687607 -0.0024747709 -0.0037331688 -0.0029828898 -0.0031821309 -0.0001215221 -0.0011258043 -0.0014988452 0.0027517828 0.0009149641 -0.0014463608 0.0037709614 -0.0020178696 -0.0018231064 -0.0031041722 0.00059401465 0.0034263171 -0.0017009766 0.00011269076 -0.002484625 0.0020840073 0.0024294157 0.0010644282 -0.0014948433 0.0017879289 -0.003631082 -0.0013987749 -0.0032599645 -0.0012608544 0.00043223324 0.00012777341 -0.0017670908 -0.00010654234 0.0029361958 -0.0015047605 -0.0023594382 0.0021085376 0.0028459677 0.0017885515 0.0027238901 0.0024149038 -0.0017282906 -0.0014165107 -0.0026291625 -0.0005862696 0.002397057 -0.0015328083 -0.001978197 0.0031744207 0.0014498227 -0.0014945004 0.0030751561 0.0034238305 0.0003890814 0.00081115786 -0.0023368143 0.00044617007 -0.00068969047 0.0002419086 0.0029587771 0.0016156766 0.0010370929 0.0012099736 0.0027805977 0.0034915565 0.00092028565 -0.0030217087 -1.553975e-05 -0.0013306385 0.0025797747 0.0015094299 -0.0027140083 0.0011448839 0.0006897789 0.003900947 -0.0014849032 -0.00052846374 0.00037419266 -0.0005253261 0.00086902187 0.0005294369 0.0016285947 -0.0016517035 0.0038738286 -0.00301151 0.0011231389 -0.0013357982 -2.8893337e-05 -0.0024188396 0.0038517276 -0.0006655575 -0.0013051411 0.0012627243 -0.0018310616 0.0033580773 -0.0026596333 -0.0033478402 0.0022294351 0.0012723823 -0.0014613997 -0.0020129206 -0.00019114769 0.0018251188 0.00094484567 -0.0026099987 -0.0030727414 0.0020013642 -0.0020549954 0.0004256604 -0.00064209575 0.0036024393 -0.0017989322 0.00012987827 -0.00085487793 -0.0005969283 -0.0008324251 -0.0028969515 -0.0019731089 -0.0035406586 0.0025408885 -0.0034101533 -0.0006666766
8 -0.0015034118 0.0012839666 0.000857089 0.0016185713 -0.0016566328 0.0014611477 -0.00052604004 -0.0015278524 0.0028929906 0.0005471136 -0.0011594383 0.00076094025 -0.00044293728 0.0010853056 0.00044909192 -0.00050733227 -0.0033271036 -0.003248685 -0.00030368462 0.003249748 0.0028383166 0.002669812 0.00041434082 -0.0014191605 -0.0023534435 -0.0030124667 -0.0009372992 -0.0001983064 -0.0018444954 -0.00229105 0.0022653353 8.511661e-05 0.0029993255 -0.0018125551 -0.0010837185 -0.0019277199 -0.0025785328 -0.003210048 -0.0023168868 0.0009736019 0.003905299 0.0017303788 0.0023528181 -4.8194383e-05 -0.003316219 -0.0028834348 0.0005024157 -0.0037445447 -0.0020152538 -0.0015370053 0.00382661 -0.0012471013 -0.00026576073 -0.0038563663 0.003230443 0.0023794079 -0.003096285 0.0022741465 0.0014832501 -0.0016492086 0.0030715172 0.0023653228 -0.0009621644 0.0021171256 -0.0017754798 -0.003493835 -0.0036837326 0.0020180854 0.0015536913 0.0017755115 0.002494334 0.0008096517 -0.0016565829 -0.0021370512 0.002820808 -0.0016045228 -0.003805603 0.0015641906 0.0031680781 -0.0022023374 0.0032325005 -0.0020264464 0.0012976326 -0.00299192 0.00052525644 -0.0021699774 0.0020715056 0.00016508014 -0.0025964754 -0.0029298028 -0.0010422694 0.0028806732 0.0016634888 -0.0015428126 -0.001067772 -0.0031456773 -0.0035581328 0.0018071152 -0.0005046712 0.0003277365 0.0009933712 0.0019850368 -5.0964332e-05 0.0014645453 -0.0028746708 0.0038065708 0.0024967552 0.0020333554 -0.0031644711 -0.003018605 0.00012908639 0.00030111946 -0.002721942 -0.0036599135 0.0019181984 -0.0010323358 -0.000116198455 -0.0026359248 0.0010282804 0.0009734515 -0.00012213895 -0.00095188164 0.00021484439 -0.0037170118 0.0030844158 -0.00046217183 -0.0026238272 -0.0027821122
9 -0.0027908809 -0.0034638024 -0.0018741582 0.002667769 0.002102828 0.0019092534 -0.0009728338 -0.00069200346 -0.00019669645 -0.00065384526 -0.003303387 0.0007842795 0.001762658 -0.0027254736 0.0034392835 -0.0025805193 0.0016448874 0.0032642893 -0.00096407253 -0.00031693853 0.0034492477 0.0015538534 -0.0034201182 -0.0032307254 0.0005052027 -0.00069199444 -0.0032525612 -0.0024416526 -0.002713532 0.001574342 0.0003551164 -0.0033206702 -0.0019383717 0.0028080877 -0.0024066127 -0.0024565326 0.0008858735 -0.00064141164 0.0019713878 -0.0030132816 -0.0015458385 -0.0007211058 0.0024241977 -0.0034422409 0.0014024547 0.00035643476 -0.0036234683 0.0026443403 -0.00010351501 -0.0033014524 -0.0031410055 -0.0023905246 -0.002718701 0.00032799365 0.003570923 -0.00086939614 -0.0017204557 -0.0024739713 0.0017319472 0.0036770708 0.00048583047 -0.0004076174 0.0010401238 -0.00084513385 -0.0004068525 0.0014148718 6.0399074e-05 0.0026545245 -0.00010400102 0.003005456 0.001555606 0.0031345526 -0.0008424652 -0.0014163787 -0.0033836944 0.0011884394 0.00191707 0.003886939 -0.0037378331 0.0036582586 0.00067299505 -0.0021721285 0.0033681714 -0.0037480704 -0.0038958401 0.0019581174 0.0019850312 -0.00112936 0.000986972 0.0020308837 -0.0027538855 0.0029184364 0.0020964346 -0.0025692675 0.0006478906 0.0006429604 -0.00054927374 -0.0018312286 0.0013462678 0.002590826 0.0011431888 0.0011210524 -0.00043067726 0.0034945915 0.0034364988 0.0026085207 -0.0010447203 -0.0019569304 0.0038695082 -0.003788171 -0.0034637423 -0.0026309758 0.00041198457 0.0027892685 -0.0013616749 0.0024377843 -0.0021247503 0.0009405615 -0.0019665807 -0.0015768828 -0.0031848068 0.0015897035 -0.00038394748 -0.0005712711 0.00050358055 0.00028741837 0.0016754566 0.0033405728
4 0.002777845 -0.0010623062 0.0012386176 0.0018053411 0.0036356384 0.0031738884 0.0037762935 0.0013938602 0.002123276 0.0026861602 0.0015713788 -0.00053643837 0.003238684 0.0016292838 -0.00051924185 -0.0016696445 -0.0023749913 0.0005233613 -0.0035397043 -5.127006e-06 -0.0030263644 -0.002026068 0.001456633 -0.0034310727 0.0038188975 -0.000106865096 -0.0020646648 -0.0023000266 0.0009716052 -0.0029078724 0.0026303332 0.0015614443 0.0020018935 0.0028662595 -0.0038317174 0.0023173776 0.0009339352 0.0026753617 0.0014682441 -0.0027134297 0.0010624549 0.0008876858 -0.0030312596 0.0027052728 0.0013541369 -0.000389551 -0.00047278698 -0.0035796708 0.0012857586 0.0010375914 0.0014888418 0.0029473759 -0.0031112104 -0.0010137666 -0.0030294359 0.00029861458 -0.002344359 0.00044622607 0.0017407731 0.00011852309 0.0018307131 -0.0029998403 -0.002915167 0.00085289736 0.0030148006 0.00020350191 -0.0034814812 0.0017094791 -0.0035862264 -0.0012140858 -0.00073603383 -0.0037359353 0.0009894125 -0.00035725036 -0.0032423704 0.00093360496 0.00020887273 -0.0012811206 0.0032295252 0.00375953 0.0013318043 -0.00092589424 0.0031786342 0.0005293307 -0.0020094628 0.00045217076 -0.00382131 0.003397433 0.0027543649 0.00088155625 -0.0023189832 -0.002851165 0.0027872485 0.0003509505 -0.002254891 0.0034758688 -0.0035861619 -0.0010491514 -0.00033124967 0.0027305512 -0.0005078044 0.0030307255 -0.00045901575 0.00070154446 0.0002747557 -0.0011490732 0.003103258 0.0026709717 -0.0016590904 0.0011516141 -0.0017034475 -0.00045748096 0.003607024 0.0034006445 0.0005438282 0.00017183377 0.0003621845 -0.0020689792 -0.00066124584 -0.0034606988 -0.003369226 -0.0005451396 0.0014363542 -0.0021049278 0.0026811885 0.003690412 0.0021485535 -0.0028608437
24 -0.0017383883 -0.00049315405 0.0029936493 -0.0004625926 -0.0026340995 -0.00155605 0.0018281394 -0.00052133197 0.0038345617 -0.002847351 -0.0020954043 0.00020935478 -0.00095226377 -0.0018264367 0.0035187458 0.002224238 0.0027264713 0.0038007072 -0.0009546699 0.0018298287 -0.00064119376 0.0015038408 0.0032024372 -0.0007598626 -0.0011067415 0.0025417474 -0.0021503952 0.0027176947 0.0038976716 -0.0018659807 -0.00024941395 0.0014370547 -0.0025187442 0.0035264064 -0.0016964693 0.0034768765 0.00024219562 0.0015737226 0.0008868672 0.0035128815 0.002776568 -0.00046953466 -0.0027096095 -0.00075191236 -0.0024992356 -0.0012730669 0.00089092785 -0.0033185899 0.000761724 0.0027384963 0.0030001255 -0.00029416027 0.002149507 -0.0029168031 0.0027868438 0.0014020103 -0.0024632453 -0.0029219224 -0.00042129582 -0.0033687789 -0.0014850087 -0.0024323938 -0.0026368594 -0.0024417453 0.0011824911 -0.003097324 -0.00079942826 0.00012557604 -0.0027236799 -0.00040854703 -0.0029034591 0.0031916178 -0.000994441 -0.0011982808 -0.0015473405 -0.0016611197 -0.0011474317 -0.0033354457 -0.0035766212 0.0018015992 0.002613328 -0.0001825091 0.0033287602 -0.0015838091 0.0012578969 -0.002603479 0.0011283183 0.00088751514 0.001166677 -0.0015839483 -0.0007955154 -0.0022171235 0.001584732 0.0022985751 -0.0020924993 -0.0025580048 -0.002201986 0.0018660709 -0.003165159 -0.0031870843 -0.0014554473 -0.00043135486 -0.0024011016 -0.0014982233 -0.0012983097 -0.0030909223 -0.003548379 0.0011489264 -0.0034093014 0.0017969115 0.0035647901 -0.001932311 -0.00025657192 -0.0020590234 -0.003188033 -0.0016057552 -0.0012354602 -0.00287458 -0.0032764575 0.0032470978 -0.0027217164 -0.00030082828 0.0027565267 -0.003021316 -0.003820682 -0.0010532282 -0.0023119946 -0.0034283965
10 -0.0031842594 -0.0022652762 -0.0038900785 -0.0013754376 0.0028143523 -0.0022958524 0.0032865256 -0.0010583577 -0.0026680245 -0.0026766704 -0.0031430945 0.003853414 0.002399954 0.0001231745 -0.0020185946 -0.0038118265 0.0014468093 0.00022479965 -0.0028546946 0.0024663366 -0.0038331796 0.00037243808 -0.0007402755 -0.002643714 -0.0027783217 -0.0031470577 0.0026229825 0.00062191323 9.663076e-05 -0.0008590185 0.001983358 0.0023588138 0.001717186 0.000214039 -0.002005508 -0.0029931809 -0.0025641636 0.003809666 0.00073132594 0.00013565582 0.0009075272 0.0021782932 0.0007702644 -0.0036539906 -0.0013428469 -0.0035991604 0.002496804 0.0034075258 9.8080245e-06 0.0023045728 0.00239488 -0.001678648 -0.0032376435 0.0033489885 0.0031674774 0.0027713643 0.0018669993 0.00022586246 -0.0015963392 0.0034520673 -0.00015764809 0.00034849142 -0.0008300683 0.0028796704 -0.0036524257 -0.0029839063 0.0034935721 0.0015316753 0.0012752747 -0.0015353485 0.00029264504 0.0022183273 -0.00032295744 0.0008332841 0.0016657477 -0.0021551934 0.0036192872 0.0017203572 7.551974e-05 -0.0008560626 -0.002554928 -0.0032719625 -0.0005790229 -0.0019517695 0.00032070797 0.00057535555 -0.0005648011 -0.0024744396 -0.0016816466 0.0019093041 0.0035079378 0.0017234299 0.0037278745 0.00051111693 -0.0027642243 0.00065596355 0.0026065796 -0.00088329293 0.0029947679 -0.0013162869 -0.0013819564 -0.0011043976 0.001754539 0.0017044628 0.0011859915 0.0012523223 -0.002078162 0.0019561057 -0.001883103 0.00162787 0.0021766946 0.0032233736 0.00046843215 -0.0015494799 -0.0031301528 -0.002795323 -0.0038589023 0.0019830654 -0.0023258799 -0.0028289428 -0.0010000623 0.0028585212 -0.0031638637 0.00336546 0.0025574544 0.0020533055 -0.0027553465 -6.263154e-05
12 0.00052557245 9.708792e-06 -0.0017929377 0.0022037649 -0.00017161573 0.0033730026 -0.00022277309 0.00013136545 0.00064025127 -0.00035138044 0.0038283388 -0.0017083746 -0.00030179461 -0.0014848307 0.0026286833 -0.00024919113 -0.0006465559 0.0031407003 -0.0019546698 -0.0022712832 -0.0009653685 -0.002742446 -0.00025048043 -0.00250978 0.00031090947 -0.0020842003 0.0029855904 0.0034044445 0.0028016106 -0.001980472 0.0005105835 -0.0033658599 -0.002745222 0.003049319 -0.001039699 0.0031790843 0.002393679 -0.0030155622 -0.0012292021 0.0006749687 0.0037858856 0.0026032408 -0.00047312188 0.0035576925 -0.0019203352 0.003273604 -0.0036673183 -0.0028777977 -0.0019446311 -0.0002542018 0.0026256365 -0.003117011 -0.0016502509 0.0011292078 -0.0037795717 -0.00038177794 0.001557591 0.002788588 0.003207823 0.0011263401 0.0011871326 -0.0027866717 -0.0016790014 0.0025184248 -0.00011552671 -0.0025555254 -0.00015045355 0.0015791984 0.0032141267 -0.0023601528 -0.00031448845 -0.0011361889 0.003575448 0.0015661229 -0.0016964423 -0.001070057 0.0011452294 -0.0016462767 -0.0009318738 0.00094131316 -0.0024477446 -0.0008991338 -0.0005208742 0.0007036181 0.0015880001 0.0028270953 -0.0026805033 -0.00085967215 -0.0021598951 0.0025284842 0.00013047377 -0.002317743 -0.0008144623 0.0035791423 0.0013711477 -0.0029357057 -0.0019395795 -0.0038601458 -0.0030350229 0.0034178838 0.0013027732 0.0013290426 -0.0022862575 0.00091709866 -0.0012773242 -0.0022939239 -0.0007333366 -0.0015656302 -0.0011923979 -0.00046083773 0.0035405308 -0.0012626918 -0.0010116316 -0.0024384877 -8.303251e-05 0.002059279 -0.0014822852 -0.0002208506 0.0028481078 0.0037611325 0.0030469676 0.0012313131 -0.00017560505 -0.0038012487 -0.0014407152 0.0036406084 0.0020346232 -7.101029e-05
30 0.00023358226 0.0038283244 0.0003271366 -0.0020352232 0.002666318 0.002865774 -0.0020492391 -0.0023124435 -0.00038875476 -0.0019140377 -0.0026645223 0.0015729214 0.0004516856 0.0038578396 0.0014167759 -0.0030148483 -0.0006467566 0.0017767202 -0.0018717682 -0.0034693733 0.0020956364 0.0019862722 0.0028387231 0.001111967 -0.00085727684 -0.00076262635 -0.00013239039 -0.000391816 -0.00049354875 -0.0036846695 0.0021560246 0.0009682653 0.0033225573 0.0014079943 -0.002642388 0.0011395013 -0.0006176397 0.0032391832 -0.000649437 -0.00033000633 0.0022308866 -0.003454643 -0.0006529006 0.0012813922 -0.0027310217 -0.00030635874 0.000705674 -0.0009381411 0.0025043716 -0.0033225925 -0.0011241138 5.6371508e-05 -0.0026094043 -0.0030129554 0.0026709083 -0.0037846863 0.0012156345 0.0013904917 0.0011644764 0.0019590415 0.0010484236 0.0036791891 0.002673581 0.000457149 0.0028216215 0.0027589153 -0.0035604255 0.0038432265 0.0020409385 -0.0028544536 0.003065227 -0.0012076251 0.0034083105 -0.0014798433 -0.002095515 -0.0017332634 0.0026197014 -0.0037030326 -0.0012177809 0.00042162152 -0.0038466528 -0.003482622 -0.002253203 0.0021950083 -0.0033164008 0.0013663212 0.0038354946 0.0024427946 0.00011121471 -0.0005165875 -0.0025512213 0.0023075477 -0.0025824055 -0.0032359248 -0.0012736794 0.00066130253 -0.00044155525 0.0034162889 0.00294581 -3.2850756e-05 -0.0027298124 -0.002111583 -0.00085272023 -0.00017613673 0.00097055594 -0.0012390338 0.0033921862 0.0037239366 0.0003850424 -0.0018611229 -0.0011658453 -0.0039057217 0.0015488655 -0.003250288 -0.0016018088 0.0002936759 -0.0036051644 -0.00113548 0.002966645 0.0010371351 -0.00024141265 0.002701779 0.0017474425 -0.0020616371 -0.0033131978 -0.00041724462 -0.00091828534 0.0037881508
